################################################################################
# Neural network connection values (weights and biases).
################################################################################
# Col  Name       Description
################################################################################
# 1    connection Neural network connection value.
# 2    t          Connection type (a = weight, b = bias).
# 3    index      Index enumerating weights.
# 4    l_s        Starting point layer (end point layer for biases).
# 5    n_s        Starting point neuron in starting layer (end point neuron for biases).
# 6    l_e        End point layer.
# 7    n_e        End point neuron in end layer.
################################################################################
#                      1 2         3     4     5     6     7
#             connection t     index   l_s   n_s   l_e   n_e
############################################################
  2.8703920318124368E-02 a         1     0     1     1     1
  2.5252130442675763E-01 a         2     0     1     1     2
  2.8504459661335659E-02 a         3     0     1     1     3
  9.9375962625304945E-02 a         4     0     1     1     4
 -6.1989155837818821E-01 a         5     0     1     1     5
 -4.3931825240838118E-01 a         6     0     1     1     6
 -4.9675844893555399E-01 a         7     0     1     1     7
  6.5730069059505858E-01 a         8     0     1     1     8
 -2.9827567769254659E-01 a         9     0     1     1     9
  5.6704909649759916E-01 a        10     0     1     1    10
  6.3016667089717746E-02 a        11     0     1     1    11
 -4.9667746068829788E-01 a        12     0     1     1    12
  1.4059135495707475E-01 a        13     0     1     1    13
  5.8403985371246647E-01 a        14     0     1     1    14
 -1.3891420201769494E-01 a        15     0     1     1    15
  1.4644123100380901E-01 a        16     0     1     1    16
  6.4911468997462307E-01 a        17     0     1     1    17
 -6.5456321616586821E-01 a        18     0     1     1    18
 -3.6574298730055688E-01 a        19     0     1     1    19
 -2.3207982670298558E-01 a        20     0     1     1    20
  1.9407803835343163E-01 a        21     0     2     1     1
  2.8088636518444848E-01 a        22     0     2     1     2
 -3.9775733925960965E-01 a        23     0     2     1     3
 -6.8937503618660112E-01 a        24     0     2     1     4
 -1.3524587437512179E-02 a        25     0     2     1     5
 -3.5946358391972477E-01 a        26     0     2     1     6
 -5.6410252567889274E-01 a        27     0     2     1     7
 -3.5166168906828804E-01 a        28     0     2     1     8
 -8.4183976367218027E-02 a        29     0     2     1     9
  4.4644955889781951E-01 a        30     0     2     1    10
  5.6667752892299073E-01 a        31     0     2     1    11
  9.2319740838631412E-02 a        32     0     2     1    12
 -3.9662041348657900E-01 a        33     0     2     1    13
 -1.9275853335127785E-01 a        34     0     2     1    14
  2.8015534004821413E-01 a        35     0     2     1    15
  1.3636133228795386E-01 a        36     0     2     1    16
 -2.3943187679445789E-03 a        37     0     2     1    17
  5.8912565849141074E-01 a        38     0     2     1    18
 -2.7560740863545385E-01 a        39     0     2     1    19
  2.0166054898129246E-01 a        40     0     2     1    20
 -2.6553781118151865E-01 a        41     0     3     1     1
  7.8170168832059195E-01 a        42     0     3     1     2
  3.5600997634403647E-01 a        43     0     3     1     3
  1.5082887700630238E-01 a        44     0     3     1     4
 -2.2308581799402505E-01 a        45     0     3     1     5
  8.1893144552119976E-02 a        46     0     3     1     6
  5.5347680484898902E-02 a        47     0     3     1     7
 -4.2896081974137107E-01 a        48     0     3     1     8
 -3.4279670847212812E-01 a        49     0     3     1     9
  3.9182513372366268E-01 a        50     0     3     1    10
  1.0914161130986745E-01 a        51     0     3     1    11
  3.7168103007097614E-01 a        52     0     3     1    12
 -4.9125486109552430E-01 a        53     0     3     1    13
 -1.6236171714900108E-01 a        54     0     3     1    14
 -2.8793585799768157E-01 a        55     0     3     1    15
  8.4251661545991408E-01 a        56     0     3     1    16
 -3.7013214723913883E-02 a        57     0     3     1    17
 -9.1810017255372259E-02 a        58     0     3     1    18
  2.9967571272398008E-01 a        59     0     3     1    19
  4.8730272621917109E-01 a        60     0     3     1    20
  1.1195651252222417E-01 a        61     0     4     1     1
 -5.1033352908647511E-01 a        62     0     4     1     2
  2.7387455726802634E-01 a        63     0     4     1     3
  5.4192002617149349E-01 a        64     0     4     1     4
 -5.6012308875844290E-02 a        65     0     4     1     5
 -6.0557069748876681E-03 a        66     0     4     1     6
 -6.5581162555045272E-02 a        67     0     4     1     7
 -1.7920076261497175E-02 a        68     0     4     1     8
  2.2768288436965678E-01 a        69     0     4     1     9
 -3.1889821805426405E-01 a        70     0     4     1    10
 -7.5325685718208046E-01 a        71     0     4     1    11
 -5.0139669302920542E-01 a        72     0     4     1    12
 -2.5762196054419961E-01 a        73     0     4     1    13
 -2.3695936311821996E-02 a        74     0     4     1    14
 -1.3623301251197481E-01 a        75     0     4     1    15
 -4.3164665647337241E-01 a        76     0     4     1    16
  8.7925219522246190E-02 a        77     0     4     1    17
 -4.4022686667443400E-01 a        78     0     4     1    18
  1.6063623476065836E-01 a        79     0     4     1    19
 -2.3807958761236203E-01 a        80     0     4     1    20
 -5.8108862381780813E-01 a        81     0     5     1     1
  6.0116947958626585E-02 a        82     0     5     1     2
 -4.0962291429037456E-01 a        83     0     5     1     3
  3.9162781005063713E-01 a        84     0     5     1     4
  5.2145452166810946E-01 a        85     0     5     1     5
 -4.6405840682974037E-01 a        86     0     5     1     6
  8.2606569759987269E-01 a        87     0     5     1     7
  8.3783132009024941E-01 a        88     0     5     1     8
 -3.1088350489512684E-01 a        89     0     5     1     9
 -2.6291928965250372E-01 a        90     0     5     1    10
  2.0284205692968661E-02 a        91     0     5     1    11
 -2.2828430938897501E-01 a        92     0     5     1    12
  1.1098261551837305E-01 a        93     0     5     1    13
  4.5297935082584018E-01 a        94     0     5     1    14
 -4.1525688602525229E-01 a        95     0     5     1    15
 -5.4254524432856444E-01 a        96     0     5     1    16
  5.2289189079606990E-01 a        97     0     5     1    17
  1.0914665414404592E-01 a        98     0     5     1    18
 -5.4924867660865728E-01 a        99     0     5     1    19
  4.1598621320265461E-01 a       100     0     5     1    20
  3.3783284224607107E-01 a       101     0     6     1     1
  5.5314341014249624E-01 a       102     0     6     1     2
  6.1315219570611958E-02 a       103     0     6     1     3
  5.3970853177158773E-01 a       104     0     6     1     4
 -4.8557883467268448E-01 a       105     0     6     1     5
  4.9056971281280382E-01 a       106     0     6     1     6
  4.2714654774674232E-01 a       107     0     6     1     7
 -4.4811933251696107E-01 a       108     0     6     1     8
  3.8531515872684374E-01 a       109     0     6     1     9
 -1.8663359843554758E-01 a       110     0     6     1    10
  5.2104564804323031E-02 a       111     0     6     1    11
 -6.8804223176186197E-01 a       112     0     6     1    12
  2.9287729694179138E-01 a       113     0     6     1    13
 -4.1495868982863798E-01 a       114     0     6     1    14
 -1.8968648619683240E-01 a       115     0     6     1    15
  5.3778378294934326E-01 a       116     0     6     1    16
 -4.4593777074833155E-02 a       117     0     6     1    17
 -1.5885044295410133E-01 a       118     0     6     1    18
  2.6014039991053833E-01 a       119     0     6     1    19
 -3.0236264556423570E-01 a       120     0     6     1    20
 -6.4798981155549895E-01 a       121     0     7     1     1
 -5.4156134195902615E-02 a       122     0     7     1     2
  7.0518441339795068E-01 a       123     0     7     1     3
  9.1017016326654399E-01 a       124     0     7     1     4
  6.0242454294332215E-01 a       125     0     7     1     5
 -4.1747890189979286E-01 a       126     0     7     1     6
  7.2662535250435800E-01 a       127     0     7     1     7
 -6.3962094374550346E-02 a       128     0     7     1     8
  4.5961160828799580E-01 a       129     0     7     1     9
  3.8447660305140935E-01 a       130     0     7     1    10
 -3.9431297849145897E-01 a       131     0     7     1    11
 -5.8763580603509169E-02 a       132     0     7     1    12
 -6.5769784397328612E-01 a       133     0     7     1    13
 -3.0585851094112609E-01 a       134     0     7     1    14
  2.6283536263865126E-01 a       135     0     7     1    15
 -9.8229519332642901E-02 a       136     0     7     1    16
 -6.2092517384633839E-01 a       137     0     7     1    17
  8.4505032315062223E-01 a       138     0     7     1    18
 -2.4097107387546160E-01 a       139     0     7     1    19
  7.3983503610540124E-02 a       140     0     7     1    20
 -4.0730505853092680E-01 a       141     0     8     1     1
 -2.6761592475825019E-01 a       142     0     8     1     2
  4.5907170829492366E-01 a       143     0     8     1     3
 -2.6857857843914607E-01 a       144     0     8     1     4
 -5.5229098084897799E-01 a       145     0     8     1     5
  6.5393315152977016E-01 a       146     0     8     1     6
 -2.9345295894027612E-01 a       147     0     8     1     7
 -2.8696920989232300E-01 a       148     0     8     1     8
 -6.5595953720891820E-01 a       149     0     8     1     9
 -3.7917029051133350E-01 a       150     0     8     1    10
  6.5886677958409956E-01 a       151     0     8     1    11
 -5.3806619428311864E-01 a       152     0     8     1    12
 -7.1508279853247925E-01 a       153     0     8     1    13
 -6.6334409850017750E-01 a       154     0     8     1    14
  3.2978963195382810E-01 a       155     0     8     1    15
  1.0658815625269594E-01 a       156     0     8     1    16
  3.1176100696913073E-01 a       157     0     8     1    17
 -3.6737972135105507E-01 a       158     0     8     1    18
  7.4803219842547020E-01 a       159     0     8     1    19
 -7.2586663769941950E-01 a       160     0     8     1    20
 -5.7355482971867910E-01 a       161     0     9     1     1
  5.6551521764654789E-01 a       162     0     9     1     2
  1.0597894509551203E-01 a       163     0     9     1     3
 -2.9935680217668870E-01 a       164     0     9     1     4
  5.7297365724935989E-01 a       165     0     9     1     5
 -6.0285871342491693E-01 a       166     0     9     1     6
 -1.3453896933895471E-01 a       167     0     9     1     7
  6.9492288279602954E-01 a       168     0     9     1     8
  7.0541130183613288E-01 a       169     0     9     1     9
 -2.5215239732701378E-01 a       170     0     9     1    10
 -3.7843960688924233E-01 a       171     0     9     1    11
  4.8701271113225814E-01 a       172     0     9     1    12
  4.0807746996361349E-01 a       173     0     9     1    13
  6.3291509766537901E-01 a       174     0     9     1    14
 -3.7348611221067213E-01 a       175     0     9     1    15
  6.2447846869909196E-01 a       176     0     9     1    16
  3.1428378861794354E-01 a       177     0     9     1    17
 -1.7724249636406669E-01 a       178     0     9     1    18
 -3.8973573665233088E-02 a       179     0     9     1    19
  6.6574273018606234E-01 a       180     0     9     1    20
  2.4772302053796091E-01 a       181     0    10     1     1
  2.0038818568701705E-01 a       182     0    10     1     2
 -5.9976586717671343E-01 a       183     0    10     1     3
 -7.3842751637279824E-01 a       184     0    10     1     4
 -2.8898661858098312E-01 a       185     0    10     1     5
 -3.2041821273951554E-01 a       186     0    10     1     6
 -1.7470507920980380E-01 a       187     0    10     1     7
 -5.4635650632566213E-01 a       188     0    10     1     8
  3.7342816522823941E-01 a       189     0    10     1     9
 -2.2458422739448014E-01 a       190     0    10     1    10
  1.6625526836818355E-01 a       191     0    10     1    11
  9.1254758409057946E-02 a       192     0    10     1    12
  3.9856335415122829E-01 a       193     0    10     1    13
 -3.4263734423220576E-01 a       194     0    10     1    14
 -4.5226002599293474E-01 a       195     0    10     1    15
 -4.0891663553174562E-01 a       196     0    10     1    16
  4.6778020945220089E-01 a       197     0    10     1    17
 -2.8726594639113456E-01 a       198     0    10     1    18
 -2.3095732120864734E-01 a       199     0    10     1    19
 -4.0356444266878660E-01 a       200     0    10     1    20
 -3.7829433338552820E-01 a       201     0    11     1     1
 -1.8323986323809624E-01 a       202     0    11     1     2
 -3.8758492365560682E-01 a       203     0    11     1     3
 -1.5052090062684986E-02 a       204     0    11     1     4
 -5.9972864081751974E-02 a       205     0    11     1     5
 -4.6921266051270361E-01 a       206     0    11     1     6
 -3.7899299047523127E-01 a       207     0    11     1     7
 -1.4897919893204084E-01 a       208     0    11     1     8
 -2.9939731820758481E-01 a       209     0    11     1     9
 -1.0922209637090498E-01 a       210     0    11     1    10
 -7.2777369757858434E-01 a       211     0    11     1    11
  4.2461163078742881E-01 a       212     0    11     1    12
  2.1797914901807203E-01 a       213     0    11     1    13
 -3.2508854535467463E-01 a       214     0    11     1    14
  2.3218524406816046E-01 a       215     0    11     1    15
  7.1793440389574109E-02 a       216     0    11     1    16
  3.7838470408078173E-01 a       217     0    11     1    17
  5.9867270174092457E-01 a       218     0    11     1    18
 -5.0473548579018501E-01 a       219     0    11     1    19
  2.6767045760348840E-01 a       220     0    11     1    20
 -9.8203122294670542E-02 a       221     0    12     1     1
 -4.3932798918649618E-01 a       222     0    12     1     2
 -1.3432590447698373E-01 a       223     0    12     1     3
 -4.5006113216738593E-02 a       224     0    12     1     4
  5.3023002470966218E-01 a       225     0    12     1     5
  4.8410021637578132E-01 a       226     0    12     1     6
  4.0571410583194717E-01 a       227     0    12     1     7
 -1.3252966494970997E-01 a       228     0    12     1     8
  5.0746091146992585E-02 a       229     0    12     1     9
 -7.2128849851863008E-01 a       230     0    12     1    10
  3.9745213055703860E-01 a       231     0    12     1    11
 -5.3051145947194256E-01 a       232     0    12     1    12
  1.7961652770355119E-01 a       233     0    12     1    13
  4.3318326009800867E-01 a       234     0    12     1    14
 -3.7753233997969576E-01 a       235     0    12     1    15
 -5.7021065740908206E-01 a       236     0    12     1    16
 -2.2506436133005864E-01 a       237     0    12     1    17
 -3.0274901315896613E-01 a       238     0    12     1    18
 -6.6340911096255034E-02 a       239     0    12     1    19
  4.0698820727653168E-01 a       240     0    12     1    20
 -3.6147895331792745E-01 a       241     0    13     1     1
  1.7229865346875836E-01 a       242     0    13     1     2
 -5.6180699555642932E-01 a       243     0    13     1     3
 -2.6143037313256368E-01 a       244     0    13     1     4
 -3.7255613080251027E-01 a       245     0    13     1     5
 -3.0707819868342034E-01 a       246     0    13     1     6
  3.6566066182484180E-01 a       247     0    13     1     7
 -3.8310507348261402E-01 a       248     0    13     1     8
  9.5318707065301517E-02 a       249     0    13     1     9
 -3.1886858625385478E-01 a       250     0    13     1    10
  4.9019885420103088E-01 a       251     0    13     1    11
 -4.4818551100062753E-01 a       252     0    13     1    12
 -4.9711799010558566E-01 a       253     0    13     1    13
 -4.3790766702533047E-02 a       254     0    13     1    14
  1.5151493628518281E-01 a       255     0    13     1    15
  1.8623638589494196E-01 a       256     0    13     1    16
  1.2393323376329003E-01 a       257     0    13     1    17
 -3.5879215095565231E-01 a       258     0    13     1    18
  5.6395164796245634E-01 a       259     0    13     1    19
 -5.5941982174981297E-01 a       260     0    13     1    20
  2.7670287749289590E-01 a       261     0    14     1     1
 -3.8133100698767258E-01 a       262     0    14     1     2
 -3.0646506380618693E-01 a       263     0    14     1     3
 -4.8691712216678423E-01 a       264     0    14     1     4
  5.4303700686047018E-01 a       265     0    14     1     5
 -2.7266830790361191E-01 a       266     0    14     1     6
 -9.2497185262108886E-02 a       267     0    14     1     7
  1.8393093124400114E-01 a       268     0    14     1     8
 -4.0878367336572724E-01 a       269     0    14     1     9
  7.3751415599243003E-02 a       270     0    14     1    10
  6.6367396267049586E-02 a       271     0    14     1    11
 -1.0856168066736874E-01 a       272     0    14     1    12
  5.0889735106329315E-01 a       273     0    14     1    13
 -4.7505576407867922E-01 a       274     0    14     1    14
  6.2122207062015222E-01 a       275     0    14     1    15
 -4.4643811270086438E-02 a       276     0    14     1    16
 -1.5794181718034611E-01 a       277     0    14     1    17
  3.3429398698244400E-01 a       278     0    14     1    18
 -2.3562383574916573E-01 a       279     0    14     1    19
  1.9991051114246444E-01 a       280     0    14     1    20
  8.9809303008593189E-02 b       281     1     1
  1.0412947675611490E+00 b       282     1     2
  4.6035148765059673E-02 b       283     1     3
 -1.6214601931980694E+00 b       284     1     4
  1.7034971580064235E+00 b       285     1     5
  2.7023228700828367E-01 b       286     1     6
 -5.6670525032048524E-01 b       287     1     7
  1.2837291250116296E+00 b       288     1     8
  7.6383055026784441E-01 b       289     1     9
 -1.7622524936359116E+00 b       290     1    10
  1.3861016186889741E+00 b       291     1    11
  1.5537282212163799E+00 b       292     1    12
  8.9529960516362372E-01 b       293     1    13
  8.7203223030218679E-01 b       294     1    14
 -1.1697713160992827E-01 b       295     1    15
  1.1517012299022575E+00 b       296     1    16
 -4.5140357960990468E-01 b       297     1    17
 -7.0949651629298383E-01 b       298     1    18
  1.8130247246977320E+00 b       299     1    19
  1.7793785785023988E+00 b       300     1    20
 -8.4800933977311435E-02 a       301     1     1     2     1
 -3.0986200364702321E-01 a       302     1     1     2     2
  4.1012427290311265E-01 a       303     1     1     2     3
  4.5887864390077798E-01 a       304     1     1     2     4
 -2.8319969857397254E-01 a       305     1     1     2     5
  5.9447458149351551E-01 a       306     1     1     2     6
  2.5775407389344285E-01 a       307     1     1     2     7
  2.9467588095097430E-01 a       308     1     1     2     8
  1.5083632821826190E-01 a       309     1     1     2     9
 -1.6575975795970271E-01 a       310     1     1     2    10
 -5.9136092019662356E-02 a       311     1     1     2    11
  4.8002911483529975E-02 a       312     1     1     2    12
  1.8675433439790226E-01 a       313     1     1     2    13
 -4.9022649252989203E-01 a       314     1     1     2    14
  4.9384438477627823E-01 a       315     1     1     2    15
 -2.0691218415432516E-01 a       316     1     1     2    16
  2.3326006847079883E-01 a       317     1     1     2    17
  2.9751390167374259E-01 a       318     1     1     2    18
 -2.1861135173462040E-02 a       319     1     1     2    19
  6.2889588892462267E-01 a       320     1     1     2    20
  5.5676132962393809E-01 a       321     1     2     2     1
 -8.1294570774347569E-02 a       322     1     2     2     2
  3.0743225640822353E-01 a       323     1     2     2     3
 -3.0414801084769204E-02 a       324     1     2     2     4
  4.5199923130659431E-02 a       325     1     2     2     5
  1.6947001228490141E-01 a       326     1     2     2     6
 -3.5190009586975085E-01 a       327     1     2     2     7
 -1.7616636437667871E-01 a       328     1     2     2     8
  4.7074933493419835E-01 a       329     1     2     2     9
  5.5801997230737155E-01 a       330     1     2     2    10
  3.7798445717025614E-01 a       331     1     2     2    11
  2.1995010419933439E-01 a       332     1     2     2    12
  6.4856459090278784E-01 a       333     1     2     2    13
 -4.5986414891274757E-01 a       334     1     2     2    14
 -3.0165426813084040E-01 a       335     1     2     2    15
 -3.7669744300787358E-02 a       336     1     2     2    16
  1.4263283373603036E-01 a       337     1     2     2    17
  4.2744825330327374E-01 a       338     1     2     2    18
 -4.7390991236659763E-01 a       339     1     2     2    19
  2.8239882825723139E-01 a       340     1     2     2    20
  2.6071708059406135E-01 a       341     1     3     2     1
  4.9944221034416747E-01 a       342     1     3     2     2
  2.5587750190950942E-01 a       343     1     3     2     3
 -5.8287374518824250E-02 a       344     1     3     2     4
 -2.9151972692853806E-01 a       345     1     3     2     5
 -7.7740042678686574E-02 a       346     1     3     2     6
 -7.3281818540270133E-02 a       347     1     3     2     7
  3.7290907884296931E-01 a       348     1     3     2     8
 -2.9038836498784310E-01 a       349     1     3     2     9
 -1.8245807646746071E-01 a       350     1     3     2    10
  1.8511921518596047E-01 a       351     1     3     2    11
 -2.6094925045810924E-01 a       352     1     3     2    12
  1.9316346273521312E-01 a       353     1     3     2    13
  4.9003963784528259E-01 a       354     1     3     2    14
 -1.3873494856230675E-01 a       355     1     3     2    15
 -3.5475381076606949E-01 a       356     1     3     2    16
 -2.3980510204188460E-01 a       357     1     3     2    17
  2.5901725520269481E-01 a       358     1     3     2    18
 -5.3085812410099942E-01 a       359     1     3     2    19
  1.7479160887934389E-01 a       360     1     3     2    20
 -4.6637428736047637E-01 a       361     1     4     2     1
 -3.6632804900181137E-01 a       362     1     4     2     2
 -2.7928906534783143E-01 a       363     1     4     2     3
  5.9907233547974870E-01 a       364     1     4     2     4
 -3.2179372847510568E-01 a       365     1     4     2     5
  4.3235331990205822E-01 a       366     1     4     2     6
 -4.1526855493501463E-01 a       367     1     4     2     7
  2.9010169085728138E-01 a       368     1     4     2     8
  1.2110187277113195E-02 a       369     1     4     2     9
  4.7527336335078058E-01 a       370     1     4     2    10
 -5.7856823491889031E-02 a       371     1     4     2    11
  4.0919735576111760E-01 a       372     1     4     2    12
  3.2648892114066658E-02 a       373     1     4     2    13
  9.9046634977164427E-02 a       374     1     4     2    14
  1.7123470415732095E-01 a       375     1     4     2    15
  2.6252526197906256E-01 a       376     1     4     2    16
 -5.1711896951573001E-02 a       377     1     4     2    17
  4.6506945083549722E-01 a       378     1     4     2    18
 -4.2169325808104635E-01 a       379     1     4     2    19
  4.9209406113136900E-01 a       380     1     4     2    20
 -5.8331586656027890E-01 a       381     1     5     2     1
 -3.9758791514362901E-01 a       382     1     5     2     2
  2.1721232402414525E-01 a       383     1     5     2     3
 -1.9874290327219021E-01 a       384     1     5     2     4
 -2.4421851086661472E-01 a       385     1     5     2     5
  4.8075516854341488E-01 a       386     1     5     2     6
 -2.1501492107931106E-02 a       387     1     5     2     7
  5.4103942492365320E-01 a       388     1     5     2     8
 -2.7775234688451605E-01 a       389     1     5     2     9
  5.0983397972301403E-01 a       390     1     5     2    10
 -3.7376907205494019E-02 a       391     1     5     2    11
  4.0237738628332059E-01 a       392     1     5     2    12
 -2.9097295254897565E-01 a       393     1     5     2    13
 -6.0696605080900808E-02 a       394     1     5     2    14
  3.6233293878704292E-01 a       395     1     5     2    15
 -7.1149988424379418E-02 a       396     1     5     2    16
 -3.3934389054894731E-01 a       397     1     5     2    17
 -1.1365700812481971E-01 a       398     1     5     2    18
  7.3621506082790483E-03 a       399     1     5     2    19
 -1.4876871158634367E-01 a       400     1     5     2    20
 -2.6389044430884456E-01 a       401     1     6     2     1
  2.2219306866833044E-01 a       402     1     6     2     2
 -3.2143653380024911E-01 a       403     1     6     2     3
 -5.2398426735685155E-01 a       404     1     6     2     4
  3.2929137155738619E-01 a       405     1     6     2     5
 -4.7207672051730026E-01 a       406     1     6     2     6
 -4.9027461744812761E-02 a       407     1     6     2     7
 -5.1668428263515953E-01 a       408     1     6     2     8
  4.8977976090186603E-01 a       409     1     6     2     9
 -4.2023159580992892E-01 a       410     1     6     2    10
  3.3311276386636673E-01 a       411     1     6     2    11
 -5.3414323983284906E-01 a       412     1     6     2    12
  3.9974938409663657E-01 a       413     1     6     2    13
  1.4564796989506168E-02 a       414     1     6     2    14
 -4.6033402322365180E-01 a       415     1     6     2    15
  4.4419717126086672E-01 a       416     1     6     2    16
  5.5133210439010849E-01 a       417     1     6     2    17
 -2.0187604603232703E-01 a       418     1     6     2    18
  4.3809264780650731E-01 a       419     1     6     2    19
 -2.0987636873637383E-01 a       420     1     6     2    20
 -7.4269082219058377E-03 a       421     1     7     2     1
 -3.2166277095759799E-01 a       422     1     7     2     2
  1.8837842822785117E-01 a       423     1     7     2     3
  1.6162165935236392E-01 a       424     1     7     2     4
 -5.6943086226446671E-01 a       425     1     7     2     5
  1.3838927750156357E-01 a       426     1     7     2     6
  2.7883615059098360E-01 a       427     1     7     2     7
 -2.2045592583530074E-02 a       428     1     7     2     8
  2.1126261820497411E-01 a       429     1     7     2     9
  2.0692143271235097E-01 a       430     1     7     2    10
 -3.5917015869058333E-01 a       431     1     7     2    11
 -5.7562843943264330E-01 a       432     1     7     2    12
  2.2551603212547500E-02 a       433     1     7     2    13
 -4.4701079292702964E-02 a       434     1     7     2    14
 -1.7842679712258100E-01 a       435     1     7     2    15
  1.9620696029383175E-01 a       436     1     7     2    16
 -3.9102089822684599E-01 a       437     1     7     2    17
 -3.0847787682507488E-01 a       438     1     7     2    18
 -1.0753887815266365E-01 a       439     1     7     2    19
  5.5535006922347263E-01 a       440     1     7     2    20
  1.3134098942013941E-01 a       441     1     8     2     1
 -3.8125635792969487E-01 a       442     1     8     2     2
  4.3922133489287268E-01 a       443     1     8     2     3
 -5.4143167482611061E-02 a       444     1     8     2     4
  4.7722389461857001E-01 a       445     1     8     2     5
 -4.0346766092853548E-01 a       446     1     8     2     6
  2.7452555920975152E-01 a       447     1     8     2     7
  6.3422512272369197E-02 a       448     1     8     2     8
  4.0174853042845576E-01 a       449     1     8     2     9
  6.1018729954635635E-02 a       450     1     8     2    10
  3.1548895267229976E-01 a       451     1     8     2    11
 -4.3228739665459404E-01 a       452     1     8     2    12
  4.6804856114853181E-02 a       453     1     8     2    13
  4.7295031975151552E-01 a       454     1     8     2    14
 -3.2358329411284474E-03 a       455     1     8     2    15
  1.2173759782973317E-01 a       456     1     8     2    16
 -2.0400980322713194E-01 a       457     1     8     2    17
  4.8207477707514262E-01 a       458     1     8     2    18
 -6.5370029688966824E-01 a       459     1     8     2    19
 -4.7943930264616219E-01 a       460     1     8     2    20
  4.9770963671061136E-01 a       461     1     9     2     1
 -1.0402808415804252E-01 a       462     1     9     2     2
  5.3006923492390234E-01 a       463     1     9     2     3
 -5.0814208401352101E-01 a       464     1     9     2     4
  2.5825523655871047E-01 a       465     1     9     2     5
 -1.7264908916622468E-01 a       466     1     9     2     6
 -1.9945846302342474E-01 a       467     1     9     2     7
  5.2066553581826380E-01 a       468     1     9     2     8
 -1.6293812102867536E-01 a       469     1     9     2     9
 -5.4108913951322291E-01 a       470     1     9     2    10
  1.3509521009330538E-01 a       471     1     9     2    11
  3.1286726597882863E-01 a       472     1     9     2    12
  1.9520834363937184E-01 a       473     1     9     2    13
 -3.1677260513543448E-01 a       474     1     9     2    14
  4.2648001393940888E-01 a       475     1     9     2    15
  6.1179049208050962E-01 a       476     1     9     2    16
  7.0530447247085723E-02 a       477     1     9     2    17
  7.4487857468967009E-02 a       478     1     9     2    18
  2.0392581687693626E-01 a       479     1     9     2    19
  1.7048367597694639E-01 a       480     1     9     2    20
  2.0946884923123013E-01 a       481     1    10     2     1
  3.9555440684785376E-01 a       482     1    10     2     2
 -1.4705624737424544E-01 a       483     1    10     2     3
  6.9970140855753604E-01 a       484     1    10     2     4
 -2.8373784157619064E-01 a       485     1    10     2     5
  1.8912957178467535E-01 a       486     1    10     2     6
 -4.8307848322679697E-01 a       487     1    10     2     7
  5.0546591190394841E-01 a       488     1    10     2     8
  3.7874569745662190E-01 a       489     1    10     2     9
  1.8550706015615778E-01 a       490     1    10     2    10
  1.5170173757195581E-02 a       491     1    10     2    11
 -5.2074492957091911E-01 a       492     1    10     2    12
 -7.4473401334417308E-02 a       493     1    10     2    13
  2.7802188130215350E-01 a       494     1    10     2    14
 -3.5562362655210261E-01 a       495     1    10     2    15
 -3.9432073547255531E-01 a       496     1    10     2    16
 -1.6141295680078491E-01 a       497     1    10     2    17
  1.3400890450592706E-01 a       498     1    10     2    18
 -1.6303284081351090E-02 a       499     1    10     2    19
 -4.7652748665347533E-01 a       500     1    10     2    20
 -5.0523941793491856E-01 a       501     1    11     2     1
  4.3246448411824373E-01 a       502     1    11     2     2
 -5.4312007745386248E-01 a       503     1    11     2     3
  3.4150989507022977E-01 a       504     1    11     2     4
  5.5902147353545739E-01 a       505     1    11     2     5
 -5.6541405212220475E-01 a       506     1    11     2     6
  4.1903552197945931E-01 a       507     1    11     2     7
  9.0019589249809989E-02 a       508     1    11     2     8
 -4.6014216586748252E-01 a       509     1    11     2     9
  5.8434118921096867E-01 a       510     1    11     2    10
  4.1444297442049088E-01 a       511     1    11     2    11
  2.5457019531551933E-01 a       512     1    11     2    12
 -4.4541533212163364E-01 a       513     1    11     2    13
 -6.4476729379415032E-01 a       514     1    11     2    14
  2.9822010541830091E-01 a       515     1    11     2    15
 -3.4006747056192216E-01 a       516     1    11     2    16
 -4.6023715618425121E-01 a       517     1    11     2    17
  9.6030801241638861E-02 a       518     1    11     2    18
 -9.8533317915127955E-02 a       519     1    11     2    19
  2.5658612348698723E-01 a       520     1    11     2    20
 -5.9545079536554935E-01 a       521     1    12     2     1
 -8.8678391373380322E-03 a       522     1    12     2     2
  3.2573807895858237E-01 a       523     1    12     2     3
  5.6874827618363355E-01 a       524     1    12     2     4
 -1.5878649802419542E-01 a       525     1    12     2     5
  1.0864563644020941E-01 a       526     1    12     2     6
 -6.5978210989726227E-01 a       527     1    12     2     7
  7.3458741135198846E-01 a       528     1    12     2     8
  5.2345043462029450E-01 a       529     1    12     2     9
 -5.7095378284274290E-01 a       530     1    12     2    10
  4.7100507976127287E-01 a       531     1    12     2    11
  5.1215426347935833E-01 a       532     1    12     2    12
 -2.7258819991717498E-01 a       533     1    12     2    13
 -1.2677735125123427E-01 a       534     1    12     2    14
  5.1501321791475763E-01 a       535     1    12     2    15
  8.0695743852791449E-02 a       536     1    12     2    16
 -4.5382711968886535E-01 a       537     1    12     2    17
 -6.1027358291657119E-01 a       538     1    12     2    18
 -5.4054496226516324E-01 a       539     1    12     2    19
 -1.0481944040357143E-01 a       540     1    12     2    20
  1.5302556543041959E-01 a       541     1    13     2     1
 -4.0285303606192940E-01 a       542     1    13     2     2
 -3.2975154154808811E-01 a       543     1    13     2     3
  4.3601934885553822E-01 a       544     1    13     2     4
 -1.5272610427363872E-01 a       545     1    13     2     5
 -2.6986342991101764E-01 a       546     1    13     2     6
 -2.6473809505505819E-01 a       547     1    13     2     7
 -2.0429008799730994E-01 a       548     1    13     2     8
 -3.7368430409457953E-01 a       549     1    13     2     9
 -3.0050832644321596E-02 a       550     1    13     2    10
 -1.0778664081757572E-01 a       551     1    13     2    11
  3.3764569702849945E-01 a       552     1    13     2    12
 -4.5660265972428005E-01 a       553     1    13     2    13
 -1.9752916059182404E-02 a       554     1    13     2    14
 -5.0743548551354734E-01 a       555     1    13     2    15
  1.6255279148901486E-01 a       556     1    13     2    16
 -5.6069700858850158E-02 a       557     1    13     2    17
  4.0444309110212873E-01 a       558     1    13     2    18
 -3.5271797729005211E-01 a       559     1    13     2    19
 -5.4452708580226761E-01 a       560     1    13     2    20
 -1.4244771156962918E-01 a       561     1    14     2     1
  1.5610162517034293E-01 a       562     1    14     2     2
  3.5155282373099339E-01 a       563     1    14     2     3
 -1.9936923200563020E-02 a       564     1    14     2     4
 -4.4316623621985968E-01 a       565     1    14     2     5
  3.9959601954888740E-01 a       566     1    14     2     6
  4.6905925097017903E-01 a       567     1    14     2     7
 -2.3673835869190293E-01 a       568     1    14     2     8
 -2.8276187501292482E-01 a       569     1    14     2     9
  1.9483933707659681E-01 a       570     1    14     2    10
 -6.5917546360931523E-01 a       571     1    14     2    11
  5.6316934746422576E-01 a       572     1    14     2    12
 -3.3613559966111956E-01 a       573     1    14     2    13
 -6.0921837394587552E-01 a       574     1    14     2    14
 -4.0145176449483311E-01 a       575     1    14     2    15
  6.6104446740429798E-02 a       576     1    14     2    16
 -3.7019484550388254E-02 a       577     1    14     2    17
  3.5975152076020422E-01 a       578     1    14     2    18
 -6.5611071399173282E-01 a       579     1    14     2    19
 -3.1143593990501500E-01 a       580     1    14     2    20
  1.4759389517257374E-01 a       581     1    15     2     1
  2.4557312522978225E-02 a       582     1    15     2     2
  2.0988367905793437E-01 a       583     1    15     2     3
 -3.8955377641058697E-01 a       584     1    15     2     4
 -1.2707662228506481E-01 a       585     1    15     2     5
  4.7089563832515735E-01 a       586     1    15     2     6
  1.7622746542428103E-01 a       587     1    15     2     7
 -1.8868284542351976E-01 a       588     1    15     2     8
 -2.1986719219974837E-01 a       589     1    15     2     9
 -2.2935168613474585E-01 a       590     1    15     2    10
  4.7405433336347602E-01 a       591     1    15     2    11
  4.9769506808666174E-02 a       592     1    15     2    12
  3.5561764393521367E-01 a       593     1    15     2    13
  3.6126982514254985E-01 a       594     1    15     2    14
  2.3620237443756420E-01 a       595     1    15     2    15
  4.5552052945007598E-01 a       596     1    15     2    16
 -4.5108241909938268E-01 a       597     1    15     2    17
  3.7737342064570495E-01 a       598     1    15     2    18
 -1.5403255189886361E-01 a       599     1    15     2    19
  3.5222213697483101E-02 a       600     1    15     2    20
 -1.9429263737670116E-01 a       601     1    16     2     1
 -7.1137137280261858E-02 a       602     1    16     2     2
 -3.9998059978877887E-01 a       603     1    16     2     3
 -1.2647066949965773E-02 a       604     1    16     2     4
 -4.9119867416225127E-01 a       605     1    16     2     5
 -2.8735431376719706E-02 a       606     1    16     2     6
 -8.8981522499036639E-02 a       607     1    16     2     7
 -9.2665032756855031E-02 a       608     1    16     2     8
 -3.0833695622010832E-01 a       609     1    16     2     9
 -6.3735848236240555E-01 a       610     1    16     2    10
  4.9401644647245802E-01 a       611     1    16     2    11
  1.9061591663294802E-01 a       612     1    16     2    12
  1.0885113653934624E-01 a       613     1    16     2    13
  4.4864567137192224E-01 a       614     1    16     2    14
 -1.5215377985715137E-01 a       615     1    16     2    15
 -2.3044745864132962E-01 a       616     1    16     2    16
  5.4282534385166725E-02 a       617     1    16     2    17
 -5.3931587258173291E-02 a       618     1    16     2    18
  4.1831031605817404E-01 a       619     1    16     2    19
 -4.2904621497932699E-02 a       620     1    16     2    20
  4.5403449406945151E-01 a       621     1    17     2     1
 -2.0878750746510744E-01 a       622     1    17     2     2
  1.3034515574929903E-01 a       623     1    17     2     3
  5.4179942003271399E-02 a       624     1    17     2     4
 -2.9539479482359932E-01 a       625     1    17     2     5
 -2.8542092014389769E-01 a       626     1    17     2     6
  3.4990161734496633E-01 a       627     1    17     2     7
 -1.7438535766637542E-01 a       628     1    17     2     8
 -1.8746409711291136E-02 a       629     1    17     2     9
 -3.1297047286021895E-01 a       630     1    17     2    10
 -6.7704357332196519E-01 a       631     1    17     2    11
 -3.3481794177776247E-01 a       632     1    17     2    12
  3.8137574383742828E-01 a       633     1    17     2    13
  1.9455851103436125E-01 a       634     1    17     2    14
 -3.9447330511630441E-01 a       635     1    17     2    15
 -2.8737935864587272E-01 a       636     1    17     2    16
  2.0427648163254963E-01 a       637     1    17     2    17
  5.0747918867198749E-01 a       638     1    17     2    18
 -1.5370298363352819E-01 a       639     1    17     2    19
  6.5976388160535915E-01 a       640     1    17     2    20
 -1.5664949483263874E-01 a       641     1    18     2     1
 -1.9831412821313640E-01 a       642     1    18     2     2
  1.7143280499119837E-01 a       643     1    18     2     3
  4.0238685076988273E-01 a       644     1    18     2     4
  4.0725141274261134E-01 a       645     1    18     2     5
 -4.0440334351635027E-01 a       646     1    18     2     6
 -6.1504726816692876E-02 a       647     1    18     2     7
  4.0049497221494179E-01 a       648     1    18     2     8
 -3.4157123999740863E-01 a       649     1    18     2     9
  5.2773520046627706E-02 a       650     1    18     2    10
 -7.7003244646263291E-01 a       651     1    18     2    11
 -3.4273841241462696E-02 a       652     1    18     2    12
 -2.7867830453952003E-01 a       653     1    18     2    13
 -1.5242628580385528E-01 a       654     1    18     2    14
  2.1402787764648101E-01 a       655     1    18     2    15
  6.3264000878778648E-01 a       656     1    18     2    16
  4.1008556155403975E-01 a       657     1    18     2    17
  3.5676978366381862E-01 a       658     1    18     2    18
  1.4102311455587890E-01 a       659     1    18     2    19
  3.2318640118343939E-01 a       660     1    18     2    20
 -5.8017773383327531E-01 a       661     1    19     2     1
 -4.5128999780536977E-01 a       662     1    19     2     2
 -3.3444804145914442E-01 a       663     1    19     2     3
 -1.0634752789531150E-01 a       664     1    19     2     4
 -4.3220136873332993E-01 a       665     1    19     2     5
  3.7900517029903508E-01 a       666     1    19     2     6
  4.9623639189044227E-01 a       667     1    19     2     7
  4.6206689543568713E-01 a       668     1    19     2     8
  4.9158271459202724E-01 a       669     1    19     2     9
  8.8713615057144007E-02 a       670     1    19     2    10
  3.3821349933850420E-01 a       671     1    19     2    11
  3.9079096284292175E-01 a       672     1    19     2    12
  4.5245320115766113E-01 a       673     1    19     2    13
 -1.6959547874258982E-01 a       674     1    19     2    14
  2.3774452330820287E-01 a       675     1    19     2    15
  6.1596903015301907E-01 a       676     1    19     2    16
 -4.5094932569917417E-01 a       677     1    19     2    17
  3.0396489458951975E-01 a       678     1    19     2    18
 -2.6571509284847439E-01 a       679     1    19     2    19
  4.8721821483951588E-01 a       680     1    19     2    20
  2.8925043402409556E-01 a       681     1    20     2     1
 -5.5097358413445374E-01 a       682     1    20     2     2
 -1.7548802369596224E-02 a       683     1    20     2     3
 -1.1749197911078015E-01 a       684     1    20     2     4
 -8.1702417992372586E-02 a       685     1    20     2     5
 -2.8436530655914061E-01 a       686     1    20     2     6
  3.9597287901032885E-01 a       687     1    20     2     7
 -2.6164099252315576E-01 a       688     1    20     2     8
  3.2340193008757145E-01 a       689     1    20     2     9
  1.7427370828285624E-01 a       690     1    20     2    10
  4.5896968212155054E-02 a       691     1    20     2    11
 -2.0056748907337751E-01 a       692     1    20     2    12
  1.4659827905286271E-01 a       693     1    20     2    13
  5.1888234690796198E-01 a       694     1    20     2    14
 -1.9402808705720215E-01 a       695     1    20     2    15
  4.3960801197658439E-01 a       696     1    20     2    16
  4.0119397439025922E-01 a       697     1    20     2    17
  3.6681106232758104E-01 a       698     1    20     2    18
  2.5658254399458802E-01 a       699     1    20     2    19
 -1.1101829843056493E-01 a       700     1    20     2    20
 -9.8488091270047173E-01 b       701     2     1
  1.1323993716263898E+00 b       702     2     2
  1.8020725218225311E-01 b       703     2     3
 -1.1656946712264800E+00 b       704     2     4
 -3.3030433724709912E-01 b       705     2     5
 -1.0876761461705826E+00 b       706     2     6
 -1.3649706755222029E+00 b       707     2     7
  1.1837724410299528E+00 b       708     2     8
 -5.9810774526898458E-01 b       709     2     9
  8.6955581873291010E-01 b       710     2    10
  2.9062486813925169E-02 b       711     2    11
 -1.0440108621396762E+00 b       712     2    12
 -1.6103205574940030E-01 b       713     2    13
 -1.5151875936690207E+00 b       714     2    14
 -1.3774707184374062E+00 b       715     2    15
  6.7991285503003140E-01 b       716     2    16
  8.2788434239486530E-01 b       717     2    17
 -5.9579351517146231E-02 b       718     2    18
  6.2504747755239198E-01 b       719     2    19
 -1.7393669941488471E-01 b       720     2    20
  2.2351661977519674E-01 a       721     2     1     3     1
  2.4359350800891738E-01 a       722     2     2     3     1
  6.1145680053182505E-01 a       723     2     3     3     1
 -4.2205646062969421E-01 a       724     2     4     3     1
  9.2539150437271456E-02 a       725     2     5     3     1
  6.6666773664305501E-01 a       726     2     6     3     1
 -4.6979438431305925E-01 a       727     2     7     3     1
 -1.0135559205663227E+00 a       728     2     8     3     1
  5.6672906523918742E-01 a       729     2     9     3     1
 -3.9683976106677656E-02 a       730     2    10     3     1
  6.9510549575233027E-01 a       731     2    11     3     1
 -4.1354384493391433E-01 a       732     2    12     3     1
 -5.7706594909663023E-01 a       733     2    13     3     1
 -3.0649379608013172E-01 a       734     2    14     3     1
 -5.0926055283755511E-01 a       735     2    15     3     1
 -1.0442955062290635E+00 a       736     2    16     3     1
 -5.3177745332014692E-01 a       737     2    17     3     1
  6.4552188382438125E-01 a       738     2    18     3     1
  8.9534422783372680E-01 a       739     2    19     3     1
  1.2051597737266193E-01 a       740     2    20     3     1
  3.4616416666988425E-01 b       741     3     1
