################################################################################
# Neural network connection values (weights and biases).
################################################################################
# Col  Name       Description
################################################################################
# 1    connection Neural network connection value.
# 2    t          Connection type (a = weight, b = bias).
# 3    index      Index enumerating weights.
# 4    l_s        Starting point layer (end point layer for biases).
# 5    n_s        Starting point neuron in starting layer (end point neuron for biases).
# 6    l_e        End point layer.
# 7    n_e        End point neuron in end layer.
################################################################################
#                      1 2         3     4     5     6     7
#             connection t     index   l_s   n_s   l_e   n_e
############################################################
  4.4981370793958314E-01 a         1     0     1     1     1
  6.4904455974072917E-01 a         2     0     1     1     2
 -6.1237838163469382E-01 a         3     0     1     1     3
 -6.0037177340121417E-01 a         4     0     1     1     4
 -2.8001226772018123E-01 a         5     0     1     1     5
 -9.6300649056135765E-02 a         6     0     1     1     6
 -4.2525912553854295E-01 a         7     0     1     1     7
  9.4511315961282191E-02 a         8     0     1     1     8
  4.1497373874505827E-01 a         9     0     1     1     9
  8.8706760134865015E-01 a        10     0     1     1    10
 -2.2533560143421519E-01 a        11     0     1     1    11
 -2.9238642997159858E-01 a        12     0     1     1    12
 -3.1161018221252429E-01 a        13     0     1     1    13
 -1.7145682029934892E-01 a        14     0     1     1    14
 -2.2580795486822969E-01 a        15     0     1     1    15
  1.1936681079795526E-01 a        16     0     1     1    16
 -6.6277841727975551E-01 a        17     0     1     1    17
 -6.2693090225113191E-01 a        18     0     1     1    18
 -4.3304432030664575E-03 a        19     0     1     1    19
  4.4824341822892327E-01 a        20     0     1     1    20
 -1.6213176940542495E-01 a        21     0     2     1     1
  4.9927038057435667E-02 a        22     0     2     1     2
 -4.8873842859762157E-01 a        23     0     2     1     3
  1.1731182754114738E-01 a        24     0     2     1     4
 -5.1597512952883895E-01 a        25     0     2     1     5
  1.4880522044554043E-01 a        26     0     2     1     6
  3.9245652189192443E-01 a        27     0     2     1     7
 -2.9365760370192190E-01 a        28     0     2     1     8
 -3.7198149707063327E-01 a        29     0     2     1     9
  4.7398168638998922E-01 a        30     0     2     1    10
 -8.6169056147765588E-01 a        31     0     2     1    11
  5.5894671751320613E-01 a        32     0     2     1    12
  2.0997839741353352E-01 a        33     0     2     1    13
  6.4757375647375592E-01 a        34     0     2     1    14
  1.3866020875393725E-01 a        35     0     2     1    15
 -4.2650686657638898E-01 a        36     0     2     1    16
  1.2608431681351062E-01 a        37     0     2     1    17
  3.8043687903707812E-01 a        38     0     2     1    18
 -2.9034087789850316E-01 a        39     0     2     1    19
 -4.1016733300581060E-01 a        40     0     2     1    20
 -2.0058835670430809E-02 a        41     0     3     1     1
 -4.9660268031430405E-01 a        42     0     3     1     2
  4.4821116314913173E-01 a        43     0     3     1     3
  4.4698832324223958E-01 a        44     0     3     1     4
 -2.4952684633190436E-01 a        45     0     3     1     5
 -5.0010491520864542E-01 a        46     0     3     1     6
 -1.6883516625028178E-01 a        47     0     3     1     7
  3.6476879375736976E-01 a        48     0     3     1     8
 -6.1612630265404741E-02 a        49     0     3     1     9
 -1.8241489366868338E-01 a        50     0     3     1    10
  6.9268315769743982E-01 a        51     0     3     1    11
 -3.8013873552184457E-01 a        52     0     3     1    12
 -5.2492085220605250E-02 a        53     0     3     1    13
 -3.3939083785980184E-01 a        54     0     3     1    14
  9.5142498099800732E-01 a        55     0     3     1    15
  4.1968031218152235E-01 a        56     0     3     1    16
  8.7932267707498435E-01 a        57     0     3     1    17
 -2.8715040041568984E-01 a        58     0     3     1    18
  6.9025953024562758E-01 a        59     0     3     1    19
 -2.2591350794947923E-01 a        60     0     3     1    20
 -5.2453729308418895E-01 a        61     0     4     1     1
  4.6261528316092336E-02 a        62     0     4     1     2
  1.2261773333568671E-01 a        63     0     4     1     3
  1.7031468988744658E-01 a        64     0     4     1     4
  4.8500137250746378E-01 a        65     0     4     1     5
  7.4757629551669605E-02 a        66     0     4     1     6
 -5.1111763234274410E-01 a        67     0     4     1     7
  3.6458475013451874E-01 a        68     0     4     1     8
 -3.8383708185708776E-01 a        69     0     4     1     9
  5.6628892377522821E-01 a        70     0     4     1    10
 -7.2519350675609842E-02 a        71     0     4     1    11
  3.4246611731846882E-01 a        72     0     4     1    12
 -2.1764355367356464E-01 a        73     0     4     1    13
 -6.2407735625401556E-02 a        74     0     4     1    14
 -4.2064868953678669E-02 a        75     0     4     1    15
  5.2196341581006012E-01 a        76     0     4     1    16
 -2.7307676493408062E-01 a        77     0     4     1    17
 -4.2779360597882857E-02 a        78     0     4     1    18
  2.3332035589656411E-02 a        79     0     4     1    19
 -3.2256793576614384E-01 a        80     0     4     1    20
 -2.9762792531570090E-02 a        81     0     5     1     1
  6.6521048513407133E-01 a        82     0     5     1     2
 -3.7822595316367939E-02 a        83     0     5     1     3
 -5.4563473800459295E-01 a        84     0     5     1     4
 -5.4969711500567953E-01 a        85     0     5     1     5
  3.3271747752747144E-01 a        86     0     5     1     6
  4.2859397231345331E-01 a        87     0     5     1     7
 -4.0297486632595758E-01 a        88     0     5     1     8
  2.2210106249961996E-02 a        89     0     5     1     9
  3.2253669414776942E-01 a        90     0     5     1    10
  7.0988362442059183E-01 a        91     0     5     1    11
 -5.0417492430002014E-02 a        92     0     5     1    12
  2.2660051278821361E-01 a        93     0     5     1    13
  7.8032334175107299E-01 a        94     0     5     1    14
 -9.0922895326156300E-02 a        95     0     5     1    15
 -2.6901375165897001E-01 a        96     0     5     1    16
 -3.9336734914940774E-01 a        97     0     5     1    17
 -6.5053132715189188E-01 a        98     0     5     1    18
  9.4037549273767684E-01 a        99     0     5     1    19
 -1.3495399712667439E-01 a       100     0     5     1    20
  4.0459833247621735E-01 a       101     0     6     1     1
 -7.5625291176486575E-01 a       102     0     6     1     2
 -7.8769858622337638E-02 a       103     0     6     1     3
 -1.5517339263323926E-01 a       104     0     6     1     4
 -5.7365634233015539E-01 a       105     0     6     1     5
 -2.5388421363398206E-01 a       106     0     6     1     6
  3.7054157348786337E-01 a       107     0     6     1     7
  9.3173387154258269E-01 a       108     0     6     1     8
 -2.2100113651100894E-01 a       109     0     6     1     9
 -5.8667219703479390E-01 a       110     0     6     1    10
  1.0450262978103246E+00 a       111     0     6     1    11
  6.1010200311703278E-01 a       112     0     6     1    12
  4.1848263613556486E-01 a       113     0     6     1    13
 -7.4683637125664212E-02 a       114     0     6     1    14
  1.5256190816939269E-01 a       115     0     6     1    15
 -5.3180667296313344E-01 a       116     0     6     1    16
  8.9606427627039442E-01 a       117     0     6     1    17
 -7.3491432629958020E-01 a       118     0     6     1    18
  3.6348588890508410E-01 a       119     0     6     1    19
 -1.6991892051942417E-02 a       120     0     6     1    20
 -6.9141714959145295E-01 a       121     0     7     1     1
  3.8181739935244102E-01 a       122     0     7     1     2
  8.4375786088761617E-01 a       123     0     7     1     3
 -1.7183707555126426E-01 a       124     0     7     1     4
  3.6845316211734952E-01 a       125     0     7     1     5
  5.7033667449808412E-01 a       126     0     7     1     6
 -7.1471515351207132E-02 a       127     0     7     1     7
  4.3685411180871006E-02 a       128     0     7     1     8
 -5.5703852400005438E-01 a       129     0     7     1     9
 -6.6343822783671208E-02 a       130     0     7     1    10
 -2.3894395403053600E-01 a       131     0     7     1    11
  3.8786670810570481E-02 a       132     0     7     1    12
 -2.2160328039124066E-01 a       133     0     7     1    13
  4.5095528152269876E-01 a       134     0     7     1    14
 -1.4371235887827596E-01 a       135     0     7     1    15
  2.2476218731772979E-01 a       136     0     7     1    16
 -2.5526076607589504E-01 a       137     0     7     1    17
 -3.3439226913015768E-01 a       138     0     7     1    18
  9.7237527357318221E-01 a       139     0     7     1    19
 -5.0384395756770062E-01 a       140     0     7     1    20
  4.1746767714540967E-01 a       141     0     8     1     1
 -2.3912550650587967E-02 a       142     0     8     1     2
 -6.0991424349371748E-01 a       143     0     8     1     3
  3.9936465311928987E-01 a       144     0     8     1     4
  1.7428378954836460E-01 a       145     0     8     1     5
 -5.4276339325882750E-01 a       146     0     8     1     6
  7.7964967724595613E-01 a       147     0     8     1     7
 -7.8807094625895147E-01 a       148     0     8     1     8
 -2.8292576952402287E-01 a       149     0     8     1     9
  2.1630918301276456E-01 a       150     0     8     1    10
 -1.8505424825526584E-01 a       151     0     8     1    11
 -5.3276487888321145E-01 a       152     0     8     1    12
  2.2461872028717439E-03 a       153     0     8     1    13
  5.4840456639480813E-03 a       154     0     8     1    14
  7.0771697435623904E-01 a       155     0     8     1    15
  5.5776239103279290E-01 a       156     0     8     1    16
 -4.2706386130090146E-02 a       157     0     8     1    17
 -7.9888720596559415E-01 a       158     0     8     1    18
  5.5528038671601110E-02 a       159     0     8     1    19
  1.2983100290375124E-01 a       160     0     8     1    20
  6.9444173460421615E-02 a       161     0     9     1     1
 -5.2324972114463375E-01 a       162     0     9     1     2
  5.7945708901258564E-01 a       163     0     9     1     3
 -3.6847866473149243E-01 a       164     0     9     1     4
  6.0239919481551585E-01 a       165     0     9     1     5
  3.5342629788378915E-01 a       166     0     9     1     6
 -3.6365230148920125E-01 a       167     0     9     1     7
  4.4011138567149682E-01 a       168     0     9     1     8
 -2.9275635812985817E-01 a       169     0     9     1     9
  4.3850689027716316E-01 a       170     0     9     1    10
  2.6181481824307906E-01 a       171     0     9     1    11
  6.7962018387797696E-01 a       172     0     9     1    12
 -3.3719616878629793E-01 a       173     0     9     1    13
 -2.9465015197782463E-01 a       174     0     9     1    14
 -3.4971498556363184E-01 a       175     0     9     1    15
  1.6493416670691932E-01 a       176     0     9     1    16
  1.6900050840584951E-01 a       177     0     9     1    17
 -2.0729064256049620E-01 a       178     0     9     1    18
 -6.1623903894849119E-01 a       179     0     9     1    19
 -4.5630775457573203E-01 a       180     0     9     1    20
  7.4890377368943473E-01 a       181     0    10     1     1
  3.6486201492212000E-01 a       182     0    10     1     2
 -1.0006801994080140E-01 a       183     0    10     1     3
 -1.6685240674737707E-02 a       184     0    10     1     4
 -4.2340033066657951E-01 a       185     0    10     1     5
 -5.8957171155864208E-01 a       186     0    10     1     6
  6.7133263305570279E-01 a       187     0    10     1     7
  6.8060678686492004E-01 a       188     0    10     1     8
 -3.0214643220588422E-01 a       189     0    10     1     9
 -3.2029324654200020E-01 a       190     0    10     1    10
  5.3591792857861276E-01 a       191     0    10     1    11
  4.5519435796313523E-01 a       192     0    10     1    12
 -5.7541586735354289E-01 a       193     0    10     1    13
  3.4717146264406008E-02 a       194     0    10     1    14
 -5.0704841046609406E-01 a       195     0    10     1    15
  4.7242162548117733E-01 a       196     0    10     1    16
 -4.6536512981041389E-01 a       197     0    10     1    17
  1.0765773805234773E-01 a       198     0    10     1    18
  6.3500258262893616E-01 a       199     0    10     1    19
  6.8628661397184554E-01 a       200     0    10     1    20
 -7.8138347517885162E-02 a       201     0    11     1     1
 -3.4201430451468445E-01 a       202     0    11     1     2
  2.4032032764312677E-01 a       203     0    11     1     3
 -3.7559719876273601E-01 a       204     0    11     1     4
 -9.3134225571072579E-02 a       205     0    11     1     5
  2.0581858963968452E-01 a       206     0    11     1     6
  5.4677797719734300E-01 a       207     0    11     1     7
  2.0375418802576491E-02 a       208     0    11     1     8
 -8.1223036670503468E-01 a       209     0    11     1     9
  3.4738559314846906E-01 a       210     0    11     1    10
 -1.1105148237605673E-02 a       211     0    11     1    11
  7.5578429230071908E-01 a       212     0    11     1    12
  5.6287247001186735E-01 a       213     0    11     1    13
  1.6857046262872111E-01 a       214     0    11     1    14
  2.6471012856971887E-01 a       215     0    11     1    15
 -2.5598843833044610E-01 a       216     0    11     1    16
 -3.4515689792124729E-02 a       217     0    11     1    17
 -5.8775766813949659E-01 a       218     0    11     1    18
  2.3219947629154242E-01 a       219     0    11     1    19
  6.2866619109440736E-01 a       220     0    11     1    20
  1.8536730097656157E-01 a       221     0    12     1     1
  8.3095086581879019E-01 a       222     0    12     1     2
  7.6661732232509561E-01 a       223     0    12     1     3
 -3.7489361389196102E-01 a       224     0    12     1     4
 -8.1169101344448091E-01 a       225     0    12     1     5
  5.6386676480547693E-01 a       226     0    12     1     6
 -5.2752519646549001E-01 a       227     0    12     1     7
 -2.1189316615109577E-01 a       228     0    12     1     8
  4.4742367995484533E-01 a       229     0    12     1     9
  5.8063075195389058E-01 a       230     0    12     1    10
  2.4629600419526304E-01 a       231     0    12     1    11
  6.7236685081783265E-01 a       232     0    12     1    12
  3.4029098598335455E-01 a       233     0    12     1    13
  4.5468294623970823E-01 a       234     0    12     1    14
 -5.5165683635900720E-01 a       235     0    12     1    15
  6.6094901269196860E-01 a       236     0    12     1    16
 -3.1992909510545497E-01 a       237     0    12     1    17
 -2.6156290238627727E-01 a       238     0    12     1    18
  5.1913215459944789E-02 a       239     0    12     1    19
 -2.0365934408764369E-01 a       240     0    12     1    20
 -3.6923669305024176E-01 a       241     0    13     1     1
 -3.7328029636845650E-01 a       242     0    13     1     2
 -1.2139210546329020E-01 a       243     0    13     1     3
  2.9393373372265030E-01 a       244     0    13     1     4
 -3.4217167208045157E-01 a       245     0    13     1     5
  1.8784600691005529E-01 a       246     0    13     1     6
  4.8121242479863276E-02 a       247     0    13     1     7
 -1.7378323225205407E-02 a       248     0    13     1     8
  6.6036609029901039E-01 a       249     0    13     1     9
 -7.5272810050706782E-02 a       250     0    13     1    10
 -8.7730136432825748E-02 a       251     0    13     1    11
  2.5548513635238096E-01 a       252     0    13     1    12
  3.3213627709819182E-01 a       253     0    13     1    13
  2.8716604298368098E-01 a       254     0    13     1    14
  5.3378878363545190E-03 a       255     0    13     1    15
  6.8139015758612043E-01 a       256     0    13     1    16
  4.4389993883726397E-01 a       257     0    13     1    17
  2.9554841046875913E-01 a       258     0    13     1    18
  1.1704137671266596E-01 a       259     0    13     1    19
  5.2411099314349463E-01 a       260     0    13     1    20
 -6.2811768709966964E-01 a       261     0    14     1     1
 -1.0702896951998603E-01 a       262     0    14     1     2
 -3.5990122171520161E-01 a       263     0    14     1     3
 -3.5700717569948509E-01 a       264     0    14     1     4
  3.9997631079074773E-02 a       265     0    14     1     5
  3.5079923573479088E-01 a       266     0    14     1     6
 -1.0898398775399007E-01 a       267     0    14     1     7
  1.6409986943853641E-01 a       268     0    14     1     8
 -3.3097571581572555E-01 a       269     0    14     1     9
 -5.8942474746268980E-01 a       270     0    14     1    10
  5.2708205677774855E-01 a       271     0    14     1    11
  5.8490322128913264E-01 a       272     0    14     1    12
 -2.2766746728481346E-01 a       273     0    14     1    13
 -5.2597734890741887E-01 a       274     0    14     1    14
  3.0455380111923352E-01 a       275     0    14     1    15
 -2.9873307168562302E-01 a       276     0    14     1    16
  6.4110384043034985E-01 a       277     0    14     1    17
 -4.3470180143125442E-01 a       278     0    14     1    18
  5.3794273000029624E-01 a       279     0    14     1    19
  5.1169576168317477E-01 a       280     0    14     1    20
  2.4798311297773284E-01 b       281     1     1
 -1.0294774541578440E+00 b       282     1     2
 -1.5698329397529869E+00 b       283     1     3
 -4.7105741282329316E-01 b       284     1     4
  7.4847293871906284E-01 b       285     1     5
 -8.0053680957735907E-01 b       286     1     6
  9.8990854525291283E-01 b       287     1     7
  1.3586660218768589E+00 b       288     1     8
  1.8880750233274832E+00 b       289     1     9
  5.2899033361922465E-01 b       290     1    10
 -1.3371478251022766E+00 b       291     1    11
 -1.0771138108686249E+00 b       292     1    12
 -5.8399929392454786E-01 b       293     1    13
 -1.0441018453683117E+00 b       294     1    14
 -1.0198071849338404E+00 b       295     1    15
  1.1703713118109966E+00 b       296     1    16
 -5.0017915120588542E-02 b       297     1    17
 -1.7187259574595748E-01 b       298     1    18
 -8.6457040122849538E-01 b       299     1    19
  1.8071403240675969E+00 b       300     1    20
  2.6464836306330725E-01 a       301     1     1     2     1
  3.4830242829904917E-01 a       302     1     1     2     2
  2.4905307469085780E-01 a       303     1     1     2     3
  3.9573406918275954E-02 a       304     1     1     2     4
 -1.7954355297280930E-01 a       305     1     1     2     5
  3.9913049001000583E-01 a       306     1     1     2     6
 -6.1914671495821227E-01 a       307     1     1     2     7
 -5.8962228320490626E-02 a       308     1     1     2     8
  5.9123823846773345E-02 a       309     1     1     2     9
 -1.9065875885123776E-01 a       310     1     1     2    10
 -7.1762823567755618E-01 a       311     1     1     2    11
  2.0409166795374331E-01 a       312     1     1     2    12
  4.1522718092304400E-01 a       313     1     1     2    13
  5.6466806994621288E-01 a       314     1     1     2    14
 -5.3701032877504029E-01 a       315     1     1     2    15
 -5.1027284866363473E-02 a       316     1     1     2    16
  1.0761771754514307E-01 a       317     1     1     2    17
 -3.2565744365360388E-01 a       318     1     1     2    18
  4.5800972881379137E-01 a       319     1     1     2    19
  1.2851604211350987E-01 a       320     1     1     2    20
  1.6007985679384976E-01 a       321     1     2     2     1
  1.6133083268610127E-01 a       322     1     2     2     2
 -2.6386866391078806E-01 a       323     1     2     2     3
  6.9686080364730285E-01 a       324     1     2     2     4
 -5.2572764311354547E-01 a       325     1     2     2     5
 -3.9367721144427220E-01 a       326     1     2     2     6
 -5.7636533074213314E-01 a       327     1     2     2     7
  6.3250060852722234E-01 a       328     1     2     2     8
 -3.5763424527614568E-01 a       329     1     2     2     9
 -1.2498126089142512E-01 a       330     1     2     2    10
  1.9790850424826467E-01 a       331     1     2     2    11
 -3.9851606623543277E-02 a       332     1     2     2    12
 -2.6471944617780296E-02 a       333     1     2     2    13
 -5.0297280989257243E-01 a       334     1     2     2    14
  2.0406289915006055E-02 a       335     1     2     2    15
  1.2476330470704168E-01 a       336     1     2     2    16
  7.4893235145565812E-02 a       337     1     2     2    17
 -2.0070868987259624E-01 a       338     1     2     2    18
  2.3574607241497958E-01 a       339     1     2     2    19
  1.8987436158893106E-01 a       340     1     2     2    20
  5.5029614868118271E-01 a       341     1     3     2     1
 -6.4400384621995976E-01 a       342     1     3     2     2
 -7.4179733557094263E-01 a       343     1     3     2     3
  4.5756304159472960E-01 a       344     1     3     2     4
  6.1031753624580098E-01 a       345     1     3     2     5
  5.6124693335285192E-01 a       346     1     3     2     6
  1.4161195702519591E-01 a       347     1     3     2     7
 -1.5136376319845601E-01 a       348     1     3     2     8
 -1.3969446540319333E-01 a       349     1     3     2     9
  3.7347097400824247E-01 a       350     1     3     2    10
  2.4188924426929795E-01 a       351     1     3     2    11
 -3.9377653950546493E-01 a       352     1     3     2    12
 -3.0964357260399572E-01 a       353     1     3     2    13
 -4.2678420084354435E-01 a       354     1     3     2    14
 -1.1223750823291087E-01 a       355     1     3     2    15
 -4.8707624542069300E-01 a       356     1     3     2    16
 -1.4277271214259227E-01 a       357     1     3     2    17
  4.0698815887506928E-01 a       358     1     3     2    18
  4.2256080418676417E-01 a       359     1     3     2    19
  1.9778657704157718E-01 a       360     1     3     2    20
  3.6950297506304025E-01 a       361     1     4     2     1
 -4.6282174934026532E-02 a       362     1     4     2     2
  4.1369199831306658E-01 a       363     1     4     2     3
  5.8822277228132591E-01 a       364     1     4     2     4
 -9.9003251345544815E-02 a       365     1     4     2     5
 -2.1846052682925325E-02 a       366     1     4     2     6
  3.5146437421848348E-01 a       367     1     4     2     7
 -1.0535694080817826E-01 a       368     1     4     2     8
 -2.5281800990169443E-02 a       369     1     4     2     9
 -3.5324039057078155E-01 a       370     1     4     2    10
  1.3882274368547645E-01 a       371     1     4     2    11
  2.4895914987977846E-01 a       372     1     4     2    12
 -1.0439299306322854E-01 a       373     1     4     2    13
 -1.5554068848420310E-01 a       374     1     4     2    14
 -5.7049007260305484E-02 a       375     1     4     2    15
  3.3821252402882675E-02 a       376     1     4     2    16
 -2.3721134350983408E-01 a       377     1     4     2    17
  4.1066719577466615E-01 a       378     1     4     2    18
  6.1300435619014930E-02 a       379     1     4     2    19
  4.0494889253814070E-01 a       380     1     4     2    20
  4.6349727387195450E-01 a       381     1     5     2     1
 -9.3698390737622150E-02 a       382     1     5     2     2
  3.4014171847836877E-01 a       383     1     5     2     3
  6.3914009112257170E-02 a       384     1     5     2     4
 -3.2813873229850365E-01 a       385     1     5     2     5
  3.9605692228736844E-01 a       386     1     5     2     6
 -5.0119477087854036E-01 a       387     1     5     2     7
  5.7558889969188065E-01 a       388     1     5     2     8
  4.9592684253289776E-02 a       389     1     5     2     9
  1.3438774015191329E-01 a       390     1     5     2    10
  1.0016887880131885E-01 a       391     1     5     2    11
  4.8702098931517146E-01 a       392     1     5     2    12
  2.3584781117162495E-01 a       393     1     5     2    13
 -3.9920227673322906E-01 a       394     1     5     2    14
 -5.2302248584526512E-01 a       395     1     5     2    15
  1.7201970393260985E-01 a       396     1     5     2    16
 -6.7328673915002052E-02 a       397     1     5     2    17
  5.8423982357826955E-02 a       398     1     5     2    18
 -5.9768915222330199E-01 a       399     1     5     2    19
 -2.7578993290511944E-01 a       400     1     5     2    20
  2.1229999067530692E-01 a       401     1     6     2     1
 -2.9593938082364706E-02 a       402     1     6     2     2
 -2.7503192602710175E-01 a       403     1     6     2     3
 -2.2438068311731571E-01 a       404     1     6     2     4
  4.1921315339636438E-02 a       405     1     6     2     5
  8.7224619125561703E-02 a       406     1     6     2     6
  2.4511147043270728E-01 a       407     1     6     2     7
  5.1158232120754699E-01 a       408     1     6     2     8
 -2.5879522866578430E-01 a       409     1     6     2     9
 -1.0295354896662699E-02 a       410     1     6     2    10
  5.4572087985626083E-01 a       411     1     6     2    11
 -5.1401334955457267E-01 a       412     1     6     2    12
  5.1896993102054478E-01 a       413     1     6     2    13
  2.0538524383191620E-01 a       414     1     6     2    14
 -4.7579494785369164E-01 a       415     1     6     2    15
  4.5008092618084733E-01 a       416     1     6     2    16
  7.5130623776461500E-02 a       417     1     6     2    17
 -2.3839421181474177E-01 a       418     1     6     2    18
  7.2584906386685428E-03 a       419     1     6     2    19
 -5.9096891698421838E-01 a       420     1     6     2    20
 -5.5996518925918726E-01 a       421     1     7     2     1
 -4.6026287773942970E-01 a       422     1     7     2     2
  5.1383040187009166E-01 a       423     1     7     2     3
 -3.9316943325223297E-01 a       424     1     7     2     4
 -5.8687955714224738E-01 a       425     1     7     2     5
 -1.6113560697954812E-01 a       426     1     7     2     6
  1.8902271193728296E-01 a       427     1     7     2     7
 -2.8115952325160432E-01 a       428     1     7     2     8
  4.6496708890843358E-01 a       429     1     7     2     9
 -6.1081336011985321E-01 a       430     1     7     2    10
 -3.6031251056466163E-01 a       431     1     7     2    11
  2.6752297616591762E-02 a       432     1     7     2    12
  2.8172598701572449E-01 a       433     1     7     2    13
  5.0200875752223921E-02 a       434     1     7     2    14
  2.2883734447755742E-02 a       435     1     7     2    15
 -6.3336865886223703E-01 a       436     1     7     2    16
 -3.6263154697978806E-01 a       437     1     7     2    17
  1.0355808713073424E-01 a       438     1     7     2    18
 -4.1233127311739071E-01 a       439     1     7     2    19
 -2.2012313868380246E-01 a       440     1     7     2    20
 -5.7441244290202031E-01 a       441     1     8     2     1
 -1.7171608750478959E-01 a       442     1     8     2     2
  4.2351528639286401E-01 a       443     1     8     2     3
  2.9942360015960352E-02 a       444     1     8     2     4
 -1.8466791931623433E-03 a       445     1     8     2     5
 -3.6005744331832862E-01 a       446     1     8     2     6
 -3.6280591111143745E-01 a       447     1     8     2     7
 -3.2028170415913007E-02 a       448     1     8     2     8
  5.8036152811916109E-01 a       449     1     8     2     9
 -1.2974989441028692E-01 a       450     1     8     2    10
 -3.0746357905488769E-01 a       451     1     8     2    11
  3.1322882186377116E-01 a       452     1     8     2    12
  3.5448792346900410E-01 a       453     1     8     2    13
 -3.7835055296113851E-01 a       454     1     8     2    14
 -4.0295739326638595E-02 a       455     1     8     2    15
  4.1586956319304275E-01 a       456     1     8     2    16
  2.8409763112347008E-01 a       457     1     8     2    17
 -2.5105569988458781E-01 a       458     1     8     2    18
  5.1388579724474059E-01 a       459     1     8     2    19
  6.2709264833482059E-01 a       460     1     8     2    20
 -3.7103480220889468E-01 a       461     1     9     2     1
 -2.2947129286428194E-01 a       462     1     9     2     2
  4.1701425348400163E-02 a       463     1     9     2     3
 -2.9773532401731284E-01 a       464     1     9     2     4
 -1.9825772788660534E-01 a       465     1     9     2     5
 -7.8000906274279969E-01 a       466     1     9     2     6
  1.9103869605505885E-01 a       467     1     9     2     7
  4.6773375046696097E-01 a       468     1     9     2     8
 -5.0074609349361476E-01 a       469     1     9     2     9
  1.9641226765483585E-01 a       470     1     9     2    10
  6.3187472774404729E-01 a       471     1     9     2    11
  4.9587310990133077E-01 a       472     1     9     2    12
 -3.9683444436286164E-01 a       473     1     9     2    13
 -4.2744607686000713E-01 a       474     1     9     2    14
 -1.0249422097649918E-01 a       475     1     9     2    15
 -3.7390103553202797E-01 a       476     1     9     2    16
 -1.8232883626402982E-01 a       477     1     9     2    17
 -3.6648611312543583E-01 a       478     1     9     2    18
 -4.3204079138348728E-01 a       479     1     9     2    19
 -5.3004098509417807E-01 a       480     1     9     2    20
  3.4131994194507592E-01 a       481     1    10     2     1
 -2.5526863483971052E-01 a       482     1    10     2     2
 -3.0073425379350562E-02 a       483     1    10     2     3
  2.9443879614536878E-01 a       484     1    10     2     4
 -4.0094146638923545E-01 a       485     1    10     2     5
 -6.9826044605514059E-02 a       486     1    10     2     6
 -5.4432756513902369E-01 a       487     1    10     2     7
  1.3527468258140032E-01 a       488     1    10     2     8
 -2.9771973848866140E-01 a       489     1    10     2     9
  4.6352274698249263E-01 a       490     1    10     2    10
 -3.3227323596953307E-01 a       491     1    10     2    11
 -5.5299824489688931E-01 a       492     1    10     2    12
 -2.3851881727646879E-02 a       493     1    10     2    13
  1.8743107144492102E-01 a       494     1    10     2    14
 -8.1672042014212208E-03 a       495     1    10     2    15
 -1.6374484692925993E-02 a       496     1    10     2    16
 -1.6574842047515581E-01 a       497     1    10     2    17
 -2.6075770303461421E-01 a       498     1    10     2    18
  5.0468919726415695E-01 a       499     1    10     2    19
  3.8575872538645789E-01 a       500     1    10     2    20
  2.9126190158822768E-01 a       501     1    11     2     1
 -3.9634275336827979E-01 a       502     1    11     2     2
 -7.2363194130470898E-01 a       503     1    11     2     3
 -3.3614387112233418E-01 a       504     1    11     2     4
 -5.1272710175080838E-01 a       505     1    11     2     5
  1.4856707713274137E-01 a       506     1    11     2     6
  4.2522362722680651E-01 a       507     1    11     2     7
  2.8596708846283081E-01 a       508     1    11     2     8
  5.3338258074035427E-01 a       509     1    11     2     9
 -2.9676023631057209E-02 a       510     1    11     2    10
 -7.3825604045275633E-02 a       511     1    11     2    11
 -2.0910713328757644E-01 a       512     1    11     2    12
 -4.4661482984059053E-01 a       513     1    11     2    13
 -3.2752589363982565E-02 a       514     1    11     2    14
  6.5764102726211859E-01 a       515     1    11     2    15
 -5.1747831226612984E-01 a       516     1    11     2    16
  7.4506625289116180E-01 a       517     1    11     2    17
  3.5001199002479849E-01 a       518     1    11     2    18
  6.9415767693882868E-01 a       519     1    11     2    19
 -2.3139214516001236E-01 a       520     1    11     2    20
  1.0829362364831539E-01 a       521     1    12     2     1
 -1.4385619999238056E-01 a       522     1    12     2     2
  9.2430641751751738E-02 a       523     1    12     2     3
  2.1073002600833616E-02 a       524     1    12     2     4
  6.4546506415055338E-01 a       525     1    12     2     5
 -3.8811673895884397E-01 a       526     1    12     2     6
  4.2134951667546294E-01 a       527     1    12     2     7
  3.8414909224299819E-02 a       528     1    12     2     8
 -2.8947953223806330E-03 a       529     1    12     2     9
  4.8849851589761473E-01 a       530     1    12     2    10
  6.7744743741631785E-01 a       531     1    12     2    11
  2.6080214771741300E-01 a       532     1    12     2    12
  5.0239628323519436E-01 a       533     1    12     2    13
 -3.2182013569356893E-01 a       534     1    12     2    14
  5.5444879555575832E-01 a       535     1    12     2    15
 -2.1228020285639901E-01 a       536     1    12     2    16
  4.5878442448473872E-01 a       537     1    12     2    17
  7.6529848503400499E-01 a       538     1    12     2    18
  2.1177268249125336E-01 a       539     1    12     2    19
 -1.3675359171625731E-01 a       540     1    12     2    20
  2.2856902713343619E-01 a       541     1    13     2     1
 -3.0256075314136599E-02 a       542     1    13     2     2
  4.7810543155504875E-01 a       543     1    13     2     3
  1.9550340027091792E-01 a       544     1    13     2     4
 -1.1904089177024511E-02 a       545     1    13     2     5
  5.5242846705368409E-01 a       546     1    13     2     6
 -1.8220423285359110E-03 a       547     1    13     2     7
 -3.3993351257949091E-03 a       548     1    13     2     8
  4.8250560661512126E-01 a       549     1    13     2     9
  4.8524239503694533E-01 a       550     1    13     2    10
 -1.6513520791130058E-02 a       551     1    13     2    11
  5.0386327864252023E-01 a       552     1    13     2    12
 -2.3761824126672773E-01 a       553     1    13     2    13
  6.8930012801100560E-03 a       554     1    13     2    14
  1.9517002438528098E-02 a       555     1    13     2    15
  6.0867823043181890E-01 a       556     1    13     2    16
 -9.4961504546619377E-02 a       557     1    13     2    17
  1.3363593957654421E-01 a       558     1    13     2    18
  1.3240461225398864E-01 a       559     1    13     2    19
 -2.9791448212107036E-01 a       560     1    13     2    20
  4.8575895476535802E-01 a       561     1    14     2     1
 -4.2125649572670731E-01 a       562     1    14     2     2
 -1.7262752750750876E-01 a       563     1    14     2     3
 -1.5111423397601806E-01 a       564     1    14     2     4
  3.3144358534318276E-02 a       565     1    14     2     5
  5.0366369066281391E-02 a       566     1    14     2     6
 -1.3219074010894752E-01 a       567     1    14     2     7
  1.8378790171901155E-01 a       568     1    14     2     8
  7.2985192988449887E-01 a       569     1    14     2     9
  4.3249794347321943E-02 a       570     1    14     2    10
 -4.5784378036059242E-01 a       571     1    14     2    11
 -1.0162338768925962E-01 a       572     1    14     2    12
 -9.4333927362700493E-02 a       573     1    14     2    13
  5.0179094709982097E-01 a       574     1    14     2    14
  1.3276955719431457E-01 a       575     1    14     2    15
  2.2129612343990188E-01 a       576     1    14     2    16
  5.9959409442975120E-01 a       577     1    14     2    17
  3.7810961401126847E-01 a       578     1    14     2    18
 -5.3032362871306304E-01 a       579     1    14     2    19
  4.7834138724343789E-01 a       580     1    14     2    20
 -2.2422935505629832E-01 a       581     1    15     2     1
  1.4672331410784936E-01 a       582     1    15     2     2
 -2.6032595456197122E-01 a       583     1    15     2     3
  3.4725274580563076E-01 a       584     1    15     2     4
  4.6076147020929958E-01 a       585     1    15     2     5
  3.0596002634656677E-01 a       586     1    15     2     6
 -4.0067763217876895E-01 a       587     1    15     2     7
 -2.3290820534139170E-01 a       588     1    15     2     8
  1.6392452669865568E-01 a       589     1    15     2     9
 -3.9680391889660555E-01 a       590     1    15     2    10
  6.2303200485499095E-02 a       591     1    15     2    11
 -2.8184681777517395E-01 a       592     1    15     2    12
 -5.4165069085338990E-01 a       593     1    15     2    13
 -3.5899356313461472E-01 a       594     1    15     2    14
  4.1745410027261881E-01 a       595     1    15     2    15
 -2.1529434651494489E-01 a       596     1    15     2    16
  5.9484234756672660E-01 a       597     1    15     2    17
 -4.9428354812304032E-01 a       598     1    15     2    18
 -1.8482594456214513E-01 a       599     1    15     2    19
  2.7168215281503089E-01 a       600     1    15     2    20
 -3.1626474251519865E-01 a       601     1    16     2     1
 -4.2976395633518105E-01 a       602     1    16     2     2
 -1.5719151144045723E-01 a       603     1    16     2     3
 -7.1177413397797296E-01 a       604     1    16     2     4
 -7.2270865718987953E-01 a       605     1    16     2     5
 -2.4606418181482431E-01 a       606     1    16     2     6
 -5.1761167537041652E-01 a       607     1    16     2     7
 -3.3156064677289737E-01 a       608     1    16     2     8
 -3.6209089989272236E-01 a       609     1    16     2     9
  1.5272940370416324E-01 a       610     1    16     2    10
  1.9177762319573841E-01 a       611     1    16     2    11
  4.1385856302578522E-01 a       612     1    16     2    12
 -3.1446181924923433E-01 a       613     1    16     2    13
  3.8549824975531699E-01 a       614     1    16     2    14
  8.1136753386449167E-01 a       615     1    16     2    15
 -5.3202700874879549E-01 a       616     1    16     2    16
 -4.7011798356248891E-01 a       617     1    16     2    17
 -4.5601375713294667E-01 a       618     1    16     2    18
 -2.6602544092794400E-01 a       619     1    16     2    19
  4.4508462337651022E-01 a       620     1    16     2    20
  3.9214599441904741E-01 a       621     1    17     2     1
 -4.4675885856355006E-02 a       622     1    17     2     2
  2.9428679681435194E-01 a       623     1    17     2     3
 -5.6783366842768446E-01 a       624     1    17     2     4
  2.2562729070742965E-01 a       625     1    17     2     5
  3.2726826013975119E-01 a       626     1    17     2     6
  3.4791978114925202E-02 a       627     1    17     2     7
  3.9876380017445828E-01 a       628     1    17     2     8
  3.2728695591507267E-01 a       629     1    17     2     9
 -2.5097277301009269E-01 a       630     1    17     2    10
 -4.0853803575260761E-01 a       631     1    17     2    11
 -3.9846193037520727E-01 a       632     1    17     2    12
  3.1262912827097494E-01 a       633     1    17     2    13
  2.4149896669112297E-01 a       634     1    17     2    14
  5.3422705518905489E-02 a       635     1    17     2    15
 -3.5951300085325300E-01 a       636     1    17     2    16
  1.3150825807197283E-01 a       637     1    17     2    17
 -3.4845814763417110E-01 a       638     1    17     2    18
  3.8562267068449901E-01 a       639     1    17     2    19
  3.1190970064098650E-01 a       640     1    17     2    20
 -4.9822867423060058E-01 a       641     1    18     2     1
 -3.3115786831531013E-01 a       642     1    18     2     2
  3.4911762028418342E-01 a       643     1    18     2     3
  1.8935026790026765E-01 a       644     1    18     2     4
  9.7384306777143270E-02 a       645     1    18     2     5
 -3.7870591539019105E-01 a       646     1    18     2     6
 -3.0073358475623890E-01 a       647     1    18     2     7
 -1.6924931145679699E-03 a       648     1    18     2     8
  1.9230505531267530E-01 a       649     1    18     2     9
  4.9558725972860923E-01 a       650     1    18     2    10
  3.5239214033062743E-01 a       651     1    18     2    11
  2.2258351414323660E-01 a       652     1    18     2    12
  4.2921747604912097E-01 a       653     1    18     2    13
  2.5681206992882899E-02 a       654     1    18     2    14
  5.3277948862798330E-01 a       655     1    18     2    15
 -3.8815036662764069E-01 a       656     1    18     2    16
 -6.5093452172128655E-02 a       657     1    18     2    17
 -5.6227579937091743E-01 a       658     1    18     2    18
 -3.6296421947959123E-02 a       659     1    18     2    19
 -5.8566212933087414E-01 a       660     1    18     2    20
 -1.7359020670925790E-01 a       661     1    19     2     1
 -5.1086989522760218E-01 a       662     1    19     2     2
  2.5887258251540574E-01 a       663     1    19     2     3
  1.5918725053897076E-01 a       664     1    19     2     4
  3.2769367199939353E-01 a       665     1    19     2     5
  1.1342985498305283E-01 a       666     1    19     2     6
  4.0612939221039657E-01 a       667     1    19     2     7
 -4.5790023336941009E-02 a       668     1    19     2     8
 -5.6668394438755565E-01 a       669     1    19     2     9
  3.8389117052245891E-01 a       670     1    19     2    10
  4.2867431230246694E-01 a       671     1    19     2    11
  3.6878879215541388E-01 a       672     1    19     2    12
 -4.1235784205608605E-01 a       673     1    19     2    13
  5.5210165471368688E-01 a       674     1    19     2    14
  1.4502959491646100E-01 a       675     1    19     2    15
  7.6822052303082269E-02 a       676     1    19     2    16
 -6.5797927962301683E-01 a       677     1    19     2    17
  3.2220283613967060E-01 a       678     1    19     2    18
 -6.5495738150099891E-01 a       679     1    19     2    19
 -1.8153811008357910E-02 a       680     1    19     2    20
  1.3382209910456894E-01 a       681     1    20     2     1
 -2.3682423307609360E-01 a       682     1    20     2     2
  3.2846027597077143E-01 a       683     1    20     2     3
  6.3337414221264166E-01 a       684     1    20     2     4
  3.0261603421349365E-01 a       685     1    20     2     5
 -1.1820594376778044E-01 a       686     1    20     2     6
 -4.0648827850954727E-01 a       687     1    20     2     7
  3.9461323143792981E-01 a       688     1    20     2     8
 -5.4250600444247954E-01 a       689     1    20     2     9
 -5.0400428390362129E-02 a       690     1    20     2    10
  1.0890276934332008E-02 a       691     1    20     2    11
 -1.6873759653338541E-01 a       692     1    20     2    12
  4.4521874271630313E-01 a       693     1    20     2    13
  2.3747368104600888E-01 a       694     1    20     2    14
  4.0107082678551030E-02 a       695     1    20     2    15
 -3.2225480040417182E-01 a       696     1    20     2    16
  1.4378845851226990E-01 a       697     1    20     2    17
  5.6581165726350635E-01 a       698     1    20     2    18
 -1.3910395192032360E-01 a       699     1    20     2    19
 -3.7569106673270247E-01 a       700     1    20     2    20
 -1.0344548553470432E+00 b       701     2     1
  1.0321134538847687E+00 b       702     2     2
 -1.5757574340583180E+00 b       703     2     3
 -1.5546387624053304E-02 b       704     2     4
 -8.7315403992341589E-01 b       705     2     5
 -4.9522210656598548E-01 b       706     2     6
 -8.5730564577740132E-01 b       707     2     7
 -1.2033147905764283E+00 b       708     2     8
  1.8312920677780609E-01 b       709     2     9
 -1.6673886680101153E+00 b       710     2    10
 -4.1506534197992506E-01 b       711     2    11
  1.5734264692605331E+00 b       712     2    12
  5.5326212704518218E-01 b       713     2    13
  1.4201178249685149E+00 b       714     2    14
 -1.0991964344803897E+00 b       715     2    15
 -7.6843138024643387E-01 b       716     2    16
  8.1125815367899634E-01 b       717     2    17
  1.4205527895733931E+00 b       718     2    18
 -8.9562921983224275E-01 b       719     2    19
 -1.5309486292550751E+00 b       720     2    20
  4.1465111452996271E-02 a       721     2     1     3     1
  4.8619094092416171E-01 a       722     2     2     3     1
  1.2444891960421367E-01 a       723     2     3     3     1
  3.2458342126221941E-03 a       724     2     4     3     1
 -1.0006393737491286E+00 a       725     2     5     3     1
 -1.5698461927444343E+00 a       726     2     6     3     1
  8.1057222544508201E-01 a       727     2     7     3     1
  4.8507946053193735E-01 a       728     2     8     3     1
  6.9210639767306362E-02 a       729     2     9     3     1
  8.8532777129645557E-01 a       730     2    10     3     1
 -1.7637624716474751E-01 a       731     2    11     3     1
  4.6854451392996005E-01 a       732     2    12     3     1
 -4.4327621436047060E-01 a       733     2    13     3     1
 -1.3536482601346675E-02 a       734     2    14     3     1
  7.6261398925932877E-01 a       735     2    15     3     1
 -8.4549364710040167E-02 a       736     2    16     3     1
 -3.6169479016328820E-01 a       737     2    17     3     1
  9.7023379003982863E-02 a       738     2    18     3     1
  7.9658670179645918E-01 a       739     2    19     3     1
  1.7879575517914018E-01 a       740     2    20     3     1
 -5.6790571785917321E-01 b       741     3     1
