################################################################################
# Neural network connection values (weights and biases).
################################################################################
# Col  Name       Description
################################################################################
# 1    connection Neural network connection value.
# 2    t          Connection type (a = weight, b = bias).
# 3    index      Index enumerating weights.
# 4    l_s        Starting point layer (end point layer for biases).
# 5    n_s        Starting point neuron in starting layer (end point neuron for biases).
# 6    l_e        End point layer.
# 7    n_e        End point neuron in end layer.
################################################################################
#                      1 2         3     4     5     6     7
#             connection t     index   l_s   n_s   l_e   n_e
############################################################
  5.4823427931209057E-01 a         1     0     1     1     1
 -4.1131484187415507E-01 a         2     0     1     1     2
  1.2106005187352625E-01 a         3     0     1     1     3
  9.7065412821633101E-01 a         4     0     1     1     4
 -7.4564636942636631E-01 a         5     0     1     1     5
 -4.4585046684436341E-01 a         6     0     1     1     6
  5.4317948940363148E-01 a         7     0     1     1     7
  1.0261400267104641E-02 a         8     0     1     1     8
  4.2145891265143642E-01 a         9     0     1     1     9
  7.4564572919430605E-01 a        10     0     1     1    10
  5.5808233876752003E-02 a        11     0     1     1    11
 -4.5795753001255562E-01 a        12     0     1     1    12
  9.7871861331436227E-01 a        13     0     1     1    13
 -6.0439434292297889E-01 a        14     0     1     1    14
 -6.0802078928194658E-01 a        15     0     1     1    15
 -1.3753163059045685E+00 a        16     0     1     1    16
 -6.3961400929447942E-01 a        17     0     1     1    17
 -7.7939236720412219E-01 a        18     0     1     1    18
 -6.6982340867984069E-01 a        19     0     1     1    19
  1.1336962485097274E-01 a        20     0     1     1    20
  5.6155551894272349E-01 a        21     0     2     1     1
  1.8255196160256501E-01 a        22     0     2     1     2
  8.0303377255822106E-01 a        23     0     2     1     3
 -3.8154214755896898E-01 a        24     0     2     1     4
  1.7290312563455146E-01 a        25     0     2     1     5
  1.2486023158440740E-01 a        26     0     2     1     6
 -2.0051437093926641E-01 a        27     0     2     1     7
  3.2706202626390052E-01 a        28     0     2     1     8
 -4.6737250048843948E-01 a        29     0     2     1     9
 -2.1632552258274582E-01 a        30     0     2     1    10
  5.3448074755064723E-01 a        31     0     2     1    11
 -5.1285815895809030E-02 a        32     0     2     1    12
  8.0861252949372531E-01 a        33     0     2     1    13
  4.2940338050433940E-01 a        34     0     2     1    14
 -2.9613667300033325E-01 a        35     0     2     1    15
  3.7387081333855564E-03 a        36     0     2     1    16
  1.6756023655292365E-01 a        37     0     2     1    17
  1.7155573311674097E-01 a        38     0     2     1    18
  6.7597701913851105E-01 a        39     0     2     1    19
 -1.8438847319770045E-02 a        40     0     2     1    20
 -4.6116347932408902E-01 a        41     0     3     1     1
 -6.8963645794373829E-01 a        42     0     3     1     2
 -1.1253932982978250E+00 a        43     0     3     1     3
  9.3522187840232407E-01 a        44     0     3     1     4
 -8.7500485711102832E-02 a        45     0     3     1     5
  2.6456405949055112E-01 a        46     0     3     1     6
 -6.6787572022245378E-01 a        47     0     3     1     7
 -6.2312867793514481E-01 a        48     0     3     1     8
  6.7546182251164399E-01 a        49     0     3     1     9
 -7.0475714325915195E-01 a        50     0     3     1    10
  1.7549683152296972E-01 a        51     0     3     1    11
  4.2254424091956799E-01 a        52     0     3     1    12
 -1.5113073561131574E-01 a        53     0     3     1    13
 -7.1035989585484338E-01 a        54     0     3     1    14
  2.9477298499216063E-02 a        55     0     3     1    15
 -1.6913754370268613E-01 a        56     0     3     1    16
  6.6199371019855738E-03 a        57     0     3     1    17
 -1.3201340648608220E-02 a        58     0     3     1    18
 -8.3739949333721406E-02 a        59     0     3     1    19
  5.0350292980239753E-01 a        60     0     3     1    20
 -6.2866825483925859E-01 a        61     0     4     1     1
  1.2060258563415021E+00 a        62     0     4     1     2
  8.3483032989879233E-02 a        63     0     4     1     3
  4.6319680583763062E-01 a        64     0     4     1     4
  3.4519715371772974E-01 a        65     0     4     1     5
 -4.9406357748039781E-01 a        66     0     4     1     6
  1.4008886708001864E+00 a        67     0     4     1     7
  3.3069663545578992E-01 a        68     0     4     1     8
  5.6292126224069705E-01 a        69     0     4     1     9
  1.0387976147199982E+00 a        70     0     4     1    10
 -5.6531811090100532E-02 a        71     0     4     1    11
  1.9862908292846169E-02 a        72     0     4     1    12
  1.3393209507595951E+00 a        73     0     4     1    13
  8.1598117211332723E-03 a        74     0     4     1    14
  2.7531384318770263E-01 a        75     0     4     1    15
 -1.6983335625729973E-01 a        76     0     4     1    16
 -1.1092740133603722E+00 a        77     0     4     1    17
 -1.3021259519277570E+00 a        78     0     4     1    18
 -5.2878792938847052E-01 a        79     0     4     1    19
 -8.3847417799814583E-02 a        80     0     4     1    20
 -1.0796537358707868E-01 a        81     0     5     1     1
  2.1812962287614437E-01 a        82     0     5     1     2
  1.4099644212241780E-01 a        83     0     5     1     3
 -6.3053030330050816E-02 a        84     0     5     1     4
 -3.7289508792979309E-01 a        85     0     5     1     5
  2.4460657062062091E-01 a        86     0     5     1     6
 -1.4318375281632525E-01 a        87     0     5     1     7
  5.9924816978747875E-01 a        88     0     5     1     8
 -9.4305346211126503E-02 a        89     0     5     1     9
 -4.5009174803801427E-01 a        90     0     5     1    10
 -1.1421970480128944E-01 a        91     0     5     1    11
 -5.4190588331929346E-01 a        92     0     5     1    12
 -3.3966466761202907E-01 a        93     0     5     1    13
  1.7783460201547074E-01 a        94     0     5     1    14
 -9.8756150065552584E-01 a        95     0     5     1    15
  8.0993666152613664E-02 a        96     0     5     1    16
 -8.3727007506453829E-02 a        97     0     5     1    17
  7.5098134095659208E-01 a        98     0     5     1    18
 -6.1617004774752615E-01 a        99     0     5     1    19
 -3.9144299980031594E-01 a       100     0     5     1    20
  6.7437963573530957E-01 a       101     0     6     1     1
 -1.1049601032140675E+00 a       102     0     6     1     2
 -1.0877031059659434E+00 a       103     0     6     1     3
  2.0571256865320250E-01 a       104     0     6     1     4
 -6.0286365361820415E-01 a       105     0     6     1     5
  3.2901386121539443E-02 a       106     0     6     1     6
  6.9222872643679434E-02 a       107     0     6     1     7
  2.4637741816199729E-01 a       108     0     6     1     8
 -1.0132079781269236E+00 a       109     0     6     1     9
  2.7609215233500600E-01 a       110     0     6     1    10
  1.3213366442086267E+00 a       111     0     6     1    11
  3.0881192797073692E-01 a       112     0     6     1    12
 -1.0290424627364275E-01 a       113     0     6     1    13
 -8.8288343448395445E-01 a       114     0     6     1    14
  7.1635033723528341E-01 a       115     0     6     1    15
  6.3238444996115928E-01 a       116     0     6     1    16
 -2.8006077637647570E-01 a       117     0     6     1    17
  1.3363434920886863E+00 a       118     0     6     1    18
 -2.0484742991249347E-01 a       119     0     6     1    19
  1.0643328723390160E+00 a       120     0     6     1    20
 -1.9748542482521275E-01 a       121     0     7     1     1
 -2.4393095051555500E-01 a       122     0     7     1     2
  8.8620782694735312E-01 a       123     0     7     1     3
 -9.6580372553464366E-01 a       124     0     7     1     4
 -4.0005023354688612E-01 a       125     0     7     1     5
  8.1188747112392778E-01 a       126     0     7     1     6
  1.4710310180845096E-01 a       127     0     7     1     7
  5.2180339820698207E-01 a       128     0     7     1     8
  6.0859820875319992E-01 a       129     0     7     1     9
  2.9275388568567418E-01 a       130     0     7     1    10
 -5.5647643136358816E-04 a       131     0     7     1    11
 -8.4308420476504198E-01 a       132     0     7     1    12
 -2.0651616234688794E-02 a       133     0     7     1    13
  7.1114102842378391E-01 a       134     0     7     1    14
 -6.7886845321259282E-01 a       135     0     7     1    15
  5.6737965698754711E-01 a       136     0     7     1    16
  2.7542862282614639E-01 a       137     0     7     1    17
 -5.5410940797850708E-02 a       138     0     7     1    18
 -4.4853095494187145E-01 a       139     0     7     1    19
  1.7301282723468522E-02 a       140     0     7     1    20
 -2.6349591472806350E-01 a       141     0     8     1     1
  8.8315925972674691E-01 a       142     0     8     1     2
 -5.4079537212588413E-01 a       143     0     8     1     3
  1.7898010620194066E-01 a       144     0     8     1     4
 -2.2555488193981781E-02 a       145     0     8     1     5
 -7.8994985210622726E-01 a       146     0     8     1     6
  2.8648088660027071E-01 a       147     0     8     1     7
  3.0493012101195904E-01 a       148     0     8     1     8
 -1.4929967441665187E-01 a       149     0     8     1     9
  3.1514329213888748E-01 a       150     0     8     1    10
  1.5626755388455757E-01 a       151     0     8     1    11
  7.9585412551326551E-01 a       152     0     8     1    12
  3.5517550645714191E-01 a       153     0     8     1    13
  3.4131772255870163E-01 a       154     0     8     1    14
  4.9137088372984422E-01 a       155     0     8     1    15
  5.2572776977217761E-01 a       156     0     8     1    16
  7.0181285302072005E-01 a       157     0     8     1    17
  3.5458542417646177E-01 a       158     0     8     1    18
  3.2362781450711348E-01 a       159     0     8     1    19
  1.9761766251934718E-01 a       160     0     8     1    20
 -1.4347859298877624E-01 a       161     0     9     1     1
 -4.2090814677924199E-01 a       162     0     9     1     2
  3.0875359543829028E-01 a       163     0     9     1     3
  2.6886409931625443E-02 a       164     0     9     1     4
 -3.0746642749873798E-01 a       165     0     9     1     5
  8.4578295750413202E-01 a       166     0     9     1     6
  5.3262858158887823E-02 a       167     0     9     1     7
 -3.2228538783073507E-01 a       168     0     9     1     8
 -2.8033250479186467E-02 a       169     0     9     1     9
  1.0998697150109038E-01 a       170     0     9     1    10
  2.1948762773258190E-01 a       171     0     9     1    11
 -2.7592590687109081E-01 a       172     0     9     1    12
 -3.6419717549431246E-01 a       173     0     9     1    13
  5.5929005185841714E-02 a       174     0     9     1    14
  1.0930509471850975E+00 a       175     0     9     1    15
 -6.4383471291485639E-01 a       176     0     9     1    16
 -7.0349389223610526E-01 a       177     0     9     1    17
 -4.2334657476011262E-01 a       178     0     9     1    18
 -1.1467240176005202E+00 a       179     0     9     1    19
 -2.1921820265020164E-02 a       180     0     9     1    20
  5.4806986005062043E-02 a       181     0    10     1     1
  3.1922168592607841E-01 a       182     0    10     1     2
 -3.1501671490838085E-01 a       183     0    10     1     3
  2.0419829424374603E-01 a       184     0    10     1     4
  3.0834837924089864E-01 a       185     0    10     1     5
 -2.1539059516863493E-01 a       186     0    10     1     6
 -5.2074919349349846E-01 a       187     0    10     1     7
  3.9420764003847325E-01 a       188     0    10     1     8
  9.2162186270632707E-01 a       189     0    10     1     9
 -6.8142866762412968E-01 a       190     0    10     1    10
 -1.8260016903185977E-01 a       191     0    10     1    11
  3.5147293958339515E-01 a       192     0    10     1    12
  4.9943523607670315E-01 a       193     0    10     1    13
 -6.6280699137806043E-02 a       194     0    10     1    14
  1.1351952639185511E-01 a       195     0    10     1    15
 -3.3629795791156894E-02 a       196     0    10     1    16
  2.6060875572521510E-02 a       197     0    10     1    17
  3.6759327866441316E-01 a       198     0    10     1    18
  3.2611920242550796E-01 a       199     0    10     1    19
  2.0905150187297988E-01 a       200     0    10     1    20
  4.4508434860166696E-01 a       201     0    11     1     1
  7.6681433930358178E-01 a       202     0    11     1     2
 -3.8677590973796228E-01 a       203     0    11     1     3
 -4.8765221380154833E-01 a       204     0    11     1     4
 -1.3717240190644642E-01 a       205     0    11     1     5
  6.6207089796995899E-01 a       206     0    11     1     6
  2.0373945198010276E-01 a       207     0    11     1     7
 -1.1085459004518744E-01 a       208     0    11     1     8
 -4.9630992645717670E-01 a       209     0    11     1     9
 -1.4698457996394623E-01 a       210     0    11     1    10
 -4.7802978394904028E-01 a       211     0    11     1    11
  1.1256818135311923E+00 a       212     0    11     1    12
 -7.7329971350966187E-01 a       213     0    11     1    13
  2.1490031878605406E-01 a       214     0    11     1    14
  3.5701005531959740E-01 a       215     0    11     1    15
  7.7084318986858225E-01 a       216     0    11     1    16
 -7.1919992401984573E-02 a       217     0    11     1    17
  6.0792867230813501E-02 a       218     0    11     1    18
  6.3506406701623963E-01 a       219     0    11     1    19
  1.8557834039019075E-01 a       220     0    11     1    20
  7.8736783706879754E-02 a       221     0    12     1     1
 -6.2321630680771090E-01 a       222     0    12     1     2
  4.6666464293169563E-01 a       223     0    12     1     3
 -1.7716406767881626E-01 a       224     0    12     1     4
  6.7223688452170227E-01 a       225     0    12     1     5
 -4.3490352413986057E-02 a       226     0    12     1     6
 -6.4697009086562884E-01 a       227     0    12     1     7
 -6.2434925956872434E-01 a       228     0    12     1     8
  1.3803520066452427E-01 a       229     0    12     1     9
  1.9767435880898868E-01 a       230     0    12     1    10
 -3.7854462602581440E-01 a       231     0    12     1    11
 -1.8104196005106482E-01 a       232     0    12     1    12
  1.1645156726608163E+00 a       233     0    12     1    13
 -6.0602897105036968E-01 a       234     0    12     1    14
  8.8895977321114339E-01 a       235     0    12     1    15
  6.4557434123751123E-01 a       236     0    12     1    16
 -3.5330108165944457E-01 a       237     0    12     1    17
  9.0948478838452129E-01 a       238     0    12     1    18
  1.9080349943389387E-02 a       239     0    12     1    19
  7.0173791735138769E-01 a       240     0    12     1    20
 -2.2164852284571260E-01 a       241     0    13     1     1
  7.0688186403184083E-02 a       242     0    13     1     2
  6.9622399039134045E-02 a       243     0    13     1     3
 -4.8658814448525253E-02 a       244     0    13     1     4
 -2.7779672939218658E-01 a       245     0    13     1     5
 -3.6135379202086404E-01 a       246     0    13     1     6
 -1.8569734830118620E-01 a       247     0    13     1     7
  2.9094718019316845E-01 a       248     0    13     1     8
  2.5031834051802104E-01 a       249     0    13     1     9
 -5.4546655367124365E-02 a       250     0    13     1    10
 -2.2304441935064637E-01 a       251     0    13     1    11
  2.3570079612063030E-01 a       252     0    13     1    12
  7.5234183657648293E-02 a       253     0    13     1    13
 -1.0312626912318244E-01 a       254     0    13     1    14
  1.1487769790524789E-01 a       255     0    13     1    15
 -9.7205933732045835E-02 a       256     0    13     1    16
 -2.8353880637092055E-01 a       257     0    13     1    17
 -5.8977985161997620E-02 a       258     0    13     1    18
  1.2148006605296530E-01 a       259     0    13     1    19
 -3.2030294578215025E-02 a       260     0    13     1    20
  4.2706937726321742E-01 a       261     0    14     1     1
  2.3509349354419359E-01 a       262     0    14     1     2
  1.2360562155751416E-01 a       263     0    14     1     3
 -4.3912078649169389E-01 a       264     0    14     1     4
 -1.5803561642621222E-01 a       265     0    14     1     5
 -2.4806086983934533E-02 a       266     0    14     1     6
  6.3047107921404288E-01 a       267     0    14     1     7
  3.5295151776623801E-01 a       268     0    14     1     8
  5.0139441761215153E-01 a       269     0    14     1     9
  4.0042800165008657E-01 a       270     0    14     1    10
 -1.9123972136487083E-01 a       271     0    14     1    11
  1.0116599252559441E-01 a       272     0    14     1    12
 -8.0957347796729517E-01 a       273     0    14     1    13
  2.5508863798423481E-01 a       274     0    14     1    14
  8.9534056022397290E-01 a       275     0    14     1    15
  5.8622262401540604E-01 a       276     0    14     1    16
 -2.6918740806114066E-01 a       277     0    14     1    17
  4.6715936483953507E-01 a       278     0    14     1    18
  9.1580888308021435E-01 a       279     0    14     1    19
 -4.9414101608666361E-01 a       280     0    14     1    20
 -7.9434497943653398E-02 b       281     1     1
 -1.1236089423350388E+00 b       282     1     2
 -8.3233084300854923E-02 b       283     1     3
  9.8453396195028589E-02 b       284     1     4
  5.6796934754665584E-01 b       285     1     5
  8.3282540891330925E-01 b       286     1     6
  6.6894446368243499E-01 b       287     1     7
 -3.1784338748007307E-01 b       288     1     8
  1.6726677171839941E+00 b       289     1     9
  5.5115324411236855E-01 b       290     1    10
  3.0550740500275542E-01 b       291     1    11
 -2.2065908282622013E-01 b       292     1    12
 -1.4479530804136025E+00 b       293     1    13
  1.6714141610501547E+00 b       294     1    14
  1.8679758816936571E+00 b       295     1    15
 -3.6556349356398388E-01 b       296     1    16
  1.3666626680170300E+00 b       297     1    17
  1.4868554963410716E-01 b       298     1    18
 -1.6693420203642793E+00 b       299     1    19
  3.8567012687275587E-01 b       300     1    20
  7.5289210309382954E-03 a       301     1     1     2     1
 -2.9037207902480272E-01 a       302     1     1     2     2
 -6.4718648587881711E-01 a       303     1     1     2     3
  1.2791895002214235E-01 a       304     1     1     2     4
  1.6918110289015317E-01 a       305     1     1     2     5
 -6.1335319511778652E-01 a       306     1     1     2     6
  2.5600427764927702E-01 a       307     1     1     2     7
 -1.7253112919200683E-01 a       308     1     1     2     8
  5.5504377185121712E-01 a       309     1     1     2     9
 -1.9556438624348412E-02 a       310     1     1     2    10
  6.3244639568934446E-02 a       311     1     1     2    11
  1.7460109924690631E-01 a       312     1     1     2    12
 -3.2039308031740277E-01 a       313     1     1     2    13
 -1.6231862682720165E-02 a       314     1     1     2    14
  2.4773787398642763E-01 a       315     1     1     2    15
  4.6423763293051490E-01 a       316     1     1     2    16
 -5.9220741647615160E-01 a       317     1     1     2    17
  4.6607818885203078E-01 a       318     1     1     2    18
 -1.9953464677404531E-01 a       319     1     1     2    19
  2.9313174731188341E-01 a       320     1     1     2    20
  4.2475222697596660E-01 a       321     1     2     2     1
  7.4170073441407491E-01 a       322     1     2     2     2
  2.0470119234422360E-01 a       323     1     2     2     3
  6.0600567339290767E-01 a       324     1     2     2     4
 -4.8461714130954509E-01 a       325     1     2     2     5
  3.2711718305784598E-01 a       326     1     2     2     6
 -3.0677897254116576E-01 a       327     1     2     2     7
 -4.8663521973081003E-01 a       328     1     2     2     8
  4.4704483257520283E-01 a       329     1     2     2     9
  3.7613954870723226E-01 a       330     1     2     2    10
  2.1202040287514742E-01 a       331     1     2     2    11
 -7.5160711135372815E-01 a       332     1     2     2    12
  6.6316809572039548E-01 a       333     1     2     2    13
  7.0415177718696459E-02 a       334     1     2     2    14
  6.9406347542344127E-01 a       335     1     2     2    15
 -3.2293290562015742E-01 a       336     1     2     2    16
  1.8875579447528990E-01 a       337     1     2     2    17
  1.3933445597711044E-01 a       338     1     2     2    18
 -4.4369758342730098E-01 a       339     1     2     2    19
 -4.4132715574074710E-01 a       340     1     2     2    20
 -8.3885423893883770E-01 a       341     1     3     2     1
 -2.2533306895143712E-02 a       342     1     3     2     2
  5.4121950200237046E-01 a       343     1     3     2     3
  7.3456218213038679E-03 a       344     1     3     2     4
 -5.5862083041431454E-01 a       345     1     3     2     5
  4.8110532742304701E-02 a       346     1     3     2     6
  3.5401373530041552E-01 a       347     1     3     2     7
 -5.6331970708508794E-01 a       348     1     3     2     8
 -4.1973137075490281E-02 a       349     1     3     2     9
 -4.9637354064971195E-01 a       350     1     3     2    10
 -2.4892186133720751E-01 a       351     1     3     2    11
 -1.6946913296238450E-01 a       352     1     3     2    12
 -4.8217656194896885E-01 a       353     1     3     2    13
  1.7799784412296707E-01 a       354     1     3     2    14
  6.6353541298813501E-01 a       355     1     3     2    15
 -2.7204036365796652E-01 a       356     1     3     2    16
  1.0431685178000706E-01 a       357     1     3     2    17
 -2.1017803451241254E-01 a       358     1     3     2    18
 -2.7083361478835516E-01 a       359     1     3     2    19
 -3.0812733780936302E-01 a       360     1     3     2    20
 -2.1199024267263852E-01 a       361     1     4     2     1
  2.3477744714987162E-01 a       362     1     4     2     2
 -3.1711250449419509E-01 a       363     1     4     2     3
 -4.8275610898255700E-01 a       364     1     4     2     4
 -6.8433839168948618E-01 a       365     1     4     2     5
  3.2246011476837033E-01 a       366     1     4     2     6
  5.6580357615486432E-01 a       367     1     4     2     7
 -1.3498183269103991E-02 a       368     1     4     2     8
  6.3206962463385100E-02 a       369     1     4     2     9
 -1.4135866236384598E-01 a       370     1     4     2    10
 -4.9859558253148750E-01 a       371     1     4     2    11
 -3.3793638559568617E-01 a       372     1     4     2    12
 -4.3774209071436565E-01 a       373     1     4     2    13
  4.6508398197186340E-01 a       374     1     4     2    14
 -2.8770186157163596E-01 a       375     1     4     2    15
  1.2858436944133556E-01 a       376     1     4     2    16
  1.8459099493496123E-01 a       377     1     4     2    17
  7.8492702563792843E-02 a       378     1     4     2    18
  3.3983690588099319E-01 a       379     1     4     2    19
  1.8541075103326903E-02 a       380     1     4     2    20
 -4.6269176575053778E-01 a       381     1     5     2     1
 -4.1005843206789433E-01 a       382     1     5     2     2
 -4.7198609825144572E-01 a       383     1     5     2     3
 -2.5365227065008050E-01 a       384     1     5     2     4
  2.8044914896134282E-01 a       385     1     5     2     5
 -6.1104022983145756E-01 a       386     1     5     2     6
 -1.8244956560545179E-02 a       387     1     5     2     7
  3.2718874348274302E-01 a       388     1     5     2     8
  3.8232556277819990E-01 a       389     1     5     2     9
  5.1470538604376692E-01 a       390     1     5     2    10
  5.6921524765524749E-02 a       391     1     5     2    11
  5.6267216806833242E-01 a       392     1     5     2    12
  3.4502294860459282E-01 a       393     1     5     2    13
  3.7571335276987694E-01 a       394     1     5     2    14
 -4.9722940460733639E-01 a       395     1     5     2    15
  3.8932673944513174E-01 a       396     1     5     2    16
 -5.9702917453692619E-02 a       397     1     5     2    17
  3.8472067302599430E-02 a       398     1     5     2    18
 -6.6304615786982421E-02 a       399     1     5     2    19
  9.3085281837653508E-02 a       400     1     5     2    20
 -3.8271482408760493E-01 a       401     1     6     2     1
  5.2699744182674846E-01 a       402     1     6     2     2
 -9.2333785148628322E-01 a       403     1     6     2     3
  2.6273423061341748E-02 a       404     1     6     2     4
 -8.4015404529049620E-01 a       405     1     6     2     5
 -1.3575683473323621E-01 a       406     1     6     2     6
 -6.8108616477007267E-01 a       407     1     6     2     7
  3.5925673448981804E-01 a       408     1     6     2     8
  3.5149389302053685E-01 a       409     1     6     2     9
  4.7822677960962956E-01 a       410     1     6     2    10
 -3.9159226999936653E-01 a       411     1     6     2    11
  3.3182337253334948E-01 a       412     1     6     2    12
 -2.0878047982824316E-01 a       413     1     6     2    13
 -1.9506671738896963E-01 a       414     1     6     2    14
 -3.8005966819150705E-01 a       415     1     6     2    15
 -5.5577128740627457E-01 a       416     1     6     2    16
 -2.6592286924817776E-01 a       417     1     6     2    17
 -4.1751174762449317E-01 a       418     1     6     2    18
 -4.1555384645622212E-01 a       419     1     6     2    19
 -1.8215147685715619E-01 a       420     1     6     2    20
 -3.3765133545430459E-01 a       421     1     7     2     1
  1.3477850379801892E-01 a       422     1     7     2     2
 -1.8483155044718294E-01 a       423     1     7     2     3
 -7.0553800844068848E-01 a       424     1     7     2     4
  9.8169078427993467E-02 a       425     1     7     2     5
 -9.7592371350355478E-02 a       426     1     7     2     6
  3.0184443524031568E-01 a       427     1     7     2     7
 -5.3834113617515822E-01 a       428     1     7     2     8
 -3.9090984049068883E-01 a       429     1     7     2     9
 -2.7706106235745476E-01 a       430     1     7     2    10
  3.3130144634404191E-01 a       431     1     7     2    11
 -8.5208248369402895E-01 a       432     1     7     2    12
  4.3774727679054476E-01 a       433     1     7     2    13
  1.5618264604718660E-01 a       434     1     7     2    14
  6.0303756348649866E-02 a       435     1     7     2    15
 -7.9182106477434044E-01 a       436     1     7     2    16
 -2.5129872807607390E-01 a       437     1     7     2    17
 -3.0265947615066807E-01 a       438     1     7     2    18
  3.2635763238699533E-01 a       439     1     7     2    19
  2.0622990474865377E-02 a       440     1     7     2    20
 -3.3780265848511809E-01 a       441     1     8     2     1
  3.3147631310173613E-02 a       442     1     8     2     2
 -5.9121470854550162E-01 a       443     1     8     2     3
 -3.9134150596387651E-01 a       444     1     8     2     4
 -5.8530666281371442E-02 a       445     1     8     2     5
  5.3810913329137892E-02 a       446     1     8     2     6
  1.9286564607265186E-01 a       447     1     8     2     7
 -5.4574399752928082E-01 a       448     1     8     2     8
  2.5906040312491777E-02 a       449     1     8     2     9
  4.3041815067235545E-01 a       450     1     8     2    10
  1.2463452632094478E-01 a       451     1     8     2    11
 -2.9127031119786706E-01 a       452     1     8     2    12
 -3.8506772032460762E-01 a       453     1     8     2    13
  3.6693369561848620E-02 a       454     1     8     2    14
 -3.2682857369604412E-01 a       455     1     8     2    15
  4.1315075293832088E-01 a       456     1     8     2    16
 -4.1193894515086071E-01 a       457     1     8     2    17
 -1.3648272249929747E-01 a       458     1     8     2    18
  6.4915911981509825E-02 a       459     1     8     2    19
 -5.1270904606172910E-02 a       460     1     8     2    20
  2.1049820165414471E-02 a       461     1     9     2     1
 -7.0910167815070868E-01 a       462     1     9     2     2
  4.6476271233818189E-01 a       463     1     9     2     3
 -2.2344545486544706E-01 a       464     1     9     2     4
 -5.1133714687162246E-01 a       465     1     9     2     5
 -6.7127457594732076E-01 a       466     1     9     2     6
  5.4015825852220556E-01 a       467     1     9     2     7
 -6.1631975967008512E-01 a       468     1     9     2     8
 -2.2860193940157433E-01 a       469     1     9     2     9
 -4.7314031073772794E-01 a       470     1     9     2    10
 -1.0427594520571799E+00 a       471     1     9     2    11
  3.4435151080594983E-01 a       472     1     9     2    12
 -1.4138220986084851E-01 a       473     1     9     2    13
 -1.4084805504284836E-01 a       474     1     9     2    14
 -1.4700731899695024E-01 a       475     1     9     2    15
  2.4972588247417876E-01 a       476     1     9     2    16
  5.7285843392687419E-01 a       477     1     9     2    17
 -4.4298469102129368E-01 a       478     1     9     2    18
  2.6787181994463050E-01 a       479     1     9     2    19
  6.8042482200304744E-01 a       480     1     9     2    20
  8.1741456938040591E-01 a       481     1    10     2     1
  3.0473624889314238E-01 a       482     1    10     2     2
 -2.7965652310975625E-01 a       483     1    10     2     3
 -2.2741700954930520E-02 a       484     1    10     2     4
  8.1155814026679332E-02 a       485     1    10     2     5
  2.6356236354846863E-01 a       486     1    10     2     6
 -4.9245651532415607E-01 a       487     1    10     2     7
  3.8564288510996264E-01 a       488     1    10     2     8
 -4.3275937147335652E-01 a       489     1    10     2     9
  1.7961871736924195E-01 a       490     1    10     2    10
  2.2204459475329888E-01 a       491     1    10     2    11
 -1.2074334031876818E-01 a       492     1    10     2    12
 -1.8455838999847832E-01 a       493     1    10     2    13
 -2.2518265356002037E-01 a       494     1    10     2    14
 -5.0041670591958076E-01 a       495     1    10     2    15
  1.6837443255781334E-02 a       496     1    10     2    16
  8.1578441250630607E-01 a       497     1    10     2    17
 -4.5147476223186206E-01 a       498     1    10     2    18
  3.7413587573268525E-01 a       499     1    10     2    19
  2.8106990952703859E-01 a       500     1    10     2    20
  1.2814422543159226E-01 a       501     1    11     2     1
 -1.7952611954329570E-01 a       502     1    11     2     2
 -6.9538550358893628E-02 a       503     1    11     2     3
  3.7278930116685971E-01 a       504     1    11     2     4
 -2.6379438585744297E-01 a       505     1    11     2     5
  5.2796743064768259E-01 a       506     1    11     2     6
  5.4489331287938703E-01 a       507     1    11     2     7
 -1.0112722758346099E-01 a       508     1    11     2     8
 -6.6659576971988310E-01 a       509     1    11     2     9
  3.9696403403976954E-02 a       510     1    11     2    10
 -3.8442691599001388E-01 a       511     1    11     2    11
 -2.4866745335214094E-01 a       512     1    11     2    12
  5.7245802905198329E-01 a       513     1    11     2    13
  7.9520854688169040E-01 a       514     1    11     2    14
 -2.1242208932787809E-01 a       515     1    11     2    15
  1.6217641873015531E-01 a       516     1    11     2    16
  2.5969568486725186E-01 a       517     1    11     2    17
 -4.7782424508557808E-01 a       518     1    11     2    18
 -2.2266015651346338E-01 a       519     1    11     2    19
  8.1067980783452953E-02 a       520     1    11     2    20
 -9.4894452034344573E-02 a       521     1    12     2     1
 -6.1414695816710163E-01 a       522     1    12     2     2
  2.5357534529661530E-01 a       523     1    12     2     3
 -3.1870608176780901E-01 a       524     1    12     2     4
 -2.8461644771293310E-01 a       525     1    12     2     5
  3.0084694153410496E-01 a       526     1    12     2     6
 -8.1757322547010264E-02 a       527     1    12     2     7
  4.2860659956526226E-01 a       528     1    12     2     8
 -4.0487242038786636E-01 a       529     1    12     2     9
 -4.7322576650733819E-02 a       530     1    12     2    10
 -3.7493558636515312E-01 a       531     1    12     2    11
  3.4530708637090030E-01 a       532     1    12     2    12
  2.8309582576483772E-01 a       533     1    12     2    13
  1.5527510634540234E-01 a       534     1    12     2    14
  1.1640092135475376E-01 a       535     1    12     2    15
  1.4896319434137761E-01 a       536     1    12     2    16
  6.8422604032153023E-01 a       537     1    12     2    17
  3.8908868620501480E-01 a       538     1    12     2    18
 -9.7155268602864650E-02 a       539     1    12     2    19
  4.0810974996669092E-01 a       540     1    12     2    20
 -1.2480636337299520E+00 a       541     1    13     2     1
 -5.2133810172853057E-01 a       542     1    13     2     2
 -1.0861245317451686E-01 a       543     1    13     2     3
  3.6607148149421381E-01 a       544     1    13     2     4
 -8.3721755536367304E-01 a       545     1    13     2     5
  5.2355148836222443E-01 a       546     1    13     2     6
  3.1723916667820523E-01 a       547     1    13     2     7
  5.2082904828078258E-01 a       548     1    13     2     8
 -5.5362811612619696E-02 a       549     1    13     2     9
  5.3990916911362363E-01 a       550     1    13     2    10
 -2.5725253134822523E-01 a       551     1    13     2    11
  9.5469233892027217E-02 a       552     1    13     2    12
 -6.1727202271773765E-02 a       553     1    13     2    13
  2.1321126886408046E-01 a       554     1    13     2    14
  8.1707232196751134E-01 a       555     1    13     2    15
  3.5641046740671600E-01 a       556     1    13     2    16
  1.4721461514889572E-01 a       557     1    13     2    17
  3.7046408753471677E-01 a       558     1    13     2    18
 -1.0461017034333980E-01 a       559     1    13     2    19
  4.0602413791339404E-03 a       560     1    13     2    20
 -1.7510971322381003E-01 a       561     1    14     2     1
  3.9239839491797662E-01 a       562     1    14     2     2
 -7.2844338087784644E-01 a       563     1    14     2     3
 -2.0658415946802042E-01 a       564     1    14     2     4
 -3.3505534457897906E-01 a       565     1    14     2     5
 -9.1937684756002724E-01 a       566     1    14     2     6
 -2.2618349131683854E-01 a       567     1    14     2     7
 -2.8575979251713257E-01 a       568     1    14     2     8
 -3.8688215910635171E-01 a       569     1    14     2     9
 -4.7650550845723572E-01 a       570     1    14     2    10
 -4.1502506998262129E-01 a       571     1    14     2    11
 -5.3060530311741638E-01 a       572     1    14     2    12
  1.5788147825206850E-01 a       573     1    14     2    13
 -1.9338522406207295E-01 a       574     1    14     2    14
  1.4704107292509941E-01 a       575     1    14     2    15
 -5.7344696476060353E-01 a       576     1    14     2    16
 -1.2482358151399704E-01 a       577     1    14     2    17
 -4.9068080764061772E-01 a       578     1    14     2    18
 -9.9984140895130569E-01 a       579     1    14     2    19
  2.2582256915045643E-01 a       580     1    14     2    20
  2.4004229630792598E-01 a       581     1    15     2     1
  7.5632403549401206E-01 a       582     1    15     2     2
 -6.3832431559816094E-01 a       583     1    15     2     3
  5.5079776582703699E-01 a       584     1    15     2     4
 -2.1174822255127418E-01 a       585     1    15     2     5
 -2.7979583015855508E-01 a       586     1    15     2     6
 -2.1209601844778514E-01 a       587     1    15     2     7
  6.7480661248093388E-01 a       588     1    15     2     8
 -5.0685362209394291E-01 a       589     1    15     2     9
 -3.7459929839358663E-01 a       590     1    15     2    10
  7.4858338107687616E-01 a       591     1    15     2    11
 -1.5878977369967326E-01 a       592     1    15     2    12
  9.8848224133914739E-02 a       593     1    15     2    13
 -6.7068056292436307E-01 a       594     1    15     2    14
  1.2985694259971334E-01 a       595     1    15     2    15
  3.6055357947097542E-02 a       596     1    15     2    16
 -3.2777095230771375E-01 a       597     1    15     2    17
 -4.1132890430042718E-01 a       598     1    15     2    18
 -1.4565845078717715E-01 a       599     1    15     2    19
 -4.8163636416478799E-02 a       600     1    15     2    20
 -4.4986789836919550E-01 a       601     1    16     2     1
  2.6751504750528887E-01 a       602     1    16     2     2
  5.0770474720531700E-01 a       603     1    16     2     3
  4.3131346278797861E-01 a       604     1    16     2     4
 -2.4378986513742415E-02 a       605     1    16     2     5
  1.2933480376546108E-01 a       606     1    16     2     6
  1.1140075556111599E-01 a       607     1    16     2     7
  4.0321610769603189E-01 a       608     1    16     2     8
  2.4802626344136983E-01 a       609     1    16     2     9
 -2.5314207261160049E-01 a       610     1    16     2    10
  4.2284007868561713E-01 a       611     1    16     2    11
 -3.8445475441637650E-01 a       612     1    16     2    12
 -4.8583147741571198E-01 a       613     1    16     2    13
  4.1904237223898461E-01 a       614     1    16     2    14
 -2.7707133884202906E-01 a       615     1    16     2    15
 -6.1608293977614936E-01 a       616     1    16     2    16
  2.4414812581753753E-01 a       617     1    16     2    17
  4.4374507885188702E-01 a       618     1    16     2    18
 -3.6726140387698525E-01 a       619     1    16     2    19
 -8.0461247933761371E-01 a       620     1    16     2    20
  5.8894200802777619E-01 a       621     1    17     2     1
  4.4850781874122220E-01 a       622     1    17     2     2
 -4.8260296761834948E-01 a       623     1    17     2     3
 -2.2935078131814746E-01 a       624     1    17     2     4
 -2.3200312558562738E-01 a       625     1    17     2     5
 -4.9185088481714878E-01 a       626     1    17     2     6
  4.7875907414584351E-01 a       627     1    17     2     7
 -4.0543820957880700E-01 a       628     1    17     2     8
 -1.7883721032496172E-01 a       629     1    17     2     9
  7.7902394936105435E-01 a       630     1    17     2    10
  9.6470358581058624E-02 a       631     1    17     2    11
  7.1656390794202510E-02 a       632     1    17     2    12
  2.4007320164759635E-01 a       633     1    17     2    13
  2.0510884580964459E-01 a       634     1    17     2    14
 -1.0300517807846210E-01 a       635     1    17     2    15
  2.0734400182803617E-01 a       636     1    17     2    16
  5.9578523971128949E-01 a       637     1    17     2    17
 -3.1888606525728136E-01 a       638     1    17     2    18
 -7.1675008065579882E-01 a       639     1    17     2    19
 -8.5401141481869580E-01 a       640     1    17     2    20
 -1.1131031606290402E-01 a       641     1    18     2     1
 -6.5942866923937338E-01 a       642     1    18     2     2
  1.2327804074769702E-01 a       643     1    18     2     3
  3.5555325504132779E-01 a       644     1    18     2     4
  3.5771856594352269E-01 a       645     1    18     2     5
 -1.3779990241325590E-01 a       646     1    18     2     6
 -2.6045882286130773E-01 a       647     1    18     2     7
 -9.6117640081795228E-02 a       648     1    18     2     8
 -4.3873814970589181E-01 a       649     1    18     2     9
  2.2513779372097981E-01 a       650     1    18     2    10
  5.2287803064123971E-02 a       651     1    18     2    11
 -1.9556260832069161E-01 a       652     1    18     2    12
  2.6174393943930946E-01 a       653     1    18     2    13
  1.4788728787968058E-01 a       654     1    18     2    14
  2.5041083994201185E-01 a       655     1    18     2    15
  3.8378275422948360E-01 a       656     1    18     2    16
 -3.3004301130968627E-01 a       657     1    18     2    17
  4.9345708527735027E-01 a       658     1    18     2    18
 -6.0903705210181103E-01 a       659     1    18     2    19
  2.6781461823045093E-02 a       660     1    18     2    20
  1.6075512035968781E-01 a       661     1    19     2     1
  8.6339222509734415E-02 a       662     1    19     2     2
 -2.2559570443482072E-01 a       663     1    19     2     3
 -2.0673878762447068E-01 a       664     1    19     2     4
 -2.9073908796193693E-01 a       665     1    19     2     5
 -3.2662525227334177E-01 a       666     1    19     2     6
 -2.8283962473542412E-01 a       667     1    19     2     7
 -7.2843296874394087E-02 a       668     1    19     2     8
  3.3007233277194120E-01 a       669     1    19     2     9
  2.1508740532649931E-01 a       670     1    19     2    10
 -3.3335376587802301E-01 a       671     1    19     2    11
 -4.5567670377844244E-01 a       672     1    19     2    12
  6.8612075084484325E-01 a       673     1    19     2    13
  8.7328748758797314E-01 a       674     1    19     2    14
 -1.2777357542562281E-02 a       675     1    19     2    15
  7.9297174871818171E-02 a       676     1    19     2    16
  4.9455022720040032E-01 a       677     1    19     2    17
  4.5713311001222112E-01 a       678     1    19     2    18
 -3.4570121372909413E-01 a       679     1    19     2    19
  4.0452521494107541E-01 a       680     1    19     2    20
 -7.3689499260498692E-01 a       681     1    20     2     1
  4.0773009000343634E-02 a       682     1    20     2     2
 -6.3514085574259038E-01 a       683     1    20     2     3
  2.2451449084875671E-01 a       684     1    20     2     4
 -3.8575032088762548E-03 a       685     1    20     2     5
  8.2163720925141799E-03 a       686     1    20     2     6
  2.2803218647232834E-01 a       687     1    20     2     7
 -2.9355231594733028E-01 a       688     1    20     2     8
  3.3603132031323441E-01 a       689     1    20     2     9
 -3.2409022923601088E-01 a       690     1    20     2    10
  2.0095586823074035E-02 a       691     1    20     2    11
  3.5502280032504696E-01 a       692     1    20     2    12
 -2.7963013039210316E-01 a       693     1    20     2    13
 -1.9868989254723723E-01 a       694     1    20     2    14
  9.2808485927128079E-02 a       695     1    20     2    15
 -2.3546019379731700E-01 a       696     1    20     2    16
 -1.8426413650056142E-01 a       697     1    20     2    17
  6.0083911505548059E-02 a       698     1    20     2    18
 -7.4865284270492771E-01 a       699     1    20     2    19
 -4.9509663716754460E-01 a       700     1    20     2    20
 -8.9026909002116780E-02 b       701     2     1
  2.1572377734953935E-01 b       702     2     2
  3.2241184181065047E-01 b       703     2     3
  8.3782879851634751E-01 b       704     2     4
 -9.8946514947766362E-01 b       705     2     5
  4.6201309695647291E-01 b       706     2     6
  1.0447571563776683E+00 b       707     2     7
  1.9456506701397740E+00 b       708     2     8
 -1.4024558741614988E+00 b       709     2     9
  6.1449653904063850E-01 b       710     2    10
 -6.4117459888087214E-01 b       711     2    11
 -1.2329441426738098E-01 b       712     2    12
 -4.4321276803972026E-01 b       713     2    13
 -4.2677277564141269E-01 b       714     2    14
 -4.0278598095398366E-01 b       715     2    15
 -4.7097727820220003E-01 b       716     2    16
 -4.0946751233200940E-01 b       717     2    17
 -1.5541723063394264E+00 b       718     2    18
  1.2187732119902861E+00 b       719     2    19
 -4.5332558080727969E-01 b       720     2    20
  2.5802710449699640E-01 a       721     2     1     3     1
 -7.4434407729677254E-01 a       722     2     2     3     1
  8.2240762473895335E-01 a       723     2     3     3     1
  3.0439571897074919E-01 a       724     2     4     3     1
 -7.9299872443008035E-01 a       725     2     5     3     1
  1.5410197879653864E+00 a       726     2     6     3     1
  5.1255891637366913E-01 a       727     2     7     3     1
 -4.2351057890408028E-01 a       728     2     8     3     1
 -7.0663724037451262E-02 a       729     2     9     3     1
  5.8253352189191210E-01 a       730     2    10     3     1
  8.6967748577524651E-01 a       731     2    11     3     1
  2.8392478150356831E-01 a       732     2    12     3     1
 -2.3573226687276255E-01 a       733     2    13     3     1
  1.2864721923693762E-01 a       734     2    14     3     1
 -8.9815015717119084E-01 a       735     2    15     3     1
 -7.6808349750201488E-01 a       736     2    16     3     1
  4.7872681344115847E-02 a       737     2    17     3     1
 -1.4708100806762017E-01 a       738     2    18     3     1
  1.9031985913569044E-01 a       739     2    19     3     1
  2.4796724084921931E-01 a       740     2    20     3     1
  2.4689125452547056E-01 b       741     3     1
