################################################################################
# Neural network connection values (weights and biases).
################################################################################
# Col  Name       Description
################################################################################
# 1    connection Neural network connection value.
# 2    t          Connection type (a = weight, b = bias).
# 3    index      Index enumerating weights.
# 4    l_s        Starting point layer (end point layer for biases).
# 5    n_s        Starting point neuron in starting layer (end point neuron for biases).
# 6    l_e        End point layer.
# 7    n_e        End point neuron in end layer.
################################################################################
#                      1 2         3     4     5     6     7
#             connection t     index   l_s   n_s   l_e   n_e
############################################################
  3.1419891742023526E-01 a         1     0     1     1     1
  6.1030362162786289E-01 a         2     0     1     1     2
 -1.9700731436611113E-01 a         3     0     1     1     3
  1.7670870100660614E-03 a         4     0     1     1     4
  5.7996492690677290E-02 a         5     0     1     1     5
  6.9853088140563874E-02 a         6     0     1     1     6
  1.7442602136739113E-01 a         7     0     1     1     7
  1.1853031526488536E-01 a         8     0     1     1     8
  7.2585881400843688E-01 a         9     0     1     1     9
  6.3962319746003005E-01 a        10     0     1     1    10
  3.3616650209606225E-01 a        11     0     1     1    11
  3.0361431361111957E-01 a        12     0     1     1    12
  1.1541239278157391E-02 a        13     0     1     1    13
  3.1130816722465926E-01 a        14     0     1     1    14
 -2.8811544660565619E-01 a        15     0     1     1    15
  4.7298423399521589E-01 a        16     0     1     1    16
 -1.9475640501996724E-01 a        17     0     1     1    17
  6.0754409111278762E-01 a        18     0     1     1    18
 -5.2417377862330239E-01 a        19     0     1     1    19
  1.7646393441724220E-01 a        20     0     1     1    20
 -3.6789313911608790E-01 a        21     0     2     1     1
 -4.5934570123212191E-02 a        22     0     2     1     2
  2.4910926505649236E-01 a        23     0     2     1     3
  2.4193291208426088E-02 a        24     0     2     1     4
 -9.1294193840944546E-02 a        25     0     2     1     5
  5.2485499452487028E-01 a        26     0     2     1     6
 -1.3362536196875635E-01 a        27     0     2     1     7
 -1.0095301908599685E-01 a        28     0     2     1     8
 -5.7180741365703036E-01 a        29     0     2     1     9
 -2.6965601272800033E-01 a        30     0     2     1    10
  4.7166870273676241E-02 a        31     0     2     1    11
  6.6274169676032246E-01 a        32     0     2     1    12
  4.1029351090343524E-01 a        33     0     2     1    13
 -1.6176780614256275E-01 a        34     0     2     1    14
  1.2331133104425249E-01 a        35     0     2     1    15
 -2.6755841676479558E-01 a        36     0     2     1    16
  2.7068454200497644E-01 a        37     0     2     1    17
  2.1401815984801015E-01 a        38     0     2     1    18
  5.5981936803294907E-01 a        39     0     2     1    19
 -1.1547772195137392E-01 a        40     0     2     1    20
 -4.5921435442914638E-01 a        41     0     3     1     1
 -6.5731701158716205E-01 a        42     0     3     1     2
  8.4495759038619278E-01 a        43     0     3     1     3
  7.4085133969057904E-01 a        44     0     3     1     4
  6.5429232841367757E-01 a        45     0     3     1     5
  3.4588725050239910E-02 a        46     0     3     1     6
  3.5936752997814647E-01 a        47     0     3     1     7
  1.7111114131102480E-02 a        48     0     3     1     8
  3.1815632775871955E-01 a        49     0     3     1     9
  2.9332547510140716E-01 a        50     0     3     1    10
  2.3478436460061405E-01 a        51     0     3     1    11
 -3.4935078299269229E-01 a        52     0     3     1    12
  6.1102261082971721E-01 a        53     0     3     1    13
  1.9196834063209195E-01 a        54     0     3     1    14
 -4.1557660056455697E-01 a        55     0     3     1    15
  6.6165422511889926E-01 a        56     0     3     1    16
 -1.7342071775487158E-01 a        57     0     3     1    17
  2.9709403421929892E-01 a        58     0     3     1    18
 -5.2826265863995714E-01 a        59     0     3     1    19
  1.1184307088355832E+00 a        60     0     3     1    20
  9.9065716831526193E-02 a        61     0     4     1     1
 -4.2499874222401640E-01 a        62     0     4     1     2
 -3.1788696234896774E-01 a        63     0     4     1     3
 -2.0508783561670096E-01 a        64     0     4     1     4
 -4.5744432850234212E-01 a        65     0     4     1     5
  4.9437653187120356E-01 a        66     0     4     1     6
  2.5982442660897320E-01 a        67     0     4     1     7
 -7.8953951847089102E-02 a        68     0     4     1     8
  1.9448932533943114E-01 a        69     0     4     1     9
  6.1545285453553356E-01 a        70     0     4     1    10
 -4.5601656926295941E-01 a        71     0     4     1    11
 -4.5717364974550684E-01 a        72     0     4     1    12
 -1.8589199916036284E-01 a        73     0     4     1    13
  4.2092537184630763E-01 a        74     0     4     1    14
 -7.3054906380264828E-01 a        75     0     4     1    15
  3.4857252855473510E-02 a        76     0     4     1    16
 -1.6168363804379243E-01 a        77     0     4     1    17
 -2.3215385645470857E-01 a        78     0     4     1    18
 -4.8459495401740166E-01 a        79     0     4     1    19
 -5.6066721111812867E-01 a        80     0     4     1    20
  6.5171347030511662E-01 a        81     0     5     1     1
 -2.9572925865224631E-01 a        82     0     5     1     2
  5.0733622535143674E-01 a        83     0     5     1     3
 -1.8005669873745311E-01 a        84     0     5     1     4
 -8.8760149164420099E-02 a        85     0     5     1     5
 -2.6656842416603987E-01 a        86     0     5     1     6
  3.6858714415613542E-01 a        87     0     5     1     7
  3.0690032182789878E-01 a        88     0     5     1     8
  4.8954291170727482E-01 a        89     0     5     1     9
 -7.1675945312448996E-01 a        90     0     5     1    10
 -6.1063603435170488E-01 a        91     0     5     1    11
 -2.5207555557501027E-01 a        92     0     5     1    12
 -5.8835150821053495E-01 a        93     0     5     1    13
  3.5371488517630828E-01 a        94     0     5     1    14
  3.1211065167525015E-01 a        95     0     5     1    15
 -1.6102054412585681E-01 a        96     0     5     1    16
  4.9668719594889055E-01 a        97     0     5     1    17
  2.7473206417047907E-01 a        98     0     5     1    18
  1.4995538035695502E-01 a        99     0     5     1    19
 -1.7722802568492679E-01 a       100     0     5     1    20
  7.1575097839320778E-01 a       101     0     6     1     1
 -4.6521749827211462E-01 a       102     0     6     1     2
  1.5576594111225534E-01 a       103     0     6     1     3
 -7.7850267314341071E-01 a       104     0     6     1     4
 -2.8378135645981802E-02 a       105     0     6     1     5
 -4.2987954590689402E-02 a       106     0     6     1     6
  4.4060104673900119E-01 a       107     0     6     1     7
  7.5944945812724562E-01 a       108     0     6     1     8
  3.8397846485284010E-01 a       109     0     6     1     9
  1.8518134006916315E-01 a       110     0     6     1    10
 -4.7400379806348825E-01 a       111     0     6     1    11
  6.4794759329170046E-02 a       112     0     6     1    12
 -2.3239007469851683E-01 a       113     0     6     1    13
  3.0218459895430549E-01 a       114     0     6     1    14
  1.8223208522674114E-01 a       115     0     6     1    15
 -6.3302071648970359E-01 a       116     0     6     1    16
  5.0958299187138734E-01 a       117     0     6     1    17
  6.2098552417240860E-01 a       118     0     6     1    18
 -3.4248702323608027E-01 a       119     0     6     1    19
  2.0260934888645646E-01 a       120     0     6     1    20
  7.3747853603843561E-01 a       121     0     7     1     1
  1.5975054317165083E-01 a       122     0     7     1     2
 -2.3879121439714524E-01 a       123     0     7     1     3
  6.2621601980730446E-01 a       124     0     7     1     4
  3.5817852817765483E-01 a       125     0     7     1     5
  3.2889520996206562E-01 a       126     0     7     1     6
  4.6697614339276589E-01 a       127     0     7     1     7
  4.2734103699901146E-02 a       128     0     7     1     8
  3.1049972649508867E-01 a       129     0     7     1     9
 -7.7093753642877638E-01 a       130     0     7     1    10
 -7.6676416227251676E-01 a       131     0     7     1    11
 -3.0321883553917284E-01 a       132     0     7     1    12
 -1.0722884525079023E-01 a       133     0     7     1    13
 -3.5175654263906175E-02 a       134     0     7     1    14
  5.1994705147874187E-01 a       135     0     7     1    15
  4.5413717736350284E-01 a       136     0     7     1    16
  5.4887216998319632E-01 a       137     0     7     1    17
  4.6571543563899503E-01 a       138     0     7     1    18
  5.9492972936284805E-01 a       139     0     7     1    19
 -3.2746253009547754E-01 a       140     0     7     1    20
  3.0948249301288616E-01 a       141     0     8     1     1
 -5.9685053359451325E-02 a       142     0     8     1     2
 -3.7096735721732638E-02 a       143     0     8     1     3
 -4.7985949839753753E-02 a       144     0     8     1     4
 -2.6508561963031302E-01 a       145     0     8     1     5
  3.7055997364447213E-01 a       146     0     8     1     6
 -3.9238113481310494E-01 a       147     0     8     1     7
 -5.7395062481144898E-01 a       148     0     8     1     8
 -3.5790187524324391E-01 a       149     0     8     1     9
 -2.1785764716407660E-01 a       150     0     8     1    10
  2.5564407010617773E-01 a       151     0     8     1    11
  5.5932006432137493E-01 a       152     0     8     1    12
 -7.2478861692581464E-01 a       153     0     8     1    13
 -3.1242708710108030E-01 a       154     0     8     1    14
  6.3210124650347943E-01 a       155     0     8     1    15
 -7.8415913752958577E-01 a       156     0     8     1    16
  5.7142457864306517E-01 a       157     0     8     1    17
 -2.4760644684461153E-01 a       158     0     8     1    18
  4.0982142580532321E-01 a       159     0     8     1    19
 -6.1922971184440789E-01 a       160     0     8     1    20
 -8.6879003458693260E-02 a       161     0     9     1     1
 -2.9886085317954569E-01 a       162     0     9     1     2
  3.1552112657115389E-01 a       163     0     9     1     3
 -3.0821816226273885E-01 a       164     0     9     1     4
 -3.0353854882555575E-01 a       165     0     9     1     5
 -5.3299043809600113E-02 a       166     0     9     1     6
 -4.2932312313268323E-01 a       167     0     9     1     7
  7.1821668677980033E-01 a       168     0     9     1     8
  6.0521309163946357E-01 a       169     0     9     1     9
  3.4110878499092823E-01 a       170     0     9     1    10
 -2.3698988302844365E-01 a       171     0     9     1    11
  4.3034719698404489E-01 a       172     0     9     1    12
 -2.3625034055754024E-01 a       173     0     9     1    13
  2.2502503992350828E-01 a       174     0     9     1    14
 -4.0385555080043201E-01 a       175     0     9     1    15
  3.0525564866969729E-01 a       176     0     9     1    16
  8.8554300572777619E-02 a       177     0     9     1    17
 -4.6394256967363917E-01 a       178     0     9     1    18
 -1.4572782927834624E-01 a       179     0     9     1    19
 -6.9901475026435470E-02 a       180     0     9     1    20
 -2.4093190829372707E-01 a       181     0    10     1     1
 -2.2570099053968615E-01 a       182     0    10     1     2
  2.6888171024748558E-01 a       183     0    10     1     3
 -4.7350326950112603E-01 a       184     0    10     1     4
 -3.1939542056333065E-01 a       185     0    10     1     5
 -1.9974762297068510E-01 a       186     0    10     1     6
  3.9471780471660611E-01 a       187     0    10     1     7
  6.4272811051400078E-02 a       188     0    10     1     8
 -2.6916747293146864E-01 a       189     0    10     1     9
  1.5248302588577697E-01 a       190     0    10     1    10
 -6.4494323537760939E-02 a       191     0    10     1    11
 -4.2649081574351327E-01 a       192     0    10     1    12
  3.3955151336481187E-01 a       193     0    10     1    13
  5.9367093070360166E-01 a       194     0    10     1    14
 -1.3488062711957732E-01 a       195     0    10     1    15
  1.8035333309459206E-01 a       196     0    10     1    16
 -3.5376767351376359E-01 a       197     0    10     1    17
 -1.2446260501980964E-01 a       198     0    10     1    18
 -2.1957295601946128E-01 a       199     0    10     1    19
 -2.6089520637212243E-01 a       200     0    10     1    20
 -4.1466867530218998E-01 a       201     0    11     1     1
 -1.6678268198139845E-01 a       202     0    11     1     2
 -3.9933267425979080E-01 a       203     0    11     1     3
 -3.4249254417229069E-01 a       204     0    11     1     4
 -5.0782831666073491E-01 a       205     0    11     1     5
 -4.5430574154850473E-01 a       206     0    11     1     6
 -2.3326996967116992E-01 a       207     0    11     1     7
  2.2169436461445449E-01 a       208     0    11     1     8
  8.8936803736235401E-02 a       209     0    11     1     9
  1.2688975596562527E-01 a       210     0    11     1    10
 -2.6602287488346399E-01 a       211     0    11     1    11
 -6.1631307622225316E-02 a       212     0    11     1    12
  4.6104871053994323E-01 a       213     0    11     1    13
  1.0887745271795546E-01 a       214     0    11     1    14
  1.8723406909689413E-01 a       215     0    11     1    15
  1.3837153852718570E-01 a       216     0    11     1    16
  4.8509106313734507E-02 a       217     0    11     1    17
  2.1365014437594476E-01 a       218     0    11     1    18
  4.2556997418244136E-01 a       219     0    11     1    19
 -9.7856912868513585E-02 a       220     0    11     1    20
 -2.3274362030080062E-01 a       221     0    12     1     1
  3.6033059934168177E-01 a       222     0    12     1     2
 -3.2171141806990622E-01 a       223     0    12     1     3
 -2.5456080988903551E-01 a       224     0    12     1     4
  2.9286514993142954E-01 a       225     0    12     1     5
 -6.5901944626352349E-01 a       226     0    12     1     6
  1.5211621278099155E-01 a       227     0    12     1     7
  2.2709825912429438E-01 a       228     0    12     1     8
 -4.6269926687538265E-02 a       229     0    12     1     9
 -6.5914907931428612E-01 a       230     0    12     1    10
  2.7744627083175183E-01 a       231     0    12     1    11
 -2.9452690882095572E-01 a       232     0    12     1    12
 -5.4568617382606266E-01 a       233     0    12     1    13
 -3.4749712069520455E-01 a       234     0    12     1    14
 -3.6654310684995450E-01 a       235     0    12     1    15
  2.7825915592753887E-02 a       236     0    12     1    16
 -4.7095918389460284E-01 a       237     0    12     1    17
 -2.5431931148361009E-01 a       238     0    12     1    18
  2.9958342017098927E-01 a       239     0    12     1    19
 -2.3143070429697252E-01 a       240     0    12     1    20
  1.4064124488109481E-01 a       241     0    13     1     1
 -3.3887547706998356E-01 a       242     0    13     1     2
  3.8764350416090826E-01 a       243     0    13     1     3
  6.1871956076999657E-01 a       244     0    13     1     4
  5.8362090478116746E-01 a       245     0    13     1     5
  4.3810687787879871E-01 a       246     0    13     1     6
  4.1453816642329344E-01 a       247     0    13     1     7
  5.1626094047911719E-01 a       248     0    13     1     8
 -8.1405140172919874E-02 a       249     0    13     1     9
 -2.7702124294835678E-01 a       250     0    13     1    10
 -4.5722994563539188E-01 a       251     0    13     1    11
  2.8514544934998920E-01 a       252     0    13     1    12
  4.8647276916640353E-01 a       253     0    13     1    13
 -3.5487204460835098E-01 a       254     0    13     1    14
  5.5665796033467707E-01 a       255     0    13     1    15
 -3.5067309196431423E-01 a       256     0    13     1    16
  2.3786376195390249E-01 a       257     0    13     1    17
 -4.6004955874678938E-01 a       258     0    13     1    18
 -2.1773236398008683E-01 a       259     0    13     1    19
  8.4501551669213665E-02 a       260     0    13     1    20
  3.4401813049420388E-01 a       261     0    14     1     1
 -4.0557141526574192E-02 a       262     0    14     1     2
 -7.5072650461127288E-01 a       263     0    14     1     3
  3.6225172147717466E-01 a       264     0    14     1     4
 -1.0071857662646896E-01 a       265     0    14     1     5
 -6.9711760152015922E-01 a       266     0    14     1     6
  3.3841156364240954E-01 a       267     0    14     1     7
  3.5020807857716718E-01 a       268     0    14     1     8
  3.5115594013611751E-01 a       269     0    14     1     9
 -3.5848534802590948E-01 a       270     0    14     1    10
 -6.0157298344461663E-01 a       271     0    14     1    11
 -3.7286689395131956E-01 a       272     0    14     1    12
 -8.0918219666866936E-02 a       273     0    14     1    13
 -5.1279998402887539E-01 a       274     0    14     1    14
  3.2337615014255922E-01 a       275     0    14     1    15
 -3.8032829071237007E-01 a       276     0    14     1    16
  1.9676983665516201E-03 a       277     0    14     1    17
  1.4132972334980745E-01 a       278     0    14     1    18
  1.0215707345821443E-01 a       279     0    14     1    19
  2.7041465588851371E-01 a       280     0    14     1    20
 -2.9657633583584825E-01 b       281     1     1
  5.1356595777133629E-01 b       282     1     2
 -4.9069836138180209E-02 b       283     1     3
 -1.1411520264686938E+00 b       284     1     4
  4.9224154321250227E-03 b       285     1     5
 -8.2394979070391527E-01 b       286     1     6
  4.7129223499820916E-01 b       287     1     7
 -8.8503858044237005E-01 b       288     1     8
 -1.4563309657718353E+00 b       289     1     9
  1.6831069402820370E-01 b       290     1    10
 -8.8511908491852409E-01 b       291     1    11
  1.3996029528807434E+00 b       292     1    12
 -1.4984979770030469E+00 b       293     1    13
  2.6637186750848202E-01 b       294     1    14
 -4.3357303996749508E-01 b       295     1    15
  1.1121869354816414E+00 b       296     1    16
 -6.8952815005506074E-01 b       297     1    17
  1.0725178538323363E+00 b       298     1    18
 -5.2813270144883162E-01 b       299     1    19
 -1.6748610361924106E+00 b       300     1    20
  1.1976374870676890E-01 a       301     1     1     2     1
 -2.5599820977464066E-01 a       302     1     1     2     2
 -2.2691003008009569E-01 a       303     1     1     2     3
 -1.3579807023176080E-01 a       304     1     1     2     4
  4.0147338054032256E-01 a       305     1     1     2     5
 -3.3925877647224262E-01 a       306     1     1     2     6
 -5.1692443285623804E-03 a       307     1     1     2     7
  4.4823477322082117E-01 a       308     1     1     2     8
  4.8213656783238396E-01 a       309     1     1     2     9
  2.0438268925895675E-01 a       310     1     1     2    10
 -3.1056362594650666E-01 a       311     1     1     2    11
 -4.4756367694677779E-01 a       312     1     1     2    12
 -3.6979826906217761E-01 a       313     1     1     2    13
 -6.8874591025096754E-01 a       314     1     1     2    14
  5.9655906704103312E-01 a       315     1     1     2    15
 -6.0347443264763467E-01 a       316     1     1     2    16
 -1.4888761915869267E-01 a       317     1     1     2    17
  4.6658139172864099E-01 a       318     1     1     2    18
  1.8630067520176330E-01 a       319     1     1     2    19
  1.5789834625213453E-01 a       320     1     1     2    20
 -1.6167669976992335E-01 a       321     1     2     2     1
 -1.0688846332455453E-01 a       322     1     2     2     2
  4.8366348145724514E-01 a       323     1     2     2     3
 -6.3318480185100168E-02 a       324     1     2     2     4
 -1.7147522035661814E-01 a       325     1     2     2     5
  4.1868315621140439E-01 a       326     1     2     2     6
  3.7146603886828466E-01 a       327     1     2     2     7
 -5.0567789497982751E-01 a       328     1     2     2     8
 -3.0816824842753521E-01 a       329     1     2     2     9
 -3.1117437071340864E-01 a       330     1     2     2    10
 -1.5550828878766601E-01 a       331     1     2     2    11
 -6.9316974741966741E-01 a       332     1     2     2    12
  3.5083759499219896E-01 a       333     1     2     2    13
  4.5824214647376715E-01 a       334     1     2     2    14
  1.2623107110630785E-01 a       335     1     2     2    15
  2.6717770470832719E-01 a       336     1     2     2    16
 -1.8520778532693116E-01 a       337     1     2     2    17
  2.5396995431868197E-01 a       338     1     2     2    18
  1.7109718965669679E-01 a       339     1     2     2    19
 -3.8052662860093928E-01 a       340     1     2     2    20
 -2.8247477333318177E-01 a       341     1     3     2     1
  3.3798999333637181E-01 a       342     1     3     2     2
  2.5321247815501707E-01 a       343     1     3     2     3
  4.3364702219960066E-01 a       344     1     3     2     4
  7.6840658708649867E-01 a       345     1     3     2     5
  1.8314401327643029E-01 a       346     1     3     2     6
 -1.5907853695351526E-01 a       347     1     3     2     7
 -4.8971436024871279E-01 a       348     1     3     2     8
 -4.0531740197341187E-01 a       349     1     3     2     9
  2.4886370029716878E-01 a       350     1     3     2    10
  1.6812853063994085E-01 a       351     1     3     2    11
 -4.3381689365785769E-01 a       352     1     3     2    12
  4.5759029831477954E-01 a       353     1     3     2    13
 -4.0731996086175543E-01 a       354     1     3     2    14
 -1.1792862647766433E-01 a       355     1     3     2    15
 -4.2000484122758419E-01 a       356     1     3     2    16
 -3.9729719684963960E-01 a       357     1     3     2    17
  4.6661325455615449E-01 a       358     1     3     2    18
  2.0489168587107839E-01 a       359     1     3     2    19
  2.5138453674064615E-01 a       360     1     3     2    20
  1.4515750324471702E-01 a       361     1     4     2     1
  6.1276511708114850E-02 a       362     1     4     2     2
  1.0839308332808988E-01 a       363     1     4     2     3
 -2.7826326674576263E-01 a       364     1     4     2     4
  2.6891896228297207E-01 a       365     1     4     2     5
  3.9530302369640075E-01 a       366     1     4     2     6
  6.0361852307205743E-01 a       367     1     4     2     7
  5.3753233419512747E-01 a       368     1     4     2     8
 -5.8765026122666020E-01 a       369     1     4     2     9
 -6.6198941607173012E-01 a       370     1     4     2    10
  1.8715468585414688E-01 a       371     1     4     2    11
 -3.1510484176520076E-01 a       372     1     4     2    12
 -1.3457664301286520E-01 a       373     1     4     2    13
 -4.7808957857579916E-02 a       374     1     4     2    14
 -9.6416751637355191E-02 a       375     1     4     2    15
 -6.0917656551875851E-02 a       376     1     4     2    16
  2.7225754972658306E-01 a       377     1     4     2    17
  2.3584704145706542E-01 a       378     1     4     2    18
 -3.1814377503974034E-01 a       379     1     4     2    19
  7.1739076825683445E-01 a       380     1     4     2    20
 -4.5025337719061337E-02 a       381     1     5     2     1
 -3.9915758657769623E-01 a       382     1     5     2     2
  3.3489118505106757E-01 a       383     1     5     2     3
  1.8150062609647688E-01 a       384     1     5     2     4
 -3.3684670151134333E-01 a       385     1     5     2     5
 -1.9665572889999172E-01 a       386     1     5     2     6
 -8.5390328396642692E-02 a       387     1     5     2     7
  2.9614092317751478E-01 a       388     1     5     2     8
 -1.5661561296961216E-01 a       389     1     5     2     9
 -4.3806005561849204E-01 a       390     1     5     2    10
 -3.5728207983221244E-01 a       391     1     5     2    11
 -1.3197136059262659E-02 a       392     1     5     2    12
 -5.9866357244316104E-01 a       393     1     5     2    13
  7.3271193267463425E-02 a       394     1     5     2    14
 -3.6273804234546327E-02 a       395     1     5     2    15
 -2.5196184354252582E-01 a       396     1     5     2    16
  4.1368618261117479E-01 a       397     1     5     2    17
 -5.7073059278131411E-01 a       398     1     5     2    18
 -2.4406861466867283E-01 a       399     1     5     2    19
 -6.5148608627252236E-01 a       400     1     5     2    20
  6.0542819895538758E-01 a       401     1     6     2     1
  8.4617392191853236E-01 a       402     1     6     2     2
 -6.3702053827658478E-01 a       403     1     6     2     3
 -4.5551733021356217E-01 a       404     1     6     2     4
  1.0372036906656604E-01 a       405     1     6     2     5
 -4.2305767128272320E-01 a       406     1     6     2     6
 -3.7135219156045401E-01 a       407     1     6     2     7
  1.3155666796799792E-01 a       408     1     6     2     8
 -4.0805589819401661E-01 a       409     1     6     2     9
  3.3486529624174305E-01 a       410     1     6     2    10
  2.9416290908488313E-01 a       411     1     6     2    11
 -3.5722638896494285E-01 a       412     1     6     2    12
 -1.2292455286991026E-01 a       413     1     6     2    13
  3.1305695889400087E-01 a       414     1     6     2    14
 -2.6425313817286650E-01 a       415     1     6     2    15
  7.5643703605363891E-02 a       416     1     6     2    16
  4.2661259088802819E-02 a       417     1     6     2    17
  1.7503002196357720E-01 a       418     1     6     2    18
  1.2952126784552614E-01 a       419     1     6     2    19
 -3.6463921331233956E-01 a       420     1     6     2    20
  7.3468317547706596E-01 a       421     1     7     2     1
  3.8198033378437329E-01 a       422     1     7     2     2
  7.8537119947789474E-02 a       423     1     7     2     3
  6.0653562624948487E-01 a       424     1     7     2     4
  5.3982471055760972E-01 a       425     1     7     2     5
 -2.2443414012678065E-01 a       426     1     7     2     6
  4.4727193921518521E-01 a       427     1     7     2     7
  2.6659670493094489E-01 a       428     1     7     2     8
 -2.0888540745406983E-01 a       429     1     7     2     9
  1.7717219443859220E-01 a       430     1     7     2    10
  3.7523674868967566E-01 a       431     1     7     2    11
  1.3366481277243686E-01 a       432     1     7     2    12
  1.8795664127190922E-01 a       433     1     7     2    13
 -2.4400679118452898E-01 a       434     1     7     2    14
 -6.4195572424644753E-01 a       435     1     7     2    15
  1.2459224620109742E-01 a       436     1     7     2    16
 -1.1770965044962481E-02 a       437     1     7     2    17
  1.8899924099385459E-01 a       438     1     7     2    18
  2.3419277485717974E-01 a       439     1     7     2    19
 -4.0157746639081206E-02 a       440     1     7     2    20
  4.1197889595973403E-01 a       441     1     8     2     1
 -1.4692619453749325E-01 a       442     1     8     2     2
  6.6656727912605751E-01 a       443     1     8     2     3
 -5.2647423911877922E-01 a       444     1     8     2     4
 -3.7588859523448975E-01 a       445     1     8     2     5
  1.8876231404617713E-01 a       446     1     8     2     6
  1.3884115721486606E-01 a       447     1     8     2     7
  2.6827274054379019E-01 a       448     1     8     2     8
  2.1093758565901191E-01 a       449     1     8     2     9
 -1.2578989852428407E-01 a       450     1     8     2    10
 -9.2664255225420170E-02 a       451     1     8     2    11
  1.7173135297483086E-01 a       452     1     8     2    12
  7.3628396703531118E-01 a       453     1     8     2    13
  5.6363454706954606E-02 a       454     1     8     2    14
  4.3071352973047754E-02 a       455     1     8     2    15
 -2.0324979655967655E-02 a       456     1     8     2    16
 -5.0623133956014388E-01 a       457     1     8     2    17
  7.9448439039424473E-02 a       458     1     8     2    18
 -6.7389750236648394E-01 a       459     1     8     2    19
  2.7085505106961788E-01 a       460     1     8     2    20
  1.9185989079788495E-03 a       461     1     9     2     1
 -1.0417246004880365E-01 a       462     1     9     2     2
 -7.8971350776209093E-02 a       463     1     9     2     3
  4.0983397818085149E-01 a       464     1     9     2     4
 -1.2877917680008882E-01 a       465     1     9     2     5
 -8.1505579426119204E-02 a       466     1     9     2     6
 -2.9375691574871460E-01 a       467     1     9     2     7
 -2.2104178899159184E-03 a       468     1     9     2     8
 -2.7526539696835312E-01 a       469     1     9     2     9
 -1.2604079605493618E-01 a       470     1     9     2    10
 -2.5617537080155772E-01 a       471     1     9     2    11
 -3.9673309240142458E-02 a       472     1     9     2    12
 -5.3345030627141099E-01 a       473     1     9     2    13
 -1.4980502628992738E-02 a       474     1     9     2    14
 -6.2291365817173594E-01 a       475     1     9     2    15
 -5.6196314784208601E-01 a       476     1     9     2    16
  8.1566628053045875E-02 a       477     1     9     2    17
 -3.0466593833701577E-01 a       478     1     9     2    18
  6.9661363815620589E-02 a       479     1     9     2    19
 -1.9371505073675926E-01 a       480     1     9     2    20
  8.1525674914277854E-02 a       481     1    10     2     1
 -2.4889044237653493E-01 a       482     1    10     2     2
  5.2349329968149449E-01 a       483     1    10     2     3
  5.5739357000967327E-01 a       484     1    10     2     4
 -4.7631761092213698E-03 a       485     1    10     2     5
 -2.0116412958523783E-01 a       486     1    10     2     6
  3.7900113584741701E-01 a       487     1    10     2     7
  9.6273235010769259E-02 a       488     1    10     2     8
  1.6753663833389107E-01 a       489     1    10     2     9
  2.7559200278372487E-01 a       490     1    10     2    10
 -3.4318711407230706E-01 a       491     1    10     2    11
 -7.9461633764980344E-01 a       492     1    10     2    12
 -1.1929469866088907E-02 a       493     1    10     2    13
 -7.8157742098159222E-01 a       494     1    10     2    14
  5.4898335046861024E-01 a       495     1    10     2    15
 -3.5741441718972011E-01 a       496     1    10     2    16
  3.6200658310655798E-01 a       497     1    10     2    17
  5.2316326289087334E-02 a       498     1    10     2    18
  4.3449250704529829E-01 a       499     1    10     2    19
  4.6178284158425328E-02 a       500     1    10     2    20
 -4.9796795710177427E-01 a       501     1    11     2     1
  2.1539441820826064E-01 a       502     1    11     2     2
 -5.3273970874962662E-01 a       503     1    11     2     3
  4.2763558720155331E-01 a       504     1    11     2     4
 -2.9396084772805020E-01 a       505     1    11     2     5
 -8.8061220560440870E-02 a       506     1    11     2     6
  3.7292259239393138E-01 a       507     1    11     2     7
  1.9105112386359055E-01 a       508     1    11     2     8
  2.8570100353563305E-02 a       509     1    11     2     9
 -5.6789746792986695E-01 a       510     1    11     2    10
  3.0755018836305853E-01 a       511     1    11     2    11
 -1.2366303039029189E-01 a       512     1    11     2    12
 -1.2297470617017647E-01 a       513     1    11     2    13
  3.0688931008206227E-02 a       514     1    11     2    14
  1.9427740175597630E-01 a       515     1    11     2    15
 -2.2285031139965819E-01 a       516     1    11     2    16
  1.8234780600608158E-01 a       517     1    11     2    17
  2.2997078794492223E-01 a       518     1    11     2    18
  2.4114816269136911E-02 a       519     1    11     2    19
 -1.9171444500710766E-01 a       520     1    11     2    20
 -2.0914878206182044E-01 a       521     1    12     2     1
  4.7545224036306732E-01 a       522     1    12     2     2
  1.8245030917384930E-01 a       523     1    12     2     3
 -5.6489147110919247E-01 a       524     1    12     2     4
  4.0581181145201478E-01 a       525     1    12     2     5
 -4.3181370096829590E-03 a       526     1    12     2     6
 -2.2642982139087178E-01 a       527     1    12     2     7
  3.3533941861084840E-02 a       528     1    12     2     8
  3.4907613469253385E-01 a       529     1    12     2     9
  5.0311172441941598E-01 a       530     1    12     2    10
 -1.7455420649083303E-01 a       531     1    12     2    11
 -4.3465668291132237E-01 a       532     1    12     2    12
 -5.6900896208931684E-01 a       533     1    12     2    13
  4.1484119717312862E-02 a       534     1    12     2    14
  2.7505413669220741E-01 a       535     1    12     2    15
  4.4863056714186172E-01 a       536     1    12     2    16
  2.4547848503483047E-01 a       537     1    12     2    17
 -4.8487712363136520E-01 a       538     1    12     2    18
  2.2029483569948177E-01 a       539     1    12     2    19
  5.7770592060214704E-02 a       540     1    12     2    20
 -5.8763901108147498E-01 a       541     1    13     2     1
 -4.2639467233656908E-01 a       542     1    13     2     2
 -2.6500563705064811E-01 a       543     1    13     2     3
 -3.6360025916567029E-01 a       544     1    13     2     4
 -2.2030428610450650E-01 a       545     1    13     2     5
 -3.6422802104696983E-01 a       546     1    13     2     6
 -2.8634988807181072E-01 a       547     1    13     2     7
 -3.4913254525906590E-01 a       548     1    13     2     8
 -5.4979064107764086E-01 a       549     1    13     2     9
  4.9873114545012665E-01 a       550     1    13     2    10
 -4.3698635061146607E-01 a       551     1    13     2    11
 -3.3344933730952930E-02 a       552     1    13     2    12
 -1.2726117283431448E-01 a       553     1    13     2    13
 -5.2389079303193631E-01 a       554     1    13     2    14
  3.8756919586344102E-01 a       555     1    13     2    15
  3.3961302749644667E-01 a       556     1    13     2    16
 -4.5106538033101429E-01 a       557     1    13     2    17
 -2.5456478867847454E-01 a       558     1    13     2    18
 -4.2165588411564520E-01 a       559     1    13     2    19
 -5.0598666657291284E-02 a       560     1    13     2    20
 -4.3204822285131306E-01 a       561     1    14     2     1
 -2.3527975266188869E-01 a       562     1    14     2     2
 -6.0193806756335688E-01 a       563     1    14     2     3
  1.5121373884214211E-02 a       564     1    14     2     4
  1.6885763324582545E-01 a       565     1    14     2     5
 -1.5579467984081213E-01 a       566     1    14     2     6
 -9.4197160045525641E-02 a       567     1    14     2     7
  2.9525661822846061E-01 a       568     1    14     2     8
 -5.6943005658331669E-01 a       569     1    14     2     9
 -2.6938866742534628E-01 a       570     1    14     2    10
 -3.0908855959806619E-01 a       571     1    14     2    11
  1.4190855260345006E-01 a       572     1    14     2    12
 -1.9211585701615827E-01 a       573     1    14     2    13
  1.8911513023320720E-01 a       574     1    14     2    14
  2.6802278512387778E-01 a       575     1    14     2    15
  4.4518635060929690E-01 a       576     1    14     2    16
  1.0146296267029303E-01 a       577     1    14     2    17
 -4.2262779894317692E-01 a       578     1    14     2    18
 -1.8990118025623703E-01 a       579     1    14     2    19
 -4.4414047314269539E-01 a       580     1    14     2    20
  7.7564544885828941E-03 a       581     1    15     2     1
 -2.2054210003026495E-01 a       582     1    15     2     2
 -2.2540167670562439E-02 a       583     1    15     2     3
  4.7915056793594278E-02 a       584     1    15     2     4
 -5.2224853213737088E-01 a       585     1    15     2     5
 -4.2416743250127664E-01 a       586     1    15     2     6
  4.4704360393520770E-01 a       587     1    15     2     7
  3.6383101976705490E-01 a       588     1    15     2     8
 -4.6549496318467759E-01 a       589     1    15     2     9
 -3.9269825060551565E-02 a       590     1    15     2    10
  1.7142890282084003E-01 a       591     1    15     2    11
 -5.1012148477410657E-01 a       592     1    15     2    12
 -1.0931970809582017E-01 a       593     1    15     2    13
 -3.9033843268755039E-03 a       594     1    15     2    14
 -2.6484410160878208E-01 a       595     1    15     2    15
  3.2922237327885223E-01 a       596     1    15     2    16
  7.4796217924886765E-01 a       597     1    15     2    17
 -1.1612034808815243E-01 a       598     1    15     2    18
  4.6164001372004493E-01 a       599     1    15     2    19
 -1.2179190230919662E-01 a       600     1    15     2    20
 -2.9234769893622453E-01 a       601     1    16     2     1
  1.0042792093184263E-01 a       602     1    16     2     2
  9.9182738280225308E-02 a       603     1    16     2     3
 -3.0203124291962247E-01 a       604     1    16     2     4
  2.7461333940893240E-01 a       605     1    16     2     5
 -3.4254641612229320E-01 a       606     1    16     2     6
  7.2653201677953327E-01 a       607     1    16     2     7
  4.6684035849323385E-01 a       608     1    16     2     8
  2.4486389955414481E-01 a       609     1    16     2     9
  2.4069857199909805E-01 a       610     1    16     2    10
 -4.8326442417847776E-01 a       611     1    16     2    11
  3.5397354224772787E-01 a       612     1    16     2    12
 -3.9678094637756933E-01 a       613     1    16     2    13
 -5.6863471880484662E-01 a       614     1    16     2    14
 -3.9415336490849867E-01 a       615     1    16     2    15
 -5.1446589495368997E-02 a       616     1    16     2    16
 -7.3903002245858454E-03 a       617     1    16     2    17
  4.8330077061396465E-01 a       618     1    16     2    18
 -5.6313112506974516E-01 a       619     1    16     2    19
 -4.9672268580536727E-01 a       620     1    16     2    20
  3.8189612703284687E-01 a       621     1    17     2     1
 -2.6083739964700109E-01 a       622     1    17     2     2
 -1.7664538528529136E-01 a       623     1    17     2     3
 -1.9396263911327309E-02 a       624     1    17     2     4
 -8.1324680919147005E-02 a       625     1    17     2     5
  5.2827310231494773E-01 a       626     1    17     2     6
  2.4236029068438861E-01 a       627     1    17     2     7
  3.5122788483520234E-01 a       628     1    17     2     8
 -3.3515413969420693E-01 a       629     1    17     2     9
 -3.5271757005457710E-01 a       630     1    17     2    10
  5.3872624077711782E-03 a       631     1    17     2    11
 -3.4386472278616609E-01 a       632     1    17     2    12
 -1.4925168861908747E-01 a       633     1    17     2    13
 -2.7935325034318376E-01 a       634     1    17     2    14
  5.1218524923761843E-01 a       635     1    17     2    15
 -5.2971594688617263E-01 a       636     1    17     2    16
  3.2950274077191277E-01 a       637     1    17     2    17
 -2.9837594989384914E-01 a       638     1    17     2    18
 -5.1794285935332696E-01 a       639     1    17     2    19
  6.3379805050373772E-02 a       640     1    17     2    20
 -1.3622136417598762E-01 a       641     1    18     2     1
 -7.3810211677633047E-02 a       642     1    18     2     2
 -5.3249578927452357E-01 a       643     1    18     2     3
 -9.4371236582175708E-02 a       644     1    18     2     4
 -3.3562622992804686E-01 a       645     1    18     2     5
 -1.6598291079714337E-02 a       646     1    18     2     6
 -8.1962421189383294E-02 a       647     1    18     2     7
 -3.0384710480524302E-01 a       648     1    18     2     8
  1.4698644305539921E-01 a       649     1    18     2     9
  3.8599146903397874E-01 a       650     1    18     2    10
 -2.6089603823092777E-01 a       651     1    18     2    11
  4.1171630780485852E-01 a       652     1    18     2    12
  2.4114514382231628E-01 a       653     1    18     2    13
 -4.3404767271896227E-01 a       654     1    18     2    14
 -7.9287657483284590E-02 a       655     1    18     2    15
  1.8588639132073179E-02 a       656     1    18     2    16
 -5.1098306826748585E-01 a       657     1    18     2    17
  2.3675655487121766E-01 a       658     1    18     2    18
 -2.1972216256351682E-01 a       659     1    18     2    19
  2.2674008112915031E-01 a       660     1    18     2    20
 -9.9363450501008102E-02 a       661     1    19     2     1
  2.7834242768060169E-01 a       662     1    19     2     2
 -2.6593276915895969E-01 a       663     1    19     2     3
 -4.3865489401001806E-01 a       664     1    19     2     4
 -1.9389140829308338E-01 a       665     1    19     2     5
  3.0658721183647447E-01 a       666     1    19     2     6
 -7.0436726123298810E-01 a       667     1    19     2     7
  1.7675008037582474E-01 a       668     1    19     2     8
 -4.4193484414648893E-01 a       669     1    19     2     9
  3.4552629961827341E-01 a       670     1    19     2    10
 -4.7157874306244557E-01 a       671     1    19     2    11
 -2.9749718563430122E-01 a       672     1    19     2    12
 -8.3813198968467714E-02 a       673     1    19     2    13
 -4.2943315479069127E-01 a       674     1    19     2    14
 -3.0427128540249863E-02 a       675     1    19     2    15
 -3.1880815186075923E-01 a       676     1    19     2    16
 -2.8719714339274266E-01 a       677     1    19     2    17
 -3.3061503644234425E-01 a       678     1    19     2    18
  4.9064250543154442E-01 a       679     1    19     2    19
 -3.6983551270484460E-01 a       680     1    19     2    20
  5.9156452259845945E-03 a       681     1    20     2     1
  2.3478265646388968E-01 a       682     1    20     2     2
  1.9879738419416532E-01 a       683     1    20     2     3
  4.6347270175932216E-02 a       684     1    20     2     4
 -7.6751581067596297E-01 a       685     1    20     2     5
 -2.4469192606607615E-01 a       686     1    20     2     6
  1.6198014342224348E-01 a       687     1    20     2     7
 -4.8186610852076378E-01 a       688     1    20     2     8
 -2.1906018554858026E-01 a       689     1    20     2     9
  1.3846473414036997E-01 a       690     1    20     2    10
  1.4544639032386272E-01 a       691     1    20     2    11
  9.6073703535046517E-02 a       692     1    20     2    12
  3.7124942455315096E-01 a       693     1    20     2    13
  9.8835206601282061E-02 a       694     1    20     2    14
  2.4231477440687160E-01 a       695     1    20     2    15
  6.3596187076751065E-01 a       696     1    20     2    16
  4.8201360254449088E-01 a       697     1    20     2    17
 -4.2298490125658317E-01 a       698     1    20     2    18
  3.4554391733559908E-01 a       699     1    20     2    19
 -7.1219978118019930E-02 a       700     1    20     2    20
  7.5022028746987657E-01 b       701     2     1
  2.1263259401210954E-01 b       702     2     2
  9.9447029803478793E-01 b       703     2     3
  1.3714456471889578E+00 b       704     2     4
  1.0173687516241985E+00 b       705     2     5
 -2.0859851834293486E-01 b       706     2     6
  1.0209259698029953E+00 b       707     2     7
 -1.3388481611958476E+00 b       708     2     8
  6.8694440217454644E-01 b       709     2     9
 -1.2004380950049875E+00 b       710     2    10
  7.1083924604533477E-01 b       711     2    11
  6.8470350457892126E-02 b       712     2    12
 -1.4220567671945019E+00 b       713     2    13
 -1.6170334590990583E+00 b       714     2    14
 -1.1795499334368722E+00 b       715     2    15
  1.1233305890156375E+00 b       716     2    16
 -2.3206322497414397E-01 b       717     2    17
  2.5620345522685500E-01 b       718     2    18
  1.3673045979120166E-01 b       719     2    19
  9.6536765310497241E-01 b       720     2    20
  4.5033206782765081E-02 a       721     2     1     3     1
  4.8571670022069874E-01 a       722     2     2     3     1
 -2.7065750941741878E-01 a       723     2     3     3     1
  6.1704611451533165E-01 a       724     2     4     3     1
 -4.5143894105742566E-01 a       725     2     5     3     1
 -5.7197499147441822E-01 a       726     2     6     3     1
 -7.5328564197391334E-01 a       727     2     7     3     1
  6.0928498482650906E-01 a       728     2     8     3     1
  6.5230080785685007E-01 a       729     2     9     3     1
 -6.1684188660450490E-01 a       730     2    10     3     1
 -7.0900968876722048E-01 a       731     2    11     3     1
 -2.2807908328099341E-01 a       732     2    12     3     1
  9.1578672195827604E-01 a       733     2    13     3     1
  6.2953312201002443E-01 a       734     2    14     3     1
 -4.2823032124084170E-01 a       735     2    15     3     1
  5.0692103649751297E-01 a       736     2    16     3     1
 -4.5220451848532894E-01 a       737     2    17     3     1
 -1.0950281883502822E+00 a       738     2    18     3     1
  4.0585797418791525E-01 a       739     2    19     3     1
  6.4387940563618462E-01 a       740     2    20     3     1
  4.8755760542966364E-01 b       741     3     1
