################################################################################
# Neural network connection values (weights and biases).
################################################################################
# Col  Name       Description
################################################################################
# 1    connection Neural network connection value.
# 2    t          Connection type (a = weight, b = bias).
# 3    index      Index enumerating weights.
# 4    l_s        Starting point layer (end point layer for biases).
# 5    n_s        Starting point neuron in starting layer (end point neuron for biases).
# 6    l_e        End point layer.
# 7    n_e        End point neuron in end layer.
################################################################################
#                      1 2         3     4     5     6     7
#             connection t     index   l_s   n_s   l_e   n_e
############################################################
  2.3641000969291889E-01 a         1     0     1     1     1
  4.5526785088128380E-01 a         2     0     1     1     2
 -5.5785799155455063E-01 a         3     0     1     1     3
 -4.6113826243812911E-01 a         4     0     1     1     4
 -3.1556727173240579E-01 a         5     0     1     1     5
 -2.6794484456688267E-01 a         6     0     1     1     6
 -4.3933670116392148E-01 a         7     0     1     1     7
  2.0001454211175790E-01 a         8     0     1     1     8
  4.8311449536175294E-01 a         9     0     1     1     9
  8.6390441992298395E-01 a        10     0     1     1    10
 -3.4043302795265734E-01 a        11     0     1     1    11
 -3.1036969620866933E-01 a        12     0     1     1    12
 -3.4898034271963757E-01 a        13     0     1     1    13
 -2.6823152796360317E-01 a        14     0     1     1    14
 -3.1441203253119637E-01 a        15     0     1     1    15
  1.9721390012438647E-01 a        16     0     1     1    16
 -7.7519603700174999E-01 a        17     0     1     1    17
 -6.1383636745926251E-01 a        18     0     1     1    18
  2.5121798193662143E-01 a        19     0     1     1    19
  3.7172156929827294E-01 a        20     0     1     1    20
 -2.5193973219228227E-01 a        21     0     2     1     1
  5.7301818757290257E-03 a        22     0     2     1     2
 -2.7485839645005883E-01 a        23     0     2     1     3
  1.8932855387045991E-01 a        24     0     2     1     4
 -8.3266493676397679E-01 a        25     0     2     1     5
  3.3138502911408646E-01 a        26     0     2     1     6
  1.2193744994132460E-01 a        27     0     2     1     7
 -1.6933066390436091E-01 a        28     0     2     1     8
 -3.0945526372624776E-01 a        29     0     2     1     9
  1.1283890329949563E-01 a        30     0     2     1    10
 -6.7575620157254734E-01 a        31     0     2     1    11
  2.6120082722207433E-01 a        32     0     2     1    12
  3.1021854259954917E-01 a        33     0     2     1    13
  6.3663912889323204E-01 a        34     0     2     1    14
  8.2040028404483240E-02 a        35     0     2     1    15
 -4.4033752748333349E-01 a        36     0     2     1    16
 -7.8271919474700233E-03 a        37     0     2     1    17
  4.8240105517418969E-01 a        38     0     2     1    18
 -3.2469035740023833E-01 a        39     0     2     1    19
 -1.8907620600951663E-01 a        40     0     2     1    20
  1.9407881086746143E-02 a        41     0     3     1     1
 -4.7746221575379305E-01 a        42     0     3     1     2
  3.2528786154679823E-01 a        43     0     3     1     3
  3.1964017196503847E-01 a        44     0     3     1     4
 -1.3126694813592654E-03 a        45     0     3     1     5
 -6.3665897597596044E-01 a        46     0     3     1     6
  5.3528607655810065E-02 a        47     0     3     1     7
  4.1782623303895516E-01 a        48     0     3     1     8
 -9.3095362341037033E-02 a        49     0     3     1     9
 -4.3322128117476183E-01 a        50     0     3     1    10
  5.9699768992374225E-01 a        51     0     3     1    11
 -5.7706811105439015E-01 a        52     0     3     1    12
 -6.2922188823644559E-02 a        53     0     3     1    13
 -2.7095109530553185E-01 a        54     0     3     1    14
  8.8162106915376315E-01 a        55     0     3     1    15
  2.3939676182802075E-01 a        56     0     3     1    16
  7.6438866256179960E-01 a        57     0     3     1    17
 -4.4068198872743736E-01 a        58     0     3     1    18
  5.5185174724331165E-01 a        59     0     3     1    19
  7.1640507854336373E-03 a        60     0     3     1    20
 -2.0741110761877082E-01 a        61     0     4     1     1
 -6.2142966752024714E-02 a        62     0     4     1     2
 -2.2657556020313545E-02 a        63     0     4     1     3
  1.1985278516583671E-01 a        64     0     4     1     4
  3.9998362432245599E-01 a        65     0     4     1     5
 -2.3968002350603351E-01 a        66     0     4     1     6
 -5.1165987778755051E-01 a        67     0     4     1     7
  3.1334617364693834E-01 a        68     0     4     1     8
 -3.6172848098632726E-01 a        69     0     4     1     9
  4.8572832421035916E-01 a        70     0     4     1    10
 -1.5484373521128242E-01 a        71     0     4     1    11
  2.4771126908242508E-01 a        72     0     4     1    12
 -1.2560141367873209E-01 a        73     0     4     1    13
  3.7500686793883728E-02 a        74     0     4     1    14
  5.6366167319878833E-02 a        75     0     4     1    15
  5.2953772641855368E-01 a        76     0     4     1    16
 -5.5652966534855608E-01 a        77     0     4     1    17
  3.3819454313355124E-01 a        78     0     4     1    18
  3.3949854477698249E-01 a        79     0     4     1    19
 -2.7961344723956877E-01 a        80     0     4     1    20
  1.6025648743528239E-02 a        81     0     5     1     1
  7.9175104208231051E-01 a        82     0     5     1     2
 -2.2990665390305520E-01 a        83     0     5     1     3
 -5.4147283824914227E-01 a        84     0     5     1     4
 -5.0511062052663991E-01 a        85     0     5     1     5
  3.8978863446575052E-01 a        86     0     5     1     6
  4.0402707635263130E-01 a        87     0     5     1     7
 -4.1565066836684245E-01 a        88     0     5     1     8
  8.6192696806007885E-02 a        89     0     5     1     9
  2.2291775460554214E-01 a        90     0     5     1    10
  6.9655400649597887E-01 a        91     0     5     1    11
  1.5875777428874346E-01 a        92     0     5     1    12
  3.7391368798224084E-01 a        93     0     5     1    13
  8.4529178947376682E-01 a        94     0     5     1    14
 -7.6405303945001224E-02 a        95     0     5     1    15
 -2.2015357401807129E-01 a        96     0     5     1    16
 -7.8408740769707985E-01 a        97     0     5     1    17
 -4.3526921560384768E-01 a        98     0     5     1    18
  7.8187690432891788E-01 a        99     0     5     1    19
 -2.7779285109243257E-01 a       100     0     5     1    20
  4.9606956744407582E-01 a       101     0     6     1     1
 -6.5245050511350844E-01 a       102     0     6     1     2
 -1.8011417531344950E-01 a       103     0     6     1     3
 -2.3341696402980100E-01 a       104     0     6     1     4
 -5.0687349467759013E-01 a       105     0     6     1     5
 -1.7856578144636006E-02 a       106     0     6     1     6
  4.8821188188973602E-01 a       107     0     6     1     7
  9.1414511017604017E-01 a       108     0     6     1     8
 -2.7341662157720004E-01 a       109     0     6     1     9
 -8.6183784236801775E-01 a       110     0     6     1    10
  9.4389880911393909E-01 a       111     0     6     1    11
  6.8002605644875758E-01 a       112     0     6     1    12
  7.0243659006450720E-01 a       113     0     6     1    13
 -1.0704142376227073E-01 a       114     0     6     1    14
  4.3560933571239302E-01 a       115     0     6     1    15
 -5.6853483878269151E-01 a       116     0     6     1    16
  9.1934612795529291E-01 a       117     0     6     1    17
 -6.2263176962240496E-01 a       118     0     6     1    18
  2.1203455052258119E-01 a       119     0     6     1    19
 -2.7401502895920438E-01 a       120     0     6     1    20
 -4.8680290969328943E-01 a       121     0     7     1     1
  5.0450862957808018E-01 a       122     0     7     1     2
  8.2886499507321831E-01 a       123     0     7     1     3
 -1.7768894845360417E-01 a       124     0     7     1     4
  1.6397752025960213E-01 a       125     0     7     1     5
  5.6731639795441591E-01 a       126     0     7     1     6
 -6.0767155778601201E-02 a       127     0     7     1     7
 -7.0897403827145197E-02 a       128     0     7     1     8
 -6.2845200820742131E-01 a       129     0     7     1     9
 -1.6221203702614698E-01 a       130     0     7     1    10
 -3.7498514316659548E-01 a       131     0     7     1    11
 -4.4297151697818823E-02 a       132     0     7     1    12
 -5.1241689930138085E-02 a       133     0     7     1    13
  3.7418090192008679E-01 a       134     0     7     1    14
  8.5569829250722845E-02 a       135     0     7     1    15
  3.2404424437405244E-01 a       136     0     7     1    16
 -1.9805227746333014E-02 a       137     0     7     1    17
 -6.9373630709389650E-02 a       138     0     7     1    18
  9.5007986053410776E-01 a       139     0     7     1    19
 -9.0452076784987845E-01 a       140     0     7     1    20
  4.5222511980125768E-01 a       141     0     8     1     1
 -1.6346146568856842E-01 a       142     0     8     1     2
 -2.6107130996765765E-01 a       143     0     8     1     3
  3.6294404157059978E-01 a       144     0     8     1     4
  2.9526914027704043E-01 a       145     0     8     1     5
 -7.1787216456987224E-01 a       146     0     8     1     6
  9.0699363056602789E-01 a       147     0     8     1     7
 -8.0355887797350545E-01 a       148     0     8     1     8
 -1.3212378551669518E-01 a       149     0     8     1     9
  1.4737743989926158E-01 a       150     0     8     1    10
 -2.5509753856182097E-02 a       151     0     8     1    11
 -6.8822511467098813E-01 a       152     0     8     1    12
  1.5531284106279516E-01 a       153     0     8     1    13
 -5.7620443338793140E-02 a       154     0     8     1    14
  7.5114428872165762E-01 a       155     0     8     1    15
  7.1711158971148214E-01 a       156     0     8     1    16
 -5.8715531017785413E-02 a       157     0     8     1    17
 -5.5125127122603201E-01 a       158     0     8     1    18
  1.4289242070611019E-01 a       159     0     8     1    19
 -1.1222440628826971E-01 a       160     0     8     1    20
 -8.1899263314452880E-02 a       161     0     9     1     1
 -5.8089575359514167E-01 a       162     0     9     1     2
  6.1840695953779234E-01 a       163     0     9     1     3
 -2.1673918186829710E-01 a       164     0     9     1     4
  6.2543256316685769E-01 a       165     0     9     1     5
  2.2255955169070032E-01 a       166     0     9     1     6
 -3.4927138510665628E-01 a       167     0     9     1     7
  6.2913561502338899E-01 a       168     0     9     1     8
 -3.4028407734215151E-02 a       169     0     9     1     9
  1.5469729324865394E-01 a       170     0     9     1    10
  2.9253428076628153E-02 a       171     0     9     1    11
  5.5264568685502491E-01 a       172     0     9     1    12
 -3.0016460764666097E-01 a       173     0     9     1    13
 -5.3431373703313234E-01 a       174     0     9     1    14
 -2.1776034599948227E-01 a       175     0     9     1    15
  1.4567248334799196E-01 a       176     0     9     1    16
 -9.9664704534602827E-02 a       177     0     9     1    17
 -4.2934492102496824E-01 a       178     0     9     1    18
 -2.7400739827246379E-01 a       179     0     9     1    19
 -4.2089562596173968E-01 a       180     0     9     1    20
  4.7207895824618001E-01 a       181     0    10     1     1
  4.3936337566830758E-01 a       182     0    10     1     2
 -2.9652061625518999E-01 a       183     0    10     1     3
 -2.0799956366438113E-01 a       184     0    10     1     4
 -4.0793621825540421E-01 a       185     0    10     1     5
 -4.7969091387110169E-01 a       186     0    10     1     6
  3.0537191985243362E-01 a       187     0    10     1     7
  7.9726264095848609E-01 a       188     0    10     1     8
 -9.3628410555491856E-02 a       189     0    10     1     9
 -3.9565955398715569E-01 a       190     0    10     1    10
  5.4557414292057771E-01 a       191     0    10     1    11
  2.7499430419009424E-01 a       192     0    10     1    12
 -2.4021987215883045E-01 a       193     0    10     1    13
  1.9047211437798567E-01 a       194     0    10     1    14
 -1.7001947858522864E-01 a       195     0    10     1    15
  1.9535618592434101E-01 a       196     0    10     1    16
 -4.7253967707864503E-01 a       197     0    10     1    17
 -3.7331285328431649E-02 a       198     0    10     1    18
  5.2810126244609024E-01 a       199     0    10     1    19
  8.2428660122744557E-01 a       200     0    10     1    20
 -4.2065640453000325E-01 a       201     0    11     1     1
 -2.8580536961811548E-01 a       202     0    11     1     2
  2.4521320177412806E-02 a       203     0    11     1     3
 -3.9137746948173630E-01 a       204     0    11     1     4
 -1.7973213256151788E-01 a       205     0    11     1     5
  5.9785253263853047E-02 a       206     0    11     1     6
  6.8592069088989605E-01 a       207     0    11     1     7
 -1.8142468457948861E-02 a       208     0    11     1     8
 -8.0654881742467655E-01 a       209     0    11     1     9
  1.8399956935508377E-01 a       210     0    11     1    10
  3.1032418551408231E-02 a       211     0    11     1    11
  4.6419226274757786E-01 a       212     0    11     1    12
  4.9987909769447925E-01 a       213     0    11     1    13
  2.5827918470090638E-01 a       214     0    11     1    14
  8.8280047885712976E-02 a       215     0    11     1    15
 -1.3226925227503247E-01 a       216     0    11     1    16
 -1.0838716755939619E-01 a       217     0    11     1    17
 -4.2861314316816840E-01 a       218     0    11     1    18
  3.2655921165841956E-01 a       219     0    11     1    19
  4.7011970680435372E-01 a       220     0    11     1    20
  2.1890390779225136E-01 a       221     0    12     1     1
  5.7291528405122016E-01 a       222     0    12     1     2
  8.0098522425186391E-01 a       223     0    12     1     3
 -2.8846540660857867E-01 a       224     0    12     1     4
 -4.8459976601863258E-01 a       225     0    12     1     5
  7.2248190025202907E-01 a       226     0    12     1     6
 -6.4925307428593704E-01 a       227     0    12     1     7
 -1.7912986146300429E-02 a       228     0    12     1     8
  4.6249711163068696E-01 a       229     0    12     1     9
  5.5898701830274333E-01 a       230     0    12     1    10
  3.2572679130058962E-01 a       231     0    12     1    11
  7.2902596438053657E-01 a       232     0    12     1    12
  3.4853414746288175E-01 a       233     0    12     1    13
  5.4293737013096588E-01 a       234     0    12     1    14
 -7.1521310753906220E-01 a       235     0    12     1    15
  5.8725787323343492E-01 a       236     0    12     1    16
 -4.1944876630687428E-01 a       237     0    12     1    17
 -3.0801999459760954E-01 a       238     0    12     1    18
 -3.4008326311143622E-01 a       239     0    12     1    19
 -9.7620715267362324E-02 a       240     0    12     1    20
 -3.0057120086369754E-01 a       241     0    13     1     1
 -3.9551137279914850E-01 a       242     0    13     1     2
 -1.2432436709950843E-01 a       243     0    13     1     3
  2.9505816195052231E-01 a       244     0    13     1     4
 -3.1815104425625207E-01 a       245     0    13     1     5
  1.9683193237199642E-01 a       246     0    13     1     6
  1.8579294814034716E-01 a       247     0    13     1     7
 -2.5004218641049243E-02 a       248     0    13     1     8
  7.4580305010824766E-01 a       249     0    13     1     9
 -1.4304307556488352E-01 a       250     0    13     1    10
  1.1914328021364951E-01 a       251     0    13     1    11
  2.7395082027678974E-01 a       252     0    13     1    12
  5.9104030445365452E-01 a       253     0    13     1    13
  6.1420312901956930E-01 a       254     0    13     1    14
  1.6633361508867547E-01 a       255     0    13     1    15
  6.8407224388079169E-01 a       256     0    13     1    16
  4.0561521675347556E-01 a       257     0    13     1    17
  2.0596087468863936E-01 a       258     0    13     1    18
 -1.3836510419531005E-02 a       259     0    13     1    19
  4.5839510767558983E-01 a       260     0    13     1    20
 -3.4201991135372101E-01 a       261     0    14     1     1
 -8.1587515549836079E-02 a       262     0    14     1     2
 -8.1898126177982061E-02 a       263     0    14     1     3
 -4.7489034970989041E-01 a       264     0    14     1     4
  2.1435639936724818E-01 a       265     0    14     1     5
  4.8501661962355258E-01 a       266     0    14     1     6
 -1.1452021671194107E-01 a       267     0    14     1     7
  2.8570654079031654E-01 a       268     0    14     1     8
 -3.1581857038543060E-01 a       269     0    14     1     9
 -1.7747427674756669E-01 a       270     0    14     1    10
  4.0577554332451032E-01 a       271     0    14     1    11
  6.2870051098717805E-01 a       272     0    14     1    12
 -2.6840376277146039E-01 a       273     0    14     1    13
 -7.2489258626226527E-01 a       274     0    14     1    14
 -1.2992559523932423E-01 a       275     0    14     1    15
 -3.0756890858089447E-01 a       276     0    14     1    16
  7.8523309004062392E-01 a       277     0    14     1    17
 -4.2782852083822659E-01 a       278     0    14     1    18
  4.3913352024216562E-01 a       279     0    14     1    19
  6.5246071127145489E-01 a       280     0    14     1    20
  5.3046494127459230E-02 b       281     1     1
 -9.5117747300226030E-01 b       282     1     2
 -1.4893382453785426E+00 b       283     1     3
 -4.6281133325062962E-01 b       284     1     4
  1.0735387226056612E+00 b       285     1     5
 -1.1719570374768422E+00 b       286     1     6
  6.9511713165131295E-01 b       287     1     7
  1.3599865343437030E+00 b       288     1     8
  1.8388548892732419E+00 b       289     1     9
  2.4282275574167431E-01 b       290     1    10
 -1.3587416598415065E+00 b       291     1    11
 -7.9472401329002340E-01 b       292     1    12
 -6.0983969889231837E-01 b       293     1    13
 -1.1544577150223956E+00 b       294     1    14
 -9.7615973598241490E-01 b       295     1    15
  1.1191341531434278E+00 b       296     1    16
  1.2043175338566099E-01 b       297     1    17
 -6.1673031557974128E-02 b       298     1    18
 -7.2755826346142516E-01 b       299     1    19
  1.6928689872785927E+00 b       300     1    20
  2.6910975194133896E-01 a       301     1     1     2     1
  3.6303210743659270E-01 a       302     1     1     2     2
  1.6171409712662632E-01 a       303     1     1     2     3
  1.0468161356735411E-01 a       304     1     1     2     4
 -2.3473580428201374E-01 a       305     1     1     2     5
  2.8389087240575828E-01 a       306     1     1     2     6
 -5.9726135565213045E-01 a       307     1     1     2     7
 -6.3756163468542862E-02 a       308     1     1     2     8
  1.1047935084745004E-01 a       309     1     1     2     9
  4.0214042527611508E-02 a       310     1     1     2    10
 -6.3767190884488245E-01 a       311     1     1     2    11
  2.1002646227119473E-01 a       312     1     1     2    12
  4.2458251423984317E-01 a       313     1     1     2    13
  4.3829875193485246E-01 a       314     1     1     2    14
 -4.9543103451656162E-01 a       315     1     1     2    15
 -1.0668605781696405E-02 a       316     1     1     2    16
  2.3731576410905264E-01 a       317     1     1     2    17
 -3.6947748209986386E-01 a       318     1     1     2    18
  4.7717389437745550E-01 a       319     1     1     2    19
  2.9042629993111007E-02 a       320     1     1     2    20
  1.2861957993937229E-01 a       321     1     2     2     1
  1.4939541214620183E-01 a       322     1     2     2     2
 -1.5590804159087865E-01 a       323     1     2     2     3
  6.3424733500366648E-01 a       324     1     2     2     4
 -4.7842983357490815E-01 a       325     1     2     2     5
 -2.9578696988187536E-01 a       326     1     2     2     6
 -6.0387423869672130E-01 a       327     1     2     2     7
  5.7651685475881775E-01 a       328     1     2     2     8
 -3.2923042811754361E-01 a       329     1     2     2     9
 -1.7574426445754426E-01 a       330     1     2     2    10
  6.0108253365181046E-02 a       331     1     2     2    11
 -6.7676108265547985E-02 a       332     1     2     2    12
  2.6556116279349018E-01 a       333     1     2     2    13
 -4.6430011020932926E-01 a       334     1     2     2    14
  1.2041509753214857E-01 a       335     1     2     2    15
  7.8926177124038668E-02 a       336     1     2     2    16
  9.1577236466001286E-02 a       337     1     2     2    17
 -1.1469992307518534E-01 a       338     1     2     2    18
  2.4224017675409135E-01 a       339     1     2     2    19
  9.0503262401624943E-02 a       340     1     2     2    20
  5.4082146918552620E-01 a       341     1     3     2     1
 -5.9040878292233534E-01 a       342     1     3     2     2
 -6.8905179644817105E-01 a       343     1     3     2     3
  4.3912591879181889E-01 a       344     1     3     2     4
  5.2510209272595243E-01 a       345     1     3     2     5
  6.2429758562465798E-01 a       346     1     3     2     6
  2.2779275578370761E-01 a       347     1     3     2     7
  8.1041081590871727E-03 a       348     1     3     2     8
 -2.3848861149058498E-01 a       349     1     3     2     9
  4.7198061591893870E-01 a       350     1     3     2    10
  1.0137098236296269E-01 a       351     1     3     2    11
 -3.6776472277268163E-01 a       352     1     3     2    12
 -2.1581252503889489E-01 a       353     1     3     2    13
 -4.3314866270251345E-01 a       354     1     3     2    14
 -1.2258988829022258E-01 a       355     1     3     2    15
 -5.4424609459615525E-01 a       356     1     3     2    16
 -2.7080921140648212E-01 a       357     1     3     2    17
  4.5936865044764452E-01 a       358     1     3     2    18
  4.1380968859810169E-01 a       359     1     3     2    19
  2.2437799585077245E-01 a       360     1     3     2    20
  3.7830133892376094E-01 a       361     1     4     2     1
  6.9861853583228148E-02 a       362     1     4     2     2
  4.2408729619409963E-01 a       363     1     4     2     3
  5.0710694487566688E-01 a       364     1     4     2     4
 -2.4784394174867264E-02 a       365     1     4     2     5
  6.5193056282416575E-02 a       366     1     4     2     6
  2.9132364228415458E-01 a       367     1     4     2     7
 -4.6003918194241399E-02 a       368     1     4     2     8
 -4.3638356613494279E-02 a       369     1     4     2     9
 -4.7383806873579470E-01 a       370     1     4     2    10
 -1.0599831921736229E-01 a       371     1     4     2    11
  2.8229417941653301E-01 a       372     1     4     2    12
 -1.8705136367619263E-01 a       373     1     4     2    13
 -3.9145578026183442E-01 a       374     1     4     2    14
 -1.2827941224982353E-01 a       375     1     4     2    15
  1.6584762379484388E-01 a       376     1     4     2    16
 -3.6537357688120536E-01 a       377     1     4     2    17
  3.5034776117595640E-01 a       378     1     4     2    18
 -2.4875098122328496E-01 a       379     1     4     2    19
  3.6909042649338497E-01 a       380     1     4     2    20
  5.0143839910075305E-01 a       381     1     5     2     1
 -2.9539466847136231E-01 a       382     1     5     2     2
  5.9221809607346221E-01 a       383     1     5     2     3
  2.5463445364006598E-01 a       384     1     5     2     4
 -3.7616470052848194E-01 a       385     1     5     2     5
  2.6353801417847517E-01 a       386     1     5     2     6
 -5.8354305731151512E-01 a       387     1     5     2     7
  4.9734066266860855E-01 a       388     1     5     2     8
 -3.8655268953563970E-02 a       389     1     5     2     9
 -7.9811780476011672E-05 a       390     1     5     2    10
  2.4766857325237646E-01 a       391     1     5     2    11
  5.4605808302621628E-01 a       392     1     5     2    12
  1.0794032093560950E-01 a       393     1     5     2    13
 -4.5781328144273287E-01 a       394     1     5     2    14
 -4.8876635730441703E-01 a       395     1     5     2    15
  1.8257417227993084E-02 a       396     1     5     2    16
 -2.2163428152507886E-01 a       397     1     5     2    17
 -2.3343083663888081E-02 a       398     1     5     2    18
 -7.7407513045188947E-01 a       399     1     5     2    19
 -1.7011068190430667E-01 a       400     1     5     2    20
  1.9823984598073324E-01 a       401     1     6     2     1
 -1.2813830270970256E-01 a       402     1     6     2     2
 -1.9705560519104628E-01 a       403     1     6     2     3
 -3.0907345596544605E-01 a       404     1     6     2     4
  1.6983446459525403E-01 a       405     1     6     2     5
 -1.4550619773015339E-01 a       406     1     6     2     6
  2.5528005272509935E-01 a       407     1     6     2     7
  4.8241177268811986E-01 a       408     1     6     2     8
 -1.2643010594316226E-01 a       409     1     6     2     9
  1.3916031018888046E-02 a       410     1     6     2    10
  7.1293762748947842E-01 a       411     1     6     2    11
 -5.5213818915390600E-01 a       412     1     6     2    12
  3.5632628438590347E-01 a       413     1     6     2    13
  2.0887495585409577E-01 a       414     1     6     2    14
 -6.7807450015357218E-01 a       415     1     6     2    15
  4.7139390803190445E-01 a       416     1     6     2    16
  2.2768447331997010E-02 a       417     1     6     2    17
 -1.5894932721745056E-01 a       418     1     6     2    18
 -2.3032014931763531E-02 a       419     1     6     2    19
 -3.7979199850025591E-01 a       420     1     6     2    20
 -5.4852268031515727E-01 a       421     1     7     2     1
 -3.9795041900693118E-01 a       422     1     7     2     2
  5.2579608961874713E-01 a       423     1     7     2     3
 -2.9876964978016213E-01 a       424     1     7     2     4
 -5.0601053136578367E-01 a       425     1     7     2     5
 -2.9321498604239871E-01 a       426     1     7     2     6
  7.0028921310767531E-02 a       427     1     7     2     7
 -2.5055945451008416E-01 a       428     1     7     2     8
  5.7016369133482236E-01 a       429     1     7     2     9
 -5.1138972915306002E-01 a       430     1     7     2    10
 -1.9407955445218913E-01 a       431     1     7     2    11
 -8.5634770110985473E-03 a       432     1     7     2    12
  3.7641485079673875E-01 a       433     1     7     2    13
  2.3548416885843124E-01 a       434     1     7     2    14
  3.1266917342696487E-02 a       435     1     7     2    15
 -5.2997992263635385E-01 a       436     1     7     2    16
 -3.5726433775320332E-01 a       437     1     7     2    17
  4.4943814309650873E-02 a       438     1     7     2    18
 -3.2400345376329576E-01 a       439     1     7     2    19
 -3.8497173456690853E-01 a       440     1     7     2    20
 -5.6695457827617224E-01 a       441     1     8     2     1
 -2.4219648237519659E-01 a       442     1     8     2     2
  6.0956467786430268E-01 a       443     1     8     2     3
  6.7378713333671486E-02 a       444     1     8     2     4
  1.1167323460205623E-01 a       445     1     8     2     5
 -4.1879221383269610E-01 a       446     1     8     2     6
 -3.7119425156769265E-01 a       447     1     8     2     7
 -6.2998906119768161E-02 a       448     1     8     2     8
  3.9688437812317107E-01 a       449     1     8     2     9
 -8.5531327601817433E-02 a       450     1     8     2    10
 -2.5067977402022540E-01 a       451     1     8     2    11
  3.3110554505188983E-01 a       452     1     8     2    12
  1.7403718448936958E-01 a       453     1     8     2    13
 -3.4858066323107390E-01 a       454     1     8     2    14
 -1.3928626727425542E-01 a       455     1     8     2    15
  4.4361795013549410E-01 a       456     1     8     2    16
  4.2251436145341464E-01 a       457     1     8     2    17
 -2.9907659604170633E-01 a       458     1     8     2    18
  5.9738499304767256E-01 a       459     1     8     2    19
  6.9853296664204467E-01 a       460     1     8     2    20
 -3.6153690938975519E-01 a       461     1     9     2     1
 -2.3298277738956022E-01 a       462     1     9     2     2
 -7.5011663456269875E-02 a       463     1     9     2     3
 -2.7435142662624806E-01 a       464     1     9     2     4
 -9.9828427682982127E-02 a       465     1     9     2     5
 -7.5423656839642017E-01 a       466     1     9     2     6
  1.0150508935144553E-01 a       467     1     9     2     7
  2.3960224182186199E-01 a       468     1     9     2     8
 -5.2195081303145929E-01 a       469     1     9     2     9
  1.6078072157113410E-01 a       470     1     9     2    10
  6.6542206144311467E-01 a       471     1     9     2    11
  4.6123619622664186E-01 a       472     1     9     2    12
 -4.3096836941041694E-01 a       473     1     9     2    13
 -4.5458237777069505E-01 a       474     1     9     2    14
 -8.3609793898748064E-02 a       475     1     9     2    15
 -3.1949870329628577E-01 a       476     1     9     2    16
 -4.4825515932271021E-02 a       477     1     9     2    17
 -3.1836521903333836E-01 a       478     1     9     2    18
 -3.0953602673459568E-01 a       479     1     9     2    19
 -4.2176603534297524E-01 a       480     1     9     2    20
  3.3398686067456596E-01 a       481     1    10     2     1
 -2.5674022095233257E-01 a       482     1    10     2     2
 -1.0201180404503882E-01 a       483     1    10     2     3
  1.8805498642685242E-01 a       484     1    10     2     4
 -2.6949869726332937E-01 a       485     1    10     2     5
  1.3726300418583517E-01 a       486     1    10     2     6
 -4.9309873257779735E-01 a       487     1    10     2     7
  7.7439119149230740E-02 a       488     1    10     2     8
 -2.2040988074775672E-01 a       489     1    10     2     9
  3.8454398374358240E-01 a       490     1    10     2    10
 -3.0114492641736307E-01 a       491     1    10     2    11
 -5.7944010134650659E-01 a       492     1    10     2    12
 -2.7767504362217407E-02 a       493     1    10     2    13
  9.7967103013862883E-02 a       494     1    10     2    14
  2.5051398595782304E-01 a       495     1    10     2    15
  2.7992845625667589E-02 a       496     1    10     2    16
 -2.3212194806308498E-01 a       497     1    10     2    17
 -5.3703335679621600E-01 a       498     1    10     2    18
  5.7317790309422612E-01 a       499     1    10     2    19
  1.3665425853528410E-01 a       500     1    10     2    20
  2.8705114254570568E-01 a       501     1    11     2     1
 -1.5933284062011274E-01 a       502     1    11     2     2
 -8.6268284412206397E-01 a       503     1    11     2     3
 -2.8920400131268309E-01 a       504     1    11     2     4
 -2.8693142989172676E-01 a       505     1    11     2     5
  2.0401256492529943E-01 a       506     1    11     2     6
  4.5383417613857430E-01 a       507     1    11     2     7
  2.0241596376840523E-01 a       508     1    11     2     8
  4.3642679054022326E-01 a       509     1    11     2     9
 -1.4715067848550020E-01 a       510     1    11     2    10
  1.1941589741167510E-01 a       511     1    11     2    11
 -1.7984421062605419E-01 a       512     1    11     2    12
 -2.5506092785738371E-01 a       513     1    11     2    13
  5.3492894455670112E-02 a       514     1    11     2    14
  6.3842981810328103E-01 a       515     1    11     2    15
 -3.2839570419095970E-01 a       516     1    11     2    16
  5.2007181248955914E-01 a       517     1    11     2    17
  3.0350998354594477E-01 a       518     1    11     2    18
  8.6578336115125243E-01 a       519     1    11     2    19
 -1.1340272996495107E-01 a       520     1    11     2    20
  7.7151187699236054E-02 a       521     1    12     2     1
 -1.1661889767655917E-01 a       522     1    12     2     2
  2.5356241090159548E-01 a       523     1    12     2     3
  1.6767341917087555E-01 a       524     1    12     2     4
  7.1409691791439955E-01 a       525     1    12     2     5
 -4.4798401252089592E-01 a       526     1    12     2     6
  5.4134721481583814E-01 a       527     1    12     2     7
 -1.4329484690496622E-01 a       528     1    12     2     8
  5.7358991434786934E-03 a       529     1    12     2     9
  2.1089685577346043E-01 a       530     1    12     2    10
  7.1398927881284657E-01 a       531     1    12     2    11
  2.9947763956676970E-01 a       532     1    12     2    12
  5.6599464407646549E-01 a       533     1    12     2    13
 -2.8202610682639895E-01 a       534     1    12     2    14
  6.4371965732115366E-01 a       535     1    12     2    15
 -3.5023443025078393E-01 a       536     1    12     2    16
  2.7435381674722209E-01 a       537     1    12     2    17
  4.5423138841997529E-01 a       538     1    12     2    18
 -1.0342197106434229E-02 a       539     1    12     2    19
 -1.5852738547509676E-01 a       540     1    12     2    20
  2.1383403658294184E-01 a       541     1    13     2     1
  3.9605136661081369E-02 a       542     1    13     2     2
  2.6913619864000354E-01 a       543     1    13     2     3
  8.8059396919455635E-02 a       544     1    13     2     4
  1.0955898352584238E-02 a       545     1    13     2     5
  5.5882710230514177E-01 a       546     1    13     2     6
  1.5296957127726430E-02 a       547     1    13     2     7
  3.1026010237217244E-01 a       548     1    13     2     8
  4.2795788106476579E-01 a       549     1    13     2     9
  3.8013156132727405E-01 a       550     1    13     2    10
 -1.9379834958460618E-01 a       551     1    13     2    11
  4.6527356009305770E-01 a       552     1    13     2    12
 -4.6762774065827667E-01 a       553     1    13     2    13
  2.4488586056735276E-02 a       554     1    13     2    14
 -2.4229477359442214E-01 a       555     1    13     2    15
  5.0916604754643846E-01 a       556     1    13     2    16
 -4.0885250639549592E-02 a       557     1    13     2    17
 -2.9863269711474377E-02 a       558     1    13     2    18
  9.5130544376468673E-02 a       559     1    13     2    19
 -4.9444396311200411E-01 a       560     1    13     2    20
  4.7117506492003713E-01 a       561     1    14     2     1
 -4.3377765218662734E-01 a       562     1    14     2     2
 -2.0467946069706464E-01 a       563     1    14     2     3
 -2.5579030555041188E-01 a       564     1    14     2     4
  7.1865250977250729E-03 a       565     1    14     2     5
 -1.3853934434043015E-03 a       566     1    14     2     6
 -1.6103846535164876E-01 a       567     1    14     2     7
  3.8860611943701134E-01 a       568     1    14     2     8
  5.4955923488465175E-01 a       569     1    14     2     9
 -1.6623447969987357E-01 a       570     1    14     2    10
 -5.7925196675349833E-01 a       571     1    14     2    11
 -8.8239539727778454E-02 a       572     1    14     2    12
 -1.1975318444353937E-01 a       573     1    14     2    13
  5.0060237585098122E-01 a       574     1    14     2    14
  2.9031782140379736E-01 a       575     1    14     2    15
  3.7393632850525554E-01 a       576     1    14     2    16
  6.1025411093368187E-01 a       577     1    14     2    17
  2.4488270028210030E-01 a       578     1    14     2    18
 -4.7866677225793858E-01 a       579     1    14     2    19
  5.0228418766958249E-01 a       580     1    14     2    20
 -2.2141743059528110E-01 a       581     1    15     2     1
  1.5801736529430510E-02 a       582     1    15     2     2
 -1.4195745367970863E-01 a       583     1    15     2     3
  4.5487469764997196E-01 a       584     1    15     2     4
  3.6783179304187807E-01 a       585     1    15     2     5
  4.5357350180817968E-01 a       586     1    15     2     6
 -4.5569600148594758E-01 a       587     1    15     2     7
 -3.2424448124580130E-01 a       588     1    15     2     8
  2.4308669503062232E-02 a       589     1    15     2     9
 -2.7568268775245763E-01 a       590     1    15     2    10
  3.6870212681690273E-02 a       591     1    15     2    11
 -2.5405644825208618E-01 a       592     1    15     2    12
 -7.5882616212972631E-01 a       593     1    15     2    13
 -4.5859548990103255E-01 a       594     1    15     2    14
  5.6604972625229566E-01 a       595     1    15     2    15
 -3.2081497525094305E-01 a       596     1    15     2    16
  5.5829523922470292E-01 a       597     1    15     2    17
 -5.1803410961264507E-01 a       598     1    15     2    18
 -2.3688910205318559E-01 a       599     1    15     2    19
  3.6097463088510473E-01 a       600     1    15     2    20
 -2.9992308514638200E-01 a       601     1    16     2     1
 -4.1776859386707110E-01 a       602     1    16     2     2
 -1.0242310883152470E-01 a       603     1    16     2     3
 -6.2035293026216487E-01 a       604     1    16     2     4
 -7.6224138826350740E-01 a       605     1    16     2     5
 -1.5646542572490100E-02 a       606     1    16     2     6
 -4.8170310382326403E-01 a       607     1    16     2     7
 -3.0472468809671244E-01 a       608     1    16     2     8
 -3.4136311529843538E-01 a       609     1    16     2     9
  2.2891844862428568E-02 a       610     1    16     2    10
  3.8410165938965478E-02 a       611     1    16     2    11
  4.2304900156190800E-01 a       612     1    16     2    12
 -2.6426295248131065E-01 a       613     1    16     2    13
  3.9804841009501662E-01 a       614     1    16     2    14
  6.2802659992550625E-01 a       615     1    16     2    15
 -5.6825518115211682E-01 a       616     1    16     2    16
 -4.6954312826274336E-01 a       617     1    16     2    17
 -3.6191816343764499E-01 a       618     1    16     2    18
 -2.9451869823705001E-01 a       619     1    16     2    19
  4.6615760474926138E-01 a       620     1    16     2    20
  4.0405532866340765E-01 a       621     1    17     2     1
 -4.6304645878232527E-02 a       622     1    17     2     2
  4.7156160748495307E-01 a       623     1    17     2     3
 -3.5895301892373194E-01 a       624     1    17     2     4
  1.3227228226570065E-01 a       625     1    17     2     5
  2.4851303952157738E-01 a       626     1    17     2     6
 -2.3208321164600365E-02 a       627     1    17     2     7
  3.2626027471441521E-01 a       628     1    17     2     8
  5.8765516721834066E-01 a       629     1    17     2     9
 -4.3529669777683921E-01 a       630     1    17     2    10
 -5.0459643883709671E-01 a       631     1    17     2    11
 -4.2237378200934284E-01 a       632     1    17     2    12
  5.5400835775889012E-01 a       633     1    17     2    13
  3.0210417795240563E-01 a       634     1    17     2    14
  1.7446833325256403E-01 a       635     1    17     2    15
 -3.5341062562869752E-01 a       636     1    17     2    16
  1.4911157101320410E-01 a       637     1    17     2    17
 -3.2382877728997850E-01 a       638     1    17     2    18
 -1.1733563061433404E-01 a       639     1    17     2    19
  2.7172394854888299E-01 a       640     1    17     2    20
 -5.0721831484420143E-01 a       641     1    18     2     1
 -2.5431500411457258E-01 a       642     1    18     2     2
  3.8373634375352206E-01 a       643     1    18     2     3
  3.4240786819435781E-01 a       644     1    18     2     4
  1.6649367657723835E-01 a       645     1    18     2     5
 -2.9283125395177567E-01 a       646     1    18     2     6
 -1.4711453521483076E-01 a       647     1    18     2     7
 -7.3329856638134114E-02 a       648     1    18     2     8
  6.4786960905397359E-02 a       649     1    18     2     9
  3.6874842257452700E-01 a       650     1    18     2    10
  5.7815593451090519E-01 a       651     1    18     2    11
  2.4177673371484545E-01 a       652     1    18     2    12
  5.1817155079801058E-01 a       653     1    18     2    13
 -1.9751120960398194E-01 a       654     1    18     2    14
  1.7837794612821645E-01 a       655     1    18     2    15
 -2.5812977219481126E-01 a       656     1    18     2    16
 -1.9107509317625332E-01 a       657     1    18     2    17
 -4.6007233443996770E-01 a       658     1    18     2    18
  1.2316180387606045E-01 a       659     1    18     2    19
 -3.7151268104971896E-01 a       660     1    18     2    20
 -1.8868413622059779E-01 a       661     1    19     2     1
 -5.0479936352114352E-01 a       662     1    19     2     2
  1.2061829560606042E-01 a       663     1    19     2     3
  2.1501641059886401E-01 a       664     1    19     2     4
  4.8152291419826071E-01 a       665     1    19     2     5
 -7.6265049460378126E-02 a       666     1    19     2     6
  3.6634275421755802E-01 a       667     1    19     2     7
  3.3728777016321188E-01 a       668     1    19     2     8
 -5.9133418802791371E-01 a       669     1    19     2     9
  3.6119230252397927E-01 a       670     1    19     2    10
  4.7835647635598327E-01 a       671     1    19     2    11
  4.5515103038078475E-01 a       672     1    19     2    12
 -4.4716857923656927E-01 a       673     1    19     2    13
  7.1609771474729367E-01 a       674     1    19     2    14
  3.0961325990535291E-02 a       675     1    19     2    15
 -1.4989448190657275E-02 a       676     1    19     2    16
 -5.4922551879835246E-01 a       677     1    19     2    17
  4.3925720284823433E-01 a       678     1    19     2    18
 -5.6701059685354283E-01 a       679     1    19     2    19
 -2.2439097660013227E-01 a       680     1    19     2    20
  1.4272211165063714E-01 a       681     1    20     2     1
 -3.1030099398932037E-01 a       682     1    20     2     2
  2.4115595417045199E-01 a       683     1    20     2     3
  5.4369359395489170E-01 a       684     1    20     2     4
  3.6010314368935264E-01 a       685     1    20     2     5
  2.7182968776059430E-02 a       686     1    20     2     6
 -3.9445064493233556E-01 a       687     1    20     2     7
  3.5290552990753166E-01 a       688     1    20     2     8
 -5.2606906825229283E-01 a       689     1    20     2     9
 -1.5212238962393873E-01 a       690     1    20     2    10
  1.2017489534175524E-02 a       691     1    20     2    11
 -1.9068324008178178E-01 a       692     1    20     2    12
  3.7149571089493427E-01 a       693     1    20     2    13
  2.0833199302162517E-01 a       694     1    20     2    14
 -8.3418132402445638E-03 a       695     1    20     2    15
 -2.3942623001433772E-01 a       696     1    20     2    16
  1.6308058496937142E-01 a       697     1    20     2    17
  4.5466705089892318E-01 a       698     1    20     2    18
 -2.3031663823000495E-01 a       699     1    20     2    19
 -2.6348557374247550E-01 a       700     1    20     2    20
 -1.0231262996018184E+00 b       701     2     1
  1.3743747487301594E+00 b       702     2     2
 -1.4456887032123091E+00 b       703     2     3
  1.5412906469001855E-02 b       704     2     4
 -8.0680507959880865E-01 b       705     2     5
 -5.3884915406756517E-01 b       706     2     6
 -9.2495641127685202E-01 b       707     2     7
 -1.1112110927275172E+00 b       708     2     8
  1.3548658744747888E-01 b       709     2     9
 -1.6372964260906497E+00 b       710     2    10
 -4.0361004455920696E-01 b       711     2    11
  1.5673061725660486E+00 b       712     2    12
  4.5089425917793219E-01 b       713     2    13
  1.4275176852892226E+00 b       714     2    14
 -1.0042935888123994E+00 b       715     2    15
 -7.8682395105929592E-01 b       716     2    16
  7.8239995574078280E-01 b       717     2    17
  1.5536956667682551E+00 b       718     2    18
 -7.9578702017914349E-01 b       719     2    19
 -1.5301277073929851E+00 b       720     2    20
  4.6880474834649688E-02 a       721     2     1     3     1
  4.8901023084136447E-01 a       722     2     2     3     1
  2.7889300016782437E-01 a       723     2     3     3     1
 -3.2441260216045292E-02 a       724     2     4     3     1
 -1.0807682031461749E+00 a       725     2     5     3     1
 -1.2315040822363148E+00 a       726     2     6     3     1
  5.9544895005393694E-01 a       727     2     7     3     1
  9.4863385773920372E-01 a       728     2     8     3     1
  4.1891896174433702E-02 a       729     2     9     3     1
  8.4726031017983972E-01 a       730     2    10     3     1
 -7.9581117228568907E-02 a       731     2    11     3     1
  5.1590678253932432E-01 a       732     2    12     3     1
 -2.3398046567605191E-01 a       733     2    13     3     1
 -2.1230108191080163E-02 a       734     2    14     3     1
  7.5169324285670425E-01 a       735     2    15     3     1
 -1.5156745676972649E-01 a       736     2    16     3     1
 -1.3706826408909559E-01 a       737     2    17     3     1
  8.2292856595792122E-02 a       738     2    18     3     1
  6.0307638319207624E-01 a       739     2    19     3     1
  1.7587167091013486E-01 a       740     2    20     3     1
 -4.9758913906473878E-01 b       741     3     1
