################################################################################
# Neural network connection values (weights and biases).
################################################################################
# Col  Name       Description
################################################################################
# 1    connection Neural network connection value.
# 2    t          Connection type (a = weight, b = bias).
# 3    index      Index enumerating weights.
# 4    l_s        Starting point layer (end point layer for biases).
# 5    n_s        Starting point neuron in starting layer (end point neuron for biases).
# 6    l_e        End point layer.
# 7    n_e        End point neuron in end layer.
################################################################################
#                      1 2         3     4     5     6     7
#             connection t     index   l_s   n_s   l_e   n_e
############################################################
  9.4867999423623089E-02 a         1     0     1     1     1
  5.2629197818621110E-01 a         2     0     1     1     2
  8.3867214235565468E-01 a         3     0     1     1     3
 -6.5663572292541350E-01 a         4     0     1     1     4
  2.2485838453240833E-01 a         5     0     1     1     5
 -1.0126032783665008E-01 a         6     0     1     1     6
  3.3085900164606646E-01 a         7     0     1     1     7
 -9.4304843485859427E-04 a         8     0     1     1     8
 -3.1865419277150536E-01 a         9     0     1     1     9
  7.5419976364602226E-01 a        10     0     1     1    10
  4.6439684522696661E-01 a        11     0     1     1    11
 -6.8197245806869355E-01 a        12     0     1     1    12
 -8.4068844586210179E-01 a        13     0     1     1    13
 -6.8513046757428309E-01 a        14     0     1     1    14
  2.7903625116495856E-01 a        15     0     1     1    15
  5.5979364449675406E-01 a        16     0     1     1    16
  9.6120202655992637E-01 a        17     0     1     1    17
 -1.3520157324275986E-01 a        18     0     1     1    18
 -8.7080786058490164E-02 a        19     0     1     1    19
 -3.4478025649210597E-01 a        20     0     1     1    20
  2.5980942146365038E-01 a        21     0     2     1     1
 -4.9607817274903387E-01 a        22     0     2     1     2
  3.7702887444022470E-01 a        23     0     2     1     3
 -1.6334866598405679E-02 a        24     0     2     1     4
  1.0282517986588989E-01 a        25     0     2     1     5
 -4.2051632434968976E-02 a        26     0     2     1     6
  4.2839793290050104E-01 a        27     0     2     1     7
  6.5848364906293766E-01 a        28     0     2     1     8
 -9.1406153450213856E-01 a        29     0     2     1     9
  8.1491472206701898E-01 a        30     0     2     1    10
  2.6955602397879486E-01 a        31     0     2     1    11
 -3.8016398553291564E-01 a        32     0     2     1    12
 -2.4008458933109600E-01 a        33     0     2     1    13
 -5.6161870670282110E-01 a        34     0     2     1    14
  8.8378308203152411E-01 a        35     0     2     1    15
 -4.2983940752163536E-03 a        36     0     2     1    16
 -3.6242966475363397E-01 a        37     0     2     1    17
  3.7643399659505450E-01 a        38     0     2     1    18
 -4.2523026921230328E-01 a        39     0     2     1    19
 -3.4523726013655920E-01 a        40     0     2     1    20
 -2.8021173906428282E-01 a        41     0     3     1     1
  2.9391558017808800E-01 a        42     0     3     1     2
 -1.2230898870301840E-01 a        43     0     3     1     3
 -2.4914494162283135E-01 a        44     0     3     1     4
 -6.4725787530652423E-01 a        45     0     3     1     5
  3.3893653531620166E-01 a        46     0     3     1     6
 -3.8129218558090744E-01 a        47     0     3     1     7
 -3.6707609679209835E-01 a        48     0     3     1     8
  4.9094510738479658E-01 a        49     0     3     1     9
 -5.2048622713640824E-01 a        50     0     3     1    10
  6.1646364183826596E-01 a        51     0     3     1    11
 -1.9098320703498634E-01 a        52     0     3     1    12
  2.8758458946406862E-01 a        53     0     3     1    13
 -3.9301330468333434E-01 a        54     0     3     1    14
 -7.3099037301119618E-01 a        55     0     3     1    15
 -1.6789843044292063E-01 a        56     0     3     1    16
  4.2399610971625595E-01 a        57     0     3     1    17
  1.2723742024760382E-01 a        58     0     3     1    18
 -6.1178947147155827E-01 a        59     0     3     1    19
 -1.4261079150713984E-01 a        60     0     3     1    20
  4.6240473416070099E-01 a        61     0     4     1     1
 -3.6441958100889360E-01 a        62     0     4     1     2
  1.4036869151015782E-01 a        63     0     4     1     3
 -3.5374413162400048E-01 a        64     0     4     1     4
  4.6267821111261898E-01 a        65     0     4     1     5
 -3.0801951191857496E-02 a        66     0     4     1     6
 -3.3001190840481176E-01 a        67     0     4     1     7
 -2.0256010370708188E-01 a        68     0     4     1     8
  3.2234499073026229E-01 a        69     0     4     1     9
 -5.1418274259626506E-01 a        70     0     4     1    10
  5.2771760288433212E-01 a        71     0     4     1    11
  1.7184852641740594E-01 a        72     0     4     1    12
 -4.9034675656904281E-01 a        73     0     4     1    13
  4.7327906408593934E-01 a        74     0     4     1    14
  1.2442418106976236E-01 a        75     0     4     1    15
 -9.8627617819181057E-01 a        76     0     4     1    16
 -1.1062470015990591E-01 a        77     0     4     1    17
 -5.4491928590961269E-01 a        78     0     4     1    18
 -1.5539065776463787E-01 a        79     0     4     1    19
  9.9855446975471523E-02 a        80     0     4     1    20
 -5.3733611155778516E-02 a        81     0     5     1     1
 -2.7408982809692950E-02 a        82     0     5     1     2
 -1.4238289472275231E-01 a        83     0     5     1     3
  6.5383399262511777E-01 a        84     0     5     1     4
 -4.5002357205031829E-01 a        85     0     5     1     5
  5.6353460476082817E-01 a        86     0     5     1     6
  3.2846362438618472E-02 a        87     0     5     1     7
 -1.6144419079296662E-01 a        88     0     5     1     8
  8.3911866705786675E-01 a        89     0     5     1     9
  1.1442062524848486E-01 a        90     0     5     1    10
 -1.0733152552188727E+00 a        91     0     5     1    11
  4.0145813721767143E-01 a        92     0     5     1    12
 -3.6770414702819854E-01 a        93     0     5     1    13
 -4.3237437262988343E-01 a        94     0     5     1    14
 -4.4728642193433221E-01 a        95     0     5     1    15
 -3.3557526970694052E-01 a        96     0     5     1    16
  7.7564362185693660E-03 a        97     0     5     1    17
 -5.0192860464600468E-02 a        98     0     5     1    18
  6.0069394128335174E-01 a        99     0     5     1    19
  6.1443087787497452E-01 a       100     0     5     1    20
  6.1983396912557859E-02 a       101     0     6     1     1
 -4.1190141396037494E-02 a       102     0     6     1     2
 -1.1201520925166961E+00 a       103     0     6     1     3
  3.1918497733797853E-02 a       104     0     6     1     4
  1.0576927911560924E-01 a       105     0     6     1     5
 -5.3918387944388502E-01 a       106     0     6     1     6
  6.5462780194083015E-01 a       107     0     6     1     7
 -5.6116595855607176E-01 a       108     0     6     1     8
  2.1312168275136378E-01 a       109     0     6     1     9
 -1.6687184065431238E-01 a       110     0     6     1    10
  5.2506976771459313E-01 a       111     0     6     1    11
  4.2308257389763640E-02 a       112     0     6     1    12
 -4.3542070263935911E-01 a       113     0     6     1    13
 -2.4987293352280354E-01 a       114     0     6     1    14
  1.0622636826683685E-01 a       115     0     6     1    15
 -5.4925758560921023E-01 a       116     0     6     1    16
 -3.1862835000637146E-01 a       117     0     6     1    17
  7.1689332415781515E-01 a       118     0     6     1    18
 -2.4412835356516773E-03 a       119     0     6     1    19
 -4.2165836781964194E-01 a       120     0     6     1    20
 -9.1166753040158227E-02 a       121     0     7     1     1
 -7.6149152786730379E-01 a       122     0     7     1     2
  6.6080940644859665E-01 a       123     0     7     1     3
  5.9881301675196293E-02 a       124     0     7     1     4
  2.4422588773897302E-01 a       125     0     7     1     5
  1.9012207031624104E-01 a       126     0     7     1     6
 -3.5719306170394255E-01 a       127     0     7     1     7
  4.2236666429047426E-01 a       128     0     7     1     8
  8.2927954891672137E-02 a       129     0     7     1     9
  2.5621491270939750E-01 a       130     0     7     1    10
 -7.8454612454092432E-01 a       131     0     7     1    11
  2.1260939547116366E-02 a       132     0     7     1    12
  3.8361423709289605E-01 a       133     0     7     1    13
  3.6322854177887032E-01 a       134     0     7     1    14
 -2.9970277930675937E-01 a       135     0     7     1    15
 -4.3740367918493406E-01 a       136     0     7     1    16
 -6.3783682500106864E-01 a       137     0     7     1    17
 -3.6299825538133723E-01 a       138     0     7     1    18
  6.6236118815475509E-01 a       139     0     7     1    19
 -3.8718985222629426E-01 a       140     0     7     1    20
  2.7447072207000411E-01 a       141     0     8     1     1
  5.1283619833840655E-01 a       142     0     8     1     2
 -6.1128366720859539E-01 a       143     0     8     1     3
 -2.0763526664523496E-01 a       144     0     8     1     4
  4.4524600951220422E-01 a       145     0     8     1     5
 -5.9812329525953656E-01 a       146     0     8     1     6
  6.6259160650920756E-01 a       147     0     8     1     7
 -3.4281439294011873E-01 a       148     0     8     1     8
  4.0438390302731791E-01 a       149     0     8     1     9
  5.7417293366329869E-01 a       150     0     8     1    10
  4.4682826538775372E-01 a       151     0     8     1    11
 -4.3578686384461296E-01 a       152     0     8     1    12
  3.8751913311151132E-01 a       153     0     8     1    13
  2.2340624948775828E-01 a       154     0     8     1    14
  3.5170600204319238E-02 a       155     0     8     1    15
 -5.2164899313028312E-01 a       156     0     8     1    16
 -3.0499334820391472E-01 a       157     0     8     1    17
  4.6168365095565107E-03 a       158     0     8     1    18
  6.0510648217275687E-01 a       159     0     8     1    19
  2.6295882297292733E-01 a       160     0     8     1    20
  2.9261265710928835E-01 a       161     0     9     1     1
  3.4571157037275389E-02 a       162     0     9     1     2
  6.7096796349231436E-01 a       163     0     9     1     3
 -2.6016994540632138E-01 a       164     0     9     1     4
  5.8515803352984430E-01 a       165     0     9     1     5
 -4.0248635977115677E-01 a       166     0     9     1     6
  1.0240340984629047E-01 a       167     0     9     1     7
 -3.0641594153641399E-01 a       168     0     9     1     8
  4.6748595269750726E-01 a       169     0     9     1     9
  1.9476401367690213E-01 a       170     0     9     1    10
 -7.4174994469166278E-01 a       171     0     9     1    11
 -7.0339305195358337E-01 a       172     0     9     1    12
  6.5961469584820542E-01 a       173     0     9     1    13
  4.9138490108015298E-01 a       174     0     9     1    14
  3.8672125104209498E-01 a       175     0     9     1    15
  6.0294288502410309E-01 a       176     0     9     1    16
 -4.5117944567160440E-01 a       177     0     9     1    17
 -7.3797615797183566E-02 a       178     0     9     1    18
 -5.5299309439178357E-01 a       179     0     9     1    19
 -2.4175200436581121E-01 a       180     0     9     1    20
  5.3690411051826803E-01 a       181     0    10     1     1
  1.3553557973176691E-01 a       182     0    10     1     2
  9.8507036146522786E-02 a       183     0    10     1     3
 -1.2882271031757470E-01 a       184     0    10     1     4
  4.3873115648713351E-01 a       185     0    10     1     5
 -3.9918316430459044E-01 a       186     0    10     1     6
  3.1382776503997389E-01 a       187     0    10     1     7
  6.2942549865608599E-01 a       188     0    10     1     8
 -4.9742834270772113E-01 a       189     0    10     1     9
 -1.0880411091854321E-01 a       190     0    10     1    10
 -4.0848940400725675E-01 a       191     0    10     1    11
  4.1233306609937104E-01 a       192     0    10     1    12
 -3.1022236171127082E-01 a       193     0    10     1    13
 -4.8524045522652121E-01 a       194     0    10     1    14
  4.6643453770189797E-01 a       195     0    10     1    15
  3.0239997748767028E-01 a       196     0    10     1    16
 -1.5991550081659037E-02 a       197     0    10     1    17
 -2.2004739690751163E-01 a       198     0    10     1    18
 -2.4361285757092938E-01 a       199     0    10     1    19
 -5.1065489469699410E-01 a       200     0    10     1    20
  5.9663434859484221E-01 a       201     0    11     1     1
 -3.6916155107480481E-01 a       202     0    11     1     2
 -3.4056564492230390E-01 a       203     0    11     1     3
  4.4984848113116088E-01 a       204     0    11     1     4
 -8.2017900914860908E-01 a       205     0    11     1     5
 -3.4011035629326997E-01 a       206     0    11     1     6
  1.5619084735453362E-01 a       207     0    11     1     7
 -3.5277245127596235E-01 a       208     0    11     1     8
  2.9667293969840108E-01 a       209     0    11     1     9
 -2.0431721595739533E-01 a       210     0    11     1    10
  3.3293680501693595E-01 a       211     0    11     1    11
  3.9113303546803430E-01 a       212     0    11     1    12
 -3.2977844600404993E-01 a       213     0    11     1    13
  4.7626851381058022E-01 a       214     0    11     1    14
 -4.3055153906018051E-01 a       215     0    11     1    15
 -2.9341860812427689E-01 a       216     0    11     1    16
 -1.7536221161871141E-01 a       217     0    11     1    17
  6.1479959557290131E-01 a       218     0    11     1    18
  1.4910163932744100E-01 a       219     0    11     1    19
  6.0550796707207111E-01 a       220     0    11     1    20
  2.7634114236659829E-01 a       221     0    12     1     1
  5.1662036805245715E-01 a       222     0    12     1     2
  2.1492118833906057E-01 a       223     0    12     1     3
  3.9080036301056653E-01 a       224     0    12     1     4
  4.4776297162370959E-01 a       225     0    12     1     5
 -4.3949465330487780E-01 a       226     0    12     1     6
  4.7929863167482933E-03 a       227     0    12     1     7
  4.0749832439174549E-01 a       228     0    12     1     8
  4.0802645261291448E-01 a       229     0    12     1     9
 -4.2544894545037362E-02 a       230     0    12     1    10
 -4.0262982209753923E-01 a       231     0    12     1    11
 -2.2848991957879941E-01 a       232     0    12     1    12
  1.6961850115865229E-01 a       233     0    12     1    13
  4.4659851599571299E-01 a       234     0    12     1    14
  1.5259024977870544E-01 a       235     0    12     1    15
  1.6199770953782705E-01 a       236     0    12     1    16
 -4.1563438363408911E-01 a       237     0    12     1    17
 -5.7519286036889428E-01 a       238     0    12     1    18
 -7.4376372443569949E-01 a       239     0    12     1    19
  2.8737492872988379E-01 a       240     0    12     1    20
 -6.9380218895048673E-01 a       241     0    13     1     1
  5.2544054830129305E-01 a       242     0    13     1     2
  2.0052743888808955E-01 a       243     0    13     1     3
  4.4117344725999635E-01 a       244     0    13     1     4
  7.7341107014693844E-01 a       245     0    13     1     5
  2.9713018337506342E-01 a       246     0    13     1     6
 -5.2408905792144855E-01 a       247     0    13     1     7
  3.4881639150174604E-01 a       248     0    13     1     8
 -2.9448303697383416E-01 a       249     0    13     1     9
 -9.1878930729527540E-03 a       250     0    13     1    10
 -1.8968468286802723E-01 a       251     0    13     1    11
 -4.2702196947667270E-01 a       252     0    13     1    12
 -2.7619708017996414E-01 a       253     0    13     1    13
  5.7166635783634390E-01 a       254     0    13     1    14
 -3.5766719792703749E-01 a       255     0    13     1    15
  4.1909822488745258E-01 a       256     0    13     1    16
  3.2276854856377785E-01 a       257     0    13     1    17
 -5.2124149629579308E-01 a       258     0    13     1    18
  1.1459094617189675E-01 a       259     0    13     1    19
  2.0760614064142119E-01 a       260     0    13     1    20
  1.5169131604244596E-01 a       261     0    14     1     1
  2.3409100781285158E-01 a       262     0    14     1     2
 -3.0613801839987703E-01 a       263     0    14     1     3
 -3.5056990928543266E-02 a       264     0    14     1     4
  8.5921169049842405E-01 a       265     0    14     1     5
 -2.5669573398363704E-01 a       266     0    14     1     6
 -4.7934964786975920E-01 a       267     0    14     1     7
  2.3343367072666135E-01 a       268     0    14     1     8
  5.8188547553679359E-01 a       269     0    14     1     9
 -6.6499881326053334E-01 a       270     0    14     1    10
  6.8824320238391112E-01 a       271     0    14     1    11
 -6.8673632543431151E-01 a       272     0    14     1    12
 -5.8827284358518354E-02 a       273     0    14     1    13
  5.8067047846485265E-01 a       274     0    14     1    14
  3.0530021548164021E-01 a       275     0    14     1    15
 -4.4751469326228789E-02 a       276     0    14     1    16
 -5.3623626175679351E-01 a       277     0    14     1    17
 -2.6009885382226483E-02 a       278     0    14     1    18
  6.4953200373845543E-01 a       279     0    14     1    19
 -4.2899752476441666E-01 a       280     0    14     1    20
  3.6928806210626725E-01 b       281     1     1
 -7.4415301462949307E-02 b       282     1     2
  8.3079586847711140E-01 b       283     1     3
 -6.3078066306481340E-01 b       284     1     4
 -1.0361447786081492E+00 b       285     1     5
 -1.8602234733991601E+00 b       286     1     6
 -3.1269554315317599E-01 b       287     1     7
 -1.3233804864340568E+00 b       288     1     8
 -1.2864562399965243E+00 b       289     1     9
 -5.2918273890856649E-01 b       290     1    10
  1.6460479827785852E+00 b       291     1    11
  7.2386766993160956E-01 b       292     1    12
  4.4501559754854308E-01 b       293     1    13
  1.4266322000097065E+00 b       294     1    14
  1.4209394933432784E+00 b       295     1    15
  8.7253154952893563E-01 b       296     1    16
  1.4937098583060710E-02 b       297     1    17
  1.6047086539933129E+00 b       298     1    18
  2.9149489830827890E-02 b       299     1    19
  1.0908991480651964E+00 b       300     1    20
  2.6948563458988900E-01 a       301     1     1     2     1
  2.4882519077494228E-01 a       302     1     1     2     2
  3.9529421130008152E-01 a       303     1     1     2     3
  3.9581574537506098E-01 a       304     1     1     2     4
  3.2375848572953209E-01 a       305     1     1     2     5
 -5.5009306686591175E-01 a       306     1     1     2     6
 -3.1584400164273407E-01 a       307     1     1     2     7
 -1.0408694845120729E-01 a       308     1     1     2     8
  3.9420529234617280E-01 a       309     1     1     2     9
 -2.9494085441189832E-01 a       310     1     1     2    10
 -2.3922389923385878E-01 a       311     1     1     2    11
 -2.6850875828550758E-01 a       312     1     1     2    12
 -3.1886094349329380E-01 a       313     1     1     2    13
  7.2301019345266795E-02 a       314     1     1     2    14
 -1.6200545415836798E-01 a       315     1     1     2    15
  5.1345414155900959E-01 a       316     1     1     2    16
 -6.7797213377766175E-02 a       317     1     1     2    17
  2.9651665879857747E-01 a       318     1     1     2    18
 -3.5855545895536428E-01 a       319     1     1     2    19
  4.6423775500880844E-02 a       320     1     1     2    20
  3.1272624349982631E-01 a       321     1     2     2     1
 -4.2220961184445072E-01 a       322     1     2     2     2
 -3.0728059851752665E-01 a       323     1     2     2     3
  4.6720570289289540E-02 a       324     1     2     2     4
 -4.8515176007709815E-01 a       325     1     2     2     5
 -6.3195017002748677E-01 a       326     1     2     2     6
  2.5214993938490754E-01 a       327     1     2     2     7
  9.5922798111740148E-02 a       328     1     2     2     8
 -2.5317423484245166E-01 a       329     1     2     2     9
 -8.9959726710252585E-01 a       330     1     2     2    10
  3.3385259819942370E-01 a       331     1     2     2    11
  7.8386046806735676E-01 a       332     1     2     2    12
  1.9901623614995254E-01 a       333     1     2     2    13
  3.2939217674108084E-01 a       334     1     2     2    14
  1.4769832932556864E-01 a       335     1     2     2    15
  1.5622678912248372E-01 a       336     1     2     2    16
 -2.2262886838788132E-01 a       337     1     2     2    17
  1.6167904475830042E-01 a       338     1     2     2    18
 -1.0121732879500769E-01 a       339     1     2     2    19
  1.7234189567399663E-01 a       340     1     2     2    20
 -3.3601403921420903E-01 a       341     1     3     2     1
 -5.4575511217131034E-01 a       342     1     3     2     2
  5.5316918428139983E-01 a       343     1     3     2     3
 -3.8806437632985957E-01 a       344     1     3     2     4
 -5.9577346929465336E-01 a       345     1     3     2     5
 -3.1004646286727966E-01 a       346     1     3     2     6
 -5.0187139216473620E-01 a       347     1     3     2     7
 -5.9643520006872575E-01 a       348     1     3     2     8
  3.3629113354320583E-01 a       349     1     3     2     9
 -4.9614345530560927E-01 a       350     1     3     2    10
 -2.2300093657138667E-01 a       351     1     3     2    11
  2.7555986744770844E-01 a       352     1     3     2    12
 -1.7148222886552464E-01 a       353     1     3     2    13
 -1.4798698442277414E-01 a       354     1     3     2    14
  1.4590108109398189E-01 a       355     1     3     2    15
  3.4900703118551613E-01 a       356     1     3     2    16
  3.5743976975923425E-01 a       357     1     3     2    17
 -6.0351265018753053E-01 a       358     1     3     2    18
  1.5307042737949206E-01 a       359     1     3     2    19
  3.9397368589198650E-02 a       360     1     3     2    20
  6.1982737259611420E-01 a       361     1     4     2     1
 -4.0678972221416621E-01 a       362     1     4     2     2
  5.7881816658138119E-01 a       363     1     4     2     3
 -5.3402330982245172E-01 a       364     1     4     2     4
 -1.8142635932081519E-01 a       365     1     4     2     5
  4.3570079114236548E-02 a       366     1     4     2     6
  3.6314118221478292E-01 a       367     1     4     2     7
  5.3690197327277223E-01 a       368     1     4     2     8
 -2.7954601954217018E-01 a       369     1     4     2     9
  1.4138143936912076E-01 a       370     1     4     2    10
  4.7112058485721042E-01 a       371     1     4     2    11
  2.0709767863236964E-01 a       372     1     4     2    12
 -9.1118519188740629E-02 a       373     1     4     2    13
 -2.1012734115757506E-02 a       374     1     4     2    14
 -7.4505016630007437E-01 a       375     1     4     2    15
 -1.5102386831354644E-01 a       376     1     4     2    16
 -1.5987981497428055E-01 a       377     1     4     2    17
  6.1442608379445141E-01 a       378     1     4     2    18
  5.6169993382834138E-01 a       379     1     4     2    19
  5.8317583487170055E-01 a       380     1     4     2    20
 -5.8137115757459845E-01 a       381     1     5     2     1
  6.9843366129081730E-01 a       382     1     5     2     2
 -3.4607090552494507E-01 a       383     1     5     2     3
  3.3415220702518716E-01 a       384     1     5     2     4
 -1.2410249025526331E-01 a       385     1     5     2     5
 -2.0478344822584482E-02 a       386     1     5     2     6
  5.1225785999670004E-01 a       387     1     5     2     7
 -1.3408863837153268E-01 a       388     1     5     2     8
 -1.5924292907409340E-01 a       389     1     5     2     9
 -9.5814145444075224E-02 a       390     1     5     2    10
  4.8969364422963135E-01 a       391     1     5     2    11
  3.6898889197978474E-01 a       392     1     5     2    12
  1.6618288731935527E-01 a       393     1     5     2    13
  3.0515440167784975E-02 a       394     1     5     2    14
 -1.2037553160610300E-01 a       395     1     5     2    15
  1.2310064697207240E-01 a       396     1     5     2    16
 -3.7120182233335985E-01 a       397     1     5     2    17
  1.8057421886572744E-01 a       398     1     5     2    18
 -8.1610698085652367E-01 a       399     1     5     2    19
 -5.5936468440549336E-01 a       400     1     5     2    20
  4.9036858070555460E-02 a       401     1     6     2     1
  8.4156519168902946E-02 a       402     1     6     2     2
 -5.3314642824768599E-01 a       403     1     6     2     3
 -2.1805384873244660E-01 a       404     1     6     2     4
  5.6412209392434942E-01 a       405     1     6     2     5
 -3.9589107142277236E-01 a       406     1     6     2     6
  4.7386255912384162E-01 a       407     1     6     2     7
  4.9226616003929402E-01 a       408     1     6     2     8
  3.5916643699711043E-01 a       409     1     6     2     9
  3.9034773297731296E-01 a       410     1     6     2    10
 -3.5782561248858991E-01 a       411     1     6     2    11
 -4.8631314113229757E-01 a       412     1     6     2    12
 -1.9257124211253313E-01 a       413     1     6     2    13
 -3.3403629656220740E-01 a       414     1     6     2    14
 -3.7738247611037995E-01 a       415     1     6     2    15
 -1.5238959056399423E-01 a       416     1     6     2    16
  4.9633117902176477E-01 a       417     1     6     2    17
  4.0288511013802414E-01 a       418     1     6     2    18
 -4.6542105159104097E-01 a       419     1     6     2    19
  7.2645372428669450E-03 a       420     1     6     2    20
 -2.8149809510653273E-01 a       421     1     7     2     1
  9.9474744907870866E-02 a       422     1     7     2     2
  3.2502885980145746E-01 a       423     1     7     2     3
  5.8080252195835436E-01 a       424     1     7     2     4
  1.6037672364820107E-01 a       425     1     7     2     5
 -5.3541798055583489E-01 a       426     1     7     2     6
  1.5296472751282508E-01 a       427     1     7     2     7
  7.0177857388514853E-01 a       428     1     7     2     8
 -5.9827556197216980E-01 a       429     1     7     2     9
 -2.3371984319708372E-01 a       430     1     7     2    10
  2.1306724040963465E-01 a       431     1     7     2    11
 -4.3652746938954511E-02 a       432     1     7     2    12
 -1.0423422268489207E-01 a       433     1     7     2    13
 -5.8105438704298407E-01 a       434     1     7     2    14
 -3.5870804906695009E-01 a       435     1     7     2    15
 -6.5269678291684774E-01 a       436     1     7     2    16
  1.5923000426215664E-01 a       437     1     7     2    17
 -6.7107509756788586E-01 a       438     1     7     2    18
 -2.3132743180920443E-01 a       439     1     7     2    19
  3.9020930210867516E-01 a       440     1     7     2    20
 -1.0196487720392709E-01 a       441     1     8     2     1
 -5.4094300240349447E-01 a       442     1     8     2     2
  9.3147651316461869E-02 a       443     1     8     2     3
  2.9497327978836099E-03 a       444     1     8     2     4
 -7.6791688836212246E-01 a       445     1     8     2     5
 -7.0910207808639492E-02 a       446     1     8     2     6
 -3.6724119272278560E-01 a       447     1     8     2     7
  4.9046496170666037E-01 a       448     1     8     2     8
  4.6077964087492024E-01 a       449     1     8     2     9
  1.7112063895864821E-01 a       450     1     8     2    10
  4.4007718951894931E-01 a       451     1     8     2    11
 -1.7307094072835957E-01 a       452     1     8     2    12
  2.7493725617885179E-01 a       453     1     8     2    13
  6.5022924155189565E-02 a       454     1     8     2    14
 -8.4140223727541860E-02 a       455     1     8     2    15
 -2.2586192445006356E-01 a       456     1     8     2    16
  6.1098659027383991E-02 a       457     1     8     2    17
 -3.3636376708892762E-01 a       458     1     8     2    18
  3.6778851712329391E-02 a       459     1     8     2    19
 -5.0481296848775870E-01 a       460     1     8     2    20
 -5.6666639793187612E-01 a       461     1     9     2     1
 -2.5936845015603793E-01 a       462     1     9     2     2
 -2.8440912008544489E-01 a       463     1     9     2     3
  5.5195679107217666E-01 a       464     1     9     2     4
  2.3308931302086525E-01 a       465     1     9     2     5
  2.5197153032158542E-01 a       466     1     9     2     6
  4.1590169375348579E-01 a       467     1     9     2     7
 -3.0698735249468295E-02 a       468     1     9     2     8
  1.6348466224510344E-01 a       469     1     9     2     9
  5.0277843921525522E-01 a       470     1     9     2    10
 -3.4939536135274990E-01 a       471     1     9     2    11
 -6.6263987620540099E-01 a       472     1     9     2    12
  4.9094126144266576E-01 a       473     1     9     2    13
  3.9185453358583394E-01 a       474     1     9     2    14
 -7.1241002610573267E-01 a       475     1     9     2    15
  4.9222536360077834E-01 a       476     1     9     2    16
  2.5471072453621840E-01 a       477     1     9     2    17
 -4.3359880848931553E-01 a       478     1     9     2    18
 -1.4956737585750168E-01 a       479     1     9     2    19
 -3.1824310008853642E-02 a       480     1     9     2    20
  4.4683376446581524E-01 a       481     1    10     2     1
  1.7647141716675280E-01 a       482     1    10     2     2
 -4.5139710837299818E-01 a       483     1    10     2     3
  6.9009789478127651E-02 a       484     1    10     2     4
 -1.7141305061515083E-01 a       485     1    10     2     5
  9.1293905010052329E-02 a       486     1    10     2     6
  4.1284789469176353E-01 a       487     1    10     2     7
 -4.9016132996067979E-01 a       488     1    10     2     8
  2.1627345485555591E-01 a       489     1    10     2     9
 -3.5156530426946458E-01 a       490     1    10     2    10
 -2.2149043741468943E-01 a       491     1    10     2    11
 -2.6760812519011540E-01 a       492     1    10     2    12
 -1.6433173095293363E-01 a       493     1    10     2    13
 -5.6302503935967962E-01 a       494     1    10     2    14
  3.7183194974352290E-01 a       495     1    10     2    15
 -1.2010810307327759E-01 a       496     1    10     2    16
  2.5685766747545608E-01 a       497     1    10     2    17
  5.8416204115857373E-01 a       498     1    10     2    18
 -4.9010610880281180E-01 a       499     1    10     2    19
  6.4885052840983996E-03 a       500     1    10     2    20
  6.6848545685656435E-01 a       501     1    11     2     1
  4.8186152104646768E-01 a       502     1    11     2     2
 -3.6085728509385079E-01 a       503     1    11     2     3
  5.9504580107625060E-01 a       504     1    11     2     4
  2.3182592859126328E-01 a       505     1    11     2     5
 -4.5760855556965829E-01 a       506     1    11     2     6
 -1.3366144452062032E-01 a       507     1    11     2     7
  6.7082221285075860E-01 a       508     1    11     2     8
 -4.5530912814942209E-01 a       509     1    11     2     9
  6.1493513583632953E-01 a       510     1    11     2    10
  4.7282366826161515E-01 a       511     1    11     2    11
 -5.5946067325215088E-01 a       512     1    11     2    12
 -3.5462248173372013E-01 a       513     1    11     2    13
  3.9591326703976787E-01 a       514     1    11     2    14
  3.5109461008377280E-01 a       515     1    11     2    15
  4.6096084430271939E-01 a       516     1    11     2    16
 -3.5836578044884909E-01 a       517     1    11     2    17
  2.7882224334882016E-01 a       518     1    11     2    18
  6.0313724510482625E-01 a       519     1    11     2    19
  5.4123540370864687E-01 a       520     1    11     2    20
 -2.5554841640225573E-01 a       521     1    12     2     1
  2.0784692795656323E-01 a       522     1    12     2     2
  4.1901282802470702E-01 a       523     1    12     2     3
  1.5888588382068955E-01 a       524     1    12     2     4
 -9.6510517259656509E-02 a       525     1    12     2     5
 -3.8707406528155924E-01 a       526     1    12     2     6
  6.2483986048743256E-01 a       527     1    12     2     7
  1.8446818310483509E-01 a       528     1    12     2     8
 -8.6844636022242558E-02 a       529     1    12     2     9
  9.8717458168150307E-02 a       530     1    12     2    10
  1.7120479215730508E-01 a       531     1    12     2    11
  5.7355042705574710E-01 a       532     1    12     2    12
 -5.8951970999743841E-01 a       533     1    12     2    13
 -3.7358494852110036E-01 a       534     1    12     2    14
 -4.7641338169082342E-01 a       535     1    12     2    15
  2.5720168581534741E-01 a       536     1    12     2    16
 -5.5780050437754336E-01 a       537     1    12     2    17
  4.2620122393790560E-01 a       538     1    12     2    18
  9.0424783162992947E-02 a       539     1    12     2    19
  3.6477200915297786E-01 a       540     1    12     2    20
 -2.6052148603583558E-01 a       541     1    13     2     1
  6.0087856467862785E-02 a       542     1    13     2     2
 -6.3391030153565453E-02 a       543     1    13     2     3
  1.3073976056423170E-01 a       544     1    13     2     4
  2.8254077160739499E-01 a       545     1    13     2     5
 -3.2463958931038456E-01 a       546     1    13     2     6
  6.3209935765789843E-02 a       547     1    13     2     7
 -3.7685000281223308E-01 a       548     1    13     2     8
  2.4840926633644882E-02 a       549     1    13     2     9
  9.3082632590747547E-02 a       550     1    13     2    10
 -1.3915533952719339E-01 a       551     1    13     2    11
 -1.0962249153996257E-02 a       552     1    13     2    12
 -3.9733294571503194E-02 a       553     1    13     2    13
 -1.5820540663118499E-01 a       554     1    13     2    14
  5.6357728834018106E-01 a       555     1    13     2    15
  5.1178441136753225E-02 a       556     1    13     2    16
 -3.8092890718067929E-02 a       557     1    13     2    17
  3.3100947814331727E-01 a       558     1    13     2    18
  4.7400419002802446E-01 a       559     1    13     2    19
  2.5339668530720838E-01 a       560     1    13     2    20
 -6.0119106105322950E-01 a       561     1    14     2     1
  5.9880399754512326E-01 a       562     1    14     2     2
 -1.0232457862280951E-01 a       563     1    14     2     3
 -2.2644902191373947E-01 a       564     1    14     2     4
  3.2497623428981959E-01 a       565     1    14     2     5
 -2.7358709330818759E-01 a       566     1    14     2     6
 -5.1834575424945006E-01 a       567     1    14     2     7
 -8.7165962037262706E-02 a       568     1    14     2     8
 -7.2894844806179929E-02 a       569     1    14     2     9
  2.2471428682371894E-01 a       570     1    14     2    10
  5.9290034349702625E-01 a       571     1    14     2    11
 -3.0060583857678974E-01 a       572     1    14     2    12
  1.0837970915198986E-01 a       573     1    14     2    13
 -6.1620676832976307E-01 a       574     1    14     2    14
  5.6779959786446921E-01 a       575     1    14     2    15
 -5.7170654892735739E-01 a       576     1    14     2    16
 -9.9731683211138900E-02 a       577     1    14     2    17
  6.3999914163254512E-01 a       578     1    14     2    18
  8.5291307365733024E-02 a       579     1    14     2    19
 -1.4718850675319856E-01 a       580     1    14     2    20
 -4.2428433300407670E-01 a       581     1    15     2     1
  1.1219240017218146E-01 a       582     1    15     2     2
  3.2142635456163898E-01 a       583     1    15     2     3
  2.0299485314180443E-01 a       584     1    15     2     4
 -4.4193625945152071E-01 a       585     1    15     2     5
 -4.3607533093490791E-01 a       586     1    15     2     6
 -1.2717655498427505E-01 a       587     1    15     2     7
  2.2905935574114156E-01 a       588     1    15     2     8
 -8.4165857731290969E-02 a       589     1    15     2     9
 -4.2683086182298136E-01 a       590     1    15     2    10
  4.3947744437650577E-01 a       591     1    15     2    11
  7.2339675899766442E-01 a       592     1    15     2    12
 -4.5844159219653194E-02 a       593     1    15     2    13
  5.4422841036133418E-01 a       594     1    15     2    14
 -1.2602802812985450E-01 a       595     1    15     2    15
  4.1095001615094223E-01 a       596     1    15     2    16
 -1.9134210395759940E-01 a       597     1    15     2    17
 -3.4967089610977392E-01 a       598     1    15     2    18
 -5.1184467891153100E-02 a       599     1    15     2    19
  4.8424168372588750E-01 a       600     1    15     2    20
 -2.0727154162285413E-01 a       601     1    16     2     1
  8.4373578982059647E-02 a       602     1    16     2     2
 -5.6008614490906916E-01 a       603     1    16     2     3
  6.7346584122329933E-01 a       604     1    16     2     4
 -1.7502515614660494E-01 a       605     1    16     2     5
  4.3872564885113685E-01 a       606     1    16     2     6
 -2.5028086042644216E-02 a       607     1    16     2     7
 -3.1852556594429737E-01 a       608     1    16     2     8
  3.8238970576591480E-01 a       609     1    16     2     9
 -5.8599533040510687E-01 a       610     1    16     2    10
  7.1903296876051417E-02 a       611     1    16     2    11
 -2.7460950453174077E-01 a       612     1    16     2    12
  4.9469477507222426E-01 a       613     1    16     2    13
  3.2636858587363415E-01 a       614     1    16     2    14
  2.8283871285272766E-01 a       615     1    16     2    15
 -4.5219920705457850E-01 a       616     1    16     2    16
 -1.8942752062040644E-01 a       617     1    16     2    17
  7.0368904799989784E-01 a       618     1    16     2    18
  1.4641870093889975E-01 a       619     1    16     2    19
 -3.4676495236997040E-01 a       620     1    16     2    20
 -4.1436916562361897E-01 a       621     1    17     2     1
  2.7966894970376625E-03 a       622     1    17     2     2
  3.0029723188133639E-01 a       623     1    17     2     3
  3.3703372571557683E-01 a       624     1    17     2     4
  2.7955389820351090E-01 a       625     1    17     2     5
  5.8223866655043310E-01 a       626     1    17     2     6
 -2.2209570467534906E-01 a       627     1    17     2     7
 -1.6794029608802541E-01 a       628     1    17     2     8
 -3.1587313323847116E-01 a       629     1    17     2     9
 -5.6184708245959702E-01 a       630     1    17     2    10
  9.4118254835612508E-02 a       631     1    17     2    11
  1.9949272349933689E-01 a       632     1    17     2    12
  2.9596622613556861E-01 a       633     1    17     2    13
  6.0507174483060677E-01 a       634     1    17     2    14
  3.8328210704960580E-01 a       635     1    17     2    15
  4.6220836150323863E-01 a       636     1    17     2    16
  2.9767716572856862E-01 a       637     1    17     2    17
 -2.5249382473442827E-01 a       638     1    17     2    18
  2.1427107009019106E-01 a       639     1    17     2    19
 -3.7083138920047623E-02 a       640     1    17     2    20
  4.8042054125282319E-01 a       641     1    18     2     1
  1.0666333921252590E-01 a       642     1    18     2     2
 -8.5232880005980102E-02 a       643     1    18     2     3
  4.7699623374616978E-01 a       644     1    18     2     4
 -3.8295729397522427E-01 a       645     1    18     2     5
  1.9233391459710789E-02 a       646     1    18     2     6
 -4.9085807291912170E-01 a       647     1    18     2     7
 -3.3160329690068502E-01 a       648     1    18     2     8
 -4.0922209290795092E-01 a       649     1    18     2     9
 -8.8377670493911209E-02 a       650     1    18     2    10
 -2.1089786653495027E-01 a       651     1    18     2    11
 -6.3257778535635023E-01 a       652     1    18     2    12
 -3.2411695004259888E-01 a       653     1    18     2    13
 -5.5470787902858698E-01 a       654     1    18     2    14
 -8.9937048126191091E-02 a       655     1    18     2    15
  5.2164247271853692E-01 a       656     1    18     2    16
 -1.5222251323031268E-02 a       657     1    18     2    17
 -3.7312192733439671E-02 a       658     1    18     2    18
 -2.9980682633341044E-01 a       659     1    18     2    19
 -5.2292696554836127E-01 a       660     1    18     2    20
  1.4226883555231606E-01 a       661     1    19     2     1
  2.1811347435380940E-01 a       662     1    19     2     2
 -8.1869470897444563E-01 a       663     1    19     2     3
  2.5295214866262505E-01 a       664     1    19     2     4
  6.5321973764461916E-02 a       665     1    19     2     5
  3.1460920286369776E-01 a       666     1    19     2     6
 -4.3342832163958483E-01 a       667     1    19     2     7
 -6.5520823995021438E-01 a       668     1    19     2     8
 -2.5832163686375592E-01 a       669     1    19     2     9
  4.7520066049068166E-01 a       670     1    19     2    10
 -8.0010454080793728E-02 a       671     1    19     2    11
 -1.2428373852445136E-01 a       672     1    19     2    12
  7.6770700917194767E-01 a       673     1    19     2    13
  1.7862652472184154E-01 a       674     1    19     2    14
  6.5854972237676068E-01 a       675     1    19     2    15
  9.2978224286754778E-03 a       676     1    19     2    16
  6.0177915306931595E-01 a       677     1    19     2    17
 -6.4327834407240186E-02 a       678     1    19     2    18
  2.1372404936977718E-01 a       679     1    19     2    19
 -5.8215690208103921E-01 a       680     1    19     2    20
  6.3745179489982162E-01 a       681     1    20     2     1
  2.8089714076243127E-01 a       682     1    20     2     2
 -5.2747569054449539E-01 a       683     1    20     2     3
  1.2457955617457152E-01 a       684     1    20     2     4
 -1.1679137476788243E-01 a       685     1    20     2     5
 -2.3419599656167717E-01 a       686     1    20     2     6
  1.4493614289783466E-02 a       687     1    20     2     7
 -1.5034630100480326E-01 a       688     1    20     2     8
  6.1412611860588007E-01 a       689     1    20     2     9
 -3.5701670999398544E-01 a       690     1    20     2    10
  2.2049933217913412E-01 a       691     1    20     2    11
  3.2757884967469170E-01 a       692     1    20     2    12
 -2.0677013701245306E-01 a       693     1    20     2    13
  1.6779017937719798E-01 a       694     1    20     2    14
  1.1436768357989795E-01 a       695     1    20     2    15
  3.2744042419171659E-01 a       696     1    20     2    16
 -3.5639645988225716E-01 a       697     1    20     2    17
  2.1166860987812641E-01 a       698     1    20     2    18
 -3.2966894836482230E-01 a       699     1    20     2    19
  1.4415479779634929E-01 a       700     1    20     2    20
  1.6488133706601560E+00 b       701     2     1
 -7.1369834031461299E-01 b       702     2     2
 -8.8823638261142501E-01 b       703     2     3
  3.9987173989247343E-01 b       704     2     4
  1.0811269180946776E+00 b       705     2     5
 -2.4687491772923137E-01 b       706     2     6
 -1.0399612740669641E+00 b       707     2     7
 -2.4205049897248830E-02 b       708     2     8
  1.2947699374066048E+00 b       709     2     9
 -2.9326314384091828E-01 b       710     2    10
 -1.3395701865772391E+00 b       711     2    11
  6.9449019618434005E-01 b       712     2    12
  1.6355078886357231E+00 b       713     2    13
 -1.3926734464400112E+00 b       714     2    14
 -1.2152997226212807E+00 b       715     2    15
  3.8700706785684075E-01 b       716     2    16
  1.3256745788505993E+00 b       717     2    17
  8.9115884261476586E-01 b       718     2    18
  1.4530584298633216E+00 b       719     2    19
 -1.1102674616946038E+00 b       720     2    20
 -4.4496782146083008E-01 a       721     2     1     3     1
 -5.0204095508908697E-01 a       722     2     2     3     1
 -1.4353588371414955E-01 a       723     2     3     3     1
  6.5587831886741987E-01 a       724     2     4     3     1
  5.7396053101138322E-01 a       725     2     5     3     1
  3.1765218112242297E-02 a       726     2     6     3     1
 -2.1047505415359577E-01 a       727     2     7     3     1
  5.4294187206514577E-01 a       728     2     8     3     1
  6.3544405634967160E-01 a       729     2     9     3     1
  1.9478872044889226E-01 a       730     2    10     3     1
  5.9723282528407629E-01 a       731     2    11     3     1
  5.5763302209397470E-01 a       732     2    12     3     1
 -2.5118773609058115E-01 a       733     2    13     3     1
 -1.7080526953452363E-01 a       734     2    14     3     1
  1.3155186892467638E-01 a       735     2    15     3     1
 -1.1806658528272789E+00 a       736     2    16     3     1
  2.5678909794195309E-01 a       737     2    17     3     1
 -1.3054343447997372E+00 a       738     2    18     3     1
  6.2171403399958647E-01 a       739     2    19     3     1
 -1.8121846630276017E-01 a       740     2    20     3     1
  3.6241185076727761E-01 b       741     3     1
