################################################################################
# Neural network connection values (weights and biases).
################################################################################
# Col  Name       Description
################################################################################
# 1    connection Neural network connection value.
# 2    t          Connection type (a = weight, b = bias).
# 3    index      Index enumerating weights.
# 4    l_s        Starting point layer (end point layer for biases).
# 5    n_s        Starting point neuron in starting layer (end point neuron for biases).
# 6    l_e        End point layer.
# 7    n_e        End point neuron in end layer.
################################################################################
#                      1 2         3     4     5     6     7
#             connection t     index   l_s   n_s   l_e   n_e
############################################################
  3.2741985396884798E-01 a         1     0     1     1     1
  4.5523147729092162E-01 a         2     0     1     1     2
 -7.1248542705578810E-01 a         3     0     1     1     3
 -5.6940646254677330E-01 a         4     0     1     1     4
 -4.3945200451509775E-01 a         5     0     1     1     5
 -2.3627182485473333E-01 a         6     0     1     1     6
 -2.6249320611747440E-01 a         7     0     1     1     7
  1.7626558001639236E-01 a         8     0     1     1     8
  4.6002529027436806E-01 a         9     0     1     1     9
  9.3107759221686182E-01 a        10     0     1     1    10
 -4.1479907238228775E-01 a        11     0     1     1    11
 -3.3051270828273971E-01 a        12     0     1     1    12
 -3.7885553196524996E-01 a        13     0     1     1    13
 -1.3264030085533013E-01 a        14     0     1     1    14
 -2.6284008203035192E-01 a        15     0     1     1    15
  2.4874450887665467E-01 a        16     0     1     1    16
 -6.1278857617322835E-01 a        17     0     1     1    17
 -5.9324915063554484E-01 a        18     0     1     1    18
  3.0256542594579477E-01 a        19     0     1     1    19
  4.1250730680093922E-01 a        20     0     1     1    20
 -1.2747342249255289E-01 a        21     0     2     1     1
 -1.2044142631369298E-01 a        22     0     2     1     2
 -4.1337718506272209E-01 a        23     0     2     1     3
  2.1260627257412043E-01 a        24     0     2     1     4
 -4.3973479090640166E-01 a        25     0     2     1     5
  3.1390842395900037E-01 a        26     0     2     1     6
  1.7166214378143205E-01 a        27     0     2     1     7
 -5.8703862143802432E-01 a        28     0     2     1     8
 -3.1917464527094863E-01 a        29     0     2     1     9
  4.5159756292720044E-01 a        30     0     2     1    10
 -8.9904571329598681E-01 a        31     0     2     1    11
  5.1031504871807964E-01 a        32     0     2     1    12
  3.8536430150503093E-02 a        33     0     2     1    13
  5.3256440440915576E-01 a        34     0     2     1    14
  1.8282546961201740E-01 a        35     0     2     1    15
 -5.1172164380596641E-01 a        36     0     2     1    16
  1.7762503369773144E-01 a        37     0     2     1    17
  3.8109598102937403E-01 a        38     0     2     1    18
 -5.1342259653620048E-01 a        39     0     2     1    19
 -2.9284374299036448E-01 a        40     0     2     1    20
 -8.3525555724647496E-02 a        41     0     3     1     1
 -4.6127961022965791E-01 a        42     0     3     1     2
  4.3065256186916034E-01 a        43     0     3     1     3
  4.0300048308270942E-01 a        44     0     3     1     4
  8.7027676169372015E-02 a        45     0     3     1     5
 -4.8140278057458580E-01 a        46     0     3     1     6
 -1.7077266203961147E-01 a        47     0     3     1     7
  3.8499789290544068E-01 a        48     0     3     1     8
 -3.5240607293536480E-02 a        49     0     3     1     9
 -2.1087227097738756E-01 a        50     0     3     1    10
  6.0189820568609020E-01 a        51     0     3     1    11
 -6.5867723354142615E-01 a        52     0     3     1    12
  4.1597148958581612E-04 a        53     0     3     1    13
 -4.3039812159524871E-01 a        54     0     3     1    14
  8.8959932399286623E-01 a        55     0     3     1    15
  7.7304652368687693E-02 a        56     0     3     1    16
  7.6308563653942318E-01 a        57     0     3     1    17
 -4.4492912163816739E-01 a        58     0     3     1    18
  6.2453923234753184E-01 a        59     0     3     1    19
 -6.1347866349346358E-02 a        60     0     3     1    20
 -3.1571117850136171E-01 a        61     0     4     1     1
  1.2145386882142910E-01 a        62     0     4     1     2
  9.8238615143085961E-02 a        63     0     4     1     3
 -4.5231303209619295E-02 a        64     0     4     1     4
  2.8885542717673168E-01 a        65     0     4     1     5
 -2.0914928322771606E-01 a        66     0     4     1     6
 -5.9132267284332030E-01 a        67     0     4     1     7
  2.8183226836735448E-01 a        68     0     4     1     8
 -3.6320797135789873E-01 a        69     0     4     1     9
  4.8034828081658060E-01 a        70     0     4     1    10
 -3.6507041645343308E-01 a        71     0     4     1    11
  1.2216421462592088E-01 a        72     0     4     1    12
 -2.3232294031379044E-01 a        73     0     4     1    13
  2.5543121411193876E-02 a        74     0     4     1    14
  5.6754281210916357E-02 a        75     0     4     1    15
  3.7754099257973867E-01 a        76     0     4     1    16
 -3.7744663705751885E-01 a        77     0     4     1    17
  1.1575308031014522E-01 a        78     0     4     1    18
  1.9278135149881212E-01 a        79     0     4     1    19
 -2.1092837625833638E-01 a        80     0     4     1    20
 -1.3349150874648480E-01 a        81     0     5     1     1
  8.3131236233992434E-01 a        82     0     5     1     2
 -2.8398827150496880E-01 a        83     0     5     1     3
 -4.8548484564656541E-01 a        84     0     5     1     4
 -6.8311660507875605E-01 a        85     0     5     1     5
  2.8016198516909913E-01 a        86     0     5     1     6
  2.4215954262244588E-01 a        87     0     5     1     7
 -3.3676978764179488E-01 a        88     0     5     1     8
  1.4770710576139290E-01 a        89     0     5     1     9
  4.5536605399064850E-01 a        90     0     5     1    10
  7.9137421922732853E-01 a        91     0     5     1    11
 -1.1022506276481596E-01 a        92     0     5     1    12
  2.2503048046785359E-01 a        93     0     5     1    13
  9.3417922431369405E-01 a        94     0     5     1    14
 -1.6436875583044747E-01 a        95     0     5     1    15
 -2.1439021063769773E-01 a        96     0     5     1    16
 -7.8092379517925214E-01 a        97     0     5     1    17
 -5.4544238649774301E-01 a        98     0     5     1    18
  8.7159063760902167E-01 a        99     0     5     1    19
 -2.8608822708224596E-01 a       100     0     5     1    20
  2.9405251135408589E-01 a       101     0     6     1     1
 -5.1109401839070279E-01 a       102     0     6     1     2
  7.0912211490322341E-02 a       103     0     6     1     3
 -3.5172356008789241E-01 a       104     0     6     1     4
 -3.6697846379532412E-01 a       105     0     6     1     5
 -2.2128686740086764E-01 a       106     0     6     1     6
  4.7405246602425505E-01 a       107     0     6     1     7
  1.0482052525634797E+00 a       108     0     6     1     8
 -3.1906474011983860E-01 a       109     0     6     1     9
 -7.7897159644768321E-01 a       110     0     6     1    10
  1.0744352557097021E+00 a       111     0     6     1    11
  6.4629393965407977E-01 a       112     0     6     1    12
  4.4878507164875048E-01 a       113     0     6     1    13
 -8.2863798986432952E-03 a       114     0     6     1    14
  3.6170682035187585E-01 a       115     0     6     1    15
 -3.8676890576951628E-01 a       116     0     6     1    16
  8.8719219169563657E-01 a       117     0     6     1    17
 -7.0460398139578029E-01 a       118     0     6     1    18
  1.3175839305733641E-01 a       119     0     6     1    19
 -1.6826851457688041E-01 a       120     0     6     1    20
 -5.0956822860489392E-01 a       121     0     7     1     1
  5.5715176272654687E-01 a       122     0     7     1     2
  1.0882522347760908E+00 a       123     0     7     1     3
 -1.1993489597677572E-01 a       124     0     7     1     4
  5.0560208160837294E-01 a       125     0     7     1     5
  5.2796486756993066E-01 a       126     0     7     1     6
 -1.1459090525758583E-01 a       127     0     7     1     7
  6.9500055692942972E-02 a       128     0     7     1     8
 -7.0665533323929475E-01 a       129     0     7     1     9
 -2.3866428800612949E-01 a       130     0     7     1    10
 -3.9284194036326736E-01 a       131     0     7     1    11
  5.9827044092065490E-02 a       132     0     7     1    12
 -1.8007166129478636E-01 a       133     0     7     1    13
  4.2073698886325217E-01 a       134     0     7     1    14
 -2.1307867550194756E-01 a       135     0     7     1    15
  4.2185314328431583E-01 a       136     0     7     1    16
 -2.5421641215251217E-01 a       137     0     7     1    17
 -2.2123079647815400E-01 a       138     0     7     1    18
  7.7180915223267310E-01 a       139     0     7     1    19
 -6.6908040808545433E-01 a       140     0     7     1    20
  6.8914251379359825E-01 a       141     0     8     1     1
 -5.8091646954405690E-02 a       142     0     8     1     2
 -5.1372263585704303E-01 a       143     0     8     1     3
  4.6831824391972315E-01 a       144     0     8     1     4
  2.6355160415204987E-01 a       145     0     8     1     5
 -6.2159617650520993E-01 a       146     0     8     1     6
  8.7814074499781891E-01 a       147     0     8     1     7
 -8.3670596647290807E-01 a       148     0     8     1     8
 -2.0110242229352912E-01 a       149     0     8     1     9
  3.8057977506418506E-01 a       150     0     8     1    10
  1.0467650487575404E-01 a       151     0     8     1    11
 -5.8816234965514680E-01 a       152     0     8     1    12
 -1.5942976497911385E-01 a       153     0     8     1    13
  2.6072627453333500E-02 a       154     0     8     1    14
  5.3724224652753649E-01 a       155     0     8     1    15
  6.2363386617381067E-01 a       156     0     8     1    16
 -3.4576988883624588E-01 a       157     0     8     1    17
 -6.6928183608274772E-01 a       158     0     8     1    18
 -2.4288504722142396E-01 a       159     0     8     1    19
  5.0208569581091989E-02 a       160     0     8     1    20
  3.0744024552291221E-01 a       161     0     9     1     1
 -6.8549767152274987E-01 a       162     0     9     1     2
  6.0909811366713718E-01 a       163     0     9     1     3
 -3.2187006269175533E-01 a       164     0     9     1     4
  4.8814503858186303E-01 a       165     0     9     1     5
  2.9611049875101308E-01 a       166     0     9     1     6
 -2.3478295127585391E-01 a       167     0     9     1     7
  3.7905906208128887E-01 a       168     0     9     1     8
 -8.5723521309431880E-02 a       169     0     9     1     9
  4.4858786313637999E-01 a       170     0     9     1    10
  1.8001085919084023E-01 a       171     0     9     1    11
  4.3233667050376856E-01 a       172     0     9     1    12
 -1.2162831466797028E-01 a       173     0     9     1    13
 -4.5378164373951246E-01 a       174     0     9     1    14
 -1.8823747705967434E-01 a       175     0     9     1    15
  2.0061115390588150E-02 a       176     0     9     1    16
  9.5813419226091420E-02 a       177     0     9     1    17
 -3.3877995083492940E-01 a       178     0     9     1    18
 -3.0208151596065247E-01 a       179     0     9     1    19
 -3.1865343347739089E-01 a       180     0     9     1    20
  5.1842308398897063E-01 a       181     0    10     1     1
  2.1910637139928271E-01 a       182     0    10     1     2
 -8.5647381196132834E-03 a       183     0    10     1     3
  4.7608197697457187E-02 a       184     0    10     1     4
 -2.4783365730633408E-01 a       185     0    10     1     5
 -4.6929596546772717E-01 a       186     0    10     1     6
  5.7687079068739333E-01 a       187     0    10     1     7
  7.1002411474714666E-01 a       188     0    10     1     8
 -1.5979768247165485E-01 a       189     0    10     1     9
 -2.8703383548086947E-01 a       190     0    10     1    10
  6.8472069691867776E-01 a       191     0    10     1    11
  4.7363419419705893E-01 a       192     0    10     1    12
 -4.1092717467519524E-01 a       193     0    10     1    13
  2.9095424351323323E-01 a       194     0    10     1    14
 -3.7121840628740466E-01 a       195     0    10     1    15
  2.4595941275860730E-01 a       196     0    10     1    16
 -1.1533875281099745E-01 a       197     0    10     1    17
 -1.3920842169702421E-01 a       198     0    10     1    18
  5.5655088631752203E-01 a       199     0    10     1    19
  8.7932254694733092E-01 a       200     0    10     1    20
 -4.3463032151934844E-01 a       201     0    11     1     1
 -3.3494365424964107E-01 a       202     0    11     1     2
  5.7394586116391082E-02 a       203     0    11     1     3
 -6.6716226036547499E-01 a       204     0    11     1     4
 -6.3099332289512630E-02 a       205     0    11     1     5
  2.4154948675957727E-01 a       206     0    11     1     6
  5.7899483720191991E-01 a       207     0    11     1     7
 -3.2221449018849956E-02 a       208     0    11     1     8
 -8.4843928804683300E-01 a       209     0    11     1     9
  3.7338469539577068E-01 a       210     0    11     1    10
 -5.4834037826043000E-02 a       211     0    11     1    11
  3.2026189005547995E-01 a       212     0    11     1    12
  6.5617140829383980E-01 a       213     0    11     1    13
  1.1585306083543093E-02 a       214     0    11     1    14
  2.0849448986469357E-01 a       215     0    11     1    15
 -1.8895242855477443E-01 a       216     0    11     1    16
  4.1584255693804528E-02 a       217     0    11     1    17
 -6.6040266581221652E-01 a       218     0    11     1    18
  3.1405867524103659E-01 a       219     0    11     1    19
  5.5050502837823001E-01 a       220     0    11     1    20
  3.5268793113787489E-03 a       221     0    12     1     1
  8.3830901619753340E-01 a       222     0    12     1     2
  7.0170211435976404E-01 a       223     0    12     1     3
 -2.4879150510592005E-01 a       224     0    12     1     4
 -6.8795307748742984E-01 a       225     0    12     1     5
  5.3717454914512208E-01 a       226     0    12     1     6
 -4.6952229188670375E-01 a       227     0    12     1     7
 -1.2404648780791411E-01 a       228     0    12     1     8
  5.2043021157548863E-01 a       229     0    12     1     9
  4.8841216349881211E-01 a       230     0    12     1    10
  2.6797707425373934E-01 a       231     0    12     1    11
  5.9625925993246809E-01 a       232     0    12     1    12
  3.5874875034853204E-01 a       233     0    12     1    13
  5.6985545972749829E-01 a       234     0    12     1    14
 -4.7309747684623876E-01 a       235     0    12     1    15
  4.2403494678741638E-01 a       236     0    12     1    16
 -5.8745420831132666E-01 a       237     0    12     1    17
 -3.9900803599523871E-01 a       238     0    12     1    18
 -6.2805828131716840E-02 a       239     0    12     1    19
 -1.6340479006195260E-01 a       240     0    12     1    20
 -3.4892069042402701E-01 a       241     0    13     1     1
 -2.7407105656257058E-01 a       242     0    13     1     2
 -1.1115694999990677E-01 a       243     0    13     1     3
  3.8583163445963564E-01 a       244     0    13     1     4
 -4.1875617062166531E-01 a       245     0    13     1     5
  2.3660276092436283E-01 a       246     0    13     1     6
  2.2542889213482858E-01 a       247     0    13     1     7
  9.4925942792522637E-03 a       248     0    13     1     8
  6.8529945709771778E-01 a       249     0    13     1     9
 -1.1946648626734206E-01 a       250     0    13     1    10
 -2.7174126389574397E-03 a       251     0    13     1    11
  3.5893455462736912E-01 a       252     0    13     1    12
  4.4400393780183151E-01 a       253     0    13     1    13
  2.8584459783278465E-01 a       254     0    13     1    14
 -7.8114794026651460E-02 a       255     0    13     1    15
  6.3061285088788066E-01 a       256     0    13     1    16
  3.8034218985600626E-01 a       257     0    13     1    17
  3.2794243507237641E-01 a       258     0    13     1    18
  1.2231777433522499E-01 a       259     0    13     1    19
  5.4010989503749574E-01 a       260     0    13     1    20
 -5.0205158048254228E-01 a       261     0    14     1     1
  1.0380515346710234E-01 a       262     0    14     1     2
 -4.1905501845062620E-01 a       263     0    14     1     3
 -4.2787078790567645E-01 a       264     0    14     1     4
  2.8669327095933606E-01 a       265     0    14     1     5
  4.0915715404992348E-01 a       266     0    14     1     6
 -1.0091042261125516E-01 a       267     0    14     1     7
 -3.5189880331378140E-02 a       268     0    14     1     8
 -2.2364854669680426E-01 a       269     0    14     1     9
 -2.5369890691223473E-01 a       270     0    14     1    10
  6.0364926726478629E-01 a       271     0    14     1    11
  6.6767538587719855E-01 a       272     0    14     1    12
 -2.1223385851257426E-01 a       273     0    14     1    13
 -4.0691911331782205E-01 a       274     0    14     1    14
  1.8887030760086365E-01 a       275     0    14     1    15
 -4.4935145457777642E-01 a       276     0    14     1    16
  3.5157872827952186E-01 a       277     0    14     1    17
 -2.1818502365627970E-01 a       278     0    14     1    18
  7.1023677746049663E-01 a       279     0    14     1    19
  5.0196959451668965E-01 a       280     0    14     1    20
  2.9948741456435618E-01 b       281     1     1
 -1.0662166832201618E+00 b       282     1     2
 -1.6270668525684016E+00 b       283     1     3
 -4.3505693438080378E-01 b       284     1     4
  8.5988202669509439E-01 b       285     1     5
 -7.7296372888496589E-01 b       286     1     6
  8.6262886044970177E-01 b       287     1     7
  1.3032324682497034E+00 b       288     1     8
  1.8013397073872663E+00 b       289     1     9
  2.0340473304696716E-01 b       290     1    10
 -1.4000601108753146E+00 b       291     1    11
 -7.9335083461800382E-01 b       292     1    12
 -6.1294807992500022E-01 b       293     1    13
 -1.0453914795704984E+00 b       294     1    14
 -1.0362675459102979E+00 b       295     1    15
  1.1379960486331773E+00 b       296     1    16
  9.1008558199212539E-02 b       297     1    17
 -4.3043310296402336E-03 b       298     1    18
 -9.3654788482004170E-01 b       299     1    19
  1.8973386872178579E+00 b       300     1    20
  2.3665752600905546E-01 a       301     1     1     2     1
  4.6825213671677912E-01 a       302     1     1     2     2
  9.0205532749054740E-02 a       303     1     1     2     3
 -2.6406579849601080E-02 a       304     1     1     2     4
 -2.2720837436366029E-01 a       305     1     1     2     5
  2.2203109568485502E-01 a       306     1     1     2     6
 -5.8616555380695567E-01 a       307     1     1     2     7
  1.0565883229524417E-01 a       308     1     1     2     8
  1.1782753951326996E-02 a       309     1     1     2     9
 -6.0292351517996284E-03 a       310     1     1     2    10
 -5.1422523051350122E-01 a       311     1     1     2    11
  2.2050714368684185E-01 a       312     1     1     2    12
  4.0003943825682520E-01 a       313     1     1     2    13
  5.7215684598535521E-01 a       314     1     1     2    14
 -6.1113582419178059E-01 a       315     1     1     2    15
 -1.3040020319184589E-01 a       316     1     1     2    16
  1.1422224048986640E-01 a       317     1     1     2    17
 -4.8586768213931047E-01 a       318     1     1     2    18
  3.5751960692183460E-01 a       319     1     1     2    19
 -7.8175755932614367E-03 a       320     1     1     2    20
  1.8647389891485258E-01 a       321     1     2     2     1
  2.1216395522555456E-01 a       322     1     2     2     2
 -1.9430114197056481E-01 a       323     1     2     2     3
  5.7046223715526823E-01 a       324     1     2     2     4
 -5.5300971008859889E-01 a       325     1     2     2     5
 -3.3642566586691247E-01 a       326     1     2     2     6
 -5.4922710660739360E-01 a       327     1     2     2     7
  4.4124754861801474E-01 a       328     1     2     2     8
 -3.1997657424459391E-01 a       329     1     2     2     9
 -2.0867178665473002E-01 a       330     1     2     2    10
  9.8839071771090928E-02 a       331     1     2     2    11
 -8.3654879275064542E-02 a       332     1     2     2    12
 -4.6239695770925883E-02 a       333     1     2     2    13
 -4.3076408158710544E-01 a       334     1     2     2    14
  5.8426073079115702E-02 a       335     1     2     2    15
 -2.1708583797925840E-02 a       336     1     2     2    16
 -5.6946182488574878E-03 a       337     1     2     2    17
 -2.0701224024858828E-02 a       338     1     2     2    18
  4.6848059038377227E-01 a       339     1     2     2    19
  7.1003436136631168E-02 a       340     1     2     2    20
  5.4621158519485136E-01 a       341     1     3     2     1
 -5.9101273078727801E-01 a       342     1     3     2     2
 -5.3967669669473983E-01 a       343     1     3     2     3
  5.0078901731621883E-01 a       344     1     3     2     4
  5.8500512241624081E-01 a       345     1     3     2     5
  5.9629723641197929E-01 a       346     1     3     2     6
  1.9348400263295137E-01 a       347     1     3     2     7
 -3.7592933329412749E-02 a       348     1     3     2     8
 -3.6220958168844969E-01 a       349     1     3     2     9
  5.3272963532645290E-01 a       350     1     3     2    10
  1.7210002387272710E-01 a       351     1     3     2    11
 -3.7244609842806348E-01 a       352     1     3     2    12
 -3.5891587220693955E-01 a       353     1     3     2    13
 -3.9636884556434004E-01 a       354     1     3     2    14
 -9.8976511536224082E-02 a       355     1     3     2    15
 -5.1059651454604627E-01 a       356     1     3     2    16
 -8.2179697250229902E-02 a       357     1     3     2    17
  3.9855032531507062E-01 a       358     1     3     2    18
  3.5762780820719509E-01 a       359     1     3     2    19
  1.0067119060647430E-01 a       360     1     3     2    20
  3.0302834920053062E-01 a       361     1     4     2     1
 -6.8795569829752268E-02 a       362     1     4     2     2
  4.9851328116922117E-01 a       363     1     4     2     3
  4.6445535207488375E-01 a       364     1     4     2     4
 -4.3498533296529092E-02 a       365     1     4     2     5
 -5.4674643392858976E-02 a       366     1     4     2     6
  4.1387067284930457E-01 a       367     1     4     2     7
 -2.0624191121502572E-01 a       368     1     4     2     8
 -7.2547060403198305E-02 a       369     1     4     2     9
 -5.4965892234571179E-01 a       370     1     4     2    10
 -2.2735676782256803E-01 a       371     1     4     2    11
  2.4208057609239489E-01 a       372     1     4     2    12
 -3.0108992801846851E-01 a       373     1     4     2    13
 -2.5862811834997035E-01 a       374     1     4     2    14
 -3.8317231372056011E-02 a       375     1     4     2    15
  5.1328320202699951E-02 a       376     1     4     2    16
 -1.6859508296225775E-01 a       377     1     4     2    17
  3.4882646675392909E-01 a       378     1     4     2    18
  4.6045186241513762E-02 a       379     1     4     2    19
  3.5205402522399559E-01 a       380     1     4     2    20
  4.3280191781540378E-01 a       381     1     5     2     1
 -2.0037171167212184E-01 a       382     1     5     2     2
  3.0000417653274614E-01 a       383     1     5     2     3
  2.1566892535470975E-01 a       384     1     5     2     4
 -2.3857951064435798E-01 a       385     1     5     2     5
  2.3798527613312434E-01 a       386     1     5     2     6
 -5.2908661509269583E-01 a       387     1     5     2     7
  5.1411217814801824E-01 a       388     1     5     2     8
  1.3936360150346477E-01 a       389     1     5     2     9
  1.3674792545414677E-01 a       390     1     5     2    10
  1.7164806740470820E-01 a       391     1     5     2    11
  5.5950689728907965E-01 a       392     1     5     2    12
  3.9565689245170138E-01 a       393     1     5     2    13
 -4.9262540843540875E-01 a       394     1     5     2    14
 -2.9822049544873103E-01 a       395     1     5     2    15
  2.9974015957260730E-01 a       396     1     5     2    16
 -1.2407113432276966E-01 a       397     1     5     2    17
  2.9445629450308448E-02 a       398     1     5     2    18
 -6.5651781832672840E-01 a       399     1     5     2    19
 -1.2005365956873255E-01 a       400     1     5     2    20
  2.5551416566484647E-01 a       401     1     6     2     1
  6.8237007821553869E-02 a       402     1     6     2     2
 -3.0907901014353778E-01 a       403     1     6     2     3
 -3.7493475074361554E-01 a       404     1     6     2     4
  9.3879523622356922E-02 a       405     1     6     2     5
 -5.5354737269179277E-02 a       406     1     6     2     6
  2.8108269553311599E-01 a       407     1     6     2     7
  4.9497726604508546E-01 a       408     1     6     2     8
 -2.6107247489443480E-01 a       409     1     6     2     9
 -6.7182344633444191E-02 a       410     1     6     2    10
  5.4136275169784087E-01 a       411     1     6     2    11
 -5.9882874568690059E-01 a       412     1     6     2    12
  5.0140602997618289E-01 a       413     1     6     2    13
  2.1511236080897420E-01 a       414     1     6     2    14
 -5.9870772826195084E-01 a       415     1     6     2    15
  5.0531854741360682E-01 a       416     1     6     2    16
  2.7188886259179573E-02 a       417     1     6     2    17
 -2.2618618263626702E-01 a       418     1     6     2    18
  3.5936896390177174E-03 a       419     1     6     2    19
 -5.1114276626212707E-01 a       420     1     6     2    20
 -5.5890505619267949E-01 a       421     1     7     2     1
 -2.4292464060084687E-01 a       422     1     7     2     2
  5.3918096273757266E-01 a       423     1     7     2     3
 -1.7631078180705931E-01 a       424     1     7     2     4
 -5.8286265161170048E-01 a       425     1     7     2     5
 -1.9848344062135731E-01 a       426     1     7     2     6
  9.8609636126282998E-02 a       427     1     7     2     7
 -3.1979126507188960E-01 a       428     1     7     2     8
  3.8527367384219435E-01 a       429     1     7     2     9
 -6.2865872632758979E-01 a       430     1     7     2    10
 -2.3760324184446555E-01 a       431     1     7     2    11
  2.7620774357980840E-02 a       432     1     7     2    12
  3.5225036215415634E-01 a       433     1     7     2    13
  1.0694325892900729E-01 a       434     1     7     2    14
  3.0597264671701048E-02 a       435     1     7     2    15
 -6.3086398997649795E-01 a       436     1     7     2    16
 -2.6978423610766061E-01 a       437     1     7     2    17
 -6.1133288187468229E-02 a       438     1     7     2    18
 -2.0048823084234960E-01 a       439     1     7     2    19
 -4.4888718217424062E-01 a       440     1     7     2    20
 -5.7639930952376728E-01 a       441     1     8     2     1
 -2.7071720101449714E-01 a       442     1     8     2     2
  4.8197055346133078E-01 a       443     1     8     2     3
  5.1077471069725114E-02 a       444     1     8     2     4
  8.1111291424488641E-02 a       445     1     8     2     5
 -3.2204833214125084E-01 a       446     1     8     2     6
 -3.7305030206816908E-01 a       447     1     8     2     7
 -4.5480683206007178E-02 a       448     1     8     2     8
  7.4862483842455818E-01 a       449     1     8     2     9
 -2.7475657908875700E-01 a       450     1     8     2    10
 -2.1830436633566139E-01 a       451     1     8     2    11
  3.6385303587447970E-01 a       452     1     8     2    12
  3.7907942275977752E-01 a       453     1     8     2    13
 -3.8295738632097925E-01 a       454     1     8     2    14
 -5.6772884467108160E-02 a       455     1     8     2    15
  5.2636599859981503E-01 a       456     1     8     2    16
  3.0745240335284263E-01 a       457     1     8     2    17
 -3.1383355342549368E-01 a       458     1     8     2    18
  5.5155641119186305E-01 a       459     1     8     2    19
  7.8490676840399654E-01 a       460     1     8     2    20
 -3.7018821100080962E-01 a       461     1     9     2     1
 -2.5552973003790591E-01 a       462     1     9     2     2
 -9.7399002477395191E-02 a       463     1     9     2     3
 -2.7881059035884448E-01 a       464     1     9     2     4
 -1.4147195804155663E-01 a       465     1     9     2     5
 -8.8827501461906577E-01 a       466     1     9     2     6
  1.2379080164926316E-01 a       467     1     9     2     7
  2.3747897430266834E-01 a       468     1     9     2     8
 -3.6821655351546917E-01 a       469     1     9     2     9
  1.3390213306927204E-01 a       470     1     9     2    10
  6.2114593024371456E-01 a       471     1     9     2    11
  4.7527331840368037E-01 a       472     1     9     2    12
 -3.9486749270347204E-01 a       473     1     9     2    13
 -4.6754659230237378E-01 a       474     1     9     2    14
  6.2714268158342468E-02 a       475     1     9     2    15
 -3.3271448311093493E-01 a       476     1     9     2    16
 -1.0669210269926011E-01 a       477     1     9     2    17
 -4.2687541482366870E-01 a       478     1     9     2    18
 -2.5872805071716326E-01 a       479     1     9     2    19
 -3.5704160418293451E-01 a       480     1     9     2    20
  3.5293394425263719E-01 a       481     1    10     2     1
 -2.5870438276738106E-01 a       482     1    10     2     2
 -1.7791899351798929E-01 a       483     1    10     2     3
  3.3974075001590320E-01 a       484     1    10     2     4
 -2.2103315784286015E-01 a       485     1    10     2     5
  1.7833113456668898E-01 a       486     1    10     2     6
 -4.3563442958176424E-01 a       487     1    10     2     7
  1.7136248398371814E-01 a       488     1    10     2     8
 -1.8280435865799211E-01 a       489     1    10     2     9
  5.5732876104363027E-01 a       490     1    10     2    10
 -3.8987101601552809E-01 a       491     1    10     2    11
 -6.1921304189612558E-01 a       492     1    10     2    12
 -7.8261015913591303E-02 a       493     1    10     2    13
  2.7328643669375896E-01 a       494     1    10     2    14
  6.4547557533310360E-02 a       495     1    10     2    15
 -3.7418073322566268E-02 a       496     1    10     2    16
 -2.7655981348466724E-01 a       497     1    10     2    17
 -4.1473352499791533E-01 a       498     1    10     2    18
  4.5940159241766404E-01 a       499     1    10     2    19
  4.3542432069878689E-01 a       500     1    10     2    20
  2.9288192693952736E-01 a       501     1    11     2     1
 -3.8152160282111469E-01 a       502     1    11     2     2
 -1.0318246164819667E+00 a       503     1    11     2     3
 -2.7825727027633623E-01 a       504     1    11     2     4
 -3.1623853829980436E-01 a       505     1    11     2     5
  1.6776275528522513E-01 a       506     1    11     2     6
  3.5209220043693495E-01 a       507     1    11     2     7
  1.9640413597171691E-01 a       508     1    11     2     8
  7.1215371694743690E-01 a       509     1    11     2     9
 -7.6392346339174536E-02 a       510     1    11     2    10
 -2.9317969704254317E-02 a       511     1    11     2    11
 -1.8198192015197986E-01 a       512     1    11     2    12
 -4.6276301651591956E-01 a       513     1    11     2    13
  7.9511608246243634E-02 a       514     1    11     2    14
  5.2127902942025783E-01 a       515     1    11     2    15
 -4.1515004860294852E-01 a       516     1    11     2    16
  6.7591459267525245E-01 a       517     1    11     2    17
  3.1735368854897139E-01 a       518     1    11     2    18
  7.1332960732551498E-01 a       519     1    11     2    19
 -2.2321673890429400E-01 a       520     1    11     2    20
  1.4008571240683332E-01 a       521     1    12     2     1
 -3.2486486378000751E-02 a       522     1    12     2     2
  2.6412915117479019E-01 a       523     1    12     2     3
  9.3355714428860481E-02 a       524     1    12     2     4
  5.7186013791734469E-01 a       525     1    12     2     5
 -5.1465391492425994E-01 a       526     1    12     2     6
  5.0545778666361785E-01 a       527     1    12     2     7
 -1.4405674351374562E-01 a       528     1    12     2     8
 -2.9064645184321247E-01 a       529     1    12     2     9
  2.4357537258640069E-01 a       530     1    12     2    10
  7.1594670322504272E-01 a       531     1    12     2    11
  2.8528382136410979E-01 a       532     1    12     2    12
  4.1609641775985162E-01 a       533     1    12     2    13
 -2.4821313557486624E-01 a       534     1    12     2    14
  4.6884518960784527E-01 a       535     1    12     2    15
 -3.2829519716126271E-01 a       536     1    12     2    16
  3.8950388154617926E-01 a       537     1    12     2    17
  4.6558179847637071E-01 a       538     1    12     2    18
  1.9646375252091364E-01 a       539     1    12     2    19
  7.6603748888114300E-03 a       540     1    12     2    20
  2.5829389874779335E-01 a       541     1    13     2     1
  1.5352052190389405E-02 a       542     1    13     2     2
  2.5971035101311202E-01 a       543     1    13     2     3
  1.4387373387927849E-01 a       544     1    13     2     4
 -1.1004379620936801E-01 a       545     1    13     2     5
  3.6278037746513281E-01 a       546     1    13     2     6
 -8.2731578643188503E-02 a       547     1    13     2     7
  3.2236763607731034E-01 a       548     1    13     2     8
  4.0693322948749056E-01 a       549     1    13     2     9
  3.7538645098405665E-01 a       550     1    13     2    10
 -1.4121544214964593E-01 a       551     1    13     2    11
  4.4734987793108794E-01 a       552     1    13     2    12
 -4.3711080884298970E-01 a       553     1    13     2    13
  5.7388019358814719E-02 a       554     1    13     2    14
 -2.0838912270034088E-01 a       555     1    13     2    15
  7.3007160711537633E-01 a       556     1    13     2    16
  1.8394422617735103E-02 a       557     1    13     2    17
 -3.6512903565531704E-02 a       558     1    13     2    18
  7.9473278049578336E-03 a       559     1    13     2    19
 -3.5549388703279422E-01 a       560     1    13     2    20
  5.1041717645829954E-01 a       561     1    14     2     1
 -5.4703778336696052E-01 a       562     1    14     2     2
 -2.1481832474831239E-01 a       563     1    14     2     3
 -1.5126229289392212E-01 a       564     1    14     2     4
 -3.2415185659600963E-02 a       565     1    14     2     5
  3.4837849611988422E-02 a       566     1    14     2     6
 -3.2649733787940599E-01 a       567     1    14     2     7
  4.0699304063655234E-01 a       568     1    14     2     8
  5.7610632669938211E-01 a       569     1    14     2     9
 -1.0039524781342894E-01 a       570     1    14     2    10
 -4.8279398217278530E-01 a       571     1    14     2    11
 -1.4957896715781857E-01 a       572     1    14     2    12
 -1.1917860816959326E-01 a       573     1    14     2    13
  5.5104266200984464E-01 a       574     1    14     2    14
  2.2296602806195606E-01 a       575     1    14     2    15
  1.2444643702573395E-01 a       576     1    14     2    16
  5.5992491766475649E-01 a       577     1    14     2    17
  2.9379944893013005E-01 a       578     1    14     2    18
 -6.5038951103569043E-01 a       579     1    14     2    19
  3.0346902069950593E-01 a       580     1    14     2    20
 -2.4411208424129441E-01 a       581     1    15     2     1
  9.7898368050496010E-02 a       582     1    15     2     2
 -2.0547168213524916E-01 a       583     1    15     2     3
  2.9469960443075066E-01 a       584     1    15     2     4
  4.9908348447612155E-01 a       585     1    15     2     5
  4.9066422595534848E-01 a       586     1    15     2     6
 -3.9496184839268167E-01 a       587     1    15     2     7
 -3.0788596432685994E-01 a       588     1    15     2     8
  9.8987876653506710E-02 a       589     1    15     2     9
 -5.4087204628690311E-01 a       590     1    15     2    10
  6.1881550121737697E-02 a       591     1    15     2    11
 -2.8957334281167940E-01 a       592     1    15     2    12
 -4.1555756360815393E-01 a       593     1    15     2    13
 -4.2100686234763879E-01 a       594     1    15     2    14
  4.2089492353688746E-01 a       595     1    15     2    15
 -2.0280180408421061E-01 a       596     1    15     2    16
  4.0167481194759991E-01 a       597     1    15     2    17
 -4.7994048273897899E-01 a       598     1    15     2    18
 -2.0897196453221106E-01 a       599     1    15     2    19
  3.7326775604737672E-01 a       600     1    15     2    20
 -3.3078791105365163E-01 a       601     1    16     2     1
 -4.3935371196810391E-01 a       602     1    16     2     2
  2.1896455301157761E-01 a       603     1    16     2     3
 -6.7037286931179141E-01 a       604     1    16     2     4
 -8.1345751135026612E-01 a       605     1    16     2     5
 -4.1434456515730000E-01 a       606     1    16     2     6
 -4.4252070982694580E-01 a       607     1    16     2     7
 -3.0092326495149851E-01 a       608     1    16     2     8
 -2.6020956709926035E-01 a       609     1    16     2     9
 -5.1248178242715277E-02 a       610     1    16     2    10
 -7.8051334787616902E-02 a       611     1    16     2    11
  4.4849663520306154E-01 a       612     1    16     2    12
 -2.9953834521083200E-01 a       613     1    16     2    13
  4.4376442018215828E-01 a       614     1    16     2    14
  7.2758504378878996E-01 a       615     1    16     2    15
 -6.0527606813699186E-01 a       616     1    16     2    16
 -3.0725376344153094E-01 a       617     1    16     2    17
 -4.6140464772181494E-01 a       618     1    16     2    18
 -5.2859430899877058E-01 a       619     1    16     2    19
  4.1536417905137030E-01 a       620     1    16     2    20
  3.5991901542534666E-01 a       621     1    17     2     1
 -5.8558846876755229E-02 a       622     1    17     2     2
  2.7489285337031227E-01 a       623     1    17     2     3
 -5.8136033548553900E-01 a       624     1    17     2     4
  1.6036027108200898E-01 a       625     1    17     2     5
  5.3293399313118672E-01 a       626     1    17     2     6
 -8.3410000752326980E-03 a       627     1    17     2     7
  4.4837160990026759E-01 a       628     1    17     2     8
  1.2259754361063203E-01 a       629     1    17     2     9
 -3.2802220311114616E-01 a       630     1    17     2    10
 -4.6638461819530103E-01 a       631     1    17     2    11
 -3.5908774038898539E-01 a       632     1    17     2    12
  2.9632103432766121E-01 a       633     1    17     2    13
  1.7988070388976929E-01 a       634     1    17     2    14
  8.1675743734069661E-02 a       635     1    17     2    15
 -3.0225374776758857E-01 a       636     1    17     2    16
 -9.3333786055699128E-02 a       637     1    17     2    17
 -4.8005658380296901E-01 a       638     1    17     2    18
  1.5786611200529835E-01 a       639     1    17     2    19
  3.1975430580481001E-01 a       640     1    17     2    20
 -5.4408888633308439E-01 a       641     1    18     2     1
 -3.5179306386069326E-01 a       642     1    18     2     2
  2.4333708486592423E-01 a       643     1    18     2     3
  1.7447411912811453E-01 a       644     1    18     2     4
 -6.1354831261494623E-02 a       645     1    18     2     5
 -4.2341946446865836E-01 a       646     1    18     2     6
 -2.4012011950649262E-01 a       647     1    18     2     7
 -2.0365641604888258E-02 a       648     1    18     2     8
 -1.1574916978861986E-03 a       649     1    18     2     9
  3.5039825278334413E-01 a       650     1    18     2    10
  3.7046228198777287E-01 a       651     1    18     2    11
  2.6332201097324776E-01 a       652     1    18     2    12
  4.0409163201788389E-01 a       653     1    18     2    13
 -2.4863571603172083E-01 a       654     1    18     2    14
  3.9541703927269922E-01 a       655     1    18     2    15
 -4.3912567455887924E-01 a       656     1    18     2    16
 -1.0833826379533301E-01 a       657     1    18     2    17
 -4.3849951427189471E-01 a       658     1    18     2    18
  9.3269263501487981E-02 a       659     1    18     2    19
 -6.0727339135149427E-01 a       660     1    18     2    20
 -1.5933962445094979E-01 a       661     1    19     2     1
 -5.2584311791609450E-01 a       662     1    19     2     2
  2.2016147081027790E-01 a       663     1    19     2     3
  2.2276447961866053E-01 a       664     1    19     2     4
  3.6565470599492267E-01 a       665     1    19     2     5
 -2.3898613500739834E-02 a       666     1    19     2     6
  3.0987159141234838E-01 a       667     1    19     2     7
 -1.4986983152637608E-02 a       668     1    19     2     8
 -3.0477198622179552E-01 a       669     1    19     2     9
  2.6181036637922456E-01 a       670     1    19     2    10
  3.2006735734434166E-01 a       671     1    19     2    11
  4.1541656364894319E-01 a       672     1    19     2    12
 -1.1547603750673405E-01 a       673     1    19     2    13
  6.9583214459224285E-01 a       674     1    19     2    14
  1.2822174196238600E-01 a       675     1    19     2    15
  8.2853701794661117E-02 a       676     1    19     2    16
 -4.8524852116018780E-01 a       677     1    19     2    17
  3.2822433417245500E-01 a       678     1    19     2    18
 -6.6308918430302921E-01 a       679     1    19     2    19
 -2.4572809818784132E-02 a       680     1    19     2    20
  1.3202957698727522E-01 a       681     1    20     2     1
 -4.6267120373258569E-01 a       682     1    20     2     2
  1.8762735290303884E-01 a       683     1    20     2     3
  6.0220204646637088E-01 a       684     1    20     2     4
  3.3520988002393048E-01 a       685     1    20     2     5
 -2.1326647826337553E-01 a       686     1    20     2     6
 -3.5282243899391852E-01 a       687     1    20     2     7
  3.7258731441742438E-01 a       688     1    20     2     8
 -3.8104101694426817E-01 a       689     1    20     2     9
 -1.3666049486823326E-01 a       690     1    20     2    10
  1.3150666876668309E-02 a       691     1    20     2    11
 -1.6988906388266509E-01 a       692     1    20     2    12
  3.8405246679304572E-01 a       693     1    20     2    13
  2.3361085582441829E-01 a       694     1    20     2    14
 -3.1257009791822894E-02 a       695     1    20     2    15
 -3.1772954262449327E-01 a       696     1    20     2    16
  2.1958663976009860E-01 a       697     1    20     2    17
  3.3569817635355631E-01 a       698     1    20     2    18
 -3.1905269200333503E-01 a       699     1    20     2    19
 -4.1457733670308361E-01 a       700     1    20     2    20
 -1.0360361685684483E+00 b       701     2     1
  1.1148363607361995E+00 b       702     2     2
 -1.5235486322534455E+00 b       703     2     3
 -4.1514739125686678E-02 b       704     2     4
 -8.3814423926387049E-01 b       705     2     5
 -3.6373314074669527E-01 b       706     2     6
 -8.7951320818060119E-01 b       707     2     7
 -1.1983594237217383E+00 b       708     2     8
  2.5654399425279445E-01 b       709     2     9
 -1.7070312275371531E+00 b       710     2    10
 -4.6251368872210707E-01 b       711     2    11
  1.5585557658173839E+00 b       712     2    12
  5.7262529607950130E-01 b       713     2    13
  1.3998726111404767E+00 b       714     2    14
 -1.0003277509978481E+00 b       715     2    15
 -7.9133637930609657E-01 b       716     2    16
  7.9064113302100414E-01 b       717     2    17
  1.5061266825494770E+00 b       718     2    18
 -9.1894361581794803E-01 b       719     2    19
 -1.6184878481556735E+00 b       720     2    20
  4.5648366201739801E-02 a       721     2     1     3     1
  4.2749397803730221E-01 a       722     2     2     3     1
  1.2384693670421813E-01 a       723     2     3     3     1
 -8.1565797244518706E-03 a       724     2     4     3     1
 -1.1217384972818685E+00 a       725     2     5     3     1
 -1.3754964275972186E+00 a       726     2     6     3     1
  6.5899566134308274E-01 a       727     2     7     3     1
  7.5226911219773596E-01 a       728     2     8     3     1
  7.2202545966034259E-02 a       729     2     9     3     1
  7.2905606940539747E-01 a       730     2    10     3     1
 -6.3221095571661418E-02 a       731     2    11     3     1
  6.0754840352821593E-01 a       732     2    12     3     1
 -4.2158060317797935E-01 a       733     2    13     3     1
 -9.7533988972773530E-03 a       734     2    14     3     1
  5.8064547702209124E-01 a       735     2    15     3     1
 -1.3950761859889785E-01 a       736     2    16     3     1
 -1.9359106284666427E-01 a       737     2    17     3     1
  1.3545335938529413E-01 a       738     2    18     3     1
  8.2844479311494845E-01 a       739     2    19     3     1
  3.0236675062593704E-01 a       740     2    20     3     1
 -4.6787144755138416E-01 b       741     3     1
