################################################################################
# Neural network connection values (weights and biases).
################################################################################
# Col  Name       Description
################################################################################
# 1    connection Neural network connection value.
# 2    t          Connection type (a = weight, b = bias).
# 3    index      Index enumerating weights.
# 4    l_s        Starting point layer (end point layer for biases).
# 5    n_s        Starting point neuron in starting layer (end point neuron for biases).
# 6    l_e        End point layer.
# 7    n_e        End point neuron in end layer.
################################################################################
#                      1 2         3     4     5     6     7
#             connection t     index   l_s   n_s   l_e   n_e
############################################################
 -4.0735723637193459E-02 a         1     0     1     1     1
  1.3009232629743006E+00 a         2     0     1     1     2
 -3.6265483812170551E-01 a         3     0     1     1     3
 -1.0628866082498474E-02 a         4     0     1     1     4
  1.4433996743840610E-01 a         5     0     1     1     5
  9.0359543479213725E-02 a         6     0     1     1     6
 -1.2790209436777547E-01 a         7     0     1     1     7
  2.2936816560512491E-01 a         8     0     1     1     8
  9.4393904797742412E-01 a         9     0     1     1     9
  4.6732521351935635E-01 a        10     0     1     1    10
  2.3132630069472906E-01 a        11     0     1     1    11
  1.3705434258696608E-01 a        12     0     1     1    12
 -4.4009266282077147E-01 a        13     0     1     1    13
  4.1723224645586499E-01 a        14     0     1     1    14
 -8.1292442035367096E-01 a        15     0     1     1    15
  5.1115762638115825E-01 a        16     0     1     1    16
 -3.5365264713365335E-01 a        17     0     1     1    17
  4.9924998936156756E-01 a        18     0     1     1    18
  5.0751431285682588E-02 a        19     0     1     1    19
  6.0113620977150783E-01 a        20     0     1     1    20
 -2.5306210845525157E-01 a        21     0     2     1     1
  1.4598783554258982E-01 a        22     0     2     1     2
 -2.1907542712312053E-01 a        23     0     2     1     3
  4.1667366991318827E-01 a        24     0     2     1     4
 -1.9062143857896052E-01 a        25     0     2     1     5
  8.4445217612693146E-01 a        26     0     2     1     6
 -3.1345423948923368E-01 a        27     0     2     1     7
 -2.2390224842432055E-01 a        28     0     2     1     8
 -2.9701872222861408E-01 a        29     0     2     1     9
 -3.3472514593173142E-01 a        30     0     2     1    10
  4.6455709867555532E-02 a        31     0     2     1    11
  1.0380573502969104E+00 a        32     0     2     1    12
  5.7047260149250290E-01 a        33     0     2     1    13
 -5.3871394578291087E-01 a        34     0     2     1    14
  2.5875322506549886E-01 a        35     0     2     1    15
 -2.0733656283851154E-01 a        36     0     2     1    16
  4.2287907840902783E-01 a        37     0     2     1    17
  2.2426850054657751E-01 a        38     0     2     1    18
  6.2682644601734205E-01 a        39     0     2     1    19
  2.0667301366923432E-01 a        40     0     2     1    20
 -7.2784883743922046E-01 a        41     0     3     1     1
 -7.7064828256568674E-01 a        42     0     3     1     2
  1.2632986158104174E+00 a        43     0     3     1     3
  5.6725562489366410E-01 a        44     0     3     1     4
  9.6020225929682390E-01 a        45     0     3     1     5
 -3.1690578232656119E-01 a        46     0     3     1     6
  2.2525116658805724E-01 a        47     0     3     1     7
  1.0792307170051106E-01 a        48     0     3     1     8
  6.0136320015640932E-01 a        49     0     3     1     9
  1.9019790184951385E-01 a        50     0     3     1    10
 -8.1769533828982305E-02 a        51     0     3     1    11
 -1.0916090172775124E+00 a        52     0     3     1    12
  7.7104798579022826E-01 a        53     0     3     1    13
  1.3537133741885506E-02 a        54     0     3     1    14
 -1.0573992346721468E+00 a        55     0     3     1    15
  7.0119959216655614E-01 a        56     0     3     1    16
 -1.4716538572176826E-02 a        57     0     3     1    17
  8.0121579105927876E-03 a        58     0     3     1    18
 -3.2275010247194386E-01 a        59     0     3     1    19
  1.6386239828358073E+00 a        60     0     3     1    20
  2.0775019428779803E-01 a        61     0     4     1     1
 -6.2126599500326882E-02 a        62     0     4     1     2
 -1.0554001315946997E+00 a        63     0     4     1     3
  2.6463210173696378E-01 a        64     0     4     1     4
 -1.1051768733386846E+00 a        65     0     4     1     5
  1.0435747237064106E+00 a        66     0     4     1     6
  6.4288248328906183E-01 a        67     0     4     1     7
  1.9585168797057842E-01 a        68     0     4     1     8
  5.3502640505085142E-01 a        69     0     4     1     9
  8.8195904644113698E-01 a        70     0     4     1    10
 -5.7365060396750522E-01 a        71     0     4     1    11
 -4.2570197952178429E-01 a        72     0     4     1    12
  1.0886855063188497E-01 a        73     0     4     1    13
  4.3095411620417307E-01 a        74     0     4     1    14
 -1.0830170159534820E+00 a        75     0     4     1    15
 -4.8553694990244817E-01 a        76     0     4     1    16
 -2.0353645943701262E-01 a        77     0     4     1    17
  3.4717531546986216E-02 a        78     0     4     1    18
 -4.4517867334320221E-01 a        79     0     4     1    19
 -4.7249527925686136E-01 a        80     0     4     1    20
  8.2551613549902458E-01 a        81     0     5     1     1
  5.8901093655787183E-02 a        82     0     5     1     2
  7.7500998158264711E-01 a        83     0     5     1     3
 -4.0921041259229751E-01 a        84     0     5     1     4
  1.8514684153771888E-01 a        85     0     5     1     5
 -3.8051107231635850E-01 a        86     0     5     1     6
  1.5346455829019132E-01 a        87     0     5     1     7
  6.7042220472070557E-01 a        88     0     5     1     8
  2.2278232107009133E-01 a        89     0     5     1     9
 -5.8048283020626812E-01 a        90     0     5     1    10
 -2.4256586838465163E-01 a        91     0     5     1    11
 -9.4735000797452465E-02 a        92     0     5     1    12
 -3.6875873344450055E-01 a        93     0     5     1    13
  3.9602909770142480E-01 a        94     0     5     1    14
  7.8284496221163768E-01 a        95     0     5     1    15
 -2.1841011046570724E-01 a        96     0     5     1    16
  5.7637222696147805E-01 a        97     0     5     1    17
 -2.7961877058816722E-02 a        98     0     5     1    18
  3.8929939354329829E-01 a        99     0     5     1    19
 -5.0723580145373437E-01 a       100     0     5     1    20
  1.4057256210871233E-01 a       101     0     6     1     1
 -9.1606906507824837E-01 a       102     0     6     1     2
 -3.1425533243781856E-01 a       103     0     6     1     3
 -1.0042342752301501E+00 a       104     0     6     1     4
  1.3011344471243835E-01 a       105     0     6     1     5
 -3.3095363279541701E-01 a       106     0     6     1     6
  7.5707084663421398E-01 a       107     0     6     1     7
  4.1963899090421941E-01 a       108     0     6     1     8
  7.4206093714369525E-01 a       109     0     6     1     9
  5.2137657234068691E-01 a       110     0     6     1    10
 -3.8172103995955620E-01 a       111     0     6     1    11
  9.3035773792785895E-02 a       112     0     6     1    12
 -4.0409380047825549E-01 a       113     0     6     1    13
  1.3727783102994426E-01 a       114     0     6     1    14
 -1.1563400721410506E-01 a       115     0     6     1    15
 -6.0431219538582041E-02 a       116     0     6     1    16
  1.5681673153354109E-01 a       117     0     6     1    17
  6.7513385846671242E-02 a       118     0     6     1    18
 -6.1210393997982060E-01 a       119     0     6     1    19
  4.7910482332602233E-01 a       120     0     6     1    20
  8.8611880727829195E-01 a       121     0     7     1     1
  4.0194022422413683E-01 a       122     0     7     1     2
 -2.7236488678077691E-02 a       123     0     7     1     3
  7.6402649875380912E-01 a       124     0     7     1     4
 -3.7679631664121699E-01 a       125     0     7     1     5
  4.7428366867306726E-01 a       126     0     7     1     6
  6.3294260026031857E-01 a       127     0     7     1     7
  6.3827395428008460E-01 a       128     0     7     1     8
  3.8084222566751524E-01 a       129     0     7     1     9
 -6.6299241857260471E-01 a       130     0     7     1    10
 -8.5177592189319451E-01 a       131     0     7     1    11
 -5.0269854321160901E-01 a       132     0     7     1    12
  3.1392216382424926E-01 a       133     0     7     1    13
  4.7890037997443974E-01 a       134     0     7     1    14
  3.5837550082415487E-01 a       135     0     7     1    15
  3.2818987663102414E-02 a       136     0     7     1    16
  5.1705652038285488E-01 a       137     0     7     1    17
  6.5448906067537427E-01 a       138     0     7     1    18
  6.7956890471230147E-01 a       139     0     7     1    19
 -6.6478492839642633E-01 a       140     0     7     1    20
  5.6282617962151527E-01 a       141     0     8     1     1
 -1.3941444632101693E-01 a       142     0     8     1     2
 -4.9103982498464083E-01 a       143     0     8     1     3
 -6.2942194911259075E-01 a       144     0     8     1     4
 -3.4808936677722280E-02 a       145     0     8     1     5
  1.8644270933282217E-01 a       146     0     8     1     6
 -5.0391127380043393E-02 a       147     0     8     1     7
 -4.0680178001959488E-01 a       148     0     8     1     8
 -3.1003250324172477E-01 a       149     0     8     1     9
 -2.9984146383493732E-01 a       150     0     8     1    10
  2.3724710084754572E-01 a       151     0     8     1    11
  1.2100962838409124E+00 a       152     0     8     1    12
 -8.5820610114773554E-01 a       153     0     8     1    13
 -3.5488225060571105E-01 a       154     0     8     1    14
  8.4621915382456103E-01 a       155     0     8     1    15
 -3.4982400947354758E-01 a       156     0     8     1    16
  5.3697992561965191E-01 a       157     0     8     1    17
 -3.0505540616026372E-01 a       158     0     8     1    18
  3.1970275566404432E-01 a       159     0     8     1    19
 -6.7402226809417198E-01 a       160     0     8     1    20
 -8.9721973182704995E-01 a       161     0     9     1     1
  1.6173984119865459E-01 a       162     0     9     1     2
  4.1608884569142240E-01 a       163     0     9     1     3
  2.7141124441905551E-01 a       164     0     9     1     4
 -4.2120559080173747E-01 a       165     0     9     1     5
 -6.7719109068403935E-02 a       166     0     9     1     6
 -9.1991035325231518E-01 a       167     0     9     1     7
  6.4331750918321795E-01 a       168     0     9     1     8
  6.9428154394499630E-01 a       169     0     9     1     9
  4.5951219939670562E-01 a       170     0     9     1    10
 -6.7991839538748433E-02 a       171     0     9     1    11
  3.1141142326147381E-01 a       172     0     9     1    12
 -1.6996065980377326E-01 a       173     0     9     1    13
  1.6327478265749162E-01 a       174     0     9     1    14
 -5.4431018649706409E-01 a       175     0     9     1    15
  2.6915448964224609E-01 a       176     0     9     1    16
  8.3442656666230519E-03 a       177     0     9     1    17
 -9.7753352879494146E-02 a       178     0     9     1    18
  4.0903488463956618E-02 a       179     0     9     1    19
  4.2250922112364780E-01 a       180     0     9     1    20
 -7.2332476845005045E-02 a       181     0    10     1     1
 -6.6789983705957812E-01 a       182     0    10     1     2
  1.1724631248548512E-01 a       183     0    10     1     3
 -2.9723879276220455E-01 a       184     0    10     1     4
 -5.7667627140614042E-01 a       185     0    10     1     5
  1.8454068682000829E-01 a       186     0    10     1     6
  2.0148036461126873E-01 a       187     0    10     1     7
 -1.6803756400885436E-01 a       188     0    10     1     8
 -3.2208982661103724E-01 a       189     0    10     1     9
  2.2260721830867003E-01 a       190     0    10     1    10
 -3.7541577789452468E-02 a       191     0    10     1    11
 -8.2601549100080607E-01 a       192     0    10     1    12
  7.3797098692868490E-02 a       193     0    10     1    13
  9.7107405078670039E-01 a       194     0    10     1    14
 -5.1012804658961652E-01 a       195     0    10     1    15
  3.4702774540231729E-01 a       196     0    10     1    16
 -4.3098886763898858E-01 a       197     0    10     1    17
 -2.9780548782981237E-01 a       198     0    10     1    18
 -7.5301976899296186E-01 a       199     0    10     1    19
 -1.7217557947959436E-01 a       200     0    10     1    20
 -3.0206299251643343E-01 a       201     0    11     1     1
 -6.0635556589701178E-01 a       202     0    11     1     2
 -2.5001073572212601E-01 a       203     0    11     1     3
 -2.5355489390747749E-01 a       204     0    11     1     4
 -7.9823509100039963E-02 a       205     0    11     1     5
 -8.3785367823371337E-01 a       206     0    11     1     6
  3.1034984205982014E-01 a       207     0    11     1     7
  2.9924794480605288E-01 a       208     0    11     1     8
  8.0073853445673582E-02 a       209     0    11     1     9
  2.0696355802242969E-01 a       210     0    11     1    10
 -7.1792223757911533E-01 a       211     0    11     1    11
 -3.3137223813307498E-01 a       212     0    11     1    12
  8.8514602111727414E-01 a       213     0    11     1    13
 -4.2810711661502487E-01 a       214     0    11     1    14
  4.5719707155038614E-01 a       215     0    11     1    15
 -4.5515440286980946E-01 a       216     0    11     1    16
  1.6483625582674261E-01 a       217     0    11     1    17
  5.6739658454837694E-01 a       218     0    11     1    18
  1.2935200869277624E-01 a       219     0    11     1    19
 -4.3059202338610247E-01 a       220     0    11     1    20
  1.9806196200519616E-01 a       221     0    12     1     1
  6.3271308762318831E-02 a       222     0    12     1     2
 -5.3448489467712168E-01 a       223     0    12     1     3
 -8.3895778219413047E-02 a       224     0    12     1     4
  6.3711284298321325E-01 a       225     0    12     1     5
 -5.6793978238426923E-01 a       226     0    12     1     6
  3.9733556940576725E-01 a       227     0    12     1     7
  1.5453903739830232E-02 a       228     0    12     1     8
  2.1828041714471469E-01 a       229     0    12     1     9
 -1.1285691858173581E+00 a       230     0    12     1    10
  7.5180138352946291E-01 a       231     0    12     1    11
 -7.2739570815279886E-01 a       232     0    12     1    12
 -5.8377523162304579E-01 a       233     0    12     1    13
 -3.5169535739375557E-01 a       234     0    12     1    14
 -4.7962888913574303E-01 a       235     0    12     1    15
  2.8914023504534442E-01 a       236     0    12     1    16
 -1.1752562399167839E-02 a       237     0    12     1    17
 -1.2030990125774643E-01 a       238     0    12     1    18
  6.1614567487340666E-01 a       239     0    12     1    19
 -1.1461158268070985E-01 a       240     0    12     1    20
  8.6129773412309527E-02 a       241     0    13     1     1
 -1.2658193431036058E-01 a       242     0    13     1     2
  3.0461958092076047E-01 a       243     0    13     1     3
  4.1598606635815993E-01 a       244     0    13     1     4
  4.1198034394087629E-01 a       245     0    13     1     5
  3.9948045283240763E-01 a       246     0    13     1     6
 -1.2300393579417238E-01 a       247     0    13     1     7
  3.2532289693522470E-01 a       248     0    13     1     8
  1.9228232060059344E-01 a       249     0    13     1     9
 -4.0182735143816023E-01 a       250     0    13     1    10
 -2.0879131100399231E-01 a       251     0    13     1    11
  2.9325860467304848E-01 a       252     0    13     1    12
  7.2250104806845475E-02 a       253     0    13     1    13
 -3.5863270549559362E-01 a       254     0    13     1    14
  1.0367623164602666E-01 a       255     0    13     1    15
  5.8879287330619701E-02 a       256     0    13     1    16
  7.5628138341069004E-02 a       257     0    13     1    17
 -3.8379633344133340E-01 a       258     0    13     1    18
  3.1647689953326209E-02 a       259     0    13     1    19
  3.2330578784073866E-01 a       260     0    13     1    20
  5.0626710937039639E-02 a       261     0    14     1     1
 -1.6831169003600091E-01 a       262     0    14     1     2
 -4.4234172098732505E-01 a       263     0    14     1     3
  9.3303093831364634E-02 a       264     0    14     1     4
 -1.3192731951566855E-01 a       265     0    14     1     5
 -3.7667672871559515E-01 a       266     0    14     1     6
  3.9502427753537246E-02 a       267     0    14     1     7
  1.1957733870597970E-01 a       268     0    14     1     8
 -1.4383142532857157E-01 a       269     0    14     1     9
  1.3562609286217805E-01 a       270     0    14     1    10
 -8.7517491967092809E-01 a       271     0    14     1    11
 -3.1869760307319328E-01 a       272     0    14     1    12
  1.4918381900743177E-01 a       273     0    14     1    13
 -4.9787145372647645E-01 a       274     0    14     1    14
  4.6282657191537030E-01 a       275     0    14     1    15
 -5.9267168936116144E-01 a       276     0    14     1    16
 -1.5426161119689968E-01 a       277     0    14     1    17
 -1.1762668663429711E-01 a       278     0    14     1    18
 -1.6173047716453856E-01 a       279     0    14     1    19
 -4.1143586489625211E-01 a       280     0    14     1    20
 -1.6846403562885123E-01 b       281     1     1
  5.8811577629446898E-01 b       282     1     2
  1.0044324610643418E-01 b       283     1     3
 -1.0620328606495104E+00 b       284     1     4
 -1.3885925109500418E-02 b       285     1     5
 -1.0277980987270123E+00 b       286     1     6
  2.1161724646661148E-01 b       287     1     7
 -9.5492360425248102E-01 b       288     1     8
 -1.5735305499795325E+00 b       289     1     9
 -1.6205739325890889E-01 b       290     1    10
 -9.4923413008209112E-01 b       291     1    11
  1.5709913039541417E+00 b       292     1    12
 -1.4646851154528424E+00 b       293     1    13
  3.0196975684622357E-01 b       294     1    14
 -4.8937891406132444E-01 b       295     1    15
  1.1549975656612088E+00 b       296     1    16
 -6.8915314509172021E-01 b       297     1    17
  9.4652268942411533E-01 b       298     1    18
 -4.2136005408060911E-01 b       299     1    19
 -1.6712080781132890E+00 b       300     1    20
  1.1207677032529863E-01 a       301     1     1     2     1
 -2.3019424492680596E-01 a       302     1     1     2     2
 -2.9124796196501523E-01 a       303     1     1     2     3
  9.1246773525903449E-02 a       304     1     1     2     4
  2.1919660988982567E-01 a       305     1     1     2     5
 -5.6932156352651031E-02 a       306     1     1     2     6
 -3.5868784465690373E-01 a       307     1     1     2     7
  7.0621519684704281E-01 a       308     1     1     2     8
  5.1510681485656618E-01 a       309     1     1     2     9
  2.7239362182722920E-01 a       310     1     1     2    10
 -2.3065390542391307E-02 a       311     1     1     2    11
 -2.9928246030005778E-01 a       312     1     1     2    12
 -3.2152474803427283E-01 a       313     1     1     2    13
 -7.5271154104569860E-01 a       314     1     1     2    14
  7.3661646845049966E-01 a       315     1     1     2    15
 -7.4730981930936247E-01 a       316     1     1     2    16
 -1.0640975278197941E-01 a       317     1     1     2    17
  4.2109831597919983E-01 a       318     1     1     2    18
  2.3787835009115399E-01 a       319     1     1     2    19
  1.2236184260945088E-01 a       320     1     1     2    20
 -3.1933820604527102E-01 a       321     1     2     2     1
 -8.7792678869000385E-02 a       322     1     2     2     2
  3.6287483201164661E-01 a       323     1     2     2     3
 -5.0371417449064995E-03 a       324     1     2     2     4
 -3.3941750285227440E-01 a       325     1     2     2     5
  4.8717938719507542E-01 a       326     1     2     2     6
  5.8526287996355253E-01 a       327     1     2     2     7
 -6.6436479220662714E-01 a       328     1     2     2     8
 -2.7212355837107799E-01 a       329     1     2     2     9
  2.3566071215272888E-01 a       330     1     2     2    10
 -2.7610918021795378E-01 a       331     1     2     2    11
 -4.4032840433859205E-01 a       332     1     2     2    12
  6.8233238128383800E-01 a       333     1     2     2    13
  5.4596760661545438E-02 a       334     1     2     2    14
 -3.8975779768578779E-02 a       335     1     2     2    15
  3.2793540697433052E-02 a       336     1     2     2    16
  1.7211699982333691E-02 a       337     1     2     2    17
  3.4593833186971304E-02 a       338     1     2     2    18
  6.4078074368227811E-01 a       339     1     2     2    19
 -2.6872847821639489E-01 a       340     1     2     2    20
 -2.4756559824522717E-01 a       341     1     3     2     1
  4.9011562864047881E-01 a       342     1     3     2     2
  4.4848762993438085E-01 a       343     1     3     2     3
  3.8699418125215451E-01 a       344     1     3     2     4
  9.5112217204911875E-01 a       345     1     3     2     5
  2.1642352489481800E-01 a       346     1     3     2     6
 -1.8385560644091295E-01 a       347     1     3     2     7
 -4.4038841008426027E-01 a       348     1     3     2     8
 -3.3348993338937810E-01 a       349     1     3     2     9
  2.4901785917230151E-01 a       350     1     3     2    10
  3.0242746199976345E-01 a       351     1     3     2    11
 -4.9197171469874168E-01 a       352     1     3     2    12
  8.6042591144259994E-01 a       353     1     3     2    13
 -3.8815346058488809E-01 a       354     1     3     2    14
 -6.0523427528908630E-02 a       355     1     3     2    15
 -4.4720362059234248E-01 a       356     1     3     2    16
 -2.6182492404584062E-01 a       357     1     3     2    17
  6.4860718275522755E-01 a       358     1     3     2    18
  6.8538193883817641E-02 a       359     1     3     2    19
  3.2413108369295840E-01 a       360     1     3     2    20
  2.5438804523039810E-01 a       361     1     4     2     1
 -1.5328912714321280E-01 a       362     1     4     2     2
  4.1291346390846834E-01 a       363     1     4     2     3
 -7.1176764684584792E-01 a       364     1     4     2     4
  4.1484246877232450E-01 a       365     1     4     2     5
  8.0851221261585185E-02 a       366     1     4     2     6
  6.5474610850616977E-01 a       367     1     4     2     7
  6.9887872742629265E-01 a       368     1     4     2     8
 -5.5431315998328778E-01 a       369     1     4     2     9
 -5.5404313974689534E-01 a       370     1     4     2    10
  5.1253636139923442E-01 a       371     1     4     2    11
 -6.7366361536084607E-02 a       372     1     4     2    12
 -3.1889131954816408E-01 a       373     1     4     2    13
 -4.1922843633059298E-01 a       374     1     4     2    14
 -3.2024527119791993E-02 a       375     1     4     2    15
 -6.7321739155052171E-02 a       376     1     4     2    16
  1.0341871883068754E-01 a       377     1     4     2    17
  3.8810625468641208E-01 a       378     1     4     2    18
  1.3829793459971929E-01 a       379     1     4     2    19
  6.5791675842759212E-01 a       380     1     4     2    20
  1.8403558025034453E-01 a       381     1     5     2     1
 -2.4394931228439595E-01 a       382     1     5     2     2
  5.6865400027882995E-01 a       383     1     5     2     3
  1.1862446096506540E-01 a       384     1     5     2     4
 -7.5631691865109596E-02 a       385     1     5     2     5
 -6.1014099801707793E-02 a       386     1     5     2     6
 -4.3598548640178136E-01 a       387     1     5     2     7
  1.7231490972388883E-01 a       388     1     5     2     8
 -4.8006068614137809E-01 a       389     1     5     2     9
 -7.9189446747757852E-01 a       390     1     5     2    10
 -5.0807462997830288E-01 a       391     1     5     2    11
  1.9135983830794462E-01 a       392     1     5     2    12
 -7.0827551527099630E-01 a       393     1     5     2    13
  2.1197933022357096E-01 a       394     1     5     2    14
  3.3796598272195111E-01 a       395     1     5     2    15
 -8.6287986192623026E-02 a       396     1     5     2    16
  4.4880622857041624E-01 a       397     1     5     2    17
 -6.1907807737729625E-01 a       398     1     5     2    18
 -7.6569944767151488E-01 a       399     1     5     2    19
 -4.3195155970649451E-01 a       400     1     5     2    20
  7.3338372793183992E-01 a       401     1     6     2     1
  1.8386556561177853E-01 a       402     1     6     2     2
 -4.4008560690412013E-01 a       403     1     6     2     3
 -5.2808615535287762E-01 a       404     1     6     2     4
 -5.5994075426595005E-03 a       405     1     6     2     5
 -4.9909273209495503E-01 a       406     1     6     2     6
 -5.3516247330381084E-01 a       407     1     6     2     7
 -4.3269026518813730E-02 a       408     1     6     2     8
 -2.8133890884648960E-01 a       409     1     6     2     9
  4.0553217846572995E-02 a       410     1     6     2    10
  5.7916073142353364E-01 a       411     1     6     2    11
  9.5483085011023955E-02 a       412     1     6     2    12
  8.2865691876628872E-02 a       413     1     6     2    13
  1.8633654129206370E-01 a       414     1     6     2    14
 -3.2635938061492126E-01 a       415     1     6     2    15
  4.1229346763819178E-05 a       416     1     6     2    16
  4.2767500071251890E-01 a       417     1     6     2    17
 -5.2056050311228041E-01 a       418     1     6     2    18
  5.4200833721941977E-01 a       419     1     6     2    19
 -5.0921653958721369E-01 a       420     1     6     2    20
  3.4948056832717089E-01 a       421     1     7     2     1
 -6.2164380598403936E-02 a       422     1     7     2     2
  6.4527716094041809E-01 a       423     1     7     2     3
  3.4039860043783110E-01 a       424     1     7     2     4
  8.7854236143690223E-01 a       425     1     7     2     5
 -3.3428512391035242E-01 a       426     1     7     2     6
  6.7968196413086890E-01 a       427     1     7     2     7
  5.0435212295774835E-02 a       428     1     7     2     8
 -4.6404637108879915E-01 a       429     1     7     2     9
  3.5072852178817515E-01 a       430     1     7     2    10
  3.8672932284215217E-01 a       431     1     7     2    11
  3.5306583080025583E-01 a       432     1     7     2    12
  5.1796005836715420E-01 a       433     1     7     2    13
 -7.5690729262811479E-02 a       434     1     7     2    14
 -8.7846891814056516E-01 a       435     1     7     2    15
  7.5372503878273586E-02 a       436     1     7     2    16
  4.9347874798078076E-03 a       437     1     7     2    17
  8.6106612880759589E-02 a       438     1     7     2    18
  5.5547104072929743E-01 a       439     1     7     2    19
  3.9524064813796660E-02 a       440     1     7     2    20
  2.8306072378078456E-01 a       441     1     8     2     1
 -7.0971458233177229E-02 a       442     1     8     2     2
  1.5264987828915530E-01 a       443     1     8     2     3
 -6.8665228923774990E-01 a       444     1     8     2     4
 -7.0048442794748411E-01 a       445     1     8     2     5
  2.7267061141756127E-01 a       446     1     8     2     6
  2.7782958491241622E-01 a       447     1     8     2     7
 -3.8546557758131400E-01 a       448     1     8     2     8
  1.8603835756734294E-01 a       449     1     8     2     9
 -3.6935148824338310E-03 a       450     1     8     2    10
 -4.5170262358084479E-01 a       451     1     8     2    11
  5.2763504127968194E-02 a       452     1     8     2    12
  3.3805480232604146E-01 a       453     1     8     2    13
  4.6125404045247863E-02 a       454     1     8     2    14
  7.5143275357475196E-03 a       455     1     8     2    15
 -1.4722842006034947E-01 a       456     1     8     2    16
 -4.8070066820213131E-01 a       457     1     8     2    17
 -9.7282234887110811E-02 a       458     1     8     2    18
 -5.5218670601146058E-01 a       459     1     8     2    19
  2.8805411316707075E-01 a       460     1     8     2    20
 -1.4358677060137634E-01 a       461     1     9     2     1
 -4.5333974010145654E-02 a       462     1     9     2     2
  1.2939264161664582E-02 a       463     1     9     2     3
  2.3114674689053225E-01 a       464     1     9     2     4
 -2.4940254208175675E-01 a       465     1     9     2     5
 -2.7026011412051776E-01 a       466     1     9     2     6
 -4.8287828163987528E-01 a       467     1     9     2     7
 -1.3860141745367119E-01 a       468     1     9     2     8
 -3.0683621036266667E-01 a       469     1     9     2     9
 -2.4860718373610730E-01 a       470     1     9     2    10
 -2.0679271266703722E-01 a       471     1     9     2    11
  9.7160782073500138E-02 a       472     1     9     2    12
 -5.6386110161389991E-01 a       473     1     9     2    13
  5.7879577999847692E-02 a       474     1     9     2    14
 -4.4612564638177182E-01 a       475     1     9     2    15
 -6.6439409482211909E-01 a       476     1     9     2    16
  3.3543140903112847E-02 a       477     1     9     2    17
 -2.8121673958013582E-01 a       478     1     9     2    18
 -1.4240818989118139E-03 a       479     1     9     2    19
 -2.0281141496448710E-01 a       480     1     9     2    20
  1.7483564750272240E-02 a       481     1    10     2     1
 -1.3523177575422279E-01 a       482     1    10     2     2
  5.9899715590414571E-01 a       483     1    10     2     3
  3.1043027868205114E-01 a       484     1    10     2     4
 -2.4333103814416585E-02 a       485     1    10     2     5
 -2.7962228676683101E-02 a       486     1    10     2     6
  2.9704687606339203E-01 a       487     1    10     2     7
 -1.2921718116487307E-01 a       488     1    10     2     8
 -7.3887642173788085E-02 a       489     1    10     2     9
  4.0039631802528319E-01 a       490     1    10     2    10
 -4.9934889783477399E-01 a       491     1    10     2    11
 -5.4599054556456350E-01 a       492     1    10     2    12
 -2.1753461815830938E-01 a       493     1    10     2    13
 -7.7143650149564336E-01 a       494     1    10     2    14
  1.5147465451591782E-01 a       495     1    10     2    15
 -3.0316025036288130E-01 a       496     1    10     2    16
  3.4647453300911785E-01 a       497     1    10     2    17
  1.5773309477338981E-01 a       498     1    10     2    18
  4.7814401075550522E-01 a       499     1    10     2    19
  2.2199697432614865E-01 a       500     1    10     2    20
 -5.3070349576889153E-01 a       501     1    11     2     1
  3.0338638248976774E-01 a       502     1    11     2     2
 -2.7698487332002458E-01 a       503     1    11     2     3
  6.1863978049410839E-01 a       504     1    11     2     4
 -4.2735964700852996E-01 a       505     1    11     2     5
 -2.7120165711142685E-01 a       506     1    11     2     6
  2.4650476641358091E-01 a       507     1    11     2     7
 -5.3826045993206331E-03 a       508     1    11     2     8
 -1.6231499701640784E-01 a       509     1    11     2     9
 -9.0540038837967962E-01 a       510     1    11     2    10
  3.4590532915072542E-01 a       511     1    11     2    11
 -5.1182754153925047E-01 a       512     1    11     2    12
 -2.4053013076604582E-01 a       513     1    11     2    13
 -1.0042173524677797E-01 a       514     1    11     2    14
 -8.9389474559006518E-02 a       515     1    11     2    15
 -3.9298021400432931E-01 a       516     1    11     2    16
  6.6307628729195478E-01 a       517     1    11     2    17
  3.2600368482571923E-01 a       518     1    11     2    18
 -1.6545884148768625E-01 a       519     1    11     2    19
 -3.0811476121607789E-01 a       520     1    11     2    20
 -3.1729602497129483E-01 a       521     1    12     2     1
  2.3327332968908085E-01 a       522     1    12     2     2
  4.7722982468931685E-01 a       523     1    12     2     3
  5.1533870819522390E-02 a       524     1    12     2     4
  2.8566505673972731E-01 a       525     1    12     2     5
 -5.3196839214008707E-01 a       526     1    12     2     6
  1.4537982812737216E-02 a       527     1    12     2     7
 -2.7099059908262341E-01 a       528     1    12     2     8
  3.8384710189305116E-01 a       529     1    12     2     9
  4.0726862483897402E-01 a       530     1    12     2    10
 -5.0977817803877512E-01 a       531     1    12     2    11
 -2.1170839758044063E-01 a       532     1    12     2    12
 -1.2351326706866939E+00 a       533     1    12     2    13
 -5.9930576192584795E-02 a       534     1    12     2    14
 -7.0322512502642917E-02 a       535     1    12     2    15
  2.3967636514438576E-01 a       536     1    12     2    16
  3.6899618395493133E-01 a       537     1    12     2    17
 -6.7887079469800782E-01 a       538     1    12     2    18
 -1.1994321253202403E-01 a       539     1    12     2    19
 -2.0950151027216518E-01 a       540     1    12     2    20
 -3.5147007414962783E-01 a       541     1    13     2     1
 -2.8331841691845605E-01 a       542     1    13     2     2
 -4.2983800902253849E-01 a       543     1    13     2     3
 -5.7990620443288066E-01 a       544     1    13     2     4
  6.3753611210902918E-03 a       545     1    13     2     5
 -6.9127953116046936E-01 a       546     1    13     2     6
  3.9591672266609296E-01 a       547     1    13     2     7
 -1.3810478019735853E-01 a       548     1    13     2     8
 -4.8812621415211754E-01 a       549     1    13     2     9
  8.2274295550027576E-01 a       550     1    13     2    10
 -5.3692243187763822E-01 a       551     1    13     2    11
  2.9852649209643306E-01 a       552     1    13     2    12
  1.2894174109608242E-01 a       553     1    13     2    13
 -3.5824546803353313E-01 a       554     1    13     2    14
  3.1428559454254862E-01 a       555     1    13     2    15
  2.3526805018515243E-01 a       556     1    13     2    16
 -9.0452527704443075E-01 a       557     1    13     2    17
 -3.9873042080438925E-01 a       558     1    13     2    18
 -3.5394900322313572E-01 a       559     1    13     2    19
 -3.1876454705772017E-01 a       560     1    13     2    20
 -4.7740104429473329E-01 a       561     1    14     2     1
 -2.1430216575339855E-01 a       562     1    14     2     2
 -7.8932852002416076E-01 a       563     1    14     2     3
 -1.2769340920385444E-01 a       564     1    14     2     4
  2.6486259127146461E-01 a       565     1    14     2     5
 -1.9056932312081673E-01 a       566     1    14     2     6
 -1.8387225367947260E-01 a       567     1    14     2     7
  2.8625893702978050E-01 a       568     1    14     2     8
 -4.0645370056538815E-01 a       569     1    14     2     9
 -2.7320878921343072E-01 a       570     1    14     2    10
 -5.1318671931047377E-01 a       571     1    14     2    11
  1.8691683888875102E-01 a       572     1    14     2    12
 -4.7817069145684898E-01 a       573     1    14     2    13
  2.7668895233971869E-01 a       574     1    14     2    14
  4.7451259057994100E-01 a       575     1    14     2    15
 -1.7845089521802943E-02 a       576     1    14     2    16
  1.9658972562966920E-01 a       577     1    14     2    17
 -4.9939102712890499E-01 a       578     1    14     2    18
 -3.5535855279858097E-01 a       579     1    14     2    19
 -2.9148758809744563E-01 a       580     1    14     2    20
  1.9630155929884131E-02 a       581     1    15     2     1
 -5.8742043378889175E-01 a       582     1    15     2     2
 -5.3100328100980798E-01 a       583     1    15     2     3
  2.4160159698585637E-01 a       584     1    15     2     4
 -1.2414656364456907E-01 a       585     1    15     2     5
 -1.4909292938857258E-01 a       586     1    15     2     6
  5.4795507735128302E-01 a       587     1    15     2     7
  3.5510407961841234E-01 a       588     1    15     2     8
 -3.0303903090894324E-01 a       589     1    15     2     9
 -5.0311632391081351E-01 a       590     1    15     2    10
  1.5381528740682349E-01 a       591     1    15     2    11
 -5.3165006145406413E-01 a       592     1    15     2    12
  2.4264132670338265E-01 a       593     1    15     2    13
  8.1044417691907164E-02 a       594     1    15     2    14
 -4.1693596379981274E-01 a       595     1    15     2    15
  4.0038722876878974E-01 a       596     1    15     2    16
  5.3204352466959459E-01 a       597     1    15     2    17
 -4.5227948440097684E-02 a       598     1    15     2    18
  1.0429398824438203E-01 a       599     1    15     2    19
 -6.5637544840989090E-02 a       600     1    15     2    20
 -1.6032468241696335E-01 a       601     1    16     2     1
  2.6898952431098472E-01 a       602     1    16     2     2
  1.8966377761388979E-02 a       603     1    16     2     3
 -5.0503409619809159E-01 a       604     1    16     2     4
  3.3397963634968408E-01 a       605     1    16     2     5
 -3.6536997029765206E-01 a       606     1    16     2     6
  8.9400330092562696E-01 a       607     1    16     2     7
  3.3112237794391175E-01 a       608     1    16     2     8
  2.5912495544811653E-01 a       609     1    16     2     9
  2.8393497875390572E-01 a       610     1    16     2    10
 -2.2854238932262505E-01 a       611     1    16     2    11
  3.6614682763436962E-01 a       612     1    16     2    12
 -5.4233920943529457E-01 a       613     1    16     2    13
 -5.5143092614545197E-01 a       614     1    16     2    14
 -3.4510280188096326E-01 a       615     1    16     2    15
 -4.6758620460998809E-02 a       616     1    16     2    16
 -1.7297289297663765E-01 a       617     1    16     2    17
  5.0949269736127001E-01 a       618     1    16     2    18
 -1.1627188639435827E-01 a       619     1    16     2    19
 -2.2438886753516299E-01 a       620     1    16     2    20
  5.0529080746533828E-01 a       621     1    17     2     1
 -4.2196583074449528E-01 a       622     1    17     2     2
 -2.1331812124649932E-01 a       623     1    17     2     3
 -1.2851054774053883E-01 a       624     1    17     2     4
 -1.3883833046922767E-01 a       625     1    17     2     5
  4.7741098919537261E-01 a       626     1    17     2     6
  2.6388607553027377E-01 a       627     1    17     2     7
  4.3373268618521338E-01 a       628     1    17     2     8
 -2.2673563892260348E-01 a       629     1    17     2     9
  1.6444401113186363E-01 a       630     1    17     2    10
 -1.1488110805244019E-01 a       631     1    17     2    11
 -4.7956958577362613E-01 a       632     1    17     2    12
  8.1899415607923770E-02 a       633     1    17     2    13
 -6.2458551832287247E-02 a       634     1    17     2    14
  5.4952411206738783E-01 a       635     1    17     2    15
 -6.6637945805151055E-01 a       636     1    17     2    16
 -4.7882509708930363E-02 a       637     1    17     2    17
 -4.6118659956500169E-01 a       638     1    17     2    18
 -2.3693773462427847E-01 a       639     1    17     2    19
  1.8505885742611700E-01 a       640     1    17     2    20
  3.6807425573924452E-01 a       641     1    18     2     1
  2.0056338644339353E-01 a       642     1    18     2     2
 -3.8752221422011124E-01 a       643     1    18     2     3
 -3.7071990213061079E-01 a       644     1    18     2     4
 -1.7211652639907604E-01 a       645     1    18     2     5
 -3.3652510376914885E-01 a       646     1    18     2     6
 -3.9829189489005623E-01 a       647     1    18     2     7
 -1.6132754706264837E-01 a       648     1    18     2     8
 -1.8113042607223048E-01 a       649     1    18     2     9
  2.7938980325882307E-01 a       650     1    18     2    10
  2.0509622967774463E-01 a       651     1    18     2    11
  3.1317578011816000E-01 a       652     1    18     2    12
  4.4836135046276088E-01 a       653     1    18     2    13
 -2.1504978859313356E-01 a       654     1    18     2    14
 -2.6220662602965727E-01 a       655     1    18     2    15
  1.2324572803504667E-01 a       656     1    18     2    16
 -5.6891854528543639E-01 a       657     1    18     2    17
  5.0074288947765022E-01 a       658     1    18     2    18
 -3.6822929912249069E-01 a       659     1    18     2    19
  9.6041788416218202E-02 a       660     1    18     2    20
 -3.2592706451252479E-02 a       661     1    19     2     1
  2.7616098874315476E-01 a       662     1    19     2     2
 -1.7932379727940226E-01 a       663     1    19     2     3
 -5.6874853633915701E-01 a       664     1    19     2     4
 -1.1670487715835315E-01 a       665     1    19     2     5
  5.2219786619990693E-01 a       666     1    19     2     6
 -2.4300297746709634E-01 a       667     1    19     2     7
 -9.4773126786894923E-02 a       668     1    19     2     8
 -5.6220647636473386E-01 a       669     1    19     2     9
  2.0056573952886233E-02 a       670     1    19     2    10
 -6.5244678575073145E-01 a       671     1    19     2    11
 -3.6630103974865708E-01 a       672     1    19     2    12
 -5.2045946019752737E-02 a       673     1    19     2    13
 -1.9586282861623183E-01 a       674     1    19     2    14
 -3.3403317072718187E-02 a       675     1    19     2    15
 -6.1571329040313028E-01 a       676     1    19     2    16
 -1.5455521133254072E-01 a       677     1    19     2    17
 -1.3771622052343901E-01 a       678     1    19     2    18
  3.4535629938832374E-01 a       679     1    19     2    19
 -1.5330440821958277E-01 a       680     1    19     2    20
  2.8571742740998659E-02 a       681     1    20     2     1
  5.8623390077222071E-01 a       682     1    20     2     2
  5.7561249144624349E-02 a       683     1    20     2     3
  2.4507924819105020E-01 a       684     1    20     2     4
 -6.7541359172190785E-01 a       685     1    20     2     5
 -7.5558872460236128E-03 a       686     1    20     2     6
  2.9183136699363937E-02 a       687     1    20     2     7
 -2.8200910035271987E-01 a       688     1    20     2     8
 -1.7703060207689519E-01 a       689     1    20     2     9
  6.8722347016591967E-02 a       690     1    20     2    10
  1.3719997183975191E-01 a       691     1    20     2    11
  4.0127035084447782E-01 a       692     1    20     2    12
  2.5152015107386444E-01 a       693     1    20     2    13
  3.2068589114730806E-01 a       694     1    20     2    14
  1.2207285342466921E-01 a       695     1    20     2    15
  5.6992882495639396E-01 a       696     1    20     2    16
  5.0934395014655864E-01 a       697     1    20     2    17
 -6.5092636319051056E-01 a       698     1    20     2    18
  3.8507908225478027E-01 a       699     1    20     2    19
 -1.8952271762520626E-02 a       700     1    20     2    20
  9.1561458128357354E-01 b       701     2     1
  2.3273015586775517E-01 b       702     2     2
  9.9212438979177053E-01 b       703     2     3
  1.3334914684323673E+00 b       704     2     4
  9.7947929312613602E-01 b       705     2     5
 -1.8935228772278487E-01 b       706     2     6
  1.2445760589208203E+00 b       707     2     7
 -1.3144194708830246E+00 b       708     2     8
  6.8269343597357024E-01 b       709     2     9
 -1.3252946824184526E+00 b       710     2    10
  3.4882987723089370E-01 b       711     2    11
  1.0891320270075430E-01 b       712     2    12
 -1.2856297204602345E+00 b       713     2    13
 -1.6699876024020348E+00 b       714     2    14
 -1.1169014723629405E+00 b       715     2    15
  1.2510132457183432E+00 b       716     2    16
  2.8482533532287517E-02 b       717     2    17
  1.1191158512307052E-01 b       718     2    18
  3.6354918014790011E-01 b       719     2    19
  8.9764319434642026E-01 b       720     2    20
  3.2889589647181305E-02 a       721     2     1     3     1
  3.3215142460685454E-01 a       722     2     2     3     1
 -2.5510925582617527E-01 a       723     2     3     3     1
  8.6294268081427361E-01 a       724     2     4     3     1
 -4.4609537093152124E-01 a       725     2     5     3     1
 -5.6557232884985786E-01 a       726     2     6     3     1
 -7.1322200518134582E-01 a       727     2     7     3     1
  7.6818745187211279E-01 a       728     2     8     3     1
  4.8027192257897450E-01 a       729     2     9     3     1
 -5.5784008288689579E-01 a       730     2    10     3     1
 -4.4117089530062648E-01 a       731     2    11     3     1
 -1.6754935456272893E-01 a       732     2    12     3     1
  5.6753191764234379E-01 a       733     2    13     3     1
  5.9497706960708985E-01 a       734     2    14     3     1
 -3.8125298316764206E-01 a       735     2    15     3     1
  3.5151415358806454E-01 a       736     2    16     3     1
 -4.1124679036912953E-01 a       737     2    17     3     1
 -1.3194397503526758E+00 a       738     2    18     3     1
  4.3677020610778283E-01 a       739     2    19     3     1
  6.9510412160240909E-01 a       740     2    20     3     1
  5.4197605393017467E-01 b       741     3     1
