################################################################################
# Neural network connection values (weights and biases).
################################################################################
# Col  Name       Description
################################################################################
# 1    connection Neural network connection value.
# 2    t          Connection type (a = weight, b = bias).
# 3    index      Index enumerating weights.
# 4    l_s        Starting point layer (end point layer for biases).
# 5    n_s        Starting point neuron in starting layer (end point neuron for biases).
# 6    l_e        End point layer.
# 7    n_e        End point neuron in end layer.
################################################################################
#                      1 2         3     4     5     6     7
#             connection t     index   l_s   n_s   l_e   n_e
############################################################
  4.6749980724231432E-01 a         1     0     1     1     1
 -1.8197741841198431E-01 a         2     0     1     1     2
  3.5744039885205625E-01 a         3     0     1     1     3
  5.8505050437497730E-01 a         4     0     1     1     4
 -5.8199029863987028E-01 a         5     0     1     1     5
  2.6212317565943133E-01 a         6     0     1     1     6
  6.0845986197765545E-01 a         7     0     1     1     7
  1.8620464488190663E-01 a         8     0     1     1     8
  2.8638779946578963E-01 a         9     0     1     1     9
  4.8212501773658167E-01 a        10     0     1     1    10
 -2.0028480747583149E-01 a        11     0     1     1    11
 -4.3592787485455631E-01 a        12     0     1     1    12
  5.3150621217393701E-01 a        13     0     1     1    13
 -6.9139660318798890E-01 a        14     0     1     1    14
 -4.9270966102381641E-01 a        15     0     1     1    15
 -5.9718135773060943E-01 a        16     0     1     1    16
 -4.2680004407701017E-01 a        17     0     1     1    17
 -4.3633201895695417E-02 a        18     0     1     1    18
 -4.7604473208085962E-01 a        19     0     1     1    19
 -7.5476861566214692E-02 a        20     0     1     1    20
  5.9779337492416995E-01 a        21     0     2     1     1
 -2.9978864673452899E-01 a        22     0     2     1     2
  5.3356688776455830E-01 a        23     0     2     1     3
 -4.5175808473208695E-01 a        24     0     2     1     4
  5.1715573589174668E-01 a        25     0     2     1     5
  1.1048357640928642E-01 a        26     0     2     1     6
 -4.2929573085818956E-01 a        27     0     2     1     7
  3.1438315539291645E-01 a        28     0     2     1     8
 -5.3385570335958710E-01 a        29     0     2     1     9
 -5.0342322322523092E-01 a        30     0     2     1    10
  6.7208070442448309E-01 a        31     0     2     1    11
  2.2013515719235416E-01 a        32     0     2     1    12
  4.5819016764923920E-01 a        33     0     2     1    13
  6.5335717923797920E-01 a        34     0     2     1    14
 -4.5705558452786321E-01 a        35     0     2     1    15
  6.3614423028576084E-01 a        36     0     2     1    16
  3.4155850480446553E-01 a        37     0     2     1    17
  4.9725517693044718E-01 a        38     0     2     1    18
  6.5267730448892181E-01 a        39     0     2     1    19
  6.1193045238118443E-02 a        40     0     2     1    20
 -2.6157626534195233E-01 a        41     0     3     1     1
 -4.3001255551116113E-01 a        42     0     3     1     2
 -1.4982132163472528E-01 a        43     0     3     1     3
  4.7297269257932995E-01 a        44     0     3     1     4
 -9.4558729199421390E-02 a        45     0     3     1     5
  2.9046666428009649E-01 a        46     0     3     1     6
 -7.4284339091726292E-01 a        47     0     3     1     7
 -3.6018216007256221E-01 a        48     0     3     1     8
  6.8604958883392897E-01 a        49     0     3     1     9
 -4.2973004843782819E-01 a        50     0     3     1    10
 -3.6429369009368516E-02 a        51     0     3     1    11
  1.0579259134306154E-01 a        52     0     3     1    12
 -3.9199876651004345E-01 a        53     0     3     1    13
 -5.6797744416622931E-01 a        54     0     3     1    14
 -5.1773819539004640E-01 a        55     0     3     1    15
  9.6336779274607695E-02 a        56     0     3     1    16
  2.8900348771567552E-01 a        57     0     3     1    17
 -5.3462692766261821E-01 a        58     0     3     1    18
 -5.2433845464124618E-01 a        59     0     3     1    19
  3.6514987730162835E-01 a        60     0     3     1    20
 -1.2162645510160167E-01 a        61     0     4     1     1
  9.2794378376818121E-01 a        62     0     4     1     2
 -5.3940567481585588E-01 a        63     0     4     1     3
  2.1487655464731459E-01 a        64     0     4     1     4
  5.2106527288398341E-01 a        65     0     4     1     5
  8.7414019170202376E-02 a        66     0     4     1     6
  8.5076252483916881E-01 a        67     0     4     1     7
 -1.1877595348932883E-01 a        68     0     4     1     8
  3.2103464666860232E-01 a        69     0     4     1     9
  5.7737244722851122E-01 a        70     0     4     1    10
 -4.3492993861519828E-02 a        71     0     4     1    11
  4.5995107274998132E-01 a        72     0     4     1    12
  3.4559999167260180E-01 a        73     0     4     1    13
  1.4750669554131068E-01 a        74     0     4     1    14
  2.0891734770284925E-01 a        75     0     4     1    15
  4.4903417467345935E-01 a        76     0     4     1    16
 -6.0935410384635691E-01 a        77     0     4     1    17
  4.4085240712861753E-02 a        78     0     4     1    18
 -1.6265586200249954E-01 a        79     0     4     1    19
  7.9777916640079077E-02 a        80     0     4     1    20
 -4.9897525860366060E-01 a        81     0     5     1     1
  1.5286658971869434E-02 a        82     0     5     1     2
 -4.2123906224026599E-02 a        83     0     5     1     3
  9.4586336106061389E-02 a        84     0     5     1     4
 -2.2864360131305900E-01 a        85     0     5     1     5
  1.1978629965686285E-01 a        86     0     5     1     6
 -1.6639406412397120E-01 a        87     0     5     1     7
  5.6810754639158545E-01 a        88     0     5     1     8
  3.1959267963531018E-01 a        89     0     5     1     9
 -6.1858887310188404E-01 a        90     0     5     1    10
  4.2835330789444515E-01 a        91     0     5     1    11
 -3.9081691296135884E-01 a        92     0     5     1    12
 -4.2514228186998176E-01 a        93     0     5     1    13
  1.4310546522642734E-01 a        94     0     5     1    14
 -4.5525273620360762E-01 a        95     0     5     1    15
 -1.0699742220751306E-01 a        96     0     5     1    16
  1.2234190822146551E-01 a        97     0     5     1    17
  6.9672569634113612E-01 a        98     0     5     1    18
 -6.3894635105231079E-01 a        99     0     5     1    19
 -2.8055656380368904E-01 a       100     0     5     1    20
  4.5694945310940221E-01 a       101     0     6     1     1
 -9.1027621667299030E-01 a       102     0     6     1     2
 -5.5621867733676789E-01 a       103     0     6     1     3
 -2.2654133237364826E-01 a       104     0     6     1     4
 -5.7055045445321972E-01 a       105     0     6     1     5
  4.8248413827842382E-02 a       106     0     6     1     6
 -1.8213590967027158E-02 a       107     0     6     1     7
  2.0286205229411355E-01 a       108     0     6     1     8
 -6.1994987613808683E-01 a       109     0     6     1     9
  8.9959609318838576E-02 a       110     0     6     1    10
  6.6122666585681411E-01 a       111     0     6     1    11
  3.8694680527013976E-02 a       112     0     6     1    12
 -3.6906154799864105E-01 a       113     0     6     1    13
 -2.1038724764493130E-01 a       114     0     6     1    14
  1.4027519825409171E-01 a       115     0     6     1    15
  7.3334544954390812E-01 a       116     0     6     1    16
 -5.8736952500552018E-02 a       117     0     6     1    17
  5.9747739437766156E-01 a       118     0     6     1    18
 -3.5800460739515572E-01 a       119     0     6     1    19
  4.3945078247083691E-01 a       120     0     6     1    20
  1.3800199262033469E-02 a       121     0     7     1     1
 -2.0186651947140041E-01 a       122     0     7     1     2
  6.4011158883798358E-01 a       123     0     7     1     3
 -6.9338645879598215E-01 a       124     0     7     1     4
 -1.9141043796244644E-01 a       125     0     7     1     5
  7.4406506742641909E-01 a       126     0     7     1     6
 -9.9870446832818396E-03 a       127     0     7     1     7
 -1.4808204569392969E-01 a       128     0     7     1     8
  5.8260460490369304E-01 a       129     0     7     1     9
  2.5137022912964463E-01 a       130     0     7     1    10
  4.9658817105949959E-01 a       131     0     7     1    11
 -5.3958731267359394E-01 a       132     0     7     1    12
 -1.7432021955555005E-01 a       133     0     7     1    13
  3.6031932700393204E-01 a       134     0     7     1    14
 -5.5241711966310270E-01 a       135     0     7     1    15
  3.6352916507799399E-01 a       136     0     7     1    16
  5.0037557659689524E-01 a       137     0     7     1    17
  5.3058274487626389E-01 a       138     0     7     1    18
 -2.6990186639748637E-01 a       139     0     7     1    19
  3.9865616242644819E-01 a       140     0     7     1    20
 -5.3266193045239085E-01 a       141     0     8     1     1
  6.0291965486329413E-01 a       142     0     8     1     2
 -2.0012328600008558E-01 a       143     0     8     1     3
  2.4835333940687326E-01 a       144     0     8     1     4
 -1.4287843858154631E-01 a       145     0     8     1     5
 -6.6538482310744629E-01 a       146     0     8     1     6
  2.7451373429605991E-01 a       147     0     8     1     7
  4.5357461527651716E-01 a       148     0     8     1     8
 -7.7128481568876611E-02 a       149     0     8     1     9
  2.7018925984044334E-01 a       150     0     8     1    10
  3.6990631061363416E-01 a       151     0     8     1    11
  7.2835358441836895E-01 a       152     0     8     1    12
  5.0779201076485758E-01 a       153     0     8     1    13
  3.6542078697012220E-01 a       154     0     8     1    14
  4.8346740669086163E-01 a       155     0     8     1    15
  1.5415253501322207E-01 a       156     0     8     1    16
  5.3342288046808828E-01 a       157     0     8     1    17
 -4.1537312596828274E-01 a       158     0     8     1    18
  7.2081687296720209E-02 a       159     0     8     1    19
 -4.4090244175604820E-03 a       160     0     8     1    20
 -3.7727335360941855E-01 a       161     0     9     1     1
 -3.7770553836336918E-01 a       162     0     9     1     2
  3.0138347505537542E-02 a       163     0     9     1     3
 -1.7088796163834452E-01 a       164     0     9     1     4
 -4.3847285482940590E-01 a       165     0     9     1     5
  5.1480153589014266E-01 a       166     0     9     1     6
  1.6622869040148663E-01 a       167     0     9     1     7
 -9.4092006770637185E-02 a       168     0     9     1     8
 -1.1534039398708748E-01 a       169     0     9     1     9
  1.4780573556130772E-01 a       170     0     9     1    10
  2.4311533359631151E-02 a       171     0     9     1    11
 -2.6641921338246322E-01 a       172     0     9     1    12
 -6.2704697693675648E-01 a       173     0     9     1    13
 -1.7196598846247640E-01 a       174     0     9     1    14
  3.0764554674519778E-01 a       175     0     9     1    15
 -5.3798254123444700E-01 a       176     0     9     1    16
  7.8430434264140425E-02 a       177     0     9     1    17
 -4.7201237560013187E-01 a       178     0     9     1    18
 -5.8190503956661122E-01 a       179     0     9     1    19
  9.5756964004981709E-02 a       180     0     9     1    20
  2.8205915698069284E-01 a       181     0    10     1     1
  4.1837265246012328E-01 a       182     0    10     1     2
 -1.9920178788009862E-01 a       183     0    10     1     3
  3.9738725859378765E-01 a       184     0    10     1     4
  2.9541891136070419E-01 a       185     0    10     1     5
 -1.3723169262454957E-01 a       186     0    10     1     6
 -3.7658142411496531E-01 a       187     0    10     1     7
  2.8942644141222956E-01 a       188     0    10     1     8
  6.3726994315703756E-01 a       189     0    10     1     9
 -3.6803715654242208E-01 a       190     0    10     1    10
 -4.5013700949783109E-01 a       191     0    10     1    11
  6.4947937291307278E-01 a       192     0    10     1    12
  4.8496280270295572E-01 a       193     0    10     1    13
 -5.7652238549801539E-02 a       194     0    10     1    14
  3.8834381883537045E-01 a       195     0    10     1    15
  1.7246247074726681E-01 a       196     0    10     1    16
 -6.1906638949015969E-01 a       197     0    10     1    17
  6.1333342299780280E-01 a       198     0    10     1    18
  1.3999558330254180E-01 a       199     0    10     1    19
  2.8000404387672789E-01 a       200     0    10     1    20
  5.3214833344486712E-01 a       201     0    11     1     1
 -1.2969536397472792E-01 a       202     0    11     1     2
 -6.6003906532240503E-02 a       203     0    11     1     3
 -1.5180944368695695E-01 a       204     0    11     1     4
 -5.1033673678099778E-01 a       205     0    11     1     5
 -1.3611204811724062E-01 a       206     0    11     1     6
 -2.0915906517702074E-01 a       207     0    11     1     7
 -1.5678891818991672E-01 a       208     0    11     1     8
 -5.6437052348494809E-01 a       209     0    11     1     9
  3.8323338161670611E-01 a       210     0    11     1    10
 -2.9707032137494110E-01 a       211     0    11     1    11
  3.0285267088765960E-01 a       212     0    11     1    12
  9.9458989994189659E-02 a       213     0    11     1    13
 -8.0916586810824226E-02 a       214     0    11     1    14
  3.3122728572853105E-01 a       215     0    11     1    15
  3.2431467531332725E-01 a       216     0    11     1    16
 -4.6819659302191075E-01 a       217     0    11     1    17
 -1.8025292988910008E-01 a       218     0    11     1    18
  4.7585312679955161E-01 a       219     0    11     1    19
  4.8267095833904011E-01 a       220     0    11     1    20
  3.9134703310340641E-01 a       221     0    12     1     1
  1.2266230866055787E-01 a       222     0    12     1     2
  4.2328911684082499E-01 a       223     0    12     1     3
 -2.0116287710056299E-01 a       224     0    12     1     4
  4.3890813498583114E-01 a       225     0    12     1     5
  4.9799912593788614E-01 a       226     0    12     1     6
 -5.6049877927919683E-02 a       227     0    12     1     7
 -8.4049690830887025E-01 a       228     0    12     1     8
  2.5604536939564571E-01 a       229     0    12     1     9
  4.0607264488425721E-01 a       230     0    12     1    10
 -4.5244905523702805E-01 a       231     0    12     1    11
  1.3502756642893526E-01 a       232     0    12     1    12
  5.8106924094558676E-01 a       233     0    12     1    13
 -2.3130454966454439E-01 a       234     0    12     1    14
  5.6620885644830632E-01 a       235     0    12     1    15
  4.3953102413099593E-01 a       236     0    12     1    16
  2.0983304988737680E-01 a       237     0    12     1    17
  2.8244289557718560E-01 a       238     0    12     1    18
 -1.4097362816383024E-01 a       239     0    12     1    19
  7.1807453050564518E-01 a       240     0    12     1    20
 -4.0184115153125977E-01 a       241     0    13     1     1
  4.5325294088699497E-01 a       242     0    13     1     2
 -1.5244208572250120E-01 a       243     0    13     1     3
 -2.4846381586279870E-01 a       244     0    13     1     4
 -6.3003024261768958E-01 a       245     0    13     1     5
 -3.7875500192812855E-02 a       246     0    13     1     6
  5.5160417648909589E-02 a       247     0    13     1     7
  4.6487730843032371E-01 a       248     0    13     1     8
  2.4782474449669450E-02 a       249     0    13     1     9
 -2.4255754963707871E-01 a       250     0    13     1    10
 -3.7778094879914403E-01 a       251     0    13     1    11
  7.1948511395426606E-01 a       252     0    13     1    12
 -3.6113704531017443E-01 a       253     0    13     1    13
 -2.4863426064234573E-01 a       254     0    13     1    14
 -3.3779907041283691E-01 a       255     0    13     1    15
  2.3926029100670376E-01 a       256     0    13     1    16
 -3.9867612743623176E-01 a       257     0    13     1    17
 -1.9285232156097357E-02 a       258     0    13     1    18
  2.1807517240926130E-01 a       259     0    13     1    19
  1.0473267892266984E-01 a       260     0    13     1    20
  4.7034244067751296E-01 a       261     0    14     1     1
 -1.7598677198880502E-01 a       262     0    14     1     2
  3.1492361233971378E-01 a       263     0    14     1     3
 -1.8096201710276485E-01 a       264     0    14     1     4
 -3.7176819896438285E-01 a       265     0    14     1     5
 -6.0182753488311436E-01 a       266     0    14     1     6
  3.5179955650441125E-01 a       267     0    14     1     7
  5.0816556545658575E-01 a       268     0    14     1     8
  2.1790925848829004E-01 a       269     0    14     1     9
  5.2392829482388759E-01 a       270     0    14     1    10
  4.8691366482059115E-02 a       271     0    14     1    11
 -9.0616532163619840E-02 a       272     0    14     1    12
 -3.7758052630419349E-02 a       273     0    14     1    13
  2.5380460372513049E-02 a       274     0    14     1    14
  3.7664834797939795E-01 a       275     0    14     1    15
  6.4740825943982672E-01 a       276     0    14     1    16
 -5.3999261655313446E-01 a       277     0    14     1    17
  3.6744548930874765E-01 a       278     0    14     1    18
  7.2283715282543304E-01 a       279     0    14     1    19
 -3.3915619472249109E-01 a       280     0    14     1    20
 -1.1524919158292164E-01 b       281     1     1
 -1.0193576263192148E+00 b       282     1     2
 -9.4110807120393894E-02 b       283     1     3
  2.2155988116480424E-01 b       284     1     4
  5.6458647573752796E-01 b       285     1     5
  7.9875782945316642E-01 b       286     1     6
  6.8971637899385563E-01 b       287     1     7
 -2.3503829902453205E-01 b       288     1     8
  1.7457690841556051E+00 b       289     1     9
  7.1413319267788766E-01 b       290     1    10
  7.9124781745123454E-02 b       291     1    11
  5.0528173909290602E-03 b       292     1    12
 -1.3344603891580296E+00 b       293     1    13
  1.6038833425064074E+00 b       294     1    14
  1.7733533415607112E+00 b       295     1    15
 -3.8690712517630632E-01 b       296     1    16
  1.2277014997461810E+00 b       297     1    17
  1.2431833714104309E-01 b       298     1    18
 -1.6873254195942200E+00 b       299     1    19
  5.6689121343330695E-01 b       300     1    20
 -1.9890811850747983E-01 a       301     1     1     2     1
 -4.6071638582600055E-01 a       302     1     1     2     2
 -1.5225198618859567E-01 a       303     1     1     2     3
 -2.3465229113125671E-01 a       304     1     1     2     4
  5.6121823718360631E-03 a       305     1     1     2     5
 -1.9750881935266257E-01 a       306     1     1     2     6
  3.6611624225501332E-01 a       307     1     1     2     7
 -4.3539258526716967E-01 a       308     1     1     2     8
  5.5501644339092793E-01 a       309     1     1     2     9
 -3.5244396946502088E-01 a       310     1     1     2    10
  4.5088974787557225E-02 a       311     1     1     2    11
 -1.1502353087382453E-01 a       312     1     1     2    12
 -3.2078044245634607E-01 a       313     1     1     2    13
  1.2653133385367363E-01 a       314     1     1     2    14
  5.6263976792490100E-01 a       315     1     1     2    15
  4.6711480588586124E-01 a       316     1     1     2    16
 -4.6619417281412379E-01 a       317     1     1     2    17
  4.6510712341216082E-01 a       318     1     1     2    18
 -3.1492796627628307E-02 a       319     1     1     2    19
  7.0096799478966454E-01 a       320     1     1     2    20
  1.6632716608238143E-01 a       321     1     2     2     1
  2.2257580496374929E-01 a       322     1     2     2     2
  1.8681836699460480E-01 a       323     1     2     2     3
  4.0169954321374252E-01 a       324     1     2     2     4
 -4.5981737385385946E-01 a       325     1     2     2     5
  5.2638330298130043E-01 a       326     1     2     2     6
  4.6577191722087574E-02 a       327     1     2     2     7
 -5.7072806197914783E-01 a       328     1     2     2     8
  4.3735862692241873E-01 a       329     1     2     2     9
  2.3327692237455946E-01 a       330     1     2     2    10
  1.4598915182107911E-01 a       331     1     2     2    11
 -4.0010813999307243E-01 a       332     1     2     2    12
  1.3742647355113768E-01 a       333     1     2     2    13
 -7.4550929836439350E-02 a       334     1     2     2    14
  5.2845256112490802E-01 a       335     1     2     2    15
  6.5657164681375890E-02 a       336     1     2     2    16
  6.3166671908990446E-02 a       337     1     2     2    17
  1.3714553999564180E-01 a       338     1     2     2    18
 -2.6665264941150452E-01 a       339     1     2     2    19
 -5.6287523991999033E-01 a       340     1     2     2    20
 -6.5239899762897213E-01 a       341     1     3     2     1
  3.1559616433810882E-02 a       342     1     3     2     2
  2.2264358048840949E-01 a       343     1     3     2     3
 -9.8012741280775348E-02 a       344     1     3     2     4
 -2.6582840551033105E-01 a       345     1     3     2     5
  2.6284935106939977E-01 a       346     1     3     2     6
  3.6129101561719540E-01 a       347     1     3     2     7
 -5.3181989527954132E-01 a       348     1     3     2     8
 -1.7531613145501189E-02 a       349     1     3     2     9
 -4.2032261594884140E-01 a       350     1     3     2    10
 -3.8709378898086338E-01 a       351     1     3     2    11
  4.4435858324375782E-01 a       352     1     3     2    12
 -5.0536991669217557E-01 a       353     1     3     2    13
  2.5574884467062192E-01 a       354     1     3     2    14
  3.5202549773742087E-01 a       355     1     3     2    15
 -1.6202775256752133E-01 a       356     1     3     2    16
 -9.0392358606257425E-02 a       357     1     3     2    17
 -2.1199071239615436E-01 a       358     1     3     2    18
 -4.7217287485312842E-02 a       359     1     3     2    19
 -2.1784882867196337E-01 a       360     1     3     2    20
 -2.9786019023383248E-01 a       361     1     4     2     1
  1.5714049563582366E-01 a       362     1     4     2     2
 -5.7483303968944977E-01 a       363     1     4     2     3
 -4.2104757832240647E-01 a       364     1     4     2     4
 -5.3134661005046491E-01 a       365     1     4     2     5
  5.1903558662752913E-01 a       366     1     4     2     6
  4.4681032074394300E-01 a       367     1     4     2     7
  3.2701863925198460E-01 a       368     1     4     2     8
  5.1700539865583338E-02 a       369     1     4     2     9
 -1.6040014527792074E-01 a       370     1     4     2    10
 -5.2657213190031327E-01 a       371     1     4     2    11
 -1.3239099386945194E-01 a       372     1     4     2    12
 -2.3309553459550686E-01 a       373     1     4     2    13
  3.6800105460706711E-01 a       374     1     4     2    14
 -9.0720787311329598E-02 a       375     1     4     2    15
  2.1652943194934055E-01 a       376     1     4     2    16
  3.6698990524841246E-01 a       377     1     4     2    17
  7.9702710496069570E-02 a       378     1     4     2    18
  4.3232909282062221E-01 a       379     1     4     2    19
 -1.1502992921124289E-01 a       380     1     4     2    20
 -4.1474818352427412E-01 a       381     1     5     2     1
 -3.9446620964846790E-01 a       382     1     5     2     2
 -2.1055268005747174E-01 a       383     1     5     2     3
 -3.8506853601400820E-01 a       384     1     5     2     4
 -2.2110550541597032E-01 a       385     1     5     2     5
 -3.8893732803831210E-01 a       386     1     5     2     6
 -2.0352761954274423E-01 a       387     1     5     2     7
  1.3541343451086815E-01 a       388     1     5     2     8
  3.9609509325680475E-01 a       389     1     5     2     9
  2.3374755932409505E-01 a       390     1     5     2    10
 -1.0749242494274813E-01 a       391     1     5     2    11
  4.6934074163316264E-01 a       392     1     5     2    12
  1.9482239694001346E-01 a       393     1     5     2    13
  2.2743963092614611E-01 a       394     1     5     2    14
 -4.8348862906611584E-01 a       395     1     5     2    15
  2.2708631576937963E-01 a       396     1     5     2    16
  1.8442255166923169E-01 a       397     1     5     2    17
  3.7918647539276942E-02 a       398     1     5     2    18
 -1.6619237035628950E-01 a       399     1     5     2    19
  4.2758481832369838E-01 a       400     1     5     2    20
 -4.0112199486038042E-01 a       401     1     6     2     1
 -9.4167569194527109E-02 a       402     1     6     2     2
 -5.6445318718275750E-01 a       403     1     6     2     3
  1.6143168012775194E-01 a       404     1     6     2     4
 -4.9505607321742934E-01 a       405     1     6     2     5
 -4.3582642681055911E-01 a       406     1     6     2     6
 -4.5477109894031692E-01 a       407     1     6     2     7
  1.1254367703722185E-01 a       408     1     6     2     8
  3.7629359814277530E-01 a       409     1     6     2     9
  4.4969008751467610E-01 a       410     1     6     2    10
 -5.0034035255334497E-01 a       411     1     6     2    11
  3.1601529382266841E-01 a       412     1     6     2    12
 -1.8830876434733315E-01 a       413     1     6     2    13
 -2.2293882949558610E-01 a       414     1     6     2    14
 -4.7313876351861495E-01 a       415     1     6     2    15
 -5.7191093280639294E-01 a       416     1     6     2    16
  1.8995522007028174E-02 a       417     1     6     2    17
 -4.1672091689854573E-01 a       418     1     6     2    18
 -4.1554475408431174E-01 a       419     1     6     2    19
 -2.7122387718547492E-01 a       420     1     6     2    20
 -2.6060885871715167E-01 a       421     1     7     2     1
 -2.7109604805497628E-01 a       422     1     7     2     2
 -2.3929372195828821E-01 a       423     1     7     2     3
 -5.9538325074673981E-01 a       424     1     7     2     4
  2.9330459129815234E-01 a       425     1     7     2     5
 -4.8948548216003041E-01 a       426     1     7     2     6
  3.1547153461874966E-01 a       427     1     7     2     7
 -4.1436973960221773E-01 a       428     1     7     2     8
 -3.8466695940625056E-01 a       429     1     7     2     9
 -4.7460472693691041E-01 a       430     1     7     2    10
  4.3808750206907293E-01 a       431     1     7     2    11
 -5.3154563755545114E-01 a       432     1     7     2    12
 -1.4607512432264458E-01 a       433     1     7     2    13
  1.5839244349068635E-01 a       434     1     7     2    14
  3.5268196760916676E-01 a       435     1     7     2    15
 -1.5876165298341952E-01 a       436     1     7     2    16
 -2.4574565981678262E-01 a       437     1     7     2    17
 -3.0161409210127937E-01 a       438     1     7     2    18
  6.7017852857515964E-02 a       439     1     7     2    19
 -9.5310133925485790E-02 a       440     1     7     2    20
 -1.1728150778168904E-01 a       441     1     8     2     1
 -1.0602319071785939E-01 a       442     1     8     2     2
 -4.8095004572038297E-01 a       443     1     8     2     3
 -3.0374295956280700E-01 a       444     1     8     2     4
 -6.6430516104867965E-01 a       445     1     8     2     5
  7.5443929947697511E-02 a       446     1     8     2     6
  3.8593099073644721E-02 a       447     1     8     2     7
 -4.1877959654298058E-01 a       448     1     8     2     8
  3.1633255315613208E-02 a       449     1     8     2     9
  1.3041141898969813E-01 a       450     1     8     2    10
 -1.6981340147477691E-01 a       451     1     8     2    11
 -2.6772120821409989E-01 a       452     1     8     2    12
 -2.6707187383207787E-01 a       453     1     8     2    13
 -1.2509660962787655E-01 a       454     1     8     2    14
 -2.4838080118313630E-01 a       455     1     8     2    15
  4.6803975837019934E-01 a       456     1     8     2    16
 -6.4249730547760286E-01 a       457     1     8     2    17
 -1.3428843588755335E-01 a       458     1     8     2    18
 -1.1164237138421930E-01 a       459     1     8     2    19
  4.1965665715939970E-01 a       460     1     8     2    20
  4.4853772095178029E-01 a       461     1     9     2     1
 -4.4478955827368838E-01 a       462     1     9     2     2
  2.5858809874307359E-01 a       463     1     9     2     3
 -3.3679176877188209E-02 a       464     1     9     2     4
  1.8781708369374028E-01 a       465     1     9     2     5
 -4.0571547618980086E-01 a       466     1     9     2     6
  4.0586877356132783E-01 a       467     1     9     2     7
 -4.8983829271855898E-02 a       468     1     9     2     8
 -2.2490274769407456E-01 a       469     1     9     2     9
 -1.5213563641483327E-01 a       470     1     9     2    10
 -5.4920400451235607E-01 a       471     1     9     2    11
  3.3735951245443174E-01 a       472     1     9     2    12
 -1.1077915722783190E-01 a       473     1     9     2    13
 -1.6956303668396333E-01 a       474     1     9     2    14
 -3.5798779579251128E-01 a       475     1     9     2    15
  5.0597714531527704E-01 a       476     1     9     2    16
  6.3634237386517445E-01 a       477     1     9     2    17
 -4.3991785766993025E-01 a       478     1     9     2    18
  1.0904451109938443E-01 a       479     1     9     2    19
  4.6231306753451129E-01 a       480     1     9     2    20
  5.1648545805822754E-01 a       481     1    10     2     1
  4.8260611311392582E-01 a       482     1    10     2     2
 -5.8901743785659699E-01 a       483     1    10     2     3
 -4.7970879345847192E-02 a       484     1    10     2     4
 -4.0545317582909252E-01 a       485     1    10     2     5
  8.4562267923342926E-02 a       486     1    10     2     6
 -5.5250140635171618E-01 a       487     1    10     2     7
  6.4466162400099669E-01 a       488     1    10     2     8
 -4.3813905343800619E-01 a       489     1    10     2     9
  2.3423649240218331E-01 a       490     1    10     2    10
  2.1537158038446713E-01 a       491     1    10     2    11
 -2.1873485927998657E-01 a       492     1    10     2    12
  1.3228732165243107E-01 a       493     1    10     2    13
 -1.5749528124220991E-01 a       494     1    10     2    14
 -5.2290415709021609E-01 a       495     1    10     2    15
 -3.1650564482450222E-01 a       496     1    10     2    16
  4.8869516365134114E-01 a       497     1    10     2    17
 -4.5141259154261909E-01 a       498     1    10     2    18
  6.1967952831127149E-01 a       499     1    10     2    19
  3.9591143115049865E-01 a       500     1    10     2    20
  1.2045705017587645E-01 a       501     1    11     2     1
 -2.5914648220165232E-01 a       502     1    11     2     2
 -1.8622229552813810E-01 a       503     1    11     2     3
  3.1586624418367015E-01 a       504     1    11     2     4
  3.0739396317454468E-02 a       505     1    11     2     5
  5.0981517084932348E-01 a       506     1    11     2     6
  6.1276146224762207E-01 a       507     1    11     2     7
 -4.7691984703677126E-01 a       508     1    11     2     8
 -6.2030792289395709E-01 a       509     1    11     2     9
  1.1999815645470588E-01 a       510     1    11     2    10
 -2.5610132535320984E-01 a       511     1    11     2    11
 -1.2697086849625303E-01 a       512     1    11     2    12
  4.0260698382525828E-01 a       513     1    11     2    13
  8.6934401070187517E-01 a       514     1    11     2    14
 -5.9564220629555475E-01 a       515     1    11     2    15
  1.9888348976094047E-01 a       516     1    11     2    16
  3.4805145273106741E-01 a       517     1    11     2    17
 -4.7878311999806489E-01 a       518     1    11     2    18
 -3.0114280666096160E-01 a       519     1    11     2    19
 -1.5628861173997866E-01 a       520     1    11     2    20
  1.3447119839638064E-01 a       521     1    12     2     1
 -2.4255032522494535E-01 a       522     1    12     2     2
  3.2137752643315431E-01 a       523     1    12     2     3
 -3.9468702146764723E-01 a       524     1    12     2     4
 -2.6025971943001336E-01 a       525     1    12     2     5
  4.5498950601126359E-01 a       526     1    12     2     6
  1.7327194173472332E-01 a       527     1    12     2     7
  3.6324324420335785E-02 a       528     1    12     2     8
 -3.9672937358801375E-01 a       529     1    12     2     9
 -2.9180875074345031E-01 a       530     1    12     2    10
 -3.2516343052907876E-01 a       531     1    12     2    11
  3.9215875708956782E-01 a       532     1    12     2    12
 -3.9368995758391992E-02 a       533     1    12     2    13
  1.4152667320227197E-01 a       534     1    12     2    14
  2.7012329022812848E-01 a       535     1    12     2    15
 -1.3219781609114664E-01 a       536     1    12     2    16
  3.2011766240897727E-01 a       537     1    12     2    17
  3.9166638788630420E-01 a       538     1    12     2    18
  9.7986989507156314E-02 a       539     1    12     2    19
  4.0034268571653914E-01 a       540     1    12     2    20
 -5.3414844063409328E-01 a       541     1    13     2     1
 -4.4878587163787031E-01 a       542     1    13     2     2
  2.5333482890515086E-01 a       543     1    13     2     3
  5.1001356185259350E-01 a       544     1    13     2     4
 -2.9749394108084759E-01 a       545     1    13     2     5
  5.0699251095069753E-01 a       546     1    13     2     6
  4.4783955457366253E-01 a       547     1    13     2     7
  4.5751964664766875E-01 a       548     1    13     2     8
 -4.9518102947624945E-02 a       549     1    13     2     9
  2.5798710020776711E-01 a       550     1    13     2    10
 -1.7296436989079681E-02 a       551     1    13     2    11
  5.1314637056016819E-02 a       552     1    13     2    12
  4.2033753582233135E-01 a       553     1    13     2    13
  1.1382298265036341E-01 a       554     1    13     2    14
  4.6115854254050176E-01 a       555     1    13     2    15
  5.7171290147903508E-01 a       556     1    13     2    16
 -2.9654111061173516E-01 a       557     1    13     2    17
  3.6768713169286121E-01 a       558     1    13     2    18
  1.7582605920331010E-01 a       559     1    13     2    19
  1.7285157805761930E-01 a       560     1    13     2    20
  1.6584546579511900E-01 a       561     1    14     2     1
  6.0357776988140577E-01 a       562     1    14     2     2
 -4.8856282935133039E-01 a       563     1    14     2     3
  6.1594914987548363E-02 a       564     1    14     2     4
 -9.2377774551227199E-02 a       565     1    14     2     5
 -5.8451962030472582E-01 a       566     1    14     2     6
 -1.8395006325300736E-01 a       567     1    14     2     7
 -3.9228630900429357E-01 a       568     1    14     2     8
 -3.7637614143778558E-01 a       569     1    14     2     9
 -4.9455010918214948E-01 a       570     1    14     2    10
 -5.4552363765207001E-01 a       571     1    14     2    11
 -2.1853229173987954E-01 a       572     1    14     2    12
  1.4885832635055185E-01 a       573     1    14     2    13
 -1.4106829048921424E-01 a       574     1    14     2    14
  1.7747519286269695E-02 a       575     1    14     2    15
 -2.3732055097081142E-01 a       576     1    14     2    16
 -2.7478594994125255E-01 a       577     1    14     2    17
 -4.8807330866978521E-01 a       578     1    14     2    18
 -5.4419986698684186E-01 a       579     1    14     2    19
 -2.0809840078314210E-01 a       580     1    14     2    20
  4.0696432068852074E-02 a       581     1    15     2     1
  5.0359915784628539E-01 a       582     1    15     2     2
 -4.2214829927368369E-01 a       583     1    15     2     3
  4.3385742530282717E-01 a       584     1    15     2     4
 -1.6617932579569633E-01 a       585     1    15     2     5
 -2.7062862824481604E-01 a       586     1    15     2     6
 -5.3283731647808370E-02 a       587     1    15     2     7
  2.2579834585089098E-01 a       588     1    15     2     8
 -5.0367456554267143E-01 a       589     1    15     2     9
 -4.6189660382759734E-01 a       590     1    15     2    10
  3.6118872756317855E-01 a       591     1    15     2    11
 -2.0369094514623617E-01 a       592     1    15     2    12
  1.2643183517256412E-04 a       593     1    15     2    13
 -6.6533042959032396E-01 a       594     1    15     2    14
 -1.9161614936533611E-01 a       595     1    15     2    15
 -4.9126848269471807E-01 a       596     1    15     2    16
 -3.8018416613834788E-01 a       597     1    15     2    17
 -4.0848252188568679E-01 a       598     1    15     2    18
 -4.6127845172969734E-01 a       599     1    15     2    19
  2.2386046294833611E-01 a       600     1    15     2    20
 -3.2098114534602384E-01 a       601     1    16     2     1
 -8.7638125572348610E-02 a       602     1    16     2     2
  3.6533070818331181E-01 a       603     1    16     2     3
  2.2995504827804955E-01 a       604     1    16     2     4
 -9.7118112871300968E-02 a       605     1    16     2     5
  6.0886676331859575E-02 a       606     1    16     2     6
 -6.7391102851680790E-02 a       607     1    16     2     7
  5.8336361331425657E-01 a       608     1    16     2     8
  2.4985788433787867E-01 a       609     1    16     2     9
 -2.4427683747943571E-01 a       610     1    16     2    10
  1.9068885318286957E-01 a       611     1    16     2    11
 -5.0590571685694774E-01 a       612     1    16     2    12
 -4.5088267336104215E-01 a       613     1    16     2    13
  2.1527518971211484E-01 a       614     1    16     2    14
 -6.0434145639305589E-02 a       615     1    16     2    15
 -7.7932474907383309E-02 a       616     1    16     2    16
  4.4022426352527427E-01 a       617     1    16     2    17
  4.4259217287798502E-01 a       618     1    16     2    18
 -1.9343834139820940E-01 a       619     1    16     2    19
 -3.1118081205065568E-01 a       620     1    16     2    20
  5.1228846928444782E-01 a       621     1    17     2     1
  1.4859405392643549E-01 a       622     1    17     2     2
 -2.9230516222669406E-01 a       623     1    17     2     3
 -5.0122859620625149E-01 a       624     1    17     2     4
 -2.4507477824377777E-01 a       625     1    17     2     5
 -3.2518261331632037E-01 a       626     1    17     2     6
  6.6723358855598991E-01 a       627     1    17     2     7
  3.0048864389014401E-01 a       628     1    17     2     8
 -1.6535658506905090E-01 a       629     1    17     2     9
  4.8154740835204607E-01 a       630     1    17     2    10
  2.4528014508752416E-02 a       631     1    17     2    11
 -1.8254355364697311E-01 a       632     1    17     2    12
  4.0070795605119242E-01 a       633     1    17     2    13
  2.0510789151810616E-01 a       634     1    17     2    14
 -1.3701355946324822E-01 a       635     1    17     2    15
  3.2463958326358161E-01 a       636     1    17     2    16
  2.1238975087523006E-02 a       637     1    17     2    17
 -3.1678215576927077E-01 a       638     1    17     2    18
 -2.7913399340893841E-01 a       639     1    17     2    19
 -3.7070939871323139E-01 a       640     1    17     2    20
 -4.4949134277714498E-01 a       641     1    18     2     1
 -3.3127324188166385E-01 a       642     1    18     2     2
  1.8360096524903446E-01 a       643     1    18     2     3
  2.4059632492552613E-01 a       644     1    18     2     4
  3.6826315353476113E-01 a       645     1    18     2     5
  1.6295291639171564E-01 a       646     1    18     2     6
 -4.3699270142558738E-01 a       647     1    18     2     7
  9.8492269896579637E-02 a       648     1    18     2     8
 -4.6548251745163083E-01 a       649     1    18     2     9
  2.8121033310476656E-01 a       650     1    18     2    10
  3.9916566892125915E-01 a       651     1    18     2    11
 -2.4510374989933090E-01 a       652     1    18     2    12
  2.3387260544370383E-01 a       653     1    18     2    13
  1.6922302994629329E-01 a       654     1    18     2    14
 -4.7799550800270083E-02 a       655     1    18     2    15
 -1.2185694566172203E-01 a       656     1    18     2    16
 -4.7426754820715811E-01 a       657     1    18     2    17
  4.9472215445822476E-01 a       658     1    18     2    18
 -2.1057367090599541E-01 a       659     1    18     2    19
 -5.4678825555364352E-01 a       660     1    18     2    20
  1.6466306451635543E-01 a       661     1    19     2     1
  3.2230436511374577E-01 a       662     1    19     2     2
 -7.5466262016334759E-02 a       663     1    19     2     3
  1.1745299565473664E-01 a       664     1    19     2     4
 -2.2203810639440061E-01 a       665     1    19     2     5
 -1.2243718359120080E-01 a       666     1    19     2     6
  3.9164819157933475E-02 a       667     1    19     2     7
  1.6450263769912724E-02 a       668     1    19     2     8
  3.3381070295419651E-01 a       669     1    19     2     9
  6.8193687984968179E-02 a       670     1    19     2    10
 -4.3640820546047654E-01 a       671     1    19     2    11
 -4.4219861721994203E-01 a       672     1    19     2    12
  3.6144473714726766E-01 a       673     1    19     2    13
  8.9087037045791040E-01 a       674     1    19     2    14
 -3.3363221396556264E-01 a       675     1    19     2    15
 -3.2844871675114045E-03 a       676     1    19     2    16
  4.9536227822450679E-01 a       677     1    19     2    17
  4.5448931757064071E-01 a       678     1    19     2    18
 -3.1157830163082051E-01 a       679     1    19     2    19
 -3.8578526910071159E-02 a       680     1    19     2    20
 -5.6840872262350228E-01 a       681     1    20     2     1
 -2.2343432500649404E-02 a       682     1    20     2     2
 -6.5745378227128137E-01 a       683     1    20     2     3
  1.8219977517012059E-01 a       684     1    20     2     4
 -4.1301459387222172E-01 a       685     1    20     2     5
  4.4144388312746571E-02 a       686     1    20     2     6
  4.0160639013090726E-01 a       687     1    20     2     7
 -1.0092548398684109E-01 a       688     1    20     2     8
  3.7732786557540415E-01 a       689     1    20     2     9
 -4.5716636098292335E-01 a       690     1    20     2    10
 -9.6778345947451092E-02 a       691     1    20     2    11
  4.8819152300251983E-01 a       692     1    20     2    12
 -4.4043024142530446E-01 a       693     1    20     2    13
 -2.2066831043007359E-01 a       694     1    20     2    14
  9.9627263756904394E-02 a       695     1    20     2    15
  1.7909447543120940E-01 a       696     1    20     2    16
 -1.8445843791068292E-01 a       697     1    20     2    17
  6.1143198724967623E-02 a       698     1    20     2    18
 -5.3507114294732017E-01 a       699     1    20     2    19
 -4.4236004632648801E-01 a       700     1    20     2    20
  1.4410810378326913E-01 b       701     2     1
  2.3032055156468689E-01 b       702     2     2
  3.7372572014725713E-01 b       703     2     3
  1.0094522140567657E+00 b       704     2     4
 -1.1547544337557896E+00 b       705     2     5
  5.9001769907957324E-01 b       706     2     6
  1.0026316656083811E+00 b       707     2     7
  1.6123645414944141E+00 b       708     2     8
 -1.4001836025182759E+00 b       709     2     9
  4.1935159934877092E-01 b       710     2    10
 -4.7622997768231989E-01 b       711     2    11
  4.3447277038043762E-02 b       712     2    12
 -2.1165116941641698E-01 b       713     2    13
 -3.7968139837972770E-01 b       714     2    14
 -5.6401424267794664E-01 b       715     2    15
 -1.3867959678168157E-01 b       716     2    16
 -4.0475749945449008E-01 b       717     2    17
 -1.5514473000707065E+00 b       718     2    18
  1.2999394836363862E+00 b       719     2    19
 -5.5993233984313473E-01 b       720     2    20
  2.9713986846749774E-01 a       721     2     1     3     1
 -6.7239728423238809E-01 a       722     2     2     3     1
  1.1883715736040676E+00 a       723     2     3     3     1
  3.5188331137374401E-01 a       724     2     4     3     1
 -7.8693188748555021E-01 a       725     2     5     3     1
  1.4849225069069063E+00 a       726     2     6     3     1
  5.2090834361970317E-01 a       727     2     7     3     1
 -3.3862525140820232E-01 a       728     2     8     3     1
 -2.1991628878570479E-02 a       729     2     9     3     1
  7.2190339181307561E-01 a       730     2    10     3     1
  8.1286170317471795E-01 a       731     2    11     3     1
  3.3396053553530902E-01 a       732     2    12     3     1
 -3.4966318358161297E-01 a       733     2    13     3     1
  2.3165045577522128E-01 a       734     2    14     3     1
 -9.9895039616385106E-01 a       735     2    15     3     1
 -7.5788291186521628E-01 a       736     2    16     3     1
  7.8316585716117701E-03 a       737     2    17     3     1
 -1.2847783554083492E-01 a       738     2    18     3     1
  3.6424758956242764E-01 a       739     2    19     3     1
  2.8352030423590135E-01 a       740     2    20     3     1
  2.2614733124876607E-01 b       741     3     1
