################################################################################
# Neural network connection values (weights and biases).
################################################################################
# Col  Name       Description
################################################################################
# 1    connection Neural network connection value.
# 2    t          Connection type (a = weight, b = bias).
# 3    index      Index enumerating weights.
# 4    l_s        Starting point layer (end point layer for biases).
# 5    n_s        Starting point neuron in starting layer (end point neuron for biases).
# 6    l_e        End point layer.
# 7    n_e        End point neuron in end layer.
################################################################################
#                      1 2         3     4     5     6     7
#             connection t     index   l_s   n_s   l_e   n_e
############################################################
  5.7789208443912898E-01 a         1     0     1     1     1
 -2.0272530016816043E-01 a         2     0     1     1     2
  2.8737193789972187E-01 a         3     0     1     1     3
  6.0890817362796423E-01 a         4     0     1     1     4
 -5.1297566243587167E-01 a         5     0     1     1     5
  1.6370224362753655E-01 a         6     0     1     1     6
  5.5541769784749351E-01 a         7     0     1     1     7
  2.4267697669199889E-01 a         8     0     1     1     8
  2.0786411994283463E-01 a         9     0     1     1     9
  5.3122691540842648E-01 a        10     0     1     1    10
 -1.7298985387596857E-01 a        11     0     1     1    11
 -3.9036221025675572E-01 a        12     0     1     1    12
  4.9886534326837201E-01 a        13     0     1     1    13
 -7.1635138775788876E-01 a        14     0     1     1    14
 -4.9732589032149827E-01 a        15     0     1     1    15
 -4.8838715377999242E-01 a        16     0     1     1    16
 -4.6553108755536238E-01 a        17     0     1     1    17
 -8.1532149665695983E-02 a        18     0     1     1    18
 -4.0035923501138315E-01 a        19     0     1     1    19
 -5.1596170052067840E-02 a        20     0     1     1    20
  3.7559478230373650E-01 a        21     0     2     1     1
 -3.1010649194940038E-01 a        22     0     2     1     2
  4.1121691619731637E-01 a        23     0     2     1     3
 -3.9149295124636280E-01 a        24     0     2     1     4
  3.7101457205375094E-01 a        25     0     2     1     5
  1.0232561550159042E-01 a        26     0     2     1     6
 -4.9005633508658797E-01 a        27     0     2     1     7
  3.7865194442474875E-01 a        28     0     2     1     8
 -6.3705974299442136E-01 a        29     0     2     1     9
 -5.0883335715339995E-01 a        30     0     2     1    10
  7.1288779877016240E-01 a        31     0     2     1    11
  4.6430037260447948E-01 a        32     0     2     1    12
  4.3946625424973418E-01 a        33     0     2     1    13
  5.8256675646670875E-01 a        34     0     2     1    14
 -3.5647285903433368E-01 a        35     0     2     1    15
  5.9783458181748717E-01 a        36     0     2     1    16
  3.2727145380139983E-01 a        37     0     2     1    17
  5.4081208031547212E-01 a        38     0     2     1    18
  5.7755344713554646E-01 a        39     0     2     1    19
  1.2821221498624702E-01 a        40     0     2     1    20
 -2.3698036841359812E-01 a        41     0     3     1     1
 -3.5203222032546072E-01 a        42     0     3     1     2
 -1.1908863102659807E-01 a        43     0     3     1     3
  5.3487454832084236E-01 a        44     0     3     1     4
 -2.8486025936360265E-02 a        45     0     3     1     5
  3.5197929676871265E-01 a        46     0     3     1     6
 -6.6167691832986575E-01 a        47     0     3     1     7
 -4.8591046542225369E-01 a        48     0     3     1     8
  7.4656101353544824E-01 a        49     0     3     1     9
 -4.1404204628244001E-01 a        50     0     3     1    10
  5.7826763959261403E-02 a        51     0     3     1    11
  1.6386051341237851E-01 a        52     0     3     1    12
 -3.8655507133595179E-01 a        53     0     3     1    13
 -7.0253138106344337E-01 a        54     0     3     1    14
 -5.7647235961560672E-01 a        55     0     3     1    15
 -6.0077894200746357E-02 a        56     0     3     1    16
  3.8024194677233714E-01 a        57     0     3     1    17
 -4.2621457353762238E-01 a        58     0     3     1    18
 -6.1288276817051413E-01 a        59     0     3     1    19
  4.3822853264607753E-01 a        60     0     3     1    20
 -3.5362582944032418E-02 a        61     0     4     1     1
  8.7316008984224758E-01 a        62     0     4     1     2
 -5.5113664461487366E-01 a        63     0     4     1     3
  3.4649071210960930E-01 a        64     0     4     1     4
  4.5654585545415022E-01 a        65     0     4     1     5
  1.2262441603121571E-01 a        66     0     4     1     6
  9.2700126797396976E-01 a        67     0     4     1     7
 -2.4673682470269301E-01 a        68     0     4     1     8
  3.9356755855175046E-01 a        69     0     4     1     9
  5.1158468218448494E-01 a        70     0     4     1    10
  3.4977416893888710E-02 a        71     0     4     1    11
  5.2531339587400694E-01 a        72     0     4     1    12
  3.8506285440985155E-01 a        73     0     4     1    13
  1.4437509762927339E-01 a        74     0     4     1    14
  1.4603276666170789E-01 a        75     0     4     1    15
  2.7786212296766777E-01 a        76     0     4     1    16
 -4.9192442940320702E-01 a        77     0     4     1    17
  1.5622909577419206E-01 a        78     0     4     1    18
 -1.6512588663597824E-01 a        79     0     4     1    19
  8.3853729582624957E-03 a        80     0     4     1    20
 -5.1494797872420961E-01 a        81     0     5     1     1
  1.0433813432522254E-01 a        82     0     5     1     2
  5.6150526587128834E-03 a        83     0     5     1     3
  2.5577531011786434E-02 a        84     0     5     1     4
 -3.0699956767724729E-01 a        85     0     5     1     5
  9.4383950598822791E-02 a        86     0     5     1     6
 -2.4345539208621925E-01 a        87     0     5     1     7
  5.7476600700891667E-01 a        88     0     5     1     8
  3.1087616053804040E-01 a        89     0     5     1     9
 -6.7076168346604470E-01 a        90     0     5     1    10
  3.1909181972232731E-01 a        91     0     5     1    11
 -4.4816665085870810E-01 a        92     0     5     1    12
 -4.2461871172765164E-01 a        93     0     5     1    13
  4.8401333035513645E-02 a        94     0     5     1    14
 -3.8590202327083989E-01 a        95     0     5     1    15
 -2.0213436901643195E-01 a        96     0     5     1    16
  3.1668536786877838E-01 a        97     0     5     1    17
  6.1475775507178865E-01 a        98     0     5     1    18
 -5.4112230313288590E-01 a        99     0     5     1    19
 -3.0883127608757083E-01 a       100     0     5     1    20
  5.4017968962344021E-01 a       101     0     6     1     1
 -8.1300777827875992E-01 a       102     0     6     1     2
 -5.0597397790659926E-01 a       103     0     6     1     3
 -2.7380159965409684E-01 a       104     0     6     1     4
 -5.8133505439935051E-01 a       105     0     6     1     5
  5.9904067544392404E-02 a       106     0     6     1     6
  2.7963759634111914E-03 a       107     0     6     1     7
  1.3433801620856431E-01 a       108     0     6     1     8
 -6.5245571587568185E-01 a       109     0     6     1     9
  2.7643517075672946E-02 a       110     0     6     1    10
  5.6694257270471460E-01 a       111     0     6     1    11
 -6.8811380696470512E-02 a       112     0     6     1    12
 -3.6102628861658720E-01 a       113     0     6     1    13
 -3.1544325911644039E-01 a       114     0     6     1    14
  2.2484280578321877E-01 a       115     0     6     1    15
  7.3932096326403551E-01 a       116     0     6     1    16
  6.7543776662062308E-02 a       117     0     6     1    17
  4.6159524287231812E-01 a       118     0     6     1    18
 -3.0491394950069534E-01 a       119     0     6     1    19
  3.9772845031061133E-01 a       120     0     6     1    20
 -3.9732794882420281E-03 a       121     0     7     1     1
 -2.2123277693261498E-01 a       122     0     7     1     2
  5.9954536094934674E-01 a       123     0     7     1     3
 -6.9610831124744266E-01 a       124     0     7     1     4
 -2.3114240802551647E-01 a       125     0     7     1     5
  8.4397562940413218E-01 a       126     0     7     1     6
 -3.9319374755571408E-02 a       127     0     7     1     7
 -2.9804478200670903E-01 a       128     0     7     1     8
  5.2407538410472421E-01 a       129     0     7     1     9
  2.7180689399917257E-01 a       130     0     7     1    10
  4.3467338764925889E-01 a       131     0     7     1    11
 -5.3167664227944955E-01 a       132     0     7     1    12
 -1.9961529083678833E-01 a       133     0     7     1    13
  3.3574391671871195E-01 a       134     0     7     1    14
 -4.9441824843740445E-01 a       135     0     7     1    15
  3.1958312698549757E-01 a       136     0     7     1    16
  6.2336805973077181E-01 a       137     0     7     1    17
  3.8356198826519816E-01 a       138     0     7     1    18
 -2.7276310061100467E-01 a       139     0     7     1    19
  3.1083990987694071E-01 a       140     0     7     1    20
 -4.4934998191602543E-01 a       141     0     8     1     1
  7.2896677045323111E-01 a       142     0     8     1     2
 -1.7673566654728898E-01 a       143     0     8     1     3
  2.0110363568518283E-01 a       144     0     8     1     4
 -2.3282669102147438E-01 a       145     0     8     1     5
 -4.7740429773002352E-01 a       146     0     8     1     6
  2.6548596332391106E-01 a       147     0     8     1     7
  3.6334116324246457E-01 a       148     0     8     1     8
 -1.3604703409477742E-01 a       149     0     8     1     9
  7.9765954165926592E-02 a       150     0     8     1    10
  4.7422681570219416E-01 a       151     0     8     1    11
  7.5297252540858917E-01 a       152     0     8     1    12
  4.0052905470588107E-01 a       153     0     8     1    13
  3.9663855787105962E-01 a       154     0     8     1    14
  3.9612595091592756E-01 a       155     0     8     1    15
  3.3144665417962002E-02 a       156     0     8     1    16
  5.6347821159717615E-01 a       157     0     8     1    17
 -5.2495952557816206E-01 a       158     0     8     1    18
  1.8385845849997647E-02 a       159     0     8     1    19
  4.4899143781325271E-02 a       160     0     8     1    20
 -2.8465320906490504E-01 a       161     0     9     1     1
 -5.6005163412669576E-02 a       162     0     9     1     2
  2.2066717113150405E-01 a       163     0     9     1     3
 -1.4826372639795121E-01 a       164     0     9     1     4
 -5.4319836824986711E-01 a       165     0     9     1     5
  6.1049965225201264E-01 a       166     0     9     1     6
  1.0756162959424041E-01 a       167     0     9     1     7
 -1.9260170807547830E-01 a       168     0     9     1     8
 -1.2619487046490982E-01 a       169     0     9     1     9
 -5.1804926866653112E-02 a       170     0     9     1    10
  2.7555679770039665E-01 a       171     0     9     1    11
 -4.3027204220529996E-01 a       172     0     9     1    12
 -6.7775704539519743E-01 a       173     0     9     1    13
 -2.3609453147856133E-01 a       174     0     9     1    14
  2.1895273085676198E-01 a       175     0     9     1    15
 -6.2374975707447888E-01 a       176     0     9     1    16
  5.0659779653821096E-02 a       177     0     9     1    17
 -5.0225541815841868E-01 a       178     0     9     1    18
 -6.5294312012620848E-01 a       179     0     9     1    19
 -2.9989047238724510E-02 a       180     0     9     1    20
  1.6805257026102180E-01 a       181     0    10     1     1
  2.4726898329715144E-01 a       182     0    10     1     2
 -8.0033742851451123E-02 a       183     0    10     1     3
  3.2271533206978387E-01 a       184     0    10     1     4
  4.4569577458574178E-01 a       185     0    10     1     5
 -8.8898906313809228E-02 a       186     0    10     1     6
 -3.5020368493949511E-01 a       187     0    10     1     7
  2.1782170377393076E-01 a       188     0    10     1     8
  4.7937142594460280E-01 a       189     0    10     1     9
 -3.4541334298549681E-01 a       190     0    10     1    10
 -2.5684370073664209E-01 a       191     0    10     1    11
  4.1513339788503761E-01 a       192     0    10     1    12
  5.6221154240474380E-01 a       193     0    10     1    13
 -1.1671076835578889E-01 a       194     0    10     1    14
  3.5437977898930495E-01 a       195     0    10     1    15
  9.9947877348267017E-02 a       196     0    10     1    16
 -5.5098495238497069E-01 a       197     0    10     1    17
  5.3900688090435034E-01 a       198     0    10     1    18
 -6.8750882247391329E-02 a       199     0    10     1    19
  1.4161134099211709E-01 a       200     0    10     1    20
  6.0654005438158298E-01 a       201     0    11     1     1
 -2.1334061987897029E-01 a       202     0    11     1     2
 -8.8737253904517588E-02 a       203     0    11     1     3
 -2.2066078364743552E-01 a       204     0    11     1     4
 -4.0250681464248389E-01 a       205     0    11     1     5
  5.4157748997876939E-02 a       206     0    11     1     6
 -2.3151250337157270E-01 a       207     0    11     1     7
 -1.2910986917897721E-01 a       208     0    11     1     8
 -6.1002278035152568E-01 a       209     0    11     1     9
  4.1799417857490412E-01 a       210     0    11     1    10
 -2.0011129123189283E-01 a       211     0    11     1    11
  4.1801003886314547E-01 a       212     0    11     1    12
  9.5759805488313421E-02 a       213     0    11     1    13
  1.0991557653448600E-01 a       214     0    11     1    14
  2.9632233280359344E-01 a       215     0    11     1    15
  1.6359612982203994E-01 a       216     0    11     1    16
 -5.7533557332092289E-01 a       217     0    11     1    17
 -1.3180260584998812E-01 a       218     0    11     1    18
  5.2332337012008756E-01 a       219     0    11     1    19
  6.3161313697609478E-01 a       220     0    11     1    20
  4.7165219581907492E-01 a       221     0    12     1     1
 -5.2533894947799448E-02 a       222     0    12     1     2
  4.2173979439039677E-01 a       223     0    12     1     3
 -2.6277152243583191E-01 a       224     0    12     1     4
  5.0323824295577047E-01 a       225     0    12     1     5
  6.1628938845349590E-01 a       226     0    12     1     6
 -1.5317999394039933E-01 a       227     0    12     1     7
 -6.7659033840437621E-01 a       228     0    12     1     8
  2.4226013644711442E-01 a       229     0    12     1     9
  5.4325062371081712E-01 a       230     0    12     1    10
 -4.6321762379076659E-01 a       231     0    12     1    11
  2.8129695075628391E-01 a       232     0    12     1    12
  7.4482810705235347E-01 a       233     0    12     1    13
 -2.9685010860636374E-01 a       234     0    12     1    14
  6.1165166990852471E-01 a       235     0    12     1    15
  4.1736993040087400E-01 a       236     0    12     1    16
  1.8789379864958558E-01 a       237     0    12     1    17
  2.1311360291266895E-01 a       238     0    12     1    18
 -1.3328178095857840E-01 a       239     0    12     1    19
  7.3470412575478494E-01 a       240     0    12     1    20
 -3.3169020564455715E-01 a       241     0    13     1     1
  4.8417946045851584E-01 a       242     0    13     1     2
 -2.5744554326452063E-02 a       243     0    13     1     3
 -3.2391076161481397E-01 a       244     0    13     1     4
 -7.3333400325973108E-01 a       245     0    13     1     5
 -2.2463834150283155E-01 a       246     0    13     1     6
 -3.1792584368969368E-02 a       247     0    13     1     7
  4.2788301295395381E-01 a       248     0    13     1     8
 -5.0148840362250209E-02 a       249     0    13     1     9
 -3.8982544436420657E-01 a       250     0    13     1    10
 -3.0288795498448695E-01 a       251     0    13     1    11
  6.9377120291836558E-01 a       252     0    13     1    12
 -4.6555393665138867E-01 a       253     0    13     1    13
 -2.8985805862153391E-01 a       254     0    13     1    14
 -2.3955712634091048E-01 a       255     0    13     1    15
  2.9044302428514268E-01 a       256     0    13     1    16
 -3.3795703128381732E-01 a       257     0    13     1    17
 -1.1234149135142889E-01 a       258     0    13     1    18
  1.4966216849629860E-01 a       259     0    13     1    19
 -1.1896214956591712E-01 a       260     0    13     1    20
  6.4731853665709993E-01 a       261     0    14     1     1
 -3.2256740390824995E-01 a       262     0    14     1     2
  3.9307743942792417E-01 a       263     0    14     1     3
 -3.4360295277201758E-01 a       264     0    14     1     4
 -6.2335762167116437E-01 a       265     0    14     1     5
 -5.6271718308427310E-01 a       266     0    14     1     6
  2.7184547299872247E-01 a       267     0    14     1     7
  5.5472036559882165E-01 a       268     0    14     1     8
  2.9698898512052280E-01 a       269     0    14     1     9
  5.3477755924267090E-01 a       270     0    14     1    10
 -6.4466713003487955E-02 a       271     0    14     1    11
 -7.3628510650633860E-02 a       272     0    14     1    12
 -1.3673835864596055E-02 a       273     0    14     1    13
  1.5983182941902194E-01 a       274     0    14     1    14
  5.5406551885110433E-01 a       275     0    14     1    15
  5.6815980875376959E-01 a       276     0    14     1    16
 -5.3096166595365091E-01 a       277     0    14     1    17
  3.4281387396661978E-01 a       278     0    14     1    18
  7.5612621815918857E-01 a       279     0    14     1    19
 -3.8034993186928873E-01 a       280     0    14     1    20
  3.4426416266084012E-03 b       281     1     1
 -8.4925556299589799E-01 b       282     1     2
 -1.3344549131674480E-01 b       283     1     3
  1.8282287815120829E-01 b       284     1     4
  6.2738324800572720E-01 b       285     1     5
  7.0000429233319372E-01 b       286     1     6
  6.3958447594243795E-01 b       287     1     7
 -2.8246097607815496E-01 b       288     1     8
  1.6047365350084128E+00 b       289     1     9
  5.2494957873963721E-01 b       290     1    10
  4.3091293538358094E-01 b       291     1    11
  2.3478569740171931E-01 b       292     1    12
 -1.3887401899198666E+00 b       293     1    13
  1.7548799711577396E+00 b       294     1    14
  1.8845279439297835E+00 b       295     1    15
 -4.1171032994774343E-01 b       296     1    16
  1.3593465010779049E+00 b       297     1    17
  8.3362796480051876E-02 b       298     1    18
 -1.8243653003087399E+00 b       299     1    19
  5.0181589418520800E-01 b       300     1    20
 -6.2806492296708007E-03 a       301     1     1     2     1
 -5.3714931968321600E-01 a       302     1     1     2     2
 -4.2215266384775013E-01 a       303     1     1     2     3
 -9.5744340028975333E-02 a       304     1     1     2     4
  1.9876418324291081E-01 a       305     1     1     2     5
 -2.1608662908982604E-01 a       306     1     1     2     6
  5.1045451765560856E-01 a       307     1     1     2     7
 -6.1465417254454813E-01 a       308     1     1     2     8
  5.3410208459999708E-01 a       309     1     1     2     9
 -3.5750382914519402E-01 a       310     1     1     2    10
  1.1153541371663313E-01 a       311     1     1     2    11
 -1.2338087773696935E-01 a       312     1     1     2    12
 -3.7144429861263017E-01 a       313     1     1     2    13
  2.2203678448909786E-01 a       314     1     1     2    14
  4.4056196774333850E-01 a       315     1     1     2    15
  4.9026509514318661E-01 a       316     1     1     2    16
 -3.2369405103328003E-01 a       317     1     1     2    17
  4.6450643080195048E-01 a       318     1     1     2    18
 -1.1490192158895383E-03 a       319     1     1     2    19
  5.6792202131991532E-01 a       320     1     1     2    20
  7.5154049133529618E-02 a       321     1     2     2     1
  3.4931418033953626E-01 a       322     1     2     2     2
  3.1218759423030967E-01 a       323     1     2     2     3
  4.8467233934292592E-01 a       324     1     2     2     4
 -4.2400617501160370E-01 a       325     1     2     2     5
  2.1108154142938729E-01 a       326     1     2     2     6
  5.9316724819518801E-02 a       327     1     2     2     7
 -5.3567596092191272E-01 a       328     1     2     2     8
  4.4348410074497219E-01 a       329     1     2     2     9
  6.5181035361334252E-02 a       330     1     2     2    10
  9.0153595715545348E-02 a       331     1     2     2    11
 -4.5442026393213836E-01 a       332     1     2     2    12
  2.5993124165568099E-01 a       333     1     2     2    13
 -1.5097083010040785E-02 a       334     1     2     2    14
  4.9740257217142841E-01 a       335     1     2     2    15
 -2.0125847660071700E-01 a       336     1     2     2    16
  1.0094610407963681E-01 a       337     1     2     2    17
  1.3824651576759261E-01 a       338     1     2     2    18
 -2.2430821242381435E-01 a       339     1     2     2    19
 -3.4178570722484419E-01 a       340     1     2     2    20
 -5.9299413894780773E-01 a       341     1     3     2     1
 -2.1634956553153494E-03 a       342     1     3     2     2
  5.2215841134678372E-03 a       343     1     3     2     3
 -2.5759249687704971E-01 a       344     1     3     2     4
 -2.9067377512154668E-01 a       345     1     3     2     5
  7.9815448341538642E-02 a       346     1     3     2     6
  5.8752202519301699E-01 a       347     1     3     2     7
 -4.6466739608684948E-01 a       348     1     3     2     8
 -3.4071799535127692E-02 a       349     1     3     2     9
 -3.3590897331880604E-01 a       350     1     3     2    10
 -2.8044787305895652E-01 a       351     1     3     2    11
  2.0958380352402747E-01 a       352     1     3     2    12
 -5.0274577632415540E-01 a       353     1     3     2    13
  2.4970063344743720E-01 a       354     1     3     2    14
  4.5778203072958890E-01 a       355     1     3     2    15
 -8.5606444244105406E-02 a       356     1     3     2    16
  2.9662228670363326E-02 a       357     1     3     2    17
 -2.1193800756037115E-01 a       358     1     3     2    18
 -1.0930822243821305E-01 a       359     1     3     2    19
 -2.0446986122335933E-01 a       360     1     3     2    20
 -3.7508562157625808E-01 a       361     1     4     2     1
  3.0032944770510950E-01 a       362     1     4     2     2
 -4.2483499376464751E-01 a       363     1     4     2     3
 -5.2136061825341840E-01 a       364     1     4     2     4
 -5.4645787025356596E-01 a       365     1     4     2     5
  3.5401666374682017E-01 a       366     1     4     2     6
  3.6205580231381246E-01 a       367     1     4     2     7
  4.5557704634370316E-01 a       368     1     4     2     8
  6.3675183588574893E-02 a       369     1     4     2     9
  2.4665893497411648E-03 a       370     1     4     2    10
 -4.5095410613461828E-01 a       371     1     4     2    11
 -2.3003828392628781E-01 a       372     1     4     2    12
 -7.8589807385255589E-02 a       373     1     4     2    13
  3.8002636868002138E-01 a       374     1     4     2    14
 -2.4011512435282775E-01 a       375     1     4     2    15
  9.1792745752564991E-02 a       376     1     4     2    16
  1.8991403104561666E-01 a       377     1     4     2    17
  7.9675715347989562E-02 a       378     1     4     2    18
  3.6298543946397782E-01 a       379     1     4     2    19
 -2.2155224788563954E-01 a       380     1     4     2    20
 -2.7859488285763934E-01 a       381     1     5     2     1
 -2.4382371125709623E-01 a       382     1     5     2     2
 -2.4426274668067766E-01 a       383     1     5     2     3
 -3.4753971126240818E-01 a       384     1     5     2     4
 -1.8117955072741276E-01 a       385     1     5     2     5
 -1.3483653550362024E-01 a       386     1     5     2     6
 -5.9389406949057555E-03 a       387     1     5     2     7
  2.8472823603384451E-01 a       388     1     5     2     8
  4.0819315112560639E-01 a       389     1     5     2     9
  1.9937636150115659E-01 a       390     1     5     2    10
 -1.3200323239023068E-01 a       391     1     5     2    11
  3.4483788715984159E-01 a       392     1     5     2    12
  1.2699265874829591E-01 a       393     1     5     2    13
  2.6394461187558860E-01 a       394     1     5     2    14
 -5.2955905448823359E-01 a       395     1     5     2    15
  2.7687646361661034E-01 a       396     1     5     2    16
  5.7354233858981016E-02 a       397     1     5     2    17
  3.7554379529297507E-02 a       398     1     5     2    18
 -1.6462938497321741E-01 a       399     1     5     2    19
  4.7156071383597042E-01 a       400     1     5     2    20
 -3.5159513352305105E-01 a       401     1     6     2     1
 -2.0571793341690733E-01 a       402     1     6     2     2
 -6.8685119850488929E-01 a       403     1     6     2     3
  3.5897033752062171E-02 a       404     1     6     2     4
 -3.2526718206744437E-01 a       405     1     6     2     5
 -2.1418615507991670E-01 a       406     1     6     2     6
 -3.3870725640027743E-01 a       407     1     6     2     7
  9.8358113133516098E-02 a       408     1     6     2     8
  3.8022018522459422E-01 a       409     1     6     2     9
  3.5058117840032182E-01 a       410     1     6     2    10
 -4.7834875060009280E-01 a       411     1     6     2    11
  3.5336827155394107E-01 a       412     1     6     2    12
 -3.0003896774776601E-01 a       413     1     6     2    13
 -2.3739576591101250E-01 a       414     1     6     2    14
 -4.2976453592787267E-01 a       415     1     6     2    15
 -5.9452812372321651E-01 a       416     1     6     2    16
  6.4865896009073151E-02 a       417     1     6     2    17
 -4.1773589679389878E-01 a       418     1     6     2    18
 -3.8622138543634332E-01 a       419     1     6     2    19
 -4.3831730148101600E-01 a       420     1     6     2    20
 -2.0342420051662630E-01 a       421     1     7     2     1
 -2.1712523851758225E-01 a       422     1     7     2     2
 -4.7604388184795077E-01 a       423     1     7     2     3
 -5.8046261942137045E-01 a       424     1     7     2     4
  3.4257948881619182E-01 a       425     1     7     2     5
 -5.0490541489656038E-01 a       426     1     7     2     6
  4.8004314930444152E-02 a       427     1     7     2     7
 -5.0946834144603104E-01 a       428     1     7     2     8
 -3.7931485997005132E-01 a       429     1     7     2     9
 -4.5947734580022376E-01 a       430     1     7     2    10
  5.4217930485938914E-01 a       431     1     7     2    11
 -4.6667064544806136E-01 a       432     1     7     2    12
 -2.3210845018528792E-01 a       433     1     7     2    13
  1.7453215199773162E-01 a       434     1     7     2    14
  3.1614604867476848E-01 a       435     1     7     2    15
 -2.7266633919581534E-01 a       436     1     7     2    16
 -2.1954208363613767E-01 a       437     1     7     2    17
 -3.0211622909096864E-01 a       438     1     7     2    18
 -1.1411622979776614E-02 a       439     1     7     2    19
 -8.4452106878563499E-02 a       440     1     7     2    20
 -9.6311061091339883E-02 a       441     1     8     2     1
 -4.7456883004548742E-02 a       442     1     8     2     2
 -3.4973356066205419E-01 a       443     1     8     2     3
 -1.9984304478323994E-01 a       444     1     8     2     4
 -5.9381550731858379E-01 a       445     1     8     2     5
  3.4007590923019843E-01 a       446     1     8     2     6
  1.4345079017260842E-01 a       447     1     8     2     7
 -3.1126195648282567E-01 a       448     1     8     2     8
  2.3916804408356515E-02 a       449     1     8     2     9
  1.5139966950358424E-01 a       450     1     8     2    10
 -1.6128208604639932E-01 a       451     1     8     2    11
 -4.3615812747172106E-01 a       452     1     8     2    12
 -2.1620288099219656E-01 a       453     1     8     2    13
 -8.0649271153036967E-02 a       454     1     8     2    14
 -1.3813943695656655E-01 a       455     1     8     2    15
  6.9788951626714846E-01 a       456     1     8     2    16
 -6.0856607301823562E-01 a       457     1     8     2    17
 -1.3446703283991379E-01 a       458     1     8     2    18
 -1.5296376847581936E-01 a       459     1     8     2    19
  5.0753413777017986E-01 a       460     1     8     2    20
  3.3451761799192919E-01 a       461     1     9     2     1
 -3.4131587658684853E-01 a       462     1     9     2     2
  3.3078044314962407E-01 a       463     1     9     2     3
  2.6653325736685066E-02 a       464     1     9     2     4
  1.1828970559915379E-01 a       465     1     9     2     5
 -4.5638929809079531E-01 a       466     1     9     2     6
  5.2105215544708428E-01 a       467     1     9     2     7
 -3.5489909917851489E-02 a       468     1     9     2     8
 -2.0991995728483243E-01 a       469     1     9     2     9
 -1.3542705570097227E-01 a       470     1     9     2    10
 -4.8416304352092243E-01 a       471     1     9     2    11
  4.5093619153330905E-01 a       472     1     9     2    12
 -1.8063527285929637E-01 a       473     1     9     2    13
 -1.7181113501239967E-01 a       474     1     9     2    14
 -3.6029856254139098E-01 a       475     1     9     2    15
  4.5896372053597906E-01 a       476     1     9     2    16
  6.0909563590258387E-01 a       477     1     9     2    17
 -4.4119424671189306E-01 a       478     1     9     2    18
  1.4207047482004320E-01 a       479     1     9     2    19
  5.4400378355640688E-01 a       480     1     9     2    20
  5.2619037510504230E-01 a       481     1    10     2     1
  4.7951358238600622E-01 a       482     1    10     2     2
 -5.0967178026764615E-01 a       483     1    10     2     3
 -1.4357105731714602E-02 a       484     1    10     2     4
 -3.1376294466813409E-01 a       485     1    10     2     5
  3.2371517941723010E-01 a       486     1    10     2     6
 -7.4060484658470738E-01 a       487     1    10     2     7
  5.8345315447281243E-01 a       488     1    10     2     8
 -4.3781960692881366E-01 a       489     1    10     2     9
  1.7623601629744615E-01 a       490     1    10     2    10
  1.3218126214140499E-01 a       491     1    10     2    11
 -4.6184128236770111E-01 a       492     1    10     2    12
  1.1684156950373661E-01 a       493     1    10     2    13
 -1.6758897791398530E-01 a       494     1    10     2    14
 -7.1493622322246642E-01 a       495     1    10     2    15
 -3.9376420873864154E-01 a       496     1    10     2    16
  5.6912113952794108E-01 a       497     1    10     2    17
 -4.5199969118539296E-01 a       498     1    10     2    18
  4.9054743742469320E-01 a       499     1    10     2    19
  3.6307374395619990E-01 a       500     1    10     2    20
  1.9540914609343102E-01 a       501     1    11     2     1
 -3.1602108441632987E-01 a       502     1    11     2     2
 -3.9487805836116524E-01 a       503     1    11     2     3
  1.2584360869162986E-01 a       504     1    11     2     4
  1.3755231106807549E-02 a       505     1    11     2     5
  2.4288313972797435E-01 a       506     1    11     2     6
  6.6061451462008114E-01 a       507     1    11     2     7
 -4.6093409481722358E-01 a       508     1    11     2     8
 -6.3433844738026313E-01 a       509     1    11     2     9
  3.2039266378214949E-02 a       510     1    11     2    10
 -3.2405975817997335E-01 a       511     1    11     2    11
 -2.8198056160187890E-01 a       512     1    11     2    12
  2.6677386702222627E-01 a       513     1    11     2    13
  7.5960742899654898E-01 a       514     1    11     2    14
 -5.0160149359420292E-01 a       515     1    11     2    15
 -4.0628934454127026E-02 a       516     1    11     2    16
  3.5703011982245075E-01 a       517     1    11     2    17
 -4.7878172299087729E-01 a       518     1    11     2    18
 -3.5648494372847922E-01 a       519     1    11     2    19
 -4.6828105990981549E-02 a       520     1    11     2    20
  7.3228144700018691E-02 a       521     1    12     2     1
 -2.4632996957497982E-01 a       522     1    12     2     2
  3.8578315905201360E-01 a       523     1    12     2     3
 -5.3298462166159211E-01 a       524     1    12     2     4
 -4.2373944215638576E-01 a       525     1    12     2     5
  4.7704168510759942E-01 a       526     1    12     2     6
  1.9492864708335800E-01 a       527     1    12     2     7
  2.7522786423788782E-02 a       528     1    12     2     8
 -3.7830582569968235E-01 a       529     1    12     2     9
 -1.7408824566559700E-01 a       530     1    12     2    10
 -3.0508467460835054E-01 a       531     1    12     2    11
  2.3488174379306562E-01 a       532     1    12     2    12
  6.6777192219556317E-02 a       533     1    12     2    13
  1.8345145396926257E-01 a       534     1    12     2    14
  2.5948016356967823E-01 a       535     1    12     2    15
 -8.9205215393377627E-02 a       536     1    12     2    16
  2.8123863893960172E-01 a       537     1    12     2    17
  3.9163001936046932E-01 a       538     1    12     2    18
 -4.2439618410679440E-02 a       539     1    12     2    19
  2.9856017164316379E-01 a       540     1    12     2    20
 -4.5703034348275606E-01 a       541     1    13     2     1
 -3.8371890732597175E-01 a       542     1    13     2     2
  2.2551291545196581E-01 a       543     1    13     2     3
  4.8206431262994176E-01 a       544     1    13     2     4
 -2.6553393405895015E-01 a       545     1    13     2     5
  3.9202749433907141E-01 a       546     1    13     2     6
  4.3553589538959747E-01 a       547     1    13     2     7
  5.1019165703382285E-01 a       548     1    13     2     8
 -6.4142373255477100E-02 a       549     1    13     2     9
  9.2140385973888253E-02 a       550     1    13     2    10
  7.8779225328030139E-02 a       551     1    13     2    11
 -4.0305273115442582E-03 a       552     1    13     2    12
  4.2975966388892534E-01 a       553     1    13     2    13
  1.3077223910666130E-01 a       554     1    13     2    14
  4.6003550813000843E-01 a       555     1    13     2    15
  5.4835838625774613E-01 a       556     1    13     2    16
 -3.3698549573102476E-01 a       557     1    13     2    17
  3.6891202223409186E-01 a       558     1    13     2    18
  2.6629685228642741E-01 a       559     1    13     2    19
  2.0812781941630021E-01 a       560     1    13     2    20
  1.6883942080046008E-01 a       561     1    14     2     1
  5.7963446856812384E-01 a       562     1    14     2     2
 -6.0361077564060339E-01 a       563     1    14     2     3
  1.6233268534304724E-02 a       564     1    14     2     4
 -1.1624123505102994E-01 a       565     1    14     2     5
 -4.7330640425286563E-01 a       566     1    14     2     6
 -2.1855877891962525E-01 a       567     1    14     2     7
 -4.4996934294840757E-01 a       568     1    14     2     8
 -3.6349506643971147E-01 a       569     1    14     2     9
 -5.3245074203147469E-01 a       570     1    14     2    10
 -5.3289179584216595E-01 a       571     1    14     2    11
 -2.9793356797044390E-01 a       572     1    14     2    12
  1.7175181968171854E-01 a       573     1    14     2    13
 -1.7004425448923335E-01 a       574     1    14     2    14
  9.1140406333126145E-02 a       575     1    14     2    15
 -3.0390833997491429E-01 a       576     1    14     2    16
 -2.6964745526844985E-01 a       577     1    14     2    17
 -4.8922198342747941E-01 a       578     1    14     2    18
 -5.5157665469642281E-01 a       579     1    14     2    19
 -2.0622324829815056E-01 a       580     1    14     2    20
  2.2872170234948197E-02 a       581     1    15     2     1
  4.4082561870785431E-01 a       582     1    15     2     2
 -4.9493223099783240E-01 a       583     1    15     2     3
  4.5042049034897425E-01 a       584     1    15     2     4
 -1.4570648994908536E-01 a       585     1    15     2     5
 -3.4795148091426514E-01 a       586     1    15     2     6
 -5.5782879403495148E-02 a       587     1    15     2     7
  2.3714580949291481E-01 a       588     1    15     2     8
 -4.8917627387158275E-01 a       589     1    15     2     9
 -4.4773760163274456E-01 a       590     1    15     2    10
  4.0357849221395065E-01 a       591     1    15     2    11
 -1.8689033726478532E-01 a       592     1    15     2    12
  1.3226681196080866E-02 a       593     1    15     2    13
 -6.7994468963305166E-01 a       594     1    15     2    14
 -1.2075733666914408E-01 a       595     1    15     2    15
 -6.2174446928389304E-01 a       596     1    15     2    16
 -3.6649691121460404E-01 a       597     1    15     2    17
 -4.0973083145048544E-01 a       598     1    15     2    18
 -3.7924748517497309E-01 a       599     1    15     2    19
  2.7043812962294211E-01 a       600     1    15     2    20
 -2.0105774776961913E-01 a       601     1    16     2     1
  1.2130663797247387E-01 a       602     1    16     2     2
  4.8421618548817286E-01 a       603     1    16     2     3
  2.9495746183499982E-01 a       604     1    16     2     4
 -1.6199868357912589E-01 a       605     1    16     2     5
  1.1683303708536272E-01 a       606     1    16     2     6
  9.7138763349201587E-02 a       607     1    16     2     7
  3.9602012830406602E-01 a       608     1    16     2     8
  2.4011630560637023E-01 a       609     1    16     2     9
 -3.4131187369698113E-01 a       610     1    16     2    10
  1.0784912608069154E-01 a       611     1    16     2    11
 -4.5142473020385832E-01 a       612     1    16     2    12
 -3.9736862391735384E-01 a       613     1    16     2    13
  2.4535963473756553E-01 a       614     1    16     2    14
 -7.8850913014581164E-02 a       615     1    16     2    15
 -2.0305802911087883E-01 a       616     1    16     2    16
  4.6074149267119568E-01 a       617     1    16     2    17
  4.4193100594305407E-01 a       618     1    16     2    18
 -2.0965731187735626E-01 a       619     1    16     2    19
 -2.6560781607121681E-01 a       620     1    16     2    20
  4.8961272056177990E-01 a       621     1    17     2     1
  2.5931240550036710E-01 a       622     1    17     2     2
 -6.1847176231044831E-01 a       623     1    17     2     3
 -3.4195543244787741E-01 a       624     1    17     2     4
 -3.0337657160642223E-01 a       625     1    17     2     5
 -8.2779766554206047E-02 a       626     1    17     2     6
  4.7297650766549687E-01 a       627     1    17     2     7
  2.3447681085329880E-01 a       628     1    17     2     8
 -1.5475986306071024E-01 a       629     1    17     2     9
  4.7754395551027340E-01 a       630     1    17     2    10
  1.0163114641003830E-01 a       631     1    17     2    11
 -2.1112125826054579E-01 a       632     1    17     2    12
  5.2135421582224606E-01 a       633     1    17     2    13
  1.4617313722931780E-01 a       634     1    17     2    14
  8.1333002315855482E-02 a       635     1    17     2    15
  3.0397951259731820E-01 a       636     1    17     2    16
  3.1711433302929304E-02 a       637     1    17     2    17
 -3.1744064771706609E-01 a       638     1    17     2    18
 -1.8488148086789827E-01 a       639     1    17     2    19
 -3.1996170586425593E-01 a       640     1    17     2    20
 -3.6868014430507068E-01 a       641     1    18     2     1
 -2.3464005590585230E-01 a       642     1    18     2     2
  1.1613955684439684E-01 a       643     1    18     2     3
  2.5804565622293707E-01 a       644     1    18     2     4
  3.7472955625627247E-01 a       645     1    18     2     5
  8.0129687742037492E-02 a       646     1    18     2     6
 -5.1319375828272307E-01 a       647     1    18     2     7
  6.1604569030859722E-03 a       648     1    18     2     8
 -4.8449601284696997E-01 a       649     1    18     2     9
  2.5680968172415120E-01 a       650     1    18     2    10
  3.0446426758804551E-01 a       651     1    18     2    11
 -1.9269128789005771E-01 a       652     1    18     2    12
  1.0272091118140299E-01 a       653     1    18     2    13
  3.2341966708547376E-01 a       654     1    18     2    14
  1.0768966223902038E-01 a       655     1    18     2    15
 -9.7736063247274865E-02 a       656     1    18     2    16
 -4.0850535124393128E-01 a       657     1    18     2    17
  4.9324789879118319E-01 a       658     1    18     2    18
 -4.0814286271314565E-01 a       659     1    18     2    19
 -5.4227652235840651E-01 a       660     1    18     2    20
  2.4487190007097492E-01 a       661     1    19     2     1
  2.5707710167689857E-01 a       662     1    19     2     2
 -2.6735220635965486E-02 a       663     1    19     2     3
  1.2450167156379979E-01 a       664     1    19     2     4
 -2.2453248957840519E-01 a       665     1    19     2     5
 -3.5906043943028737E-02 a       666     1    19     2     6
 -1.2757927376238928E-02 a       667     1    19     2     7
  3.5238996678449652E-02 a       668     1    19     2     8
  3.2011617812806425E-01 a       669     1    19     2     9
  5.4882129148347829E-02 a       670     1    19     2    10
 -3.5590890096301842E-01 a       671     1    19     2    11
 -4.2590433298461888E-01 a       672     1    19     2    12
  3.6103545535626069E-01 a       673     1    19     2    13
  9.1300979564062723E-01 a       674     1    19     2    14
 -4.0033520611309192E-01 a       675     1    19     2    15
  1.5180353092576981E-02 a       676     1    19     2    16
  5.1359815799329323E-01 a       677     1    19     2    17
  4.5573266155932729E-01 a       678     1    19     2    18
 -3.4522667015307745E-01 a       679     1    19     2    19
  7.6729614915344536E-03 a       680     1    19     2    20
 -5.7005909353360817E-01 a       681     1    20     2     1
  1.4837790821002592E-01 a       682     1    20     2     2
 -3.1578120895033879E-01 a       683     1    20     2     3
  1.7825393405694606E-01 a       684     1    20     2     4
 -1.7540759814325435E-01 a       685     1    20     2     5
  8.7382362267150043E-02 a       686     1    20     2     6
  4.3944720451131319E-01 a       687     1    20     2     7
  1.3215831012630733E-03 a       688     1    20     2     8
  3.7999907853227194E-01 a       689     1    20     2     9
 -3.6870754474461537E-01 a       690     1    20     2    10
  6.5125366990851613E-02 a       691     1    20     2    11
  4.6813789111330073E-01 a       692     1    20     2    12
 -3.2415533364969756E-01 a       693     1    20     2    13
 -2.7077859422288947E-01 a       694     1    20     2    14
  2.5300310561427852E-01 a       695     1    20     2    15
  1.8650959294366068E-01 a       696     1    20     2    16
 -9.9959871709455597E-02 a       697     1    20     2    17
  6.0179262876723108E-02 a       698     1    20     2    18
 -5.6431503859576859E-01 a       699     1    20     2    19
 -4.8016195452546051E-01 a       700     1    20     2    20
  5.1227041815466987E-02 b       701     2     1
  2.6723640465608917E-01 b       702     2     2
  2.9709329069819523E-01 b       703     2     3
  9.7018653732698112E-01 b       704     2     4
 -1.0955640638575326E+00 b       705     2     5
  5.6946278691055086E-01 b       706     2     6
  1.0142925430200060E+00 b       707     2     7
  1.5801878984455826E+00 b       708     2     8
 -1.3850526100080904E+00 b       709     2     9
  3.5100608509763281E-01 b       710     2    10
 -5.2910844839204818E-01 b       711     2    11
  2.7680452717643828E-02 b       712     2    12
 -1.6816322728106500E-01 b       713     2    13
 -4.0149819265022024E-01 b       714     2    14
 -5.2432488894411267E-01 b       715     2    15
 -1.7676964074441390E-01 b       716     2    16
 -4.3099243988849117E-01 b       717     2    17
 -1.5527673970116693E+00 b       718     2    18
  1.3405279180961236E+00 b       719     2    19
 -5.6796867219383318E-01 b       720     2    20
  3.2603574605575159E-01 a       721     2     1     3     1
 -6.9854939559059426E-01 a       722     2     2     3     1
  1.2296029473528871E+00 a       723     2     3     3     1
  3.2827851087587551E-01 a       724     2     4     3     1
 -6.7091625960204659E-01 a       725     2     5     3     1
  1.0235241194680627E+00 a       726     2     6     3     1
  3.1542962420188358E-01 a       727     2     7     3     1
 -3.4751714210044021E-01 a       728     2     8     3     1
 -3.2782105946830384E-02 a       729     2     9     3     1
  7.9509296304714672E-01 a       730     2    10     3     1
  9.2010023343472191E-01 a       731     2    11     3     1
  3.0404158495795031E-01 a       732     2    12     3     1
 -3.8060124591570743E-01 a       733     2    13     3     1
  2.1697467760300712E-01 a       734     2    14     3     1
 -8.7432571986331287E-01 a       735     2    15     3     1
 -8.5270881412508859E-01 a       736     2    16     3     1
  1.1312240944064433E-01 a       737     2    17     3     1
 -1.0716860578486635E-01 a       738     2    18     3     1
  2.9688794902279236E-01 a       739     2    19     3     1
  2.4031619222957840E-01 a       740     2    20     3     1
  2.0747406433034837E-01 b       741     3     1
