################################################################################
# Neural network connection values (weights and biases).
################################################################################
# Col  Name       Description
################################################################################
# 1    connection Neural network connection value.
# 2    t          Connection type (a = weight, b = bias).
# 3    index      Index enumerating weights.
# 4    l_s        Starting point layer (end point layer for biases).
# 5    n_s        Starting point neuron in starting layer (end point neuron for biases).
# 6    l_e        End point layer.
# 7    n_e        End point neuron in end layer.
################################################################################
#                      1 2         3     4     5     6     7
#             connection t     index   l_s   n_s   l_e   n_e
############################################################
 -1.8016221332117693E-01 a         1     0     1     1     1
 -1.5300352093124472E-01 a         2     0     1     1     2
  4.7027639821163680E-01 a         3     0     1     1     3
 -3.5397907007372403E-01 a         4     0     1     1     4
  5.2389725954319177E-01 a         5     0     1     1     5
  7.4946902917838032E-01 a         6     0     1     1     6
 -1.7051993302769233E-01 a         7     0     1     1     7
  1.0191614092115876E-01 a         8     0     1     1     8
 -1.7930611912962541E-01 a         9     0     1     1     9
  3.8629923766318419E-01 a        10     0     1     1    10
  5.8047228123617933E-01 a        11     0     1     1    11
 -3.0149110326911910E-01 a        12     0     1     1    12
 -8.1812925934686420E-01 a        13     0     1     1    13
  6.7936127659282208E-01 a        14     0     1     1    14
 -9.6656790568216883E-02 a        15     0     1     1    15
  3.0930215019506763E-01 a        16     0     1     1    16
 -3.3251683408939475E-01 a        17     0     1     1    17
  4.0696717281893102E-01 a        18     0     1     1    18
  6.4554011592013638E-01 a        19     0     1     1    19
  2.1905022385816630E-01 a        20     0     1     1    20
  1.6145830816649850E-01 a        21     0     2     1     1
  6.1211080666749540E-01 a        22     0     2     1     2
  6.6476397857834923E-01 a        23     0     2     1     3
  6.9171051839721664E-01 a        24     0     2     1     4
 -4.4077915078855773E-01 a        25     0     2     1     5
 -2.3087303692490450E-02 a        26     0     2     1     6
  3.0165249655782250E-01 a        27     0     2     1     7
 -6.9016469091983002E-01 a        28     0     2     1     8
  5.8353860190617768E-01 a        29     0     2     1     9
  5.0222932779757667E-01 a        30     0     2     1    10
  4.6921433830865306E-01 a        31     0     2     1    11
  6.7930686470096913E-01 a        32     0     2     1    12
 -3.3019102395721839E-01 a        33     0     2     1    13
 -7.2100495372448847E-01 a        34     0     2     1    14
  3.0455108310497365E-02 a        35     0     2     1    15
 -9.5553737268395722E-02 a        36     0     2     1    16
  4.4340848356434043E-01 a        37     0     2     1    17
  4.6265656111081493E-01 a        38     0     2     1    18
  4.5584719156825090E-02 a        39     0     2     1    19
  9.9757687966328095E-03 a        40     0     2     1    20
  4.7192608386251517E-01 a        41     0     3     1     1
  5.5076655273583042E-01 a        42     0     3     1     2
 -2.3089836297229255E-01 a        43     0     3     1     3
 -2.5660357576165299E-01 a        44     0     3     1     4
 -4.8033180436559852E-01 a        45     0     3     1     5
  2.8781813370060860E-01 a        46     0     3     1     6
 -5.0924837235592613E-01 a        47     0     3     1     7
  2.3920913947878650E-01 a        48     0     3     1     8
 -1.0496773184505376E-01 a        49     0     3     1     9
  6.5608111807796210E-01 a        50     0     3     1    10
 -3.9603804931947995E-01 a        51     0     3     1    11
 -5.4665990393903818E-01 a        52     0     3     1    12
 -4.1029460645401000E-01 a        53     0     3     1    13
 -1.4372160838261314E-01 a        54     0     3     1    14
 -6.7535794715001693E-02 a        55     0     3     1    15
  2.8545925880297107E-01 a        56     0     3     1    16
  5.6299681301441329E-01 a        57     0     3     1    17
  2.6933421163648880E-01 a        58     0     3     1    18
  4.6649862453869528E-01 a        59     0     3     1    19
  7.8273766791676702E-01 a        60     0     3     1    20
  2.2928108848809289E-01 a        61     0     4     1     1
  4.7917228171967496E-01 a        62     0     4     1     2
 -2.1379084044460489E-01 a        63     0     4     1     3
  4.7720795039517955E-01 a        64     0     4     1     4
 -1.4699239822246532E-01 a        65     0     4     1     5
 -3.4882129944224660E-01 a        66     0     4     1     6
 -1.3311070332321084E-01 a        67     0     4     1     7
 -2.4175095413388320E-01 a        68     0     4     1     8
 -1.0719217907154056E-01 a        69     0     4     1     9
 -4.3917495277506963E-01 a        70     0     4     1    10
  4.7643943856741860E-01 a        71     0     4     1    11
  4.3006373269754505E-01 a        72     0     4     1    12
 -3.5563482001312113E-01 a        73     0     4     1    13
  1.1968131122490877E-01 a        74     0     4     1    14
  5.3543296990343436E-01 a        75     0     4     1    15
  5.8363988631762898E-01 a        76     0     4     1    16
  5.7931941523920871E-01 a        77     0     4     1    17
  1.4751735451338804E-01 a        78     0     4     1    18
  3.5772379259795639E-01 a        79     0     4     1    19
 -4.6014707021681522E-01 a        80     0     4     1    20
  1.4277274466050976E-01 a        81     0     5     1     1
 -8.9805258417130029E-01 a        82     0     5     1     2
 -6.6556905669767152E-01 a        83     0     5     1     3
  4.7865798433319229E-01 a        84     0     5     1     4
 -6.3483944101019929E-01 a        85     0     5     1     5
  6.7525483324412183E-01 a        86     0     5     1     6
  2.5937252420119328E-01 a        87     0     5     1     7
 -6.3047397431862773E-01 a        88     0     5     1     8
  3.1674775367642144E-01 a        89     0     5     1     9
  2.8808454197578831E-01 a        90     0     5     1    10
  3.8199131724699015E-01 a        91     0     5     1    11
 -5.7969172263434376E-01 a        92     0     5     1    12
  4.0534463823240691E-01 a        93     0     5     1    13
  8.7713785869640404E-02 a        94     0     5     1    14
 -3.1635310743993339E-01 a        95     0     5     1    15
  2.7952999638359816E-01 a        96     0     5     1    16
  4.1578441546741080E-01 a        97     0     5     1    17
 -7.5183676994738391E-01 a        98     0     5     1    18
 -3.8440329420995578E-01 a        99     0     5     1    19
 -3.8450583635555688E-02 a       100     0     5     1    20
  1.8322556408966274E-02 a       101     0     6     1     1
 -1.7975530322635833E-01 a       102     0     6     1     2
  7.0035636207526752E-01 a       103     0     6     1     3
 -1.4620970285592733E-01 a       104     0     6     1     4
  6.6320873811880532E-01 a       105     0     6     1     5
  5.6428555133270653E-01 a       106     0     6     1     6
  5.3520739616365232E-01 a       107     0     6     1     7
 -6.4879784261367868E-02 a       108     0     6     1     8
  6.3110395199616365E-01 a       109     0     6     1     9
 -9.8601150097302567E-02 a       110     0     6     1    10
  6.0370141008150935E-01 a       111     0     6     1    11
 -1.0037254315622640E-01 a       112     0     6     1    12
 -2.9524529890793422E-01 a       113     0     6     1    13
 -2.7104966615261988E-01 a       114     0     6     1    14
 -1.3353084439022281E-01 a       115     0     6     1    15
 -3.4103527741458051E-01 a       116     0     6     1    16
 -4.3591824936985263E-01 a       117     0     6     1    17
  6.3690833665100111E-01 a       118     0     6     1    18
 -3.0301002187635889E-01 a       119     0     6     1    19
  2.7501681586922566E-01 a       120     0     6     1    20
 -8.3769805320663748E-01 a       121     0     7     1     1
  9.0280610675761881E-03 a       122     0     7     1     2
 -3.4053628529873176E-01 a       123     0     7     1     3
 -1.9649712456266513E-01 a       124     0     7     1     4
  7.3869852765852462E-01 a       125     0     7     1     5
 -3.1306956608758796E-01 a       126     0     7     1     6
  3.9591879914164035E-01 a       127     0     7     1     7
  4.7029709652505530E-01 a       128     0     7     1     8
 -4.4494107459697929E-01 a       129     0     7     1     9
 -1.4273907321525342E-01 a       130     0     7     1    10
 -2.8235446537718308E-03 a       131     0     7     1    11
 -1.2076316444087919E-01 a       132     0     7     1    12
  5.3625221229159270E-01 a       133     0     7     1    13
  1.4366316128252762E-01 a       134     0     7     1    14
  4.6187785308499341E-01 a       135     0     7     1    15
  5.9521015430827517E-01 a       136     0     7     1    16
 -1.3601789312148990E-01 a       137     0     7     1    17
  7.1136418707808280E-01 a       138     0     7     1    18
 -2.3136095427437964E-01 a       139     0     7     1    19
 -6.7076063426412313E-01 a       140     0     7     1    20
 -1.7071440921356290E-01 a       141     0     8     1     1
  1.9449991027578273E-02 a       142     0     8     1     2
 -1.6528065388511062E-01 a       143     0     8     1     3
  1.9990349758110851E-01 a       144     0     8     1     4
  9.5261288304562264E-02 a       145     0     8     1     5
  2.6995337534581626E-01 a       146     0     8     1     6
  4.5464675733659082E-01 a       147     0     8     1     7
  4.4392849812760232E-01 a       148     0     8     1     8
  6.2117349601931826E-01 a       149     0     8     1     9
 -5.0427894999183998E-01 a       150     0     8     1    10
  3.6392261303779855E-01 a       151     0     8     1    11
 -6.1941554878872407E-01 a       152     0     8     1    12
 -8.6561932011077411E-02 a       153     0     8     1    13
  7.5300331994596170E-01 a       154     0     8     1    14
  2.2791049156932086E-01 a       155     0     8     1    15
  5.4489332658812895E-02 a       156     0     8     1    16
 -3.6108550547696455E-01 a       157     0     8     1    17
 -2.8747457037787671E-01 a       158     0     8     1    18
 -4.5731774832260152E-01 a       159     0     8     1    19
 -5.7271947021207381E-01 a       160     0     8     1    20
 -9.7313794784280705E-02 a       161     0     9     1     1
 -1.8431770735465414E-01 a       162     0     9     1     2
 -4.5835043583554874E-01 a       163     0     9     1     3
  8.5764535745338800E-03 a       164     0     9     1     4
 -2.5268822477243952E-01 a       165     0     9     1     5
 -4.6311478245457505E-01 a       166     0     9     1     6
  5.7895957712130663E-01 a       167     0     9     1     7
 -1.0246798518621945E-01 a       168     0     9     1     8
 -3.7161587867564155E-01 a       169     0     9     1     9
  5.8209905772587645E-01 a       170     0     9     1    10
  2.3862884239549137E-01 a       171     0     9     1    11
  1.3332337626669785E-01 a       172     0     9     1    12
  3.8243017807977708E-01 a       173     0     9     1    13
 -5.0187325648802616E-01 a       174     0     9     1    14
  2.8267492739657241E-01 a       175     0     9     1    15
 -6.2832748126664284E-01 a       176     0     9     1    16
 -4.3443356100545499E-01 a       177     0     9     1    17
 -4.4137308327280284E-01 a       178     0     9     1    18
 -6.3110734932783086E-01 a       179     0     9     1    19
  3.3382879729685638E-01 a       180     0     9     1    20
  5.9123013482152476E-01 a       181     0    10     1     1
 -1.1790037644417639E-01 a       182     0    10     1     2
 -2.9962851125159140E-01 a       183     0    10     1     3
  6.6093593506901849E-01 a       184     0    10     1     4
 -1.2695624453860602E-01 a       185     0    10     1     5
  5.3090679064347035E-01 a       186     0    10     1     6
  1.6862897208784292E-01 a       187     0    10     1     7
 -3.9018526793693220E-01 a       188     0    10     1     8
 -7.8648302354745514E-01 a       189     0    10     1     9
 -4.1163291645137423E-01 a       190     0    10     1    10
  5.9936230348974562E-01 a       191     0    10     1    11
  5.9194634794094037E-02 a       192     0    10     1    12
  3.7023582801195887E-01 a       193     0    10     1    13
 -5.4049758413989546E-01 a       194     0    10     1    14
  4.4006746765247318E-01 a       195     0    10     1    15
  7.7701253581124341E-02 a       196     0    10     1    16
  3.5751299079441018E-01 a       197     0    10     1    17
  5.7764906057942010E-02 a       198     0    10     1    18
 -4.3232235090639665E-01 a       199     0    10     1    19
  3.7398189087999612E-01 a       200     0    10     1    20
 -3.0655607922803796E-01 a       201     0    11     1     1
 -2.4944329618991470E-01 a       202     0    11     1     2
  6.0201036513163837E-02 a       203     0    11     1     3
  5.9092962370287316E-01 a       204     0    11     1     4
 -3.2314244057531522E-01 a       205     0    11     1     5
  4.9895288652541513E-03 a       206     0    11     1     6
  3.2119958107497831E-01 a       207     0    11     1     7
 -4.3078130669197184E-01 a       208     0    11     1     8
  1.4228027604618917E-01 a       209     0    11     1     9
 -1.9730425083949360E-01 a       210     0    11     1    10
 -2.3922581903394488E-01 a       211     0    11     1    11
  5.2526858091704387E-01 a       212     0    11     1    12
  3.6584830564751886E-01 a       213     0    11     1    13
  1.1607432112489317E-01 a       214     0    11     1    14
 -5.9268297419563309E-01 a       215     0    11     1    15
 -3.3122704903682365E-01 a       216     0    11     1    16
 -4.0295075093311539E-01 a       217     0    11     1    17
  4.1051776086157393E-01 a       218     0    11     1    18
  3.9787026301384731E-01 a       219     0    11     1    19
  4.5810075159612440E-02 a       220     0    11     1    20
  8.7375609676766552E-01 a       221     0    12     1     1
 -5.2590113260823645E-01 a       222     0    12     1     2
  8.9868036187691874E-02 a       223     0    12     1     3
 -5.6194604565625805E-01 a       224     0    12     1     4
 -5.4182398167493062E-01 a       225     0    12     1     5
  1.7066888723965865E-01 a       226     0    12     1     6
  4.0716276736159041E-01 a       227     0    12     1     7
  6.0999976574335746E-01 a       228     0    12     1     8
 -2.4566130274058628E-01 a       229     0    12     1     9
 -7.3654615401822465E-01 a       230     0    12     1    10
 -4.6756114396065990E-01 a       231     0    12     1    11
 -7.2772145219276130E-01 a       232     0    12     1    12
  5.3173435991361484E-01 a       233     0    12     1    13
 -1.0902466829909949E-01 a       234     0    12     1    14
  6.9280176297182561E-01 a       235     0    12     1    15
  5.2478123476481586E-01 a       236     0    12     1    16
 -5.1539365205477039E-01 a       237     0    12     1    17
 -6.4258797442393956E-01 a       238     0    12     1    18
  7.5885670527796867E-01 a       239     0    12     1    19
  5.1073503178060253E-01 a       240     0    12     1    20
  4.0542104861944417E-01 a       241     0    13     1     1
 -3.2110507118496223E-01 a       242     0    13     1     2
  6.2801794787187371E-01 a       243     0    13     1     3
  6.1354259305878300E-01 a       244     0    13     1     4
  3.4671384456871623E-01 a       245     0    13     1     5
 -3.0145645307845442E-01 a       246     0    13     1     6
  6.2469292129923937E-01 a       247     0    13     1     7
  3.4292206122670954E-01 a       248     0    13     1     8
  3.7654565672956697E-01 a       249     0    13     1     9
  7.3196393917393909E-01 a       250     0    13     1    10
  3.6015460683126765E-01 a       251     0    13     1    11
  5.8248615723076635E-01 a       252     0    13     1    12
 -1.9308509533798515E-01 a       253     0    13     1    13
 -8.4869068971250783E-01 a       254     0    13     1    14
  8.9373001279333453E-01 a       255     0    13     1    15
  3.8247926438766727E-01 a       256     0    13     1    16
 -4.4834753716425091E-01 a       257     0    13     1    17
 -2.0092159680240984E-01 a       258     0    13     1    18
 -5.2546955229085579E-01 a       259     0    13     1    19
  5.9319575039072236E-01 a       260     0    13     1    20
 -7.0897049172167478E-02 a       261     0    14     1     1
  6.4735213662348567E-01 a       262     0    14     1     2
  6.1774150213602030E-01 a       263     0    14     1     3
 -9.8881190611011374E-02 a       264     0    14     1     4
 -1.3331988627270352E-01 a       265     0    14     1     5
 -5.2851836873203362E-01 a       266     0    14     1     6
 -5.2974131493499166E-01 a       267     0    14     1     7
  4.9363386672505338E-01 a       268     0    14     1     8
 -4.6788972551995295E-01 a       269     0    14     1     9
 -3.3957670744120144E-01 a       270     0    14     1    10
 -4.2188456617752418E-01 a       271     0    14     1    11
  1.6378053131739501E-01 a       272     0    14     1    12
  4.1819888580834069E-01 a       273     0    14     1    13
 -2.9081443315851413E-02 a       274     0    14     1    14
 -4.8681908628936971E-01 a       275     0    14     1    15
 -6.1246274773976261E-01 a       276     0    14     1    16
  3.4787595729382154E-01 a       277     0    14     1    17
 -2.1970211377747967E-01 a       278     0    14     1    18
 -8.5274602025245727E-02 a       279     0    14     1    19
  3.9901800048295855E-01 a       280     0    14     1    20
  2.4271884651098885E-01 b       281     1     1
  4.8748023896422171E-01 b       282     1     2
 -1.8319176932166383E+00 b       283     1     3
 -1.1665978129015770E+00 b       284     1     4
 -7.0810990904374738E-01 b       285     1     5
  1.3100299837849838E+00 b       286     1     6
 -9.8590620331929579E-01 b       287     1     7
 -3.2432277536844856E-01 b       288     1     8
  1.6519084425473847E+00 b       289     1     9
  7.4133869723107693E-01 b       290     1    10
 -1.3548778607244882E+00 b       291     1    11
  1.0242595482335373E+00 b       292     1    12
 -4.9048476807113184E-01 b       293     1    13
 -1.5151935668670000E+00 b       294     1    14
 -1.4839390707029638E+00 b       295     1    15
  4.9495947384482913E-01 b       296     1    16
 -7.1125011507628777E-01 b       297     1    17
 -6.8187545860866805E-01 b       298     1    18
 -1.3216630366097279E+00 b       299     1    19
  1.2423104327451673E+00 b       300     1    20
 -1.5971990064547531E-01 a       301     1     1     2     1
  5.4734158581493320E-01 a       302     1     1     2     2
  3.0989392182874831E-01 a       303     1     1     2     3
 -1.7193423853082604E-01 a       304     1     1     2     4
 -3.7713432071653091E-01 a       305     1     1     2     5
 -5.2664619227758136E-01 a       306     1     1     2     6
 -4.3676216423493758E-01 a       307     1     1     2     7
  5.9591364464394447E-01 a       308     1     1     2     8
  5.1303640001708750E-01 a       309     1     1     2     9
 -3.5326397626426073E-02 a       310     1     1     2    10
 -3.2151804665885547E-01 a       311     1     1     2    11
  1.4799356514978637E-02 a       312     1     1     2    12
 -4.1762843045787029E-01 a       313     1     1     2    13
  2.9631390671735330E-01 a       314     1     1     2    14
 -1.8927933258226104E-01 a       315     1     1     2    15
 -2.3489037922824565E-01 a       316     1     1     2    16
 -2.9125307738479111E-01 a       317     1     1     2    17
  6.3891844871253045E-01 a       318     1     1     2    18
  4.0975757539882096E-01 a       319     1     1     2    19
 -3.4090373407107827E-01 a       320     1     1     2    20
 -6.3854623744521766E-01 a       321     1     2     2     1
 -3.5328349633975481E-01 a       322     1     2     2     2
  1.7622374693430448E-01 a       323     1     2     2     3
  3.1555980817919005E-01 a       324     1     2     2     4
  2.3194721639968011E-01 a       325     1     2     2     5
  5.2100395261734667E-01 a       326     1     2     2     6
  2.0696880333546569E-01 a       327     1     2     2     7
 -4.0642668892573813E-01 a       328     1     2     2     8
  2.9243115492720972E-01 a       329     1     2     2     9
  4.2957340614757505E-01 a       330     1     2     2    10
 -9.7397559543349721E-02 a       331     1     2     2    11
  1.8495116014308222E-01 a       332     1     2     2    12
 -2.1809766639653433E-01 a       333     1     2     2    13
  4.8729180349733975E-01 a       334     1     2     2    14
  2.0317481983692517E-01 a       335     1     2     2    15
 -3.8253691913000731E-01 a       336     1     2     2    16
  4.9093261991656084E-01 a       337     1     2     2    17
 -6.5934823347618021E-01 a       338     1     2     2    18
 -1.1498844851249691E-01 a       339     1     2     2    19
 -2.1886585809830783E-01 a       340     1     2     2    20
  4.8131330952372925E-01 a       341     1     3     2     1
  5.4412913772314031E-01 a       342     1     3     2     2
 -5.8425735628864384E-01 a       343     1     3     2     3
  3.9020707061161547E-01 a       344     1     3     2     4
 -1.2868438468675097E-01 a       345     1     3     2     5
 -2.1059255369974256E-01 a       346     1     3     2     6
  2.2640235132535227E-01 a       347     1     3     2     7
  1.4731887182938083E-01 a       348     1     3     2     8
 -2.7776529419676255E-01 a       349     1     3     2     9
  2.6641248280712271E-01 a       350     1     3     2    10
  2.9531583645157761E-01 a       351     1     3     2    11
 -1.9582766677254514E-02 a       352     1     3     2    12
 -2.4715087856411638E-01 a       353     1     3     2    13
  3.7720261364606894E-01 a       354     1     3     2    14
  4.1815292308917514E-02 a       355     1     3     2    15
 -4.7095888420059695E-01 a       356     1     3     2    16
 -4.3047827808599681E-01 a       357     1     3     2    17
  3.4018867960505239E-02 a       358     1     3     2    18
 -1.0317067862127026E-01 a       359     1     3     2    19
 -4.7927991101860756E-01 a       360     1     3     2    20
  3.4836478179828717E-01 a       361     1     4     2     1
 -3.0033258375887129E-01 a       362     1     4     2     2
 -5.0004538862076742E-01 a       363     1     4     2     3
  8.6932964774587118E-01 a       364     1     4     2     4
  2.6245410955165201E-02 a       365     1     4     2     5
 -1.8394239804771531E-01 a       366     1     4     2     6
  4.4713704022646128E-02 a       367     1     4     2     7
  2.3073556792433869E-03 a       368     1     4     2     8
 -7.1106165251784437E-01 a       369     1     4     2     9
  4.6118744942228090E-01 a       370     1     4     2    10
  5.5912519803824490E-01 a       371     1     4     2    11
  4.7709783973727216E-02 a       372     1     4     2    12
 -3.2093860149130604E-01 a       373     1     4     2    13
  4.9387293442159846E-01 a       374     1     4     2    14
  1.8548000346734878E-03 a       375     1     4     2    15
 -6.7358253329170903E-01 a       376     1     4     2    16
  3.0879665626123931E-01 a       377     1     4     2    17
  4.4905255229983142E-02 a       378     1     4     2    18
 -5.7291414197020285E-01 a       379     1     4     2    19
 -4.7068517291753870E-01 a       380     1     4     2    20
  6.7302311948657845E-01 a       381     1     5     2     1
 -3.5204372852883012E-02 a       382     1     5     2     2
  1.6286040200067170E-01 a       383     1     5     2     3
 -1.5065900072430177E-01 a       384     1     5     2     4
 -2.7688982673934170E-04 a       385     1     5     2     5
  2.7172855157994297E-01 a       386     1     5     2     6
 -3.9495081290763512E-01 a       387     1     5     2     7
 -3.1362231132751706E-01 a       388     1     5     2     8
  3.1814283956138961E-01 a       389     1     5     2     9
  1.0452748904441540E-01 a       390     1     5     2    10
 -1.0014789531998758E-01 a       391     1     5     2    11
  1.4560812970257220E-01 a       392     1     5     2    12
 -3.9784699426230898E-02 a       393     1     5     2    13
  3.4558100952658971E-01 a       394     1     5     2    14
 -5.1397683753605161E-01 a       395     1     5     2    15
 -3.5907030771090342E-01 a       396     1     5     2    16
 -2.9695477193888620E-01 a       397     1     5     2    17
 -9.2180672218645857E-02 a       398     1     5     2    18
  5.0501503745608201E-01 a       399     1     5     2    19
 -1.3789376532197639E-01 a       400     1     5     2    20
 -1.4065612694281415E-01 a       401     1     6     2     1
  4.0086590833784735E-01 a       402     1     6     2     2
  2.8724833782369463E-01 a       403     1     6     2     3
 -2.8165080908851378E-02 a       404     1     6     2     4
 -1.3004864103999650E-01 a       405     1     6     2     5
 -5.0996913237782625E-02 a       406     1     6     2     6
 -5.8645897059972668E-02 a       407     1     6     2     7
  6.7496409329721541E-01 a       408     1     6     2     8
  5.2199466234335734E-01 a       409     1     6     2     9
  6.7751633737493072E-02 a       410     1     6     2    10
  1.9122180046880174E-01 a       411     1     6     2    11
 -5.9042348451834603E-01 a       412     1     6     2    12
  3.7525473208854432E-01 a       413     1     6     2    13
 -6.1494195801263052E-01 a       414     1     6     2    14
  2.0833095151550543E-01 a       415     1     6     2    15
 -4.7398674495587279E-01 a       416     1     6     2    16
 -6.1324791739860884E-02 a       417     1     6     2    17
  1.4500625582334489E-01 a       418     1     6     2    18
  2.1885075312510677E-01 a       419     1     6     2    19
 -4.3029001297241093E-01 a       420     1     6     2    20
 -1.2340172777509754E-01 a       421     1     7     2     1
  1.4951106705380773E-02 a       422     1     7     2     2
 -3.4545064077248683E-01 a       423     1     7     2     3
 -4.2632414953636580E-02 a       424     1     7     2     4
  5.3401284425944405E-02 a       425     1     7     2     5
 -2.3180157234579033E-02 a       426     1     7     2     6
 -5.0077836241530487E-03 a       427     1     7     2     7
 -1.8853101127142624E-01 a       428     1     7     2     8
  7.0384429145514238E-02 a       429     1     7     2     9
  1.1903683469982312E-01 a       430     1     7     2    10
 -2.1739600593953265E-01 a       431     1     7     2    11
 -2.4755751096502701E-01 a       432     1     7     2    12
 -1.1766213544868416E-01 a       433     1     7     2    13
  1.4093669075349660E-01 a       434     1     7     2    14
 -1.3464490015321218E-01 a       435     1     7     2    15
  5.5195510298347916E-01 a       436     1     7     2    16
 -4.9539127438959180E-01 a       437     1     7     2    17
  4.7408759040059201E-01 a       438     1     7     2    18
  4.9456089921399360E-01 a       439     1     7     2    19
 -4.2040293895577463E-01 a       440     1     7     2    20
 -1.5338387279837506E-01 a       441     1     8     2     1
 -6.4009276396888581E-01 a       442     1     8     2     2
 -3.2524580901074755E-04 a       443     1     8     2     3
 -4.7658659038573165E-02 a       444     1     8     2     4
  3.4216973353429658E-02 a       445     1     8     2     5
 -5.4272031702277090E-01 a       446     1     8     2     6
  3.9419340659875851E-01 a       447     1     8     2     7
 -5.3104653588331541E-01 a       448     1     8     2     8
 -3.7758643420293864E-01 a       449     1     8     2     9
 -1.1580548424350347E-01 a       450     1     8     2    10
  7.4620030312818636E-02 a       451     1     8     2    11
 -4.0874664523674126E-01 a       452     1     8     2    12
 -2.4697870185655321E-03 a       453     1     8     2    13
  3.9379586652787874E-02 a       454     1     8     2    14
 -3.8219348610687559E-01 a       455     1     8     2    15
  2.9764173818726355E-02 a       456     1     8     2    16
 -2.9556031577068775E-01 a       457     1     8     2    17
 -4.3265022536399433E-01 a       458     1     8     2    18
 -3.2020813881050209E-01 a       459     1     8     2    19
 -5.5041305942277952E-01 a       460     1     8     2    20
 -2.9869804276625628E-01 a       461     1     9     2     1
 -4.1637778932265423E-01 a       462     1     9     2     2
 -2.2369912732692554E-01 a       463     1     9     2     3
  4.6211635817285590E-01 a       464     1     9     2     4
  5.9119189940509076E-01 a       465     1     9     2     5
  1.0252190037792522E-01 a       466     1     9     2     6
 -5.7497752317722928E-01 a       467     1     9     2     7
  5.5249466758157395E-01 a       468     1     9     2     8
 -3.6694123196682948E-01 a       469     1     9     2     9
  1.7535279653451855E-01 a       470     1     9     2    10
  6.7199678341377148E-02 a       471     1     9     2    11
  4.4136449999470956E-01 a       472     1     9     2    12
 -1.6885563421812352E-01 a       473     1     9     2    13
 -3.1182659103129051E-01 a       474     1     9     2    14
 -6.5933782205550651E-01 a       475     1     9     2    15
 -4.5996726946910227E-01 a       476     1     9     2    16
 -3.5139832948870614E-01 a       477     1     9     2    17
  4.5204033549037176E-01 a       478     1     9     2    18
  4.0873837470525676E-01 a       479     1     9     2    19
 -2.6802785335871254E-01 a       480     1     9     2    20
 -3.4350790490330985E-01 a       481     1    10     2     1
 -5.1837289859276825E-01 a       482     1    10     2     2
  4.2393287800913781E-01 a       483     1    10     2     3
 -5.4169612116257304E-01 a       484     1    10     2     4
 -2.0245531180262383E-01 a       485     1    10     2     5
 -1.0236910929383798E-01 a       486     1    10     2     6
  2.4416707316749481E-01 a       487     1    10     2     7
  4.0696941747052617E-01 a       488     1    10     2     8
 -3.7914230726867509E-01 a       489     1    10     2     9
 -7.5448883447980064E-02 a       490     1    10     2    10
 -6.9454991941401190E-01 a       491     1    10     2    11
  1.8468733535351248E-01 a       492     1    10     2    12
  3.9959448011353021E-01 a       493     1    10     2    13
 -2.8195703233833129E-02 a       494     1    10     2    14
  2.9572976264559342E-01 a       495     1    10     2    15
 -1.6516566782990902E-01 a       496     1    10     2    16
  1.0919930477139826E-01 a       497     1    10     2    17
 -8.5524226318817356E-02 a       498     1    10     2    18
  4.4847129961662308E-01 a       499     1    10     2    19
 -2.5471694488622598E-01 a       500     1    10     2    20
  2.5486861860040949E-01 a       501     1    11     2     1
 -3.1957042011013459E-02 a       502     1    11     2     2
 -1.9631257341135552E-01 a       503     1    11     2     3
 -8.9418874603255705E-02 a       504     1    11     2     4
 -2.4129175910776465E-01 a       505     1    11     2     5
  2.9138312484113521E-01 a       506     1    11     2     6
  3.4064894856596084E-01 a       507     1    11     2     7
  1.2331223677579913E-02 a       508     1    11     2     8
 -3.4282300809722488E-01 a       509     1    11     2     9
  5.6141836794187105E-01 a       510     1    11     2    10
  7.0756348280625339E-02 a       511     1    11     2    11
  6.0743916686262600E-01 a       512     1    11     2    12
 -6.6419034589119563E-01 a       513     1    11     2    13
 -5.6158141989516908E-01 a       514     1    11     2    14
 -5.4946492475132180E-01 a       515     1    11     2    15
  3.7137798418343548E-01 a       516     1    11     2    16
  5.0019021633006477E-01 a       517     1    11     2    17
 -2.7232575961325750E-01 a       518     1    11     2    18
 -2.4272643876273738E-02 a       519     1    11     2    19
  5.0503508949186648E-01 a       520     1    11     2    20
  4.8261069312904931E-01 a       521     1    12     2     1
  1.7197643744333108E-01 a       522     1    12     2     2
 -6.1166623031069116E-02 a       523     1    12     2     3
 -2.6309198313248579E-02 a       524     1    12     2     4
  4.0889232815272769E-01 a       525     1    12     2     5
 -1.9565340294754086E-01 a       526     1    12     2     6
 -4.3910918288357048E-01 a       527     1    12     2     7
 -8.9020483327137273E-03 a       528     1    12     2     8
 -5.2806959107244200E-02 a       529     1    12     2     9
 -7.0745271774717522E-01 a       530     1    12     2    10
 -2.9963199956379705E-01 a       531     1    12     2    11
  3.1405257424225602E-01 a       532     1    12     2    12
 -1.7234792944545924E-01 a       533     1    12     2    13
 -9.6877102930490330E-02 a       534     1    12     2    14
  1.9204148777671195E-03 a       535     1    12     2    15
 -3.1143839566023407E-01 a       536     1    12     2    16
 -8.6879725142774145E-03 a       537     1    12     2    17
  6.8896098193490782E-02 a       538     1    12     2    18
 -4.4511984946610239E-01 a       539     1    12     2    19
  4.4339262530801771E-01 a       540     1    12     2    20
 -2.4601594788503164E-01 a       541     1    13     2     1
 -2.2903261066510688E-01 a       542     1    13     2     2
  1.7957148222066160E-01 a       543     1    13     2     3
 -6.3228047553659950E-01 a       544     1    13     2     4
  4.0041136041990988E-01 a       545     1    13     2     5
  2.3292945901602621E-01 a       546     1    13     2     6
 -1.2533962256709211E-01 a       547     1    13     2     7
  1.7304608489350920E-01 a       548     1    13     2     8
 -8.4397835601356566E-02 a       549     1    13     2     9
 -4.1209286443605320E-01 a       550     1    13     2    10
 -6.7521877404328867E-01 a       551     1    13     2    11
  3.3501477261313117E-01 a       552     1    13     2    12
 -3.0667282237992644E-01 a       553     1    13     2    13
 -4.9308412974024707E-01 a       554     1    13     2    14
  1.0026902798610324E-01 a       555     1    13     2    15
  2.9143464094784355E-01 a       556     1    13     2    16
 -2.7951832118883874E-01 a       557     1    13     2    17
  5.7043840959641678E-01 a       558     1    13     2    18
 -3.6386634836172405E-01 a       559     1    13     2    19
 -3.9285225285406317E-01 a       560     1    13     2    20
  2.7456508718306000E-01 a       561     1    14     2     1
  3.3120208433959392E-01 a       562     1    14     2     2
 -5.3847851634100363E-01 a       563     1    14     2     3
 -2.1408551664497613E-01 a       564     1    14     2     4
  9.8055657870684931E-02 a       565     1    14     2     5
  5.3046636734518748E-01 a       566     1    14     2     6
 -1.9294351374851727E-02 a       567     1    14     2     7
 -3.4974128312146463E-01 a       568     1    14     2     8
  2.4020015225308644E-01 a       569     1    14     2     9
  1.1155450807372788E-01 a       570     1    14     2    10
 -1.2088868578408440E-01 a       571     1    14     2    11
 -2.9031245299910952E-01 a       572     1    14     2    12
  4.6076874127107403E-01 a       573     1    14     2    13
 -1.9264776238170972E-01 a       574     1    14     2    14
  1.0614322422326139E-01 a       575     1    14     2    15
  1.0110030502489686E-01 a       576     1    14     2    16
  4.7671977007999256E-01 a       577     1    14     2    17
 -6.3009297521460716E-01 a       578     1    14     2    18
  1.9601743210952594E-02 a       579     1    14     2    19
  3.3418096958464960E-01 a       580     1    14     2    20
  2.3224894179739256E-01 a       581     1    15     2     1
 -2.9061110269377399E-01 a       582     1    15     2     2
 -1.5446059785633384E-01 a       583     1    15     2     3
  2.2600402940231326E-01 a       584     1    15     2     4
  3.4001222669289011E-01 a       585     1    15     2     5
  2.1488083845516814E-01 a       586     1    15     2     6
 -4.2243936594161069E-01 a       587     1    15     2     7
 -2.0949885929626866E-01 a       588     1    15     2     8
 -4.1780715999557766E-02 a       589     1    15     2     9
 -3.5951794929209258E-01 a       590     1    15     2    10
  2.7774743599953267E-01 a       591     1    15     2    11
  1.1069715143913401E-01 a       592     1    15     2    12
 -4.9581267964854492E-01 a       593     1    15     2    13
 -7.9259818648790739E-02 a       594     1    15     2    14
 -1.1510821620472260E-01 a       595     1    15     2    15
 -1.0818158931247877E-01 a       596     1    15     2    16
 -9.3445262990295958E-02 a       597     1    15     2    17
  3.9833809260669911E-01 a       598     1    15     2    18
  5.2455748525027324E-01 a       599     1    15     2    19
 -9.5503306023076787E-02 a       600     1    15     2    20
  3.0276745418572576E-01 a       601     1    16     2     1
  3.2058155571368974E-01 a       602     1    16     2     2
 -1.6640689380392240E-01 a       603     1    16     2     3
 -5.9882723324999421E-01 a       604     1    16     2     4
 -7.2374339344024397E-01 a       605     1    16     2     5
 -7.2716452756267730E-02 a       606     1    16     2     6
  1.6429399962179816E-01 a       607     1    16     2     7
  1.4157972019565115E-01 a       608     1    16     2     8
  3.6134753476663939E-01 a       609     1    16     2     9
 -1.4678021193002300E-01 a       610     1    16     2    10
  3.5739215527570939E-01 a       611     1    16     2    11
  4.7293813112429867E-01 a       612     1    16     2    12
  3.6503474408035169E-01 a       613     1    16     2    13
  1.1017040731399382E-01 a       614     1    16     2    14
  6.8403638018143109E-01 a       615     1    16     2    15
  2.4931253079686589E-04 a       616     1    16     2    16
 -5.2249949018231145E-01 a       617     1    16     2    17
 -2.4188247690772288E-01 a       618     1    16     2    18
  1.7781443879069028E-01 a       619     1    16     2    19
 -7.1877139023778874E-02 a       620     1    16     2    20
  4.3071736619402851E-01 a       621     1    17     2     1
  1.9418460559253345E-01 a       622     1    17     2     2
 -6.4240527712081719E-01 a       623     1    17     2     3
  1.8325304264873533E-02 a       624     1    17     2     4
 -1.1320509524202828E-01 a       625     1    17     2     5
 -2.8598026526559539E-01 a       626     1    17     2     6
  1.7534347276701008E-02 a       627     1    17     2     7
  5.3262270852953708E-01 a       628     1    17     2     8
 -3.5507456272889815E-01 a       629     1    17     2     9
 -2.9466527137659210E-01 a       630     1    17     2    10
  2.8817104397529775E-01 a       631     1    17     2    11
 -2.9830639217739069E-01 a       632     1    17     2    12
 -4.5267695143495346E-01 a       633     1    17     2    13
  2.9039551933401020E-01 a       634     1    17     2    14
 -2.0015367817970262E-01 a       635     1    17     2    15
 -7.7357006883835275E-02 a       636     1    17     2    16
 -5.4859425444244637E-02 a       637     1    17     2    17
  3.5525553809488836E-01 a       638     1    17     2    18
 -1.2554952450767323E-01 a       639     1    17     2    19
 -4.5482386357255622E-01 a       640     1    17     2    20
 -3.9014344237425563E-01 a       641     1    18     2     1
 -5.5102559698660925E-01 a       642     1    18     2     2
 -1.2535290504207988E-01 a       643     1    18     2     3
  4.6040795730730744E-01 a       644     1    18     2     4
  7.7004723154587243E-02 a       645     1    18     2     5
 -4.2706289086180310E-01 a       646     1    18     2     6
 -3.0381176940437898E-01 a       647     1    18     2     7
 -5.6736089999836752E-02 a       648     1    18     2     8
 -5.6589988111706468E-01 a       649     1    18     2     9
  2.2644824794931878E-01 a       650     1    18     2    10
 -3.4155318525235701E-01 a       651     1    18     2    11
 -6.3741281982378828E-01 a       652     1    18     2    12
 -5.8521239391923241E-01 a       653     1    18     2    13
  4.3522039423524572E-01 a       654     1    18     2    14
  3.7352470236224788E-01 a       655     1    18     2    15
  4.5258981881515831E-01 a       656     1    18     2    16
  3.7894212941761379E-01 a       657     1    18     2    17
  2.3310383598178469E-01 a       658     1    18     2    18
  5.8775034880641808E-01 a       659     1    18     2    19
 -4.2369496367225540E-01 a       660     1    18     2    20
 -5.1549595076071826E-02 a       661     1    19     2     1
 -1.8038292479888102E-01 a       662     1    19     2     2
 -1.2222487106015070E-01 a       663     1    19     2     3
 -2.4176454445926443E-01 a       664     1    19     2     4
  3.5882008988307296E-01 a       665     1    19     2     5
  3.0533251070816808E-01 a       666     1    19     2     6
  5.3849033866033602E-01 a       667     1    19     2     7
  1.3973476961532960E-01 a       668     1    19     2     8
  5.4663774644732651E-03 a       669     1    19     2     9
 -1.6630187378274880E-01 a       670     1    19     2    10
  1.0333629024433816E-01 a       671     1    19     2    11
  1.8470394879907573E-01 a       672     1    19     2    12
  4.4583781303447811E-01 a       673     1    19     2    13
  2.7386218944667712E-01 a       674     1    19     2    14
 -2.7076246279104482E-01 a       675     1    19     2    15
 -1.1732786465547575E-01 a       676     1    19     2    16
  8.3786559311973915E-02 a       677     1    19     2    17
  2.4169633796503628E-01 a       678     1    19     2    18
  1.5146308322391042E-01 a       679     1    19     2    19
 -3.0587939269153080E-01 a       680     1    19     2    20
  5.5599057667190788E-01 a       681     1    20     2     1
 -5.4622094790526231E-02 a       682     1    20     2     2
 -4.5686002617809574E-01 a       683     1    20     2     3
 -5.6255193671102910E-01 a       684     1    20     2     4
 -3.6843877564621286E-01 a       685     1    20     2     5
  1.8524900793055962E-01 a       686     1    20     2     6
 -4.2547967400173992E-01 a       687     1    20     2     7
  5.0666821869271483E-01 a       688     1    20     2     8
 -3.9306722656714094E-01 a       689     1    20     2     9
 -4.7369803770899571E-01 a       690     1    20     2    10
 -3.1384139635581854E-01 a       691     1    20     2    11
  4.0619909787558212E-01 a       692     1    20     2    12
 -2.0096781282125423E-01 a       693     1    20     2    13
  2.7650107479285158E-01 a       694     1    20     2    14
 -6.7583289957116943E-01 a       695     1    20     2    15
 -5.0411997027440814E-01 a       696     1    20     2    16
 -7.7060563792004710E-02 a       697     1    20     2    17
  1.9707146593818753E-01 a       698     1    20     2    18
  4.5136817339148438E-01 a       699     1    20     2    19
 -1.8094047325773790E-01 a       700     1    20     2    20
 -8.8469137059437231E-01 b       701     2     1
  4.4394623850730441E-01 b       702     2     2
 -6.0084346437911063E-01 b       703     2     3
  1.7125195064504167E-01 b       704     2     4
 -7.3882155708965988E-02 b       705     2     5
 -9.0674769470816996E-01 b       706     2     6
 -3.0439663639449061E-01 b       707     2     7
  1.5900630582950792E+00 b       708     2     8
  5.9935026430376059E-01 b       709     2     9
  2.3681647325418975E-01 b       710     2    10
  6.8331679636621978E-01 b       711     2    11
  7.2379386299818005E-01 b       712     2    12
  1.1458904594968931E+00 b       713     2    13
 -1.8172144082688069E-02 b       714     2    14
  1.5729307022385335E+00 b       715     2    15
 -1.1336351439295633E+00 b       716     2    16
 -1.2375022511858529E+00 b       717     2    17
 -6.9988491215091742E-01 b       718     2    18
  2.1386479896070837E-01 b       719     2    19
  6.0144072251495673E-01 b       720     2    20
  9.9810134659685509E-02 a       721     2     1     3     1
  6.5800426351555849E-02 a       722     2     2     3     1
  9.0822411064642683E-01 a       723     2     3     3     1
 -6.7466988118307014E-01 a       724     2     4     3     1
  4.2732129389603357E-01 a       725     2     5     3     1
 -1.0283443303365338E+00 a       726     2     6     3     1
 -6.9070132101753579E-01 a       727     2     7     3     1
 -8.7287235478606862E-01 a       728     2     8     3     1
 -5.8431388976714360E-01 a       729     2     9     3     1
  5.9089335497913964E-01 a       730     2    10     3     1
  2.4884430782344502E-01 a       731     2    11     3     1
  5.8148403831379680E-01 a       732     2    12     3     1
 -8.3110780692220432E-01 a       733     2    13     3     1
  1.0740876620604589E-01 a       734     2    14     3     1
  4.3918159114346333E-01 a       735     2    15     3     1
  8.0967585717872770E-01 a       736     2    16     3     1
  8.7523652540176711E-01 a       737     2    17     3     1
  7.8481269615529575E-03 a       738     2    18     3     1
 -1.0111000172324473E-02 a       739     2    19     3     1
  1.0968488766721051E-02 a       740     2    20     3     1
  8.3222191938750370E-02 b       741     3     1
