################################################################################
# Neural network connection values (weights and biases).
################################################################################
# Col  Name       Description
################################################################################
# 1    connection Neural network connection value.
# 2    t          Connection type (a = weight, b = bias).
# 3    index      Index enumerating weights.
# 4    l_s        Starting point layer (end point layer for biases).
# 5    n_s        Starting point neuron in starting layer (end point neuron for biases).
# 6    l_e        End point layer.
# 7    n_e        End point neuron in end layer.
################################################################################
#                      1 2         3     4     5     6     7
#             connection t     index   l_s   n_s   l_e   n_e
############################################################
  4.9707412164740644E-01 a         1     0     1     1     1
 -1.3269957037614902E-01 a         2     0     1     1     2
  4.8690974650863189E-01 a         3     0     1     1     3
  7.3138495795496172E-01 a         4     0     1     1     4
 -5.0533026281612259E-01 a         5     0     1     1     5
  4.1517486990072139E-01 a         6     0     1     1     6
  7.5989587513964396E-01 a         7     0     1     1     7
  1.8854065711407700E-01 a         8     0     1     1     8
  2.2743201503015914E-01 a         9     0     1     1     9
  4.9095613209892874E-01 a        10     0     1     1    10
 -3.1821197031387843E-01 a        11     0     1     1    11
 -3.5350306811612919E-01 a        12     0     1     1    12
  4.9433896521202458E-01 a        13     0     1     1    13
 -6.2370786440510229E-01 a        14     0     1     1    14
 -5.2827824438513238E-01 a        15     0     1     1    15
 -5.9274195943248364E-01 a        16     0     1     1    16
 -3.5381318089581576E-01 a        17     0     1     1    17
  4.5942990847867909E-03 a        18     0     1     1    18
 -4.1553720762895191E-01 a        19     0     1     1    19
 -1.4106126892553158E-02 a        20     0     1     1    20
  4.9525889119606065E-01 a        21     0     2     1     1
 -2.3208195551091099E-01 a        22     0     2     1     2
  7.7551989756631834E-01 a        23     0     2     1     3
 -6.3513022087870419E-01 a        24     0     2     1     4
  4.6654827746362715E-01 a        25     0     2     1     5
  3.3364218751658842E-01 a        26     0     2     1     6
 -4.5634068145849960E-01 a        27     0     2     1     7
  3.2912322263953220E-01 a        28     0     2     1     8
 -6.0410100259186628E-01 a        29     0     2     1     9
 -4.1576830736116255E-01 a        30     0     2     1    10
  7.1038063707721011E-01 a        31     0     2     1    11
  4.5202591817752796E-01 a        32     0     2     1    12
  4.9285102647083207E-01 a        33     0     2     1    13
  6.5433170142606134E-01 a        34     0     2     1    14
 -5.0821739980801905E-01 a        35     0     2     1    15
  5.4350140948238146E-01 a        36     0     2     1    16
  2.8931292534697001E-01 a        37     0     2     1    17
  6.1179344296769089E-01 a        38     0     2     1    18
  6.3086698129824126E-01 a        39     0     2     1    19
  1.7722418657410594E-01 a        40     0     2     1    20
 -2.8697576213717046E-01 a        41     0     3     1     1
 -4.4538193305755608E-01 a        42     0     3     1     2
 -7.3406167676299136E-02 a        43     0     3     1     3
  5.4786030429635790E-01 a        44     0     3     1     4
 -5.7226147716925205E-02 a        45     0     3     1     5
  3.0465096311058659E-01 a        46     0     3     1     6
 -7.6412866832100046E-01 a        47     0     3     1     7
 -3.4896504261155370E-01 a        48     0     3     1     8
  7.2311844047417106E-01 a        49     0     3     1     9
 -4.8654000519641938E-01 a        50     0     3     1    10
  9.7232877906036200E-02 a        51     0     3     1    11
  1.6572415465855994E-01 a        52     0     3     1    12
 -3.3114079704280291E-01 a        53     0     3     1    13
 -6.9580034189111017E-01 a        54     0     3     1    14
 -5.1983881817112498E-01 a        55     0     3     1    15
  1.3664459117213476E-01 a        56     0     3     1    16
  2.2797988151799978E-01 a        57     0     3     1    17
 -5.6896482248814662E-01 a        58     0     3     1    18
 -5.8107921289091424E-01 a        59     0     3     1    19
  5.9682531945623829E-01 a        60     0     3     1    20
 -1.6650711709584851E-01 a        61     0     4     1     1
  8.8181562348962872E-01 a        62     0     4     1     2
 -6.3924960022358990E-01 a        63     0     4     1     3
  4.7959722280298372E-01 a        64     0     4     1     4
  4.6947524055415812E-01 a        65     0     4     1     5
  2.3143511725777163E-01 a        66     0     4     1     6
  8.2944716519617956E-01 a        67     0     4     1     7
 -1.4418761351276929E-01 a        68     0     4     1     8
  3.6009048678394356E-01 a        69     0     4     1     9
  5.6912169781768662E-01 a        70     0     4     1    10
  1.8540841059386877E-03 a        71     0     4     1    11
  5.1990708781246420E-01 a        72     0     4     1    12
  4.7037068411912786E-01 a        73     0     4     1    13
  2.7195851842398744E-01 a        74     0     4     1    14
  1.7085550579424882E-01 a        75     0     4     1    15
  4.5319802130960501E-01 a        76     0     4     1    16
 -6.6634590380583270E-01 a        77     0     4     1    17
  4.5130157457515349E-02 a        78     0     4     1    18
 -1.6591693394662699E-01 a        79     0     4     1    19
  4.3301147134310616E-02 a        80     0     4     1    20
 -4.8728508483755228E-01 a        81     0     5     1     1
  4.6969112783345243E-02 a        82     0     5     1     2
 -2.1411721749761123E-01 a        83     0     5     1     3
  1.0681585672371573E-01 a        84     0     5     1     4
 -2.7237218075175496E-01 a        85     0     5     1     5
  1.7904205243801014E-01 a        86     0     5     1     6
 -1.3764268677742905E-01 a        87     0     5     1     7
  6.9312929265987044E-01 a        88     0     5     1     8
  2.7950220955021021E-01 a        89     0     5     1     9
 -6.0435955913955852E-01 a        90     0     5     1    10
  3.1685486674769048E-01 a        91     0     5     1    11
 -4.8972067056793517E-01 a        92     0     5     1    12
 -4.1948506330937974E-01 a        93     0     5     1    13
  1.5185718426779260E-01 a        94     0     5     1    14
 -4.9277733125395823E-01 a        95     0     5     1    15
 -2.4798614994008944E-01 a        96     0     5     1    16
  1.8590259212102217E-01 a        97     0     5     1    17
  6.3281091765183128E-01 a        98     0     5     1    18
 -6.4711865726313644E-01 a        99     0     5     1    19
 -3.0929515921396028E-01 a       100     0     5     1    20
  5.3859789087901422E-01 a       101     0     6     1     1
 -8.8827727272060097E-01 a       102     0     6     1     2
 -6.4000177209931142E-01 a       103     0     6     1     3
 -3.8669206652860572E-01 a       104     0     6     1     4
 -5.2948595827564005E-01 a       105     0     6     1     5
 -2.1618601620623366E-02 a       106     0     6     1     6
  1.9191057168821999E-02 a       107     0     6     1     7
  1.9772805198500989E-01 a       108     0     6     1     8
 -6.8493299281436693E-01 a       109     0     6     1     9
  1.5786492784947750E-01 a       110     0     6     1    10
  8.0918821932334262E-01 a       111     0     6     1    11
  6.0896935581952506E-03 a       112     0     6     1    12
 -3.8715713485082398E-01 a       113     0     6     1    13
 -4.2634036950291471E-01 a       114     0     6     1    14
  1.7221071152528172E-01 a       115     0     6     1    15
  6.7745998063520907E-01 a       116     0     6     1    16
  6.0558714097578181E-02 a       117     0     6     1    17
  5.2500504146260163E-01 a       118     0     6     1    18
 -3.4227602208202934E-01 a       119     0     6     1    19
  5.3102316979461561E-01 a       120     0     6     1    20
  4.0056054960012320E-02 a       121     0     7     1     1
 -1.9214842829111120E-01 a       122     0     7     1     2
  6.1299792317365653E-01 a       123     0     7     1     3
 -7.4699637330290569E-01 a       124     0     7     1     4
 -2.5691052040750606E-01 a       125     0     7     1     5
  7.8076664264206663E-01 a       126     0     7     1     6
 -1.0891632659488010E-01 a       127     0     7     1     7
 -2.1890108720436313E-01 a       128     0     7     1     8
  5.5722518841626578E-01 a       129     0     7     1     9
  6.1654749797391539E-01 a       130     0     7     1    10
  6.8373364780867241E-01 a       131     0     7     1    11
 -5.9331452201967305E-01 a       132     0     7     1    12
 -2.3179892710538894E-01 a       133     0     7     1    13
  5.0431912242640919E-01 a       134     0     7     1    14
 -5.2549070651469387E-01 a       135     0     7     1    15
  5.4475701922313613E-01 a       136     0     7     1    16
  6.9531567803744010E-01 a       137     0     7     1    17
  4.9941235070199969E-01 a       138     0     7     1    18
 -1.9311379181234245E-01 a       139     0     7     1    19
  4.2870756047941472E-01 a       140     0     7     1    20
 -4.4728432008781421E-01 a       141     0     8     1     1
  7.4828317538409628E-01 a       142     0     8     1     2
 -3.5622093118726234E-01 a       143     0     8     1     3
  1.5427612602025298E-01 a       144     0     8     1     4
 -3.1919547210539961E-01 a       145     0     8     1     5
 -7.0738673306968691E-01 a       146     0     8     1     6
  3.7310106552561856E-01 a       147     0     8     1     7
  5.8239846503785875E-01 a       148     0     8     1     8
 -3.2966494286219332E-02 a       149     0     8     1     9
  3.7224091775686036E-01 a       150     0     8     1    10
  4.2559118974296273E-01 a       151     0     8     1    11
  6.5321177018911758E-01 a       152     0     8     1    12
  4.8953924622801531E-01 a       153     0     8     1    13
  5.7254224038459756E-01 a       154     0     8     1    14
  4.8146694406728041E-01 a       155     0     8     1    15
  2.9821166760422024E-01 a       156     0     8     1    16
  6.2681965192105416E-01 a       157     0     8     1    17
 -4.6705085744418945E-01 a       158     0     8     1    18
  5.5356223173708918E-02 a       159     0     8     1    19
  5.4803670780387892E-02 a       160     0     8     1    20
 -3.8432255578695129E-01 a       161     0     9     1     1
 -1.4366714472881811E-01 a       162     0     9     1     2
  1.6501015370883115E-01 a       163     0     9     1     3
 -8.2229234378129790E-02 a       164     0     9     1     4
 -5.4532929082785719E-01 a       165     0     9     1     5
  4.5573193888100527E-01 a       166     0     9     1     6
  1.9007041666535779E-01 a       167     0     9     1     7
 -9.6001732197880177E-02 a       168     0     9     1     8
 -1.1152106143595086E-01 a       169     0     9     1     9
 -7.7356681480242218E-02 a       170     0     9     1    10
  1.4045211970112512E-01 a       171     0     9     1    11
 -2.1677452014114165E-01 a       172     0     9     1    12
 -6.4424848797016998E-01 a       173     0     9     1    13
 -4.5550924159471290E-01 a       174     0     9     1    14
  3.4279561086060228E-01 a       175     0     9     1    15
 -6.7947903939694454E-01 a       176     0     9     1    16
 -8.1062903683995369E-03 a       177     0     9     1    17
 -4.7034766904837250E-01 a       178     0     9     1    18
 -6.9206299528190318E-01 a       179     0     9     1    19
  7.6721569533035092E-02 a       180     0     9     1    20
  3.0514327300648209E-01 a       181     0    10     1     1
  4.4801899262699635E-01 a       182     0    10     1     2
 -1.9549894044595509E-01 a       183     0    10     1     3
  4.4594703594009893E-01 a       184     0    10     1     4
  4.8241685965300940E-01 a       185     0    10     1     5
 -6.1915082777696855E-02 a       186     0    10     1     6
 -6.3366176121072293E-01 a       187     0    10     1     7
  3.9547092874448303E-01 a       188     0    10     1     8
  5.9823141816598246E-01 a       189     0    10     1     9
 -5.6819686352840471E-01 a       190     0    10     1    10
 -4.4764687554871391E-01 a       191     0    10     1    11
  4.9686662046748120E-01 a       192     0    10     1    12
  4.5013596711254966E-01 a       193     0    10     1    13
 -2.1013334548551410E-01 a       194     0    10     1    14
  5.0835831133745235E-01 a       195     0    10     1    15
  1.4823544168956926E-01 a       196     0    10     1    16
 -5.3700739788567375E-01 a       197     0    10     1    17
  6.3126419202444706E-01 a       198     0    10     1    18
 -3.0041603428411189E-02 a       199     0    10     1    19
  3.6786886804762331E-01 a       200     0    10     1    20
  4.8775000466336010E-01 a       201     0    11     1     1
 -1.5055928686770967E-01 a       202     0    11     1     2
 -2.6133968732576263E-01 a       203     0    11     1     3
 -2.9275910220168572E-01 a       204     0    11     1     4
 -4.6848690733124665E-01 a       205     0    11     1     5
 -9.0186304467203202E-03 a       206     0    11     1     6
 -1.6243236819546966E-01 a       207     0    11     1     7
 -2.2804610593931332E-01 a       208     0    11     1     8
 -6.4114148471793608E-01 a       209     0    11     1     9
  3.9090739749686548E-01 a       210     0    11     1    10
 -1.8000683300986609E-01 a       211     0    11     1    11
  4.3150291532513585E-01 a       212     0    11     1    12
  2.9435306126162464E-01 a       213     0    11     1    13
 -4.4539861361515727E-02 a       214     0    11     1    14
  3.1852597238203767E-01 a       215     0    11     1    15
  2.5363252292076005E-01 a       216     0    11     1    16
 -5.3809350365747677E-01 a       217     0    11     1    17
 -1.3290458701183674E-01 a       218     0    11     1    18
  5.8926224383775672E-01 a       219     0    11     1    19
  6.8922529690871248E-01 a       220     0    11     1    20
  4.4289351906073671E-01 a       221     0    12     1     1
  1.6135162096088704E-01 a       222     0    12     1     2
  4.5238500783589503E-01 a       223     0    12     1     3
 -3.0285460953528032E-01 a       224     0    12     1     4
  6.2029616272277144E-01 a       225     0    12     1     5
  6.7208015704561153E-01 a       226     0    12     1     6
 -6.2534593012919415E-02 a       227     0    12     1     7
 -7.4657979646241879E-01 a       228     0    12     1     8
  2.7894373144759899E-01 a       229     0    12     1     9
  5.7640132846489112E-01 a       230     0    12     1    10
 -5.1524720273404767E-01 a       231     0    12     1    11
  2.5977840231016747E-01 a       232     0    12     1    12
  6.6173635130253272E-01 a       233     0    12     1    13
 -2.7972231038047379E-01 a       234     0    12     1    14
  6.0362397752294172E-01 a       235     0    12     1    15
  4.0852016412729830E-01 a       236     0    12     1    16
  2.4168001940962339E-01 a       237     0    12     1    17
  3.7350125525921185E-01 a       238     0    12     1    18
 -2.1670444300151212E-01 a       239     0    12     1    19
  9.1328022669422748E-01 a       240     0    12     1    20
 -4.2446359782461407E-01 a       241     0    13     1     1
  4.6778435808888186E-01 a       242     0    13     1     2
 -9.9067232495324356E-02 a       243     0    13     1     3
 -3.6389176651069116E-01 a       244     0    13     1     4
 -6.9014172384728012E-01 a       245     0    13     1     5
 -3.4978094956816980E-01 a       246     0    13     1     6
 -3.6885766720622819E-02 a       247     0    13     1     7
  6.5187105586068406E-01 a       248     0    13     1     8
  1.1696910234415149E-01 a       249     0    13     1     9
 -4.1288523269316801E-01 a       250     0    13     1    10
 -4.1366833864154379E-01 a       251     0    13     1    11
  6.5451835198223463E-01 a       252     0    13     1    12
 -3.7482546137547679E-01 a       253     0    13     1    13
 -3.8757269283530016E-01 a       254     0    13     1    14
 -4.6247143622033399E-01 a       255     0    13     1    15
  2.7788579965910754E-01 a       256     0    13     1    16
 -3.6909096348932058E-01 a       257     0    13     1    17
 -1.1278611097350325E-01 a       258     0    13     1    18
  3.8165906706953273E-01 a       259     0    13     1    19
  9.4304228980072291E-02 a       260     0    13     1    20
  6.3411637037827229E-01 a       261     0    14     1     1
 -2.2192443138574525E-01 a       262     0    14     1     2
  3.7417702165425082E-01 a       263     0    14     1     3
 -2.8027883175145318E-01 a       264     0    14     1     4
 -2.8659346407455127E-01 a       265     0    14     1     5
 -7.3774092581209205E-01 a       266     0    14     1     6
  3.5541933204284398E-01 a       267     0    14     1     7
  6.0273239039863769E-01 a       268     0    14     1     8
  3.8799406141977028E-01 a       269     0    14     1     9
  5.6496181543651269E-01 a       270     0    14     1    10
 -7.6570419476127694E-03 a       271     0    14     1    11
 -2.0069623402208203E-01 a       272     0    14     1    12
 -4.9018120270954424E-02 a       273     0    14     1    13
 -8.6853016179527683E-03 a       274     0    14     1    14
  5.7430131249905492E-01 a       275     0    14     1    15
  6.3141487839573407E-01 a       276     0    14     1    16
 -6.0834957486953956E-01 a       277     0    14     1    17
  4.8106589225711677E-01 a       278     0    14     1    18
  7.3369179804396356E-01 a       279     0    14     1    19
 -5.0146271463157466E-01 a       280     0    14     1    20
 -1.0681203918349273E-01 b       281     1     1
 -9.5729632945601240E-01 b       282     1     2
 -1.3994364141005528E-01 b       283     1     3
  1.3684423782151123E-01 b       284     1     4
  4.1851235900328509E-01 b       285     1     5
  8.2594628064171560E-01 b       286     1     6
  7.1411566791178827E-01 b       287     1     7
 -2.6529412130993602E-01 b       288     1     8
  1.6548955612028009E+00 b       289     1     9
  5.4625932975689928E-01 b       290     1    10
  3.0630415981394932E-01 b       291     1    11
  3.2035780316923640E-02 b       292     1    12
 -1.3809433625744501E+00 b       293     1    13
  1.5417678972971827E+00 b       294     1    14
  1.6652694255494398E+00 b       295     1    15
 -2.0587374573072828E-01 b       296     1    16
  1.2000019582608568E+00 b       297     1    17
  6.8028275793997062E-02 b       298     1    18
 -1.6208265121373924E+00 b       299     1    19
  4.0783442515249613E-01 b       300     1    20
 -5.1264287914223564E-02 a       301     1     1     2     1
 -5.2036325795384819E-01 a       302     1     1     2     2
 -3.6068769037202814E-01 a       303     1     1     2     3
 -1.1601525813605303E-01 a       304     1     1     2     4
  1.0655089862850708E-01 a       305     1     1     2     5
 -3.0803308472794388E-01 a       306     1     1     2     6
  5.1883675414092356E-01 a       307     1     1     2     7
 -4.2184576224157422E-01 a       308     1     1     2     8
  5.3505081830037160E-01 a       309     1     1     2     9
 -3.7645240702304428E-01 a       310     1     1     2    10
  4.6192465453413441E-02 a       311     1     1     2    11
 -4.6169818772468472E-03 a       312     1     1     2    12
 -4.3191252011473757E-01 a       313     1     1     2    13
  1.7904481241392961E-01 a       314     1     1     2    14
  5.5150657785844004E-01 a       315     1     1     2    15
  4.0940809941288314E-01 a       316     1     1     2    16
 -4.0219149101533280E-01 a       317     1     1     2    17
  4.6470683623067249E-01 a       318     1     1     2    18
 -4.2197680926200024E-03 a       319     1     1     2    19
  5.3195963339903951E-01 a       320     1     1     2    20
  9.1108368985141894E-02 a       321     1     2     2     1
  3.4403993222782753E-01 a       322     1     2     2     2
  3.3854077254219261E-01 a       323     1     2     2     3
  6.3161487826207841E-01 a       324     1     2     2     4
 -5.6512894892093390E-01 a       325     1     2     2     5
  3.8583875128851064E-01 a       326     1     2     2     6
  3.7438244974421558E-03 a       327     1     2     2     7
 -6.3074409839398504E-01 a       328     1     2     2     8
  4.3999193652961160E-01 a       329     1     2     2     9
  1.0805968968451936E-01 a       330     1     2     2    10
 -4.4116194870324546E-02 a       331     1     2     2    11
 -4.4660745149998266E-01 a       332     1     2     2    12
  4.3167998503597105E-01 a       333     1     2     2    13
 -2.6597884115732977E-02 a       334     1     2     2    14
  4.6935450482149021E-01 a       335     1     2     2    15
 -7.5075491599978575E-02 a       336     1     2     2    16
  1.2097809478030627E-01 a       337     1     2     2    17
  1.3780643445741203E-01 a       338     1     2     2    18
 -1.3524595016736776E-01 a       339     1     2     2    19
 -5.1971179265304868E-01 a       340     1     2     2    20
 -5.9871016099597674E-01 a       341     1     3     2     1
  3.8884489727769450E-02 a       342     1     3     2     2
  1.2621620885632859E-01 a       343     1     3     2     3
 -8.2341076733545862E-02 a       344     1     3     2     4
 -2.8064827702917960E-01 a       345     1     3     2     5
  1.7242142834254645E-01 a       346     1     3     2     6
  4.6050649984608344E-01 a       347     1     3     2     7
 -4.6404905347996539E-01 a       348     1     3     2     8
 -3.6449294098204271E-02 a       349     1     3     2     9
 -4.2933662363772968E-01 a       350     1     3     2    10
 -4.5349667975516500E-01 a       351     1     3     2    11
  2.8922487160727289E-01 a       352     1     3     2    12
 -4.9208062208803738E-01 a       353     1     3     2    13
  2.4031791238468234E-01 a       354     1     3     2    14
  4.4296801445323841E-01 a       355     1     3     2    15
 -1.1017108906778542E-01 a       356     1     3     2    16
 -8.1772093521138789E-02 a       357     1     3     2    17
 -2.1187853981223634E-01 a       358     1     3     2    18
  3.2584595134957067E-02 a       359     1     3     2    19
 -2.9106612118712522E-01 a       360     1     3     2    20
 -4.0067013138074620E-01 a       361     1     4     2     1
  2.5799779610809931E-01 a       362     1     4     2     2
 -4.7067006214476848E-01 a       363     1     4     2     3
 -6.1631239523188996E-01 a       364     1     4     2     4
 -3.5171614089171316E-01 a       365     1     4     2     5
  2.6506337737617219E-01 a       366     1     4     2     6
  2.7214348486647610E-01 a       367     1     4     2     7
  3.3336432108673902E-01 a       368     1     4     2     8
  6.6293179774192718E-02 a       369     1     4     2     9
  6.1909372700232126E-02 a       370     1     4     2    10
 -3.9354987273535758E-01 a       371     1     4     2    11
 -2.0734835981867752E-01 a       372     1     4     2    12
 -1.3977736132993224E-01 a       373     1     4     2    13
  3.6859125319920533E-01 a       374     1     4     2    14
 -1.1769438434321561E-01 a       375     1     4     2    15
  1.5756063806986867E-01 a       376     1     4     2    16
  2.8772974389375727E-01 a       377     1     4     2    17
  7.9698638523224064E-02 a       378     1     4     2    18
  3.7884058386989711E-01 a       379     1     4     2    19
 -1.4319012514184723E-01 a       380     1     4     2    20
 -5.0009511757263991E-01 a       381     1     5     2     1
 -3.5042547899300680E-01 a       382     1     5     2     2
 -1.9032527273930919E-01 a       383     1     5     2     3
 -2.8160968334880782E-01 a       384     1     5     2     4
 -8.3035711528493553E-02 a       385     1     5     2     5
 -2.3937516928790512E-01 a       386     1     5     2     6
 -1.1124314451136939E-01 a       387     1     5     2     7
  1.3781998435555470E-01 a       388     1     5     2     8
  4.1291925129349949E-01 a       389     1     5     2     9
  2.7696284511830710E-01 a       390     1     5     2    10
 -9.9861387740142929E-02 a       391     1     5     2    11
  4.4452478418091390E-01 a       392     1     5     2    12
  3.5250838846973304E-01 a       393     1     5     2    13
  2.5797768274240002E-01 a       394     1     5     2    14
 -4.1106292590691601E-01 a       395     1     5     2    15
  1.5296440855973212E-01 a       396     1     5     2    16
  1.1034681865927745E-01 a       397     1     5     2    17
  3.7797515649437875E-02 a       398     1     5     2    18
 -2.4367899487108144E-01 a       399     1     5     2    19
  5.2436949241591124E-01 a       400     1     5     2    20
 -3.4801748353151696E-01 a       401     1     6     2     1
 -9.9969683084617275E-02 a       402     1     6     2     2
 -5.2944222985549572E-01 a       403     1     6     2     3
  3.3624178478437718E-02 a       404     1     6     2     4
 -4.4469916006771493E-01 a       405     1     6     2     5
 -2.5994875349110236E-01 a       406     1     6     2     6
 -4.0125924997441698E-01 a       407     1     6     2     7
  1.5809675782419147E-01 a       408     1     6     2     8
  3.8613759494278516E-01 a       409     1     6     2     9
  5.1059970789576603E-01 a       410     1     6     2    10
 -5.4815220146275645E-01 a       411     1     6     2    11
  3.2468933866118499E-01 a       412     1     6     2    12
 -3.9205484951660408E-01 a       413     1     6     2    13
 -2.4974152338017067E-01 a       414     1     6     2    14
 -4.3185286152053420E-01 a       415     1     6     2    15
 -6.2264585105311154E-01 a       416     1     6     2    16
  8.6194864540626553E-02 a       417     1     6     2    17
 -4.1732770803843422E-01 a       418     1     6     2    18
 -4.7867004320975720E-01 a       419     1     6     2    19
 -3.6354923305981418E-01 a       420     1     6     2    20
 -2.4316032219601788E-01 a       421     1     7     2     1
 -2.0646396854530874E-01 a       422     1     7     2     2
 -3.1900077695109397E-01 a       423     1     7     2     3
 -6.3259497025871791E-01 a       424     1     7     2     4
  2.2989410347157921E-01 a       425     1     7     2     5
 -4.2051758565697994E-01 a       426     1     7     2     6
  7.9153157917639813E-02 a       427     1     7     2     7
 -4.7573102984114329E-01 a       428     1     7     2     8
 -3.7560111430111959E-01 a       429     1     7     2     9
 -5.9235375700469450E-01 a       430     1     7     2    10
  5.0338550534916437E-01 a       431     1     7     2    11
 -5.4006828425804609E-01 a       432     1     7     2    12
 -2.1850225610555707E-01 a       433     1     7     2    13
  1.4335495023864098E-01 a       434     1     7     2    14
  3.5117386264224365E-01 a       435     1     7     2    15
 -3.0903144435659297E-01 a       436     1     7     2    16
 -1.8468495438054500E-01 a       437     1     7     2    17
 -3.0193769250142166E-01 a       438     1     7     2    18
  1.4344952188757215E-01 a       439     1     7     2    19
 -8.6452611502917609E-02 a       440     1     7     2    20
 -1.1195576097681839E-01 a       441     1     8     2     1
 -4.5143412149309101E-02 a       442     1     8     2     2
 -4.5351397565144569E-01 a       443     1     8     2     3
 -2.1600150955618536E-01 a       444     1     8     2     4
 -5.7064010293311185E-01 a       445     1     8     2     5
  2.3483256544736447E-01 a       446     1     8     2     6
  6.1513878848092347E-02 a       447     1     8     2     7
 -3.4550990936113241E-01 a       448     1     8     2     8
  2.0349094422024174E-02 a       449     1     8     2     9
  1.6910861856567369E-01 a       450     1     8     2    10
 -1.2512686275642199E-01 a       451     1     8     2    11
 -4.1900522074092195E-01 a       452     1     8     2    12
 -3.8285649766714258E-01 a       453     1     8     2    13
 -8.1843875110201456E-02 a       454     1     8     2    14
 -1.9986252425503276E-01 a       455     1     8     2    15
  7.7206328852650763E-01 a       456     1     8     2    16
 -5.3297295892524177E-01 a       457     1     8     2    17
 -1.3458303231793828E-01 a       458     1     8     2    18
 -1.1075240052471130E-01 a       459     1     8     2    19
  4.0594612860343576E-01 a       460     1     8     2    20
  4.0925937245348160E-01 a       461     1     9     2     1
 -3.9774336448618686E-01 a       462     1     9     2     2
  3.0046546732750651E-01 a       463     1     9     2     3
  9.4951430459225324E-03 a       464     1     9     2     4
  2.1931336746986260E-01 a       465     1     9     2     5
 -3.7421297795071573E-01 a       466     1     9     2     6
  5.4428294984376191E-01 a       467     1     9     2     7
 -9.5781070389206163E-02 a       468     1     9     2     8
 -2.0294122277900900E-01 a       469     1     9     2     9
 -2.6869336969922247E-02 a       470     1     9     2    10
 -5.2395046304680526E-01 a       471     1     9     2    11
  3.6953469227888425E-01 a       472     1     9     2    12
 -1.7097284658530651E-01 a       473     1     9     2    13
 -1.6784539394521514E-01 a       474     1     9     2    14
 -3.9769340491595584E-01 a       475     1     9     2    15
  5.2462953503855025E-01 a       476     1     9     2    16
  6.5638073850561562E-01 a       477     1     9     2    17
 -4.4073046998999038E-01 a       478     1     9     2    18
  1.5749597508291549E-01 a       479     1     9     2    19
  5.5423447917817692E-01 a       480     1     9     2    20
  5.0970195364467785E-01 a       481     1    10     2     1
  6.1608104846841261E-01 a       482     1    10     2     2
 -4.0276942892466022E-01 a       483     1    10     2     3
 -8.4847136333834547E-02 a       484     1    10     2     4
 -4.3521811673003608E-01 a       485     1    10     2     5
  3.4723342901193954E-01 a       486     1    10     2     6
 -6.8102039070172771E-01 a       487     1    10     2     7
  6.5014449687176745E-01 a       488     1    10     2     8
 -4.3549044801144443E-01 a       489     1    10     2     9
  3.0868642183485756E-01 a       490     1    10     2    10
  2.4653238157843627E-01 a       491     1    10     2    11
 -3.1684680663707376E-01 a       492     1    10     2    12
  1.7308881166592671E-01 a       493     1    10     2    13
 -1.9454304760132041E-01 a       494     1    10     2    14
 -5.5274340165979918E-01 a       495     1    10     2    15
 -3.7008742825411889E-01 a       496     1    10     2    16
  5.5720207633103735E-01 a       497     1    10     2    17
 -4.5180773416744052E-01 a       498     1    10     2    18
  5.7241108855025402E-01 a       499     1    10     2    19
  4.1917447201385793E-01 a       500     1    10     2    20
  2.9363655351555146E-01 a       501     1    11     2     1
 -2.7562566755012036E-01 a       502     1    11     2     2
 -2.0040837425956484E-01 a       503     1    11     2     3
  3.0375008751416166E-01 a       504     1    11     2     4
  4.7840809420899320E-02 a       505     1    11     2     5
  5.4640270580764450E-01 a       506     1    11     2     6
  6.1697133432977236E-01 a       507     1    11     2     7
 -3.9810137925942135E-01 a       508     1    11     2     8
 -6.3320902248882771E-01 a       509     1    11     2     9
  2.2234690823349969E-02 a       510     1    11     2    10
 -2.2186882683767944E-01 a       511     1    11     2    11
 -3.1872046535796345E-01 a       512     1    11     2    12
  4.5419543767058579E-01 a       513     1    11     2    13
  7.9102924801272212E-01 a       514     1    11     2    14
 -5.5513919654422217E-01 a       515     1    11     2    15
 -7.7962498951371459E-02 a       516     1    11     2    16
  3.4589522205835616E-01 a       517     1    11     2    17
 -4.7873035801726721E-01 a       518     1    11     2    18
 -4.7141050543162777E-01 a       519     1    11     2    19
 -6.8396691252316871E-02 a       520     1    11     2    20
  3.0391752861375920E-01 a       521     1    12     2     1
 -3.5466210698374051E-01 a       522     1    12     2     2
  3.6205614614619602E-01 a       523     1    12     2     3
 -6.0829561623762030E-01 a       524     1    12     2     4
 -3.7521027406158375E-01 a       525     1    12     2     5
  4.3168599318751000E-01 a       526     1    12     2     6
  1.9393034489073857E-01 a       527     1    12     2     7
  6.6001930822082291E-02 a       528     1    12     2     8
 -3.7714932247563254E-01 a       529     1    12     2     9
 -2.9513968119613582E-01 a       530     1    12     2    10
 -3.3709010175601523E-01 a       531     1    12     2    11
  3.5177891246317150E-01 a       532     1    12     2    12
 -2.5495345481605577E-02 a       533     1    12     2    13
  1.7684499516942678E-01 a       534     1    12     2    14
  2.9419637856869313E-01 a       535     1    12     2    15
 -2.0233988411637718E-01 a       536     1    12     2    16
  3.6421524976390801E-01 a       537     1    12     2    17
  3.9146455342472070E-01 a       538     1    12     2    18
 -4.2585729106707132E-02 a       539     1    12     2    19
  2.7218343827446179E-01 a       540     1    12     2    20
 -4.6140795891249292E-01 a       541     1    13     2     1
 -5.2170321931663499E-01 a       542     1    13     2     2
  1.7866232787412886E-01 a       543     1    13     2     3
  5.5714556592687481E-01 a       544     1    13     2     4
 -2.6341016882396601E-01 a       545     1    13     2     5
  3.7531035843129495E-01 a       546     1    13     2     6
  3.5262868331542685E-01 a       547     1    13     2     7
  5.1024333263275923E-01 a       548     1    13     2     8
 -7.0838820973588110E-02 a       549     1    13     2     9
  2.6355289109608215E-01 a       550     1    13     2    10
  6.8136864445060646E-02 a       551     1    13     2    11
  7.4477954838985238E-03 a       552     1    13     2    12
  4.0441105836833402E-01 a       553     1    13     2    13
  1.2004843141423531E-01 a       554     1    13     2    14
  5.1863834389902064E-01 a       555     1    13     2    15
  4.9892581816430603E-01 a       556     1    13     2    16
 -3.1796209615547838E-01 a       557     1    13     2    17
  3.6845032762774643E-01 a       558     1    13     2    18
  2.8915728703939414E-01 a       559     1    13     2    19
  2.0431817587371234E-01 a       560     1    13     2    20
  2.1832654775529897E-01 a       561     1    14     2     1
  5.8507350223588572E-01 a       562     1    14     2     2
 -5.2712796846789234E-01 a       563     1    14     2     3
  6.9893227112805253E-02 a       564     1    14     2     4
 -9.8342838797718130E-02 a       565     1    14     2     5
 -4.7407463536963301E-01 a       566     1    14     2     6
 -2.3819721153157833E-01 a       567     1    14     2     7
 -4.4778072670444063E-01 a       568     1    14     2     8
 -3.5662896442834496E-01 a       569     1    14     2     9
 -5.8819785548919112E-01 a       570     1    14     2    10
 -5.1482089938513165E-01 a       571     1    14     2    11
 -2.4444241601302996E-01 a       572     1    14     2    12
  2.2974359864952956E-01 a       573     1    14     2    13
 -1.5944193050251029E-01 a       574     1    14     2    14
  5.5582944109586821E-02 a       575     1    14     2    15
 -2.5106312360548116E-01 a       576     1    14     2    16
 -2.6573723360407975E-01 a       577     1    14     2    17
 -4.8874778633847754E-01 a       578     1    14     2    18
 -5.2432437011195898E-01 a       579     1    14     2    19
 -2.1691420396983827E-01 a       580     1    14     2    20
  7.5191459032816432E-02 a       581     1    15     2     1
  4.5814615828319971E-01 a       582     1    15     2     2
 -4.0020530118255354E-01 a       583     1    15     2     3
  4.3125418920303682E-01 a       584     1    15     2     4
 -7.1006590056913746E-02 a       585     1    15     2     5
 -3.3778200908340689E-01 a       586     1    15     2     6
 -7.3416146930898860E-02 a       587     1    15     2     7
  1.8531715325553169E-01 a       588     1    15     2     8
 -4.8207008930981493E-01 a       589     1    15     2     9
 -5.9985373852059776E-01 a       590     1    15     2    10
  4.0913655949019589E-01 a       591     1    15     2    11
 -1.9918533208176986E-01 a       592     1    15     2    12
  7.7001754587710886E-02 a       593     1    15     2    13
 -6.7345338086805295E-01 a       594     1    15     2    14
 -2.0773079938672467E-01 a       595     1    15     2    15
 -5.1534445350961444E-01 a       596     1    15     2    16
 -3.5216896782818791E-01 a       597     1    15     2    17
 -4.0925367353674869E-01 a       598     1    15     2    18
 -3.6506632669543321E-01 a       599     1    15     2    19
  2.7393511620256733E-01 a       600     1    15     2    20
 -1.9192931071750610E-01 a       601     1    16     2     1
 -3.2130234751421495E-02 a       602     1    16     2     2
  3.7217160675695193E-01 a       603     1    16     2     3
  3.5521880655036681E-01 a       604     1    16     2     4
 -7.4352521928523374E-02 a       605     1    16     2     5
 -6.3604675656391593E-02 a       606     1    16     2     6
  1.5932610668875252E-01 a       607     1    16     2     7
  4.9991860368689223E-01 a       608     1    16     2     8
  2.3850499613563075E-01 a       609     1    16     2     9
 -3.2923164676958216E-01 a       610     1    16     2    10
  1.0603348779779832E-01 a       611     1    16     2    11
 -5.2160307279113582E-01 a       612     1    16     2    12
 -4.5194354709896090E-01 a       613     1    16     2    13
  2.9109510039256703E-01 a       614     1    16     2    14
 -2.0641837191013551E-01 a       615     1    16     2    15
 -2.2851106927184769E-01 a       616     1    16     2    16
  4.0745728808275278E-01 a       617     1    16     2    17
  4.4187674141405864E-01 a       618     1    16     2    18
 -2.6675271190450422E-01 a       619     1    16     2    19
 -3.3422894514518164E-01 a       620     1    16     2    20
  4.6554415351004208E-01 a       621     1    17     2     1
  2.4588802135487456E-01 a       622     1    17     2     2
 -4.2263541200708571E-01 a       623     1    17     2     3
 -3.3114548763175705E-01 a       624     1    17     2     4
 -3.0887708460013474E-01 a       625     1    17     2     5
 -1.2541911631102196E-01 a       626     1    17     2     6
  5.0465314473646206E-01 a       627     1    17     2     7
  2.2992363146118769E-01 a       628     1    17     2     8
 -1.4892613504579885E-01 a       629     1    17     2     9
  4.5630639042164650E-01 a       630     1    17     2    10
  1.3607945774812324E-01 a       631     1    17     2    11
 -2.2205780689855464E-01 a       632     1    17     2    12
  5.4447177429647442E-01 a       633     1    17     2    13
  1.5123695852302771E-01 a       634     1    17     2    14
  3.7621586197442859E-02 a       635     1    17     2    15
  3.6431994660148803E-01 a       636     1    17     2    16
 -2.5685123191981650E-02 a       637     1    17     2    17
 -3.1704272232606040E-01 a       638     1    17     2    18
 -2.8816045534952750E-01 a       639     1    17     2    19
 -2.4403730461912695E-01 a       640     1    17     2    20
 -4.5784299224337155E-01 a       641     1    18     2     1
 -2.6321488749371985E-01 a       642     1    18     2     2
  2.7464039002869167E-01 a       643     1    18     2     3
  3.2157475785764822E-01 a       644     1    18     2     4
  5.6616235150499739E-01 a       645     1    18     2     5
  1.1127542471771613E-01 a       646     1    18     2     6
 -4.4772232686799757E-01 a       647     1    18     2     7
  6.8516845334619630E-02 a       648     1    18     2     8
 -4.8329363027208844E-01 a       649     1    18     2     9
  3.8252219662618347E-01 a       650     1    18     2    10
  4.0387933646467439E-01 a       651     1    18     2    11
 -2.9795489519567542E-01 a       652     1    18     2    12
  8.8855356505255084E-02 a       653     1    18     2    13
  2.7417577096100615E-01 a       654     1    18     2    14
  8.4750923604119156E-05 a       655     1    18     2    15
 -1.1938764232237945E-02 a       656     1    18     2    16
 -4.9835089801425209E-01 a       657     1    18     2    17
  4.9347965918860681E-01 a       658     1    18     2    18
 -4.4941254636280331E-01 a       659     1    18     2    19
 -4.8458420858585788E-01 a       660     1    18     2    20
  1.7251655048724793E-01 a       661     1    19     2     1
  2.9771309952165648E-01 a       662     1    19     2     2
 -1.1800014261207060E-01 a       663     1    19     2     3
  1.1584248671227244E-01 a       664     1    19     2     4
 -1.7232823155623644E-01 a       665     1    19     2     5
 -1.2367255283364777E-01 a       666     1    19     2     6
 -2.5087936602839686E-02 a       667     1    19     2     7
  5.2399867623873594E-02 a       668     1    19     2     8
  3.1280771481676917E-01 a       669     1    19     2     9
  1.0512720523371955E-01 a       670     1    19     2    10
 -4.3649264803615950E-01 a       671     1    19     2    11
 -4.4268574074383199E-01 a       672     1    19     2    12
  3.6810169050743918E-01 a       673     1    19     2    13
  9.0662650130603251E-01 a       674     1    19     2    14
 -2.9556885591234011E-01 a       675     1    19     2    15
 -2.3088613891258596E-02 a       676     1    19     2    16
  4.9191820608022735E-01 a       677     1    19     2    17
  4.5525100804744711E-01 a       678     1    19     2    18
 -3.7583811063771777E-01 a       679     1    19     2    19
 -3.2496568808500909E-02 a       680     1    19     2    20
 -5.2513536606426592E-01 a       681     1    20     2     1
  1.4594164905947649E-01 a       682     1    20     2     2
 -5.1581557224926389E-01 a       683     1    20     2     3
  7.6248500972611474E-02 a       684     1    20     2     4
 -3.3121420711113531E-01 a       685     1    20     2     5
  8.0189460947691735E-02 a       686     1    20     2     6
  3.1402542626285529E-01 a       687     1    20     2     7
 -2.5392068644737292E-03 a       688     1    20     2     8
  3.8418772270134588E-01 a       689     1    20     2     9
 -5.1517643250629719E-01 a       690     1    20     2    10
  1.9325735796757160E-02 a       691     1    20     2    11
  3.8863680294777952E-01 a       692     1    20     2    12
 -4.4804102434192711E-01 a       693     1    20     2    13
 -2.5719241032585610E-01 a       694     1    20     2    14
  2.2645917117855136E-01 a       695     1    20     2    15
  2.0677442477272776E-01 a       696     1    20     2    16
 -1.6865671656817266E-01 a       697     1    20     2    17
  6.0486826172427163E-02 a       698     1    20     2    18
 -5.9588352795477073E-01 a       699     1    20     2    19
 -4.0544883542585924E-01 a       700     1    20     2    20
  1.6475860648564575E-01 b       701     2     1
  1.9919866914885653E-01 b       702     2     2
  3.1631158321822123E-01 b       703     2     3
  9.6985072784069559E-01 b       704     2     4
 -1.1503738428667887E+00 b       705     2     5
  5.8203658628946664E-01 b       706     2     6
  1.0164101136143180E+00 b       707     2     7
  1.5700931760918593E+00 b       708     2     8
 -1.3774876753180656E+00 b       709     2     9
  4.3421155338920026E-01 b       710     2    10
 -5.7491859370755194E-01 b       711     2    11
  3.2425614910048327E-02 b       712     2    12
 -2.2677269526499907E-01 b       713     2    13
 -3.8920427233218241E-01 b       714     2    14
 -5.3493046982340919E-01 b       715     2    15
 -1.4358105409082408E-01 b       716     2    16
 -3.8009706809912186E-01 b       717     2    17
 -1.5522372066566243E+00 b       718     2    18
  1.3741935534938809E+00 b       719     2    19
 -5.7418088452552352E-01 b       720     2    20
  3.2201156291410871E-01 a       721     2     1     3     1
 -8.2820227931048718E-01 a       722     2     2     3     1
  1.0145004931936985E+00 a       723     2     3     3     1
  3.5598877897986758E-01 a       724     2     4     3     1
 -7.3023017867880702E-01 a       725     2     5     3     1
  9.7933598816112111E-01 a       726     2     6     3     1
  4.6569193908110840E-01 a       727     2     7     3     1
 -4.1315456005761264E-01 a       728     2     8     3     1
  2.4849586915594232E-03 a       729     2     9     3     1
  8.4311514721991754E-01 a       730     2    10     3     1
  8.3243323083226761E-01 a       731     2    11     3     1
  4.1111316831350408E-01 a       732     2    12     3     1
 -3.1432295341659927E-01 a       733     2    13     3     1
  2.6230802484266369E-01 a       734     2    14     3     1
 -8.3406938242412898E-01 a       735     2    15     3     1
 -7.6187363378504624E-01 a       736     2    16     3     1
  3.7090476336425843E-02 a       737     2    17     3     1
 -3.5803856768677596E-02 a       738     2    18     3     1
  3.2051118592004890E-01 a       739     2    19     3     1
  3.1681725230604851E-01 a       740     2    20     3     1
  1.3627786637660166E-01 b       741     3     1
