################################################################################
# Neural network connection values (weights and biases).
################################################################################
# Col  Name       Description
################################################################################
# 1    connection Neural network connection value.
# 2    t          Connection type (a = weight, b = bias).
# 3    index      Index enumerating weights.
# 4    l_s        Starting point layer (end point layer for biases).
# 5    n_s        Starting point neuron in starting layer (end point neuron for biases).
# 6    l_e        End point layer.
# 7    n_e        End point neuron in end layer.
################################################################################
#                      1 2         3     4     5     6     7
#             connection t     index   l_s   n_s   l_e   n_e
############################################################
  1.0161379179290790E-01 a         1     0     1     1     1
  3.7921405444734539E-02 a         2     0     1     1     2
  2.5480481669803584E-01 a         3     0     1     1     3
  9.0533329106895238E-02 a         4     0     1     1     4
 -5.1155992479330725E-01 a         5     0     1     1     5
 -4.9404484440948448E-01 a         6     0     1     1     6
 -7.4378765015782899E-01 a         7     0     1     1     7
  6.0088443838646588E-01 a         8     0     1     1     8
 -2.7150078391010485E-01 a         9     0     1     1     9
  5.8054653429737302E-01 a        10     0     1     1    10
  8.8599993114013634E-02 a        11     0     1     1    11
 -3.4711295393964492E-01 a        12     0     1     1    12
  9.4838598631776558E-02 a        13     0     1     1    13
  6.0528070675778878E-01 a        14     0     1     1    14
  2.7453125257439421E-03 a        15     0     1     1    15
  3.2719318907203021E-01 a        16     0     1     1    16
  8.1141982306014082E-01 a        17     0     1     1    17
 -6.3406880941586430E-01 a        18     0     1     1    18
 -3.9507438580510934E-01 a        19     0     1     1    19
 -1.4915751138992947E-02 a        20     0     1     1    20
 -4.6945843661073100E-02 a        21     0     2     1     1
  3.0612161382150799E-01 a        22     0     2     1     2
 -5.0038214746763032E-01 a        23     0     2     1     3
 -5.6505406107307876E-01 a        24     0     2     1     4
  7.4092846264488341E-04 a        25     0     2     1     5
 -2.8556310678758273E-01 a        26     0     2     1     6
 -5.2325138467260079E-01 a        27     0     2     1     7
 -1.4996931366824431E-01 a        28     0     2     1     8
 -1.3930068367220705E-01 a        29     0     2     1     9
  3.6656701880000703E-01 a        30     0     2     1    10
  4.4041226663652844E-01 a        31     0     2     1    11
  1.7902777293356095E-01 a        32     0     2     1    12
 -4.3057780314160127E-01 a        33     0     2     1    13
  1.0817014281396503E-02 a        34     0     2     1    14
  4.2507047598747605E-01 a        35     0     2     1    15
  2.2456261353135448E-01 a        36     0     2     1    16
 -9.6664284577074044E-02 a        37     0     2     1    17
  6.9837033083604660E-01 a        38     0     2     1    18
 -4.7775046992634645E-01 a        39     0     2     1    19
 -9.7224560650256586E-02 a        40     0     2     1    20
 -1.0143582900091234E-01 a        41     0     3     1     1
  6.5478423683561449E-01 a        42     0     3     1     2
  3.9302986059438083E-01 a        43     0     3     1     3
  1.1193566756831096E-01 a        44     0     3     1     4
 -3.1311769937699202E-01 a        45     0     3     1     5
  2.1174792108573877E-02 a        46     0     3     1     6
  2.1751952900700863E-01 a        47     0     3     1     7
 -4.5852022850969582E-01 a        48     0     3     1     8
 -3.2479998363048324E-01 a        49     0     3     1     9
  5.0136048306086800E-01 a        50     0     3     1    10
  5.5697938650040590E-01 a        51     0     3     1    11
  3.6472538355554662E-01 a        52     0     3     1    12
 -4.4947806184534123E-01 a        53     0     3     1    13
  1.1872286496082814E-01 a        54     0     3     1    14
 -2.3382099974944759E-01 a        55     0     3     1    15
  9.4871369855323484E-01 a        56     0     3     1    16
  2.2222924771596914E-01 a        57     0     3     1    17
 -1.9002292532947324E-01 a        58     0     3     1    18
  4.1753216293694317E-01 a        59     0     3     1    19
  4.0700762803364549E-01 a        60     0     3     1    20
 -3.9146362706204987E-02 a        61     0     4     1     1
 -5.4428659114051980E-01 a        62     0     4     1     2
  5.3966496908395656E-01 a        63     0     4     1     3
  4.5486933313530936E-01 a        64     0     4     1     4
 -1.3061427286356334E-01 a        65     0     4     1     5
 -2.6031220924703273E-02 a        66     0     4     1     6
 -1.1060817344738579E-01 a        67     0     4     1     7
 -2.0884159014611245E-01 a        68     0     4     1     8
  1.6407120863773109E-01 a        69     0     4     1     9
 -3.6457394308206625E-01 a        70     0     4     1    10
 -1.0108829546230016E+00 a        71     0     4     1    11
 -5.8370885029893793E-01 a        72     0     4     1    12
 -1.1321502830343033E-01 a        73     0     4     1    13
 -1.7875948314780291E-01 a        74     0     4     1    14
 -4.5603741103759837E-02 a        75     0     4     1    15
 -4.5653194856646395E-01 a        76     0     4     1    16
  7.0159353121303142E-02 a        77     0     4     1    17
 -3.7207869964409096E-01 a        78     0     4     1    18
  1.4244038388524671E-01 a        79     0     4     1    19
 -1.7443085149969181E-01 a        80     0     4     1    20
 -4.9098734986655868E-01 a        81     0     5     1     1
 -6.8882578946178183E-03 a        82     0     5     1     2
 -2.7861829952183687E-01 a        83     0     5     1     3
  2.1340192965394150E-01 a        84     0     5     1     4
  4.2822479857315915E-01 a        85     0     5     1     5
 -5.2765287454083731E-01 a        86     0     5     1     6
  6.3957476954776016E-01 a        87     0     5     1     7
  7.4500515524263522E-01 a        88     0     5     1     8
 -1.0411939258365956E-01 a        89     0     5     1     9
 -2.0902082541622835E-01 a        90     0     5     1    10
  1.9103642633266599E-01 a        91     0     5     1    11
 -3.6226379531891317E-01 a        92     0     5     1    12
  3.5498788925919228E-01 a        93     0     5     1    13
  5.2238469273974875E-01 a        94     0     5     1    14
 -5.3617443749383720E-01 a        95     0     5     1    15
 -5.8612414381561173E-01 a        96     0     5     1    16
  6.9183316010277152E-01 a        97     0     5     1    17
  1.2793898682105739E-01 a        98     0     5     1    18
 -6.0278532978817601E-01 a        99     0     5     1    19
  1.7725859101768210E-01 a       100     0     5     1    20
  3.1223798227385885E-01 a       101     0     6     1     1
  5.0414567332790283E-01 a       102     0     6     1     2
 -8.5829201005502582E-03 a       103     0     6     1     3
  5.4242201369876331E-01 a       104     0     6     1     4
 -4.6538673085230503E-01 a       105     0     6     1     5
  5.3730007377217681E-01 a       106     0     6     1     6
  3.6275445455897226E-01 a       107     0     6     1     7
 -4.5449833397712347E-01 a       108     0     6     1     8
  4.7385344920430916E-01 a       109     0     6     1     9
 -2.4980457311667889E-01 a       110     0     6     1    10
  2.8218115758790807E-01 a       111     0     6     1    11
 -6.2694943639179535E-01 a       112     0     6     1    12
  2.1917514744176875E-01 a       113     0     6     1    13
 -4.0988445330651790E-01 a       114     0     6     1    14
 -3.1198998891406687E-01 a       115     0     6     1    15
  4.0364709403698545E-01 a       116     0     6     1    16
 -1.0096744851938680E-01 a       117     0     6     1    17
 -4.1074816329378611E-01 a       118     0     6     1    18
  1.6545154586961175E-01 a       119     0     6     1    19
 -4.1034799447567633E-01 a       120     0     6     1    20
 -4.9269222693867559E-01 a       121     0     7     1     1
  9.0848426427856815E-03 a       122     0     7     1     2
  8.0593503687038692E-01 a       123     0     7     1     3
  1.2130220208063220E+00 a       124     0     7     1     4
  6.6824154029639593E-01 a       125     0     7     1     5
 -7.0491102918566184E-01 a       126     0     7     1     6
  7.1286847117265484E-01 a       127     0     7     1     7
 -5.5980833652153630E-02 a       128     0     7     1     8
  4.2002858823287181E-01 a       129     0     7     1     9
  4.0016018502491063E-01 a       130     0     7     1    10
 -4.7332887376420535E-01 a       131     0     7     1    11
  1.7186706432347820E-01 a       132     0     7     1    12
 -4.2235638027600786E-01 a       133     0     7     1    13
 -3.1756519427286689E-01 a       134     0     7     1    14
  1.8713960190565679E-01 a       135     0     7     1    15
 -3.1844072043958360E-01 a       136     0     7     1    16
 -9.5869031671267951E-02 a       137     0     7     1    17
  7.8971623946521419E-01 a       138     0     7     1    18
 -8.5745744043297670E-02 a       139     0     7     1    19
  1.7293918028605790E-01 a       140     0     7     1    20
 -2.8490995240812306E-01 a       141     0     8     1     1
 -5.8015452696258338E-02 a       142     0     8     1     2
  3.4279867242942264E-01 a       143     0     8     1     3
 -7.2348601016094430E-02 a       144     0     8     1     4
 -5.0312336033186533E-01 a       145     0     8     1     5
  6.7409441253221480E-01 a       146     0     8     1     6
 -3.2879020321484220E-01 a       147     0     8     1     7
 -3.3703099350550197E-01 a       148     0     8     1     8
 -8.5424409092800579E-01 a       149     0     8     1     9
 -4.0855972846079280E-01 a       150     0     8     1    10
  5.7299421338695977E-01 a       151     0     8     1    11
 -7.3871561852929124E-01 a       152     0     8     1    12
 -5.4646644141044765E-01 a       153     0     8     1    13
 -7.6826032476796713E-01 a       154     0     8     1    14
  3.1300281738455532E-01 a       155     0     8     1    15
 -8.5031508448238244E-02 a       156     0     8     1    16
  2.9174354627140753E-01 a       157     0     8     1    17
 -5.2981059205373282E-01 a       158     0     8     1    18
  7.8138942028125247E-01 a       159     0     8     1    19
 -6.6563120160841716E-01 a       160     0     8     1    20
 -5.1784274605458103E-01 a       161     0     9     1     1
  3.8705501223319055E-01 a       162     0     9     1     2
 -5.6086161604988388E-02 a       163     0     9     1     3
 -3.4101791248628949E-01 a       164     0     9     1     4
  4.9641579079248599E-01 a       165     0     9     1     5
 -6.9720113275366891E-01 a       166     0     9     1     6
 -2.4938787863768705E-01 a       167     0     9     1     7
  7.3240563698063432E-01 a       168     0     9     1     8
  6.4255663666654672E-01 a       169     0     9     1     9
 -6.1345939347185602E-02 a       170     0     9     1    10
 -1.6758446853767214E-01 a       171     0     9     1    11
  4.5931537842688219E-01 a       172     0     9     1    12
  3.1800856513937981E-01 a       173     0     9     1    13
  6.1047871197678039E-01 a       174     0     9     1    14
 -4.4401793695453784E-01 a       175     0     9     1    15
  5.6008238091742391E-01 a       176     0     9     1    16
  3.4655085651164652E-01 a       177     0     9     1    17
 -1.6322384936570764E-01 a       178     0     9     1    18
  1.0339309367823185E-02 a       179     0     9     1    19
  5.5886894231891415E-01 a       180     0     9     1    20
  2.3659583024174405E-01 a       181     0    10     1     1
  3.0083310622443282E-01 a       182     0    10     1     2
 -6.4027695297270160E-01 a       183     0    10     1     3
 -5.3198733304170032E-01 a       184     0    10     1     4
 -1.7052611268492715E-01 a       185     0    10     1     5
 -4.5178501953869904E-01 a       186     0    10     1     6
 -6.8021025159960575E-03 a       187     0    10     1     7
 -3.8160094655132881E-01 a       188     0    10     1     8
  3.5417904793269761E-01 a       189     0    10     1     9
 -3.6298662222026490E-01 a       190     0    10     1    10
  2.3072029948306538E-01 a       191     0    10     1    11
  3.8915873664380163E-01 a       192     0    10     1    12
  4.3110058246045191E-01 a       193     0    10     1    13
 -4.8642408257745245E-01 a       194     0    10     1    14
 -7.1655259258428960E-01 a       195     0    10     1    15
 -3.6286776571468626E-01 a       196     0    10     1    16
  4.2729470712980178E-01 a       197     0    10     1    17
 -3.7997533481282580E-01 a       198     0    10     1    18
 -4.8465496774958566E-01 a       199     0    10     1    19
 -5.2038779280560565E-01 a       200     0    10     1    20
 -3.2245943955651363E-01 a       201     0    11     1     1
  2.1043125245895387E-02 a       202     0    11     1     2
 -3.7880487282223751E-01 a       203     0    11     1     3
 -1.2680400530040453E-01 a       204     0    11     1     4
  7.0548610920334945E-04 a       205     0    11     1     5
 -2.3030094139503640E-01 a       206     0    11     1     6
 -4.0721406326861254E-01 a       207     0    11     1     7
 -1.9492537133701396E-01 a       208     0    11     1     8
 -2.0529380310377604E-01 a       209     0    11     1     9
 -1.9257118837804479E-01 a       210     0    11     1    10
 -2.9321258871293626E-01 a       211     0    11     1    11
  3.3477332142900290E-01 a       212     0    11     1    12
  2.7527793313405141E-01 a       213     0    11     1    13
 -2.4809556179556022E-01 a       214     0    11     1    14
  8.6924540650635457E-02 a       215     0    11     1    15
 -1.6360229409889716E-02 a       216     0    11     1    16
  1.1326858200179359E-01 a       217     0    11     1    17
  4.7642492168472217E-01 a       218     0    11     1    18
 -3.8598210659079485E-01 a       219     0    11     1    19
  4.3281492268449306E-01 a       220     0    11     1    20
 -1.0370620782401653E-02 a       221     0    12     1     1
 -3.2880252962276529E-01 a       222     0    12     1     2
 -2.3838738839590570E-01 a       223     0    12     1     3
  9.8786948698147872E-02 a       224     0    12     1     4
  5.5707253302321180E-01 a       225     0    12     1     5
  5.1192876642647123E-01 a       226     0    12     1     6
  4.8538937888413269E-01 a       227     0    12     1     7
  6.2526414973373093E-02 a       228     0    12     1     8
 -1.0584841814882026E-01 a       229     0    12     1     9
 -4.8032249314659115E-01 a       230     0    12     1    10
  1.7332739291883317E-01 a       231     0    12     1    11
 -3.3758751864513437E-01 a       232     0    12     1    12
  2.9731924488314848E-01 a       233     0    12     1    13
  2.3313168202017806E-01 a       234     0    12     1    14
 -3.3914903487305553E-01 a       235     0    12     1    15
 -6.7557746105876082E-01 a       236     0    12     1    16
 -2.4679720431633848E-01 a       237     0    12     1    17
 -1.1838126481426865E-01 a       238     0    12     1    18
  1.7196878221552930E-01 a       239     0    12     1    19
  4.9434559996116623E-01 a       240     0    12     1    20
 -2.0392693837962297E-01 a       241     0    13     1     1
  1.1762118826423723E-01 a       242     0    13     1     2
 -3.6708773166670056E-01 a       243     0    13     1     3
 -3.6268676816228623E-01 a       244     0    13     1     4
 -3.1399001981808333E-01 a       245     0    13     1     5
 -1.3260335487404987E-01 a       246     0    13     1     6
  5.5630166557289973E-01 a       247     0    13     1     7
 -2.3080015137558252E-01 a       248     0    13     1     8
 -3.3931022009670880E-02 a       249     0    13     1     9
 -3.0188352397763485E-01 a       250     0    13     1    10
  4.2990638641193568E-01 a       251     0    13     1    11
 -2.6465590612852297E-01 a       252     0    13     1    12
 -4.9583864506903708E-01 a       253     0    13     1    13
 -5.2279984525515971E-03 a       254     0    13     1    14
  6.4509863459231820E-02 a       255     0    13     1    15
  2.0666621909663349E-01 a       256     0    13     1    16
  9.6629615191930595E-03 a       257     0    13     1    17
 -3.9423878862164841E-01 a       258     0    13     1    18
  6.5011351463851075E-01 a       259     0    13     1    19
 -6.2144506922655574E-01 a       260     0    13     1    20
  1.8358773550088098E-01 a       261     0    14     1     1
 -5.5972986939217984E-01 a       262     0    14     1     2
 -4.6431086323592596E-01 a       263     0    14     1     3
 -3.1504788674873735E-01 a       264     0    14     1     4
  5.5479655863676081E-01 a       265     0    14     1     5
 -8.0767710095509232E-02 a       266     0    14     1     6
 -4.0799682275436532E-02 a       267     0    14     1     7
  2.3019331097639167E-01 a       268     0    14     1     8
 -5.0201540768111685E-01 a       269     0    14     1     9
 -1.9639797903631989E-02 a       270     0    14     1    10
 -6.8297070400303986E-02 a       271     0    14     1    11
 -2.2852984794200587E-01 a       272     0    14     1    12
  3.8152974100405845E-01 a       273     0    14     1    13
 -3.4635878680812726E-01 a       274     0    14     1    14
  7.6851415593758265E-01 a       275     0    14     1    15
  4.0134300020322075E-02 a       276     0    14     1    16
 -3.0077841319188980E-01 a       277     0    14     1    17
  3.0296033775133580E-01 a       278     0    14     1    18
 -2.4956088470394788E-01 a       279     0    14     1    19
  2.3683705223044957E-02 a       280     0    14     1    20
 -7.7285670848972240E-02 b       281     1     1
  1.0058057546465051E+00 b       282     1     2
  1.1574392546663198E-01 b       283     1     3
 -1.7429038938107835E+00 b       284     1     4
  1.6457006600660393E+00 b       285     1     5
  2.1457780125970016E-01 b       286     1     6
 -4.3299191145154586E-01 b       287     1     7
  1.3004947281607742E+00 b       288     1     8
  7.9272367886925954E-01 b       289     1     9
 -1.6833383251303622E+00 b       290     1    10
  1.2695034760036361E+00 b       291     1    11
  1.5358150239101349E+00 b       292     1    12
  1.1353174657339158E+00 b       293     1    13
  9.0010684296346011E-01 b       294     1    14
 -1.9789060966736191E-01 b       295     1    15
  1.0399677407026140E+00 b       296     1    16
 -5.4642759612123215E-01 b       297     1    17
 -7.0627194662275050E-01 b       298     1    18
  1.7786753837566169E+00 b       299     1    19
  1.8928698234531416E+00 b       300     1    20
 -9.0630324135724999E-02 a       301     1     1     2     1
 -3.0582890290611581E-01 a       302     1     1     2     2
  3.4956079894269632E-01 a       303     1     1     2     3
  6.2997003796891593E-01 a       304     1     1     2     4
 -3.9647935283727531E-01 a       305     1     1     2     5
  5.2151278579098803E-01 a       306     1     1     2     6
  3.7482654872787019E-01 a       307     1     1     2     7
  1.1469444836785922E-01 a       308     1     1     2     8
 -4.1984994345706392E-02 a       309     1     1     2     9
 -2.7538788928484786E-01 a       310     1     1     2    10
 -4.5223807414762354E-02 a       311     1     1     2    11
 -6.4249000265504327E-02 a       312     1     1     2    12
  8.1488973497225420E-02 a       313     1     1     2    13
 -3.1855499407585780E-01 a       314     1     1     2    14
  2.9610776719839310E-01 a       315     1     1     2    15
 -3.2288791368146924E-01 a       316     1     1     2    16
  3.3758614488371025E-01 a       317     1     1     2    17
  3.9203994295880340E-01 a       318     1     1     2    18
 -8.8113304094382214E-02 a       319     1     1     2    19
  5.3185862492421176E-01 a       320     1     1     2    20
  5.7848403767123657E-01 a       321     1     2     2     1
 -1.6855970944479232E-01 a       322     1     2     2     2
  1.0510965408534853E-01 a       323     1     2     2     3
 -9.3683448055259355E-02 a       324     1     2     2     4
  3.8160179158789977E-02 a       325     1     2     2     5
  1.9384335177040365E-01 a       326     1     2     2     6
 -1.4750613127443754E-01 a       327     1     2     2     7
 -9.5222727795215692E-02 a       328     1     2     2     8
  4.1366265503237543E-01 a       329     1     2     2     9
  5.6235961765519926E-01 a       330     1     2     2    10
  3.8988032782120702E-01 a       331     1     2     2    11
  4.4086022862429208E-01 a       332     1     2     2    12
  4.1910829624481061E-01 a       333     1     2     2    13
 -5.1579799558669903E-01 a       334     1     2     2    14
 -3.0303303138944865E-01 a       335     1     2     2    15
 -1.5567056208787980E-01 a       336     1     2     2    16
 -5.9404057201003111E-03 a       337     1     2     2    17
  4.8660820380845621E-01 a       338     1     2     2    18
 -3.6112557279751295E-01 a       339     1     2     2    19
  1.9166560635795690E-01 a       340     1     2     2    20
  3.6230069206333870E-01 a       341     1     3     2     1
  4.1092512722781432E-01 a       342     1     3     2     2
  2.7173771875666664E-01 a       343     1     3     2     3
 -1.7619856340977785E-01 a       344     1     3     2     4
 -3.3368431870627852E-01 a       345     1     3     2     5
  5.5268014659149850E-02 a       346     1     3     2     6
 -6.1022324007972376E-02 a       347     1     3     2     7
  2.6171400440488568E-01 a       348     1     3     2     8
 -3.8014374801292938E-01 a       349     1     3     2     9
 -4.6207334395812143E-02 a       350     1     3     2    10
  1.9728688282531473E-01 a       351     1     3     2    11
 -2.6532534394742474E-01 a       352     1     3     2    12
  1.6757675213646209E-01 a       353     1     3     2    13
  6.1572127546860789E-01 a       354     1     3     2    14
 -3.2823128429426784E-01 a       355     1     3     2    15
 -3.9203359821796074E-01 a       356     1     3     2    16
  9.1930350455215998E-02 a       357     1     3     2    17
  2.0157912010190074E-01 a       358     1     3     2    18
 -5.5709584569331305E-01 a       359     1     3     2    19
  1.6738672543709465E-01 a       360     1     3     2    20
 -4.8069118356401525E-01 a       361     1     4     2     1
 -3.0724322781513630E-01 a       362     1     4     2     2
 -3.7943414380691687E-01 a       363     1     4     2     3
  6.0785933121434343E-01 a       364     1     4     2     4
 -2.7333816005276268E-01 a       365     1     4     2     5
  4.0600792794642432E-01 a       366     1     4     2     6
 -3.3057845051198842E-01 a       367     1     4     2     7
  4.6807687409633064E-01 a       368     1     4     2     8
  1.7452700225490148E-01 a       369     1     4     2     9
  5.3005887398144769E-01 a       370     1     4     2    10
 -1.0242066607473951E-01 a       371     1     4     2    11
  2.9136995569033108E-01 a       372     1     4     2    12
  2.1296670466562831E-01 a       373     1     4     2    13
  1.6875514076051470E-01 a       374     1     4     2    14
  2.6400273671207324E-02 a       375     1     4     2    15
  3.3660374449790498E-01 a       376     1     4     2    16
 -3.3748130187647607E-02 a       377     1     4     2    17
  4.4546583589844874E-01 a       378     1     4     2    18
 -2.3648844758309706E-01 a       379     1     4     2    19
  4.6357192586259421E-01 a       380     1     4     2    20
 -5.8495549169000038E-01 a       381     1     5     2     1
 -5.1026566722422861E-01 a       382     1     5     2     2
  2.4852290480578204E-01 a       383     1     5     2     3
 -1.9512449874606211E-01 a       384     1     5     2     4
 -2.8010902595179399E-01 a       385     1     5     2     5
  5.9608190399087302E-01 a       386     1     5     2     6
  1.6248269871660342E-01 a       387     1     5     2     7
  6.1301947511707433E-01 a       388     1     5     2     8
 -3.2154858989135332E-01 a       389     1     5     2     9
  5.6167483956050634E-01 a       390     1     5     2    10
 -1.1448627176186481E-01 a       391     1     5     2    11
  4.0820706275777052E-01 a       392     1     5     2    12
 -8.9755685699875395E-02 a       393     1     5     2    13
 -1.3054320655511820E-01 a       394     1     5     2    14
  1.5379976989349275E-01 a       395     1     5     2    15
 -1.5745381614776996E-01 a       396     1     5     2    16
 -4.0624194831665311E-01 a       397     1     5     2    17
 -5.2611399353787405E-02 a       398     1     5     2    18
  2.5895546560562710E-01 a       399     1     5     2    19
 -8.0321949660888375E-02 a       400     1     5     2    20
 -3.2440017535681243E-01 a       401     1     6     2     1
  4.2792502804342186E-01 a       402     1     6     2     2
 -2.1475308038414795E-01 a       403     1     6     2     3
 -5.2813935734223605E-01 a       404     1     6     2     4
  2.5699011062780613E-01 a       405     1     6     2     5
 -6.3297037414555257E-01 a       406     1     6     2     6
 -1.5429429046924681E-01 a       407     1     6     2     7
 -2.4234196843052544E-01 a       408     1     6     2     8
  3.7896618594294201E-01 a       409     1     6     2     9
 -4.2770783392506534E-01 a       410     1     6     2    10
  2.5721688206187976E-01 a       411     1     6     2    11
 -2.3004815598733327E-01 a       412     1     6     2    12
  3.9901514021518542E-01 a       413     1     6     2    13
  1.4083048136661930E-01 a       414     1     6     2    14
 -4.6533582368273313E-01 a       415     1     6     2    15
  1.2589343200613196E-01 a       416     1     6     2    16
  3.6092725037196072E-01 a       417     1     6     2    17
 -2.6093052397114097E-01 a       418     1     6     2    18
  1.0519534956434057E-01 a       419     1     6     2    19
 -2.4027465732228948E-01 a       420     1     6     2    20
  3.4916842115881121E-02 a       421     1     7     2     1
 -3.8406262312220085E-01 a       422     1     7     2     2
  1.9537684798676605E-01 a       423     1     7     2     3
  1.9238247459193192E-01 a       424     1     7     2     4
 -5.4557717080460144E-01 a       425     1     7     2     5
  5.3499232559782742E-02 a       426     1     7     2     6
  3.4659936338874769E-01 a       427     1     7     2     7
 -3.4766157948651691E-02 a       428     1     7     2     8
  3.0803717083059523E-01 a       429     1     7     2     9
  2.5721784417477134E-01 a       430     1     7     2    10
 -3.0711915522539907E-01 a       431     1     7     2    11
 -2.6948390488748941E-01 a       432     1     7     2    12
 -2.4038837429619178E-01 a       433     1     7     2    13
 -1.2465990983956653E-01 a       434     1     7     2    14
 -1.8927561369238974E-01 a       435     1     7     2    15
  9.7381125582843342E-02 a       436     1     7     2    16
 -3.3613746889820051E-01 a       437     1     7     2    17
 -3.8147878231797722E-01 a       438     1     7     2    18
 -1.0869964396646133E-01 a       439     1     7     2    19
  4.9346044011732421E-01 a       440     1     7     2    20
  1.8252758870647628E-01 a       441     1     8     2     1
 -7.2401986773814764E-02 a       442     1     8     2     2
  4.1366231488944410E-01 a       443     1     8     2     3
  1.7573352526663925E-02 a       444     1     8     2     4
  4.6971871952514427E-01 a       445     1     8     2     5
 -3.7030735204691023E-01 a       446     1     8     2     6
  2.2720178586693315E-01 a       447     1     8     2     7
  1.0910475426551837E-01 a       448     1     8     2     8
  3.3470340770011686E-01 a       449     1     8     2     9
  1.1789195167033481E-01 a       450     1     8     2    10
  2.2686881930933961E-01 a       451     1     8     2    11
 -3.6524408268171765E-01 a       452     1     8     2    12
  1.9207919476852328E-01 a       453     1     8     2    13
  4.1036339171648450E-01 a       454     1     8     2    14
 -8.9520772416756225E-02 a       455     1     8     2    15
  1.4503464333200700E-01 a       456     1     8     2    16
 -1.8948886730509895E-01 a       457     1     8     2    17
  3.4388997250229786E-01 a       458     1     8     2    18
 -4.8483754818324476E-01 a       459     1     8     2    19
 -3.6143277259985362E-01 a       460     1     8     2    20
  4.4273140407842154E-01 a       461     1     9     2     1
 -3.7211936365220610E-01 a       462     1     9     2     2
  5.4084499169552469E-01 a       463     1     9     2     3
 -4.2962403813043387E-01 a       464     1     9     2     4
  2.4498182294646867E-01 a       465     1     9     2     5
 -2.5320871557340879E-01 a       466     1     9     2     6
 -3.4961762096270477E-01 a       467     1     9     2     7
  5.1762529335865859E-01 a       468     1     9     2     8
 -3.6764987252373177E-01 a       469     1     9     2     9
 -4.7848098802442163E-01 a       470     1     9     2    10
  2.5623960743544388E-01 a       471     1     9     2    11
  3.4519929424801343E-01 a       472     1     9     2    12
  1.4556750222175380E-01 a       473     1     9     2    13
 -3.0418531373866525E-01 a       474     1     9     2    14
  3.7635745512518454E-01 a       475     1     9     2    15
  4.6841252194623895E-01 a       476     1     9     2    16
 -1.0474803403144668E-01 a       477     1     9     2    17
  2.4059490351098237E-01 a       478     1     9     2    18
 -2.6525659650515183E-02 a       479     1     9     2    19
 -2.1293353101127558E-03 a       480     1     9     2    20
  2.3195925649875573E-01 a       481     1    10     2     1
  5.1847881823778186E-01 a       482     1    10     2     2
  6.0488172323433023E-02 a       483     1    10     2     3
  6.6982345042294633E-01 a       484     1    10     2     4
 -2.7354744112374513E-01 a       485     1    10     2     5
  1.5477937838334471E-01 a       486     1    10     2     6
 -3.8866595364851836E-01 a       487     1    10     2     7
  5.4971267095822240E-01 a       488     1    10     2     8
  3.1627767503384474E-01 a       489     1    10     2     9
  2.0648196555579668E-01 a       490     1    10     2    10
  5.7821200743037884E-02 a       491     1    10     2    11
 -3.9194301094538003E-01 a       492     1    10     2    12
 -3.8420934805663783E-02 a       493     1    10     2    13
  3.5014591229637232E-01 a       494     1    10     2    14
 -3.5363205901439482E-01 a       495     1    10     2    15
 -3.5690710056588654E-01 a       496     1    10     2    16
 -2.1464183408356050E-01 a       497     1    10     2    17
  1.7175648601937446E-01 a       498     1    10     2    18
  1.4506503636568197E-01 a       499     1    10     2    19
 -5.3047081564640808E-01 a       500     1    10     2    20
 -4.8200431015329498E-01 a       501     1    11     2     1
  5.7621900071246512E-01 a       502     1    11     2     2
 -4.2750717865892413E-01 a       503     1    11     2     3
  2.9213863618914176E-01 a       504     1    11     2     4
  5.6441056261146860E-01 a       505     1    11     2     5
 -4.7942607226591849E-01 a       506     1    11     2     6
  4.0877957484101130E-01 a       507     1    11     2     7
  2.7370891353638371E-01 a       508     1    11     2     8
 -4.6952109201199033E-01 a       509     1    11     2     9
  5.2314692477026881E-01 a       510     1    11     2    10
  3.6349371673637232E-01 a       511     1    11     2    11
 -4.5341911731185208E-02 a       512     1    11     2    12
 -5.5187633327841679E-01 a       513     1    11     2    13
 -7.5089273506706022E-01 a       514     1    11     2    14
  3.1840582628264297E-01 a       515     1    11     2    15
 -1.5198198526438145E-01 a       516     1    11     2    16
 -3.8216766017983639E-01 a       517     1    11     2    17
  1.7603457761784294E-01 a       518     1    11     2    18
 -2.9541448431493944E-01 a       519     1    11     2    19
  3.6798363365526876E-01 a       520     1    11     2    20
 -5.9737588320574386E-01 a       521     1    12     2     1
 -2.0055446231852063E-02 a       522     1    12     2     2
  4.3243686975868384E-01 a       523     1    12     2     3
  5.4028123519437443E-01 a       524     1    12     2     4
 -2.4704141770665589E-01 a       525     1    12     2     5
  1.0390448618361049E-01 a       526     1    12     2     6
 -4.2807079485142074E-01 a       527     1    12     2     7
  6.8104769640261675E-01 a       528     1    12     2     8
  4.5233449806643683E-01 a       529     1    12     2     9
 -6.3574198243942615E-01 a       530     1    12     2    10
  4.2817428031635701E-01 a       531     1    12     2    11
  5.0055613617032391E-01 a       532     1    12     2    12
 -1.6228785726701375E-01 a       533     1    12     2    13
 -1.5440328076089099E-01 a       534     1    12     2    14
  3.8784756216693284E-01 a       535     1    12     2    15
  1.4338634237725681E-01 a       536     1    12     2    16
 -4.2688775490301173E-01 a       537     1    12     2    17
 -5.0581758443184366E-01 a       538     1    12     2    18
 -5.2384701697602809E-01 a       539     1    12     2    19
 -1.3874328051861753E-01 a       540     1    12     2    20
  1.0537478183483226E-01 a       541     1    13     2     1
 -2.0218731448301672E-01 a       542     1    13     2     2
 -2.3416571528534849E-01 a       543     1    13     2     3
  5.0951132054296677E-01 a       544     1    13     2     4
 -2.9802014237637092E-01 a       545     1    13     2     5
 -1.0654807446421943E-01 a       546     1    13     2     6
 -3.2573772883113966E-01 a       547     1    13     2     7
 -2.4585871676924523E-01 a       548     1    13     2     8
 -2.8401772847500079E-01 a       549     1    13     2     9
  2.0800071026062755E-01 a       550     1    13     2    10
 -1.6342775352340011E-01 a       551     1    13     2    11
  4.6002200368856844E-01 a       552     1    13     2    12
 -5.5320354130693317E-01 a       553     1    13     2    13
 -4.2258378788166705E-02 a       554     1    13     2    14
 -4.7733029437179658E-01 a       555     1    13     2    15
  2.9425206516402930E-01 a       556     1    13     2    16
 -1.5846756534402647E-02 a       557     1    13     2    17
  2.9973676649835107E-01 a       558     1    13     2    18
 -4.3960539039985413E-01 a       559     1    13     2    19
 -5.4047071215163922E-01 a       560     1    13     2    20
 -1.3833958416123032E-01 a       561     1    14     2     1
  1.7684474986495971E-01 a       562     1    14     2     2
  1.8544223605413634E-01 a       563     1    14     2     3
  6.5565566859753094E-02 a       564     1    14     2     4
 -4.7199492727801495E-01 a       565     1    14     2     5
  4.8653955964205703E-01 a       566     1    14     2     6
  3.4127913402362170E-01 a       567     1    14     2     7
 -2.1014581355728568E-01 a       568     1    14     2     8
 -2.7368839560478531E-01 a       569     1    14     2     9
  1.8431165746205172E-01 a       570     1    14     2    10
 -5.5332589892068063E-01 a       571     1    14     2    11
  5.2330991415073502E-01 a       572     1    14     2    12
 -3.7458280330332744E-01 a       573     1    14     2    13
 -6.3128451656974038E-01 a       574     1    14     2    14
 -3.2744889318864739E-01 a       575     1    14     2    15
 -2.0265645475004945E-01 a       576     1    14     2    16
  1.3086003014339176E-01 a       577     1    14     2    17
  3.2348115413868628E-01 a       578     1    14     2    18
 -5.0734681604664400E-01 a       579     1    14     2    19
 -3.8150258833015371E-01 a       580     1    14     2    20
  2.6960343920066904E-01 a       581     1    15     2     1
  8.0493476457116509E-03 a       582     1    15     2     2
  1.2714550246711778E-02 a       583     1    15     2     3
 -4.1203908557889363E-01 a       584     1    15     2     4
 -4.8876786829110910E-02 a       585     1    15     2     5
  4.2083089661162071E-01 a       586     1    15     2     6
  7.3215818778998507E-02 a       587     1    15     2     7
 -7.4158849099562621E-02 a       588     1    15     2     8
 -3.6450161686712412E-01 a       589     1    15     2     9
 -2.3925784714980147E-01 a       590     1    15     2    10
  3.9311674006662811E-01 a       591     1    15     2    11
  2.7697792809463825E-02 a       592     1    15     2    12
  2.4057951022446419E-01 a       593     1    15     2    13
  4.4347023194375340E-01 a       594     1    15     2    14
  1.4244581635215342E-01 a       595     1    15     2    15
  3.2334323812911070E-01 a       596     1    15     2    16
 -5.1938309050853182E-01 a       597     1    15     2    17
  3.7829798443543217E-01 a       598     1    15     2    18
 -1.4824019905798000E-01 a       599     1    15     2    19
  2.0460190372115483E-01 a       600     1    15     2    20
 -1.4628176289326900E-01 a       601     1    16     2     1
  7.5453636805932922E-02 a       602     1    16     2     2
 -2.4014104001884040E-01 a       603     1    16     2     3
 -6.4983060177336724E-02 a       604     1    16     2     4
 -4.4412780648312833E-01 a       605     1    16     2     5
 -1.9176220902555072E-01 a       606     1    16     2     6
 -1.2181457144753328E-01 a       607     1    16     2     7
 -4.7748700841086227E-02 a       608     1    16     2     8
 -5.1592256242349765E-01 a       609     1    16     2     9
 -5.6186474678513565E-01 a       610     1    16     2    10
  4.1383970440333695E-01 a       611     1    16     2    11
  1.7001762353576819E-01 a       612     1    16     2    12
  1.1219254670588964E-01 a       613     1    16     2    13
  4.1845088576313227E-01 a       614     1    16     2    14
  5.6017368081187078E-03 a       615     1    16     2    15
 -2.7228594907742049E-01 a       616     1    16     2    16
  1.1848191583369580E-01 a       617     1    16     2    17
 -7.2653083331641846E-02 a       618     1    16     2    18
  4.6782508886745222E-01 a       619     1    16     2    19
 -1.6760198450723163E-01 a       620     1    16     2    20
  5.1599280171238504E-01 a       621     1    17     2     1
 -3.5027030608646294E-02 a       622     1    17     2     2
  1.5943277766040115E-01 a       623     1    17     2     3
  4.5480577060843408E-02 a       624     1    17     2     4
 -2.9619891781219881E-01 a       625     1    17     2     5
 -2.3761960290043302E-01 a       626     1    17     2     6
  3.0740921001488153E-01 a       627     1    17     2     7
 -1.8355771577530955E-01 a       628     1    17     2     8
 -4.3412964056225328E-01 a       629     1    17     2     9
 -1.9610050601863657E-01 a       630     1    17     2    10
 -6.3886035738816849E-01 a       631     1    17     2    11
 -1.9229743982616759E-01 a       632     1    17     2    12
  4.3051096983619058E-01 a       633     1    17     2    13
  1.3709546781765405E-01 a       634     1    17     2    14
 -4.5141950130515218E-01 a       635     1    17     2    15
 -4.2732895605530685E-01 a       636     1    17     2    16
  2.6148498022955541E-01 a       637     1    17     2    17
  6.5953971393673527E-01 a       638     1    17     2    18
 -3.2480436376974592E-01 a       639     1    17     2    19
  5.4110167680839216E-01 a       640     1    17     2    20
 -2.5412095088351377E-02 a       641     1    18     2     1
 -2.9155916553284777E-01 a       642     1    18     2     2
  2.1824217440567558E-02 a       643     1    18     2     3
  3.7221743101589083E-01 a       644     1    18     2     4
  5.4404172529856754E-01 a       645     1    18     2     5
 -4.5753182993035513E-01 a       646     1    18     2     6
 -1.3726128542096521E-02 a       647     1    18     2     7
  3.1510472307579174E-01 a       648     1    18     2     8
 -1.8155551746127555E-01 a       649     1    18     2     9
  4.1991019200044603E-02 a       650     1    18     2    10
 -7.9620569520081996E-01 a       651     1    18     2    11
 -1.0949371470727652E-02 a       652     1    18     2    12
 -1.1237813413646230E-01 a       653     1    18     2    13
 -1.3204621048786500E-01 a       654     1    18     2    14
  7.4293472046686182E-02 a       655     1    18     2    15
  4.5707196043505305E-01 a       656     1    18     2    16
  3.1201600521328288E-01 a       657     1    18     2    17
  5.2504511428566991E-01 a       658     1    18     2    18
 -3.1682401251772671E-02 a       659     1    18     2    19
  3.7144228634089022E-01 a       660     1    18     2    20
 -5.7477355089399329E-01 a       661     1    19     2     1
 -6.0446091757364007E-01 a       662     1    19     2     2
 -2.9304858799018413E-01 a       663     1    19     2     3
 -1.7897014083030555E-01 a       664     1    19     2     4
 -5.1428668859739690E-01 a       665     1    19     2     5
  3.5250812233975121E-01 a       666     1    19     2     6
  5.1456171048541022E-01 a       667     1    19     2     7
  3.9824102215810514E-01 a       668     1    19     2     8
  4.5100006198844572E-01 a       669     1    19     2     9
  5.6995107773877972E-02 a       670     1    19     2    10
  4.0153777982413730E-01 a       671     1    19     2    11
  2.5161267725061359E-01 a       672     1    19     2    12
  4.7229309621624643E-01 a       673     1    19     2    13
 -2.2663150484072184E-01 a       674     1    19     2    14
  3.3877313402685766E-01 a       675     1    19     2    15
  5.8654968963890408E-01 a       676     1    19     2    16
 -3.9210747940841512E-01 a       677     1    19     2    17
  3.0971309378178591E-01 a       678     1    19     2    18
 -1.0064954110837386E-01 a       679     1    19     2    19
  4.9240577191882490E-01 a       680     1    19     2    20
  2.3156705601080491E-01 a       681     1    20     2     1
 -7.1389273967056144E-01 a       682     1    20     2     2
 -2.7889072380344226E-02 a       683     1    20     2     3
 -9.9307169860469530E-02 a       684     1    20     2     4
 -4.8329192237188116E-02 a       685     1    20     2     5
 -3.0097571276891349E-01 a       686     1    20     2     6
  5.9403994815085004E-01 a       687     1    20     2     7
 -1.3266478062959178E-01 a       688     1    20     2     8
  2.8592470720904106E-01 a       689     1    20     2     9
  1.8707079026925891E-01 a       690     1    20     2    10
 -5.0761011928758135E-02 a       691     1    20     2    11
 -2.0734158174588643E-01 a       692     1    20     2    12
  2.3969079849600219E-01 a       693     1    20     2    13
  4.5512841477790650E-01 a       694     1    20     2    14
 -1.0222451000063035E-01 a       695     1    20     2    15
  3.8775295073037686E-01 a       696     1    20     2    16
  3.4720143624734401E-01 a       697     1    20     2    17
  4.0505079576208808E-01 a       698     1    20     2    18
  2.6118446605142703E-01 a       699     1    20     2    19
 -1.0453643873063692E-01 a       700     1    20     2    20
 -9.9516534597135475E-01 b       701     2     1
  1.0817721823386977E+00 b       702     2     2
  1.5527045772954448E-01 b       703     2     3
 -1.1452386904618472E+00 b       704     2     4
 -3.2573259134142984E-01 b       705     2     5
 -1.1460012437283496E+00 b       706     2     6
 -1.3022489491384117E+00 b       707     2     7
  1.1092809912188617E+00 b       708     2     8
 -5.6734520807672262E-01 b       709     2     9
  8.6151766993462764E-01 b       710     2    10
 -1.0457987645993573E-02 b       711     2    11
 -1.1606184719087138E+00 b       712     2    12
 -2.4976895792925377E-01 b       713     2    13
 -1.5763497911654516E+00 b       714     2    14
 -1.2391409150456256E+00 b       715     2    15
  6.1995380746382389E-01 b       716     2    16
  6.9220601437718010E-01 b       717     2    17
  1.1071422194884252E-01 b       718     2    18
  4.7939673924240694E-01 b       719     2    19
 -1.4350508950243082E-01 b       720     2    20
  3.1204117770233397E-01 a       721     2     1     3     1
  2.6318196910226804E-01 a       722     2     2     3     1
  6.8667721916731239E-01 a       723     2     3     3     1
 -4.4426616968532562E-01 a       724     2     4     3     1
  6.4011745268060957E-02 a       725     2     5     3     1
  5.6115468645641275E-01 a       726     2     6     3     1
 -4.7755252358007300E-01 a       727     2     7     3     1
 -1.0014735823320939E+00 a       728     2     8     3     1
  7.4420488179395361E-01 a       729     2     9     3     1
 -6.6005341598059486E-02 a       730     2    10     3     1
  6.9519484468660742E-01 a       731     2    11     3     1
 -4.2361311766157628E-01 a       732     2    12     3     1
 -5.3817798304315223E-01 a       733     2    13     3     1
 -3.9170405854662149E-01 a       734     2    14     3     1
 -4.2855514182665139E-01 a       735     2    15     3     1
 -1.0036691688399260E+00 a       736     2    16     3     1
 -4.1208657368901591E-01 a       737     2    17     3     1
  5.8373443878476083E-01 a       738     2    18     3     1
  7.9372634018070765E-01 a       739     2    19     3     1
  1.0621736980750404E-01 a       740     2    20     3     1
  4.3461028444157390E-01 b       741     3     1
