################################################################################
# Neural network connection values (weights and biases).
################################################################################
# Col  Name       Description
################################################################################
# 1    connection Neural network connection value.
# 2    t          Connection type (a = weight, b = bias).
# 3    index      Index enumerating weights.
# 4    l_s        Starting point layer (end point layer for biases).
# 5    n_s        Starting point neuron in starting layer (end point neuron for biases).
# 6    l_e        End point layer.
# 7    n_e        End point neuron in end layer.
################################################################################
#                      1 2         3     4     5     6     7
#             connection t     index   l_s   n_s   l_e   n_e
############################################################
  1.4260828701223252E-01 a         1     0     1     1     1
  3.1637467015850532E-02 a         2     0     1     1     2
  2.1708090408992883E-01 a         3     0     1     1     3
  8.1329115088602702E-02 a         4     0     1     1     4
 -5.6001572176758829E-01 a         5     0     1     1     5
 -4.8716503316922716E-01 a         6     0     1     1     6
 -6.7530475431662218E-01 a         7     0     1     1     7
  5.8977631425491217E-01 a         8     0     1     1     8
 -2.3359181384975533E-01 a         9     0     1     1     9
  5.7456395551819195E-01 a        10     0     1     1    10
  6.0111769120226130E-02 a        11     0     1     1    11
 -3.6072602746220594E-01 a        12     0     1     1    12
  1.0813943450778431E-01 a        13     0     1     1    13
  5.4118877017920397E-01 a        14     0     1     1    14
 -2.7687490342624320E-02 a        15     0     1     1    15
  2.3402232979945184E-01 a        16     0     1     1    16
  7.6169208276599898E-01 a        17     0     1     1    17
 -6.4345850147817907E-01 a        18     0     1     1    18
 -3.8070592683688215E-01 a        19     0     1     1    19
  7.2385811122347389E-03 a        20     0     1     1    20
 -1.9418957438601017E-02 a        21     0     2     1     1
  3.4360212887677866E-01 a        22     0     2     1     2
 -4.8534464758501683E-01 a        23     0     2     1     3
 -5.1505642021421705E-01 a        24     0     2     1     4
  4.5664986360226992E-02 a        25     0     2     1     5
 -2.8195021908518075E-01 a        26     0     2     1     6
 -4.9511046759021177E-01 a        27     0     2     1     7
 -1.6953854023579593E-01 a        28     0     2     1     8
 -1.0343950136989108E-01 a        29     0     2     1     9
  3.5535294313788029E-01 a        30     0     2     1    10
  4.3003356609647303E-01 a        31     0     2     1    11
  2.1425955214837750E-01 a        32     0     2     1    12
 -4.0340316393367748E-01 a        33     0     2     1    13
 -2.1113566341535779E-02 a        34     0     2     1    14
  2.9120731578506986E-01 a        35     0     2     1    15
  1.9039123982200140E-01 a        36     0     2     1    16
 -4.0585844545756436E-02 a        37     0     2     1    17
  6.1227070110865867E-01 a        38     0     2     1    18
 -4.5055205369080614E-01 a        39     0     2     1    19
 -6.0649176691833055E-02 a        40     0     2     1    20
 -1.4945773127741996E-01 a        41     0     3     1     1
  6.2836118324322165E-01 a        42     0     3     1     2
  4.5251228842290347E-01 a        43     0     3     1     3
  1.0475319363596783E-01 a        44     0     3     1     4
 -2.7879977534379163E-01 a        45     0     3     1     5
  3.6890210333108799E-04 a        46     0     3     1     6
  2.9586265557044439E-01 a        47     0     3     1     7
 -4.1050492481969086E-01 a        48     0     3     1     8
 -3.4554142094370743E-01 a        49     0     3     1     9
  4.6576492236057065E-01 a        50     0     3     1    10
  4.6941863317879590E-01 a        51     0     3     1    11
  3.2416218225384602E-01 a        52     0     3     1    12
 -4.2047719645349074E-01 a        53     0     3     1    13
  2.3615306071030039E-02 a        54     0     3     1    14
 -1.5658990046405172E-01 a        55     0     3     1    15
  8.8285106235280297E-01 a        56     0     3     1    16
  2.1788504244393264E-01 a        57     0     3     1    17
 -1.4651398122901441E-01 a        58     0     3     1    18
  4.1510296505640804E-01 a        59     0     3     1    19
  4.2039820182238180E-01 a        60     0     3     1    20
  3.5119832294072784E-02 a        61     0     4     1     1
 -5.5652010423343001E-01 a        62     0     4     1     2
  4.2800005595540774E-01 a        63     0     4     1     3
  4.4300671219794563E-01 a        64     0     4     1     4
 -1.2907197161345413E-01 a        65     0     4     1     5
  8.8741943218474499E-03 a        66     0     4     1     6
 -1.0894988129526928E-01 a        67     0     4     1     7
 -1.7380396203976137E-01 a        68     0     4     1     8
  2.2077560626869946E-01 a        69     0     4     1     9
 -3.0532670724235128E-01 a        70     0     4     1    10
 -9.0871613866976608E-01 a        71     0     4     1    11
 -5.8708287182199559E-01 a        72     0     4     1    12
 -1.8170455078228379E-01 a        73     0     4     1    13
 -1.1291982527683443E-01 a        74     0     4     1    14
 -7.5712844473732499E-02 a        75     0     4     1    15
 -4.6679214234142746E-01 a        76     0     4     1    16
  3.0349532104206597E-02 a        77     0     4     1    17
 -3.7916625958286726E-01 a        78     0     4     1    18
  1.6790780490273768E-01 a        79     0     4     1    19
 -1.6552481345583525E-01 a        80     0     4     1    20
 -4.9512008086995862E-01 a        81     0     5     1     1
  3.9293348974859255E-02 a        82     0     5     1     2
 -2.3815418704662653E-01 a        83     0     5     1     3
  2.5773829093493239E-01 a        84     0     5     1     4
  4.6606441703219170E-01 a        85     0     5     1     5
 -5.1428013703552289E-01 a        86     0     5     1     6
  6.4310660103955475E-01 a        87     0     5     1     7
  7.7982918881893815E-01 a        88     0     5     1     8
 -1.3831570261716269E-01 a        89     0     5     1     9
 -2.2730965552914087E-01 a        90     0     5     1    10
  1.9893715207887100E-01 a        91     0     5     1    11
 -2.8728585112253247E-01 a        92     0     5     1    12
  3.0277306026951173E-01 a        93     0     5     1    13
  5.5684031038612192E-01 a        94     0     5     1    14
 -5.6721563570045752E-01 a        95     0     5     1    15
 -5.3197013891061506E-01 a        96     0     5     1    16
  6.5292356292422982E-01 a        97     0     5     1    17
  1.0148449122224383E-01 a        98     0     5     1    18
 -6.1707945798681685E-01 a        99     0     5     1    19
  1.3907474491941912E-01 a       100     0     5     1    20
  2.8263181150704192E-01 a       101     0     6     1     1
  5.1720903426141152E-01 a       102     0     6     1     2
 -1.3839313929141476E-02 a       103     0     6     1     3
  5.4476109141096563E-01 a       104     0     6     1     4
 -4.6370995392851561E-01 a       105     0     6     1     5
  5.0775342980582061E-01 a       106     0     6     1     6
  4.0775713475609965E-01 a       107     0     6     1     7
 -4.5651157518323726E-01 a       108     0     6     1     8
  4.5994032987158301E-01 a       109     0     6     1     9
 -2.1032396105592741E-01 a       110     0     6     1    10
  2.5079007747733856E-01 a       111     0     6     1    11
 -6.2441203099439258E-01 a       112     0     6     1    12
  2.8252672810788326E-01 a       113     0     6     1    13
 -3.6302498668650823E-01 a       114     0     6     1    14
 -2.7484347599594755E-01 a       115     0     6     1    15
  4.3301904296689459E-01 a       116     0     6     1    16
 -2.9770502795812222E-02 a       117     0     6     1    17
 -3.2534132163577845E-01 a       118     0     6     1    18
  2.2431154173167983E-01 a       119     0     6     1    19
 -3.9601719557119591E-01 a       120     0     6     1    20
 -4.7290213115111873E-01 a       121     0     7     1     1
 -1.2791979473288310E-02 a       122     0     7     1     2
  7.4575621079288568E-01 a       123     0     7     1     3
  1.1335782355272537E+00 a       124     0     7     1     4
  6.6220344671609488E-01 a       125     0     7     1     5
 -6.5920904577695860E-01 a       126     0     7     1     6
  6.6350688366447175E-01 a       127     0     7     1     7
  2.8529309504331767E-02 a       128     0     7     1     8
  4.6724137840487362E-01 a       129     0     7     1     9
  3.8996847935628853E-01 a       130     0     7     1    10
 -4.1910754051899773E-01 a       131     0     7     1    11
  1.5812687097971218E-01 a       132     0     7     1    12
 -4.8381682587081476E-01 a       133     0     7     1    13
 -3.0756284559298985E-01 a       134     0     7     1    14
  2.4155129543378798E-01 a       135     0     7     1    15
 -2.9916761428032790E-01 a       136     0     7     1    16
 -1.9911342707896953E-01 a       137     0     7     1    17
  7.9194699567842897E-01 a       138     0     7     1    18
 -1.2360154181686005E-01 a       139     0     7     1    19
  1.6446967416530947E-01 a       140     0     7     1    20
 -2.6476608569492649E-01 a       141     0     8     1     1
 -1.0541351495568631E-01 a       142     0     8     1     2
  3.9952120354322346E-01 a       143     0     8     1     3
 -8.1096792290830347E-02 a       144     0     8     1     4
 -5.2786301520758527E-01 a       145     0     8     1     5
  7.0198623409406602E-01 a       146     0     8     1     6
 -3.2187026695922027E-01 a       147     0     8     1     7
 -2.7593062620118380E-01 a       148     0     8     1     8
 -8.6025065052548466E-01 a       149     0     8     1     9
 -3.9608248405085134E-01 a       150     0     8     1    10
  5.5798915591344700E-01 a       151     0     8     1    11
 -6.9770295659652248E-01 a       152     0     8     1    12
 -5.4407377601863716E-01 a       153     0     8     1    13
 -7.1823453803971349E-01 a       154     0     8     1    14
  2.9468123246633821E-01 a       155     0     8     1    15
 -7.8400596248239238E-02 a       156     0     8     1    16
  3.0293311841385051E-01 a       157     0     8     1    17
 -5.2713637398114843E-01 a       158     0     8     1    18
  7.8925019159623533E-01 a       159     0     8     1    19
 -7.4061940914730029E-01 a       160     0     8     1    20
 -5.5850654475265527E-01 a       161     0     9     1     1
  4.5344538300190051E-01 a       162     0     9     1     2
 -7.7865819498111569E-02 a       163     0     9     1     3
 -2.5830294775792823E-01 a       164     0     9     1     4
  4.8266471046053255E-01 a       165     0     9     1     5
 -6.7830439129372144E-01 a       166     0     9     1     6
 -1.9687784340613160E-01 a       167     0     9     1     7
  7.1899196778274466E-01 a       168     0     9     1     8
  6.2565781140599808E-01 a       169     0     9     1     9
 -1.4929377438274469E-01 a       170     0     9     1    10
 -2.0521557702865093E-01 a       171     0     9     1    11
  4.9033811170972003E-01 a       172     0     9     1    12
  3.8164179618798866E-01 a       173     0     9     1    13
  6.0354137448107537E-01 a       174     0     9     1    14
 -4.4477891907714129E-01 a       175     0     9     1    15
  5.6129845266333711E-01 a       176     0     9     1    16
  3.0733600737490030E-01 a       177     0     9     1    17
 -1.5636592172108760E-01 a       178     0     9     1    18
  2.3502478776107619E-02 a       179     0     9     1    19
  5.7164072373760433E-01 a       180     0     9     1    20
  2.7907566030222125E-01 a       181     0    10     1     1
  3.0682614408368586E-01 a       182     0    10     1     2
 -6.6499164507099662E-01 a       183     0    10     1     3
 -5.7923254093644871E-01 a       184     0    10     1     4
 -1.9354927261994184E-01 a       185     0    10     1     5
 -5.1121428464287755E-01 a       186     0    10     1     6
 -3.8705543358060687E-02 a       187     0    10     1     7
 -4.2814660754844025E-01 a       188     0    10     1     8
  4.1649883860077447E-01 a       189     0    10     1     9
 -2.8963315534340189E-01 a       190     0    10     1    10
  2.4118074071887588E-01 a       191     0    10     1    11
  3.2836809502028286E-01 a       192     0    10     1    12
  4.4257236029168873E-01 a       193     0    10     1    13
 -5.1178989787138263E-01 a       194     0    10     1    14
 -6.8419333137515437E-01 a       195     0    10     1    15
 -4.0187148105669507E-01 a       196     0    10     1    16
  4.5533981372669741E-01 a       197     0    10     1    17
 -3.7787168513635738E-01 a       198     0    10     1    18
 -5.1557095263100938E-01 a       199     0    10     1    19
 -4.6064456957147326E-01 a       200     0    10     1    20
 -3.4939550677606762E-01 a       201     0    11     1     1
 -2.0106272388143095E-02 a       202     0    11     1     2
 -3.0077461281092166E-01 a       203     0    11     1     3
 -1.0050262099537025E-01 a       204     0    11     1     4
 -2.4203314294674823E-02 a       205     0    11     1     5
 -2.8998866165271697E-01 a       206     0    11     1     6
 -3.9641353455131823E-01 a       207     0    11     1     7
 -1.5292635189265721E-01 a       208     0    11     1     8
 -2.2763711997970679E-01 a       209     0    11     1     9
 -1.7653903805907425E-01 a       210     0    11     1    10
 -3.6407221620836488E-01 a       211     0    11     1    11
  3.6463752586798048E-01 a       212     0    11     1    12
  3.0064006788453007E-01 a       213     0    11     1    13
 -3.1275789164440854E-01 a       214     0    11     1    14
  8.7134825463270879E-02 a       215     0    11     1    15
 -2.8461478888835830E-02 a       216     0    11     1    16
  1.9428239505838124E-01 a       217     0    11     1    17
  4.7441726209668905E-01 a       218     0    11     1    18
 -4.4457928013123255E-01 a       219     0    11     1    19
  3.9974026487695163E-01 a       220     0    11     1    20
 -3.2197647909176765E-02 a       221     0    12     1     1
 -3.5162899380645168E-01 a       222     0    12     1     2
 -2.3152022913436135E-01 a       223     0    12     1     3
  6.1626288512059174E-02 a       224     0    12     1     4
  5.4844941819397330E-01 a       225     0    12     1     5
  5.3835215825502603E-01 a       226     0    12     1     6
  4.8768202280309414E-01 a       227     0    12     1     7
  1.6441683249590873E-03 a       228     0    12     1     8
 -7.8848225003937136E-02 a       229     0    12     1     9
 -5.1643287269781957E-01 a       230     0    12     1    10
  1.8859759620366498E-01 a       231     0    12     1    11
 -4.1206901324968803E-01 a       232     0    12     1    12
  3.3529115801480003E-01 a       233     0    12     1    13
  3.1139298041085689E-01 a       234     0    12     1    14
 -3.0706394080307103E-01 a       235     0    12     1    15
 -7.2092541276064437E-01 a       236     0    12     1    16
 -2.5786259217903817E-01 a       237     0    12     1    17
 -1.1744580956768673E-01 a       238     0    12     1    18
  1.8843060194017736E-01 a       239     0    12     1    19
  4.9624429031869033E-01 a       240     0    12     1    20
 -2.4576329324830420E-01 a       241     0    13     1     1
  1.1717499449640793E-01 a       242     0    13     1     2
 -4.0924507200828980E-01 a       243     0    13     1     3
 -3.0395719918116582E-01 a       244     0    13     1     4
 -3.0885501532101672E-01 a       245     0    13     1     5
 -1.2307289576533391E-01 a       246     0    13     1     6
  5.8867425102720938E-01 a       247     0    13     1     7
 -2.8384650803591360E-01 a       248     0    13     1     8
 -2.4192665585056793E-02 a       249     0    13     1     9
 -3.3291810170366198E-01 a       250     0    13     1    10
  4.1872635076263165E-01 a       251     0    13     1    11
 -3.2938744935269149E-01 a       252     0    13     1    12
 -4.7093506790232853E-01 a       253     0    13     1    13
  4.4666264080547968E-02 a       254     0    13     1    14
  1.0859372974245644E-01 a       255     0    13     1    15
  1.9038887922002756E-01 a       256     0    13     1    16
 -3.2064017334945252E-02 a       257     0    13     1    17
 -3.8202045681881852E-01 a       258     0    13     1    18
  7.0754220674840085E-01 a       259     0    13     1    19
 -6.1388300389684702E-01 a       260     0    13     1    20
  1.9084270264885797E-01 a       261     0    14     1     1
 -5.8987257051456277E-01 a       262     0    14     1     2
 -4.5338820702869270E-01 a       263     0    14     1     3
 -3.5479420809370704E-01 a       264     0    14     1     4
  5.7280309611671665E-01 a       265     0    14     1     5
 -1.2505997522125478E-01 a       266     0    14     1     6
 -5.5989763188315535E-02 a       267     0    14     1     7
  2.7891151077497034E-01 a       268     0    14     1     8
 -5.4637757545526022E-01 a       269     0    14     1     9
  1.0941940992075889E-02 a       270     0    14     1    10
 -6.9997408215836124E-02 a       271     0    14     1    11
 -2.0601546867568127E-01 a       272     0    14     1    12
  3.7637874891161965E-01 a       273     0    14     1    13
 -4.1728416342229613E-01 a       274     0    14     1    14
  7.8272509271689883E-01 a       275     0    14     1    15
  4.2104870560378281E-02 a       276     0    14     1    16
 -2.9026925470017328E-01 a       277     0    14     1    17
  3.4259339177161646E-01 a       278     0    14     1    18
 -2.6735576895040747E-01 a       279     0    14     1    19
  9.5187521580618162E-02 a       280     0    14     1    20
 -8.4847781709745246E-02 b       281     1     1
  1.0013766580018166E+00 b       282     1     2
  1.0819501194037115E-01 b       283     1     3
 -1.7202115492204180E+00 b       284     1     4
  1.6374904249409012E+00 b       285     1     5
  2.2007717975566593E-01 b       286     1     6
 -4.3177663650645254E-01 b       287     1     7
  1.2868527481108278E+00 b       288     1     8
  7.7181344700007581E-01 b       289     1     9
 -1.6754231400467514E+00 b       290     1    10
  1.2676344324962789E+00 b       291     1    11
  1.5477959707058584E+00 b       292     1    12
  1.1233509912005213E+00 b       293     1    13
  8.8861278940174659E-01 b       294     1    14
 -1.8625160936426544E-01 b       295     1    15
  1.0470444686404936E+00 b       296     1    16
 -5.4869222912484761E-01 b       297     1    17
 -7.1745241573259588E-01 b       298     1    18
  1.7582909218211178E+00 b       299     1    19
  1.8862729882163698E+00 b       300     1    20
 -1.4077150627455770E-01 a       301     1     1     2     1
 -3.0242720872553414E-01 a       302     1     1     2     2
  3.7101784796069004E-01 a       303     1     1     2     3
  5.8083437223300405E-01 a       304     1     1     2     4
 -4.0989550377401773E-01 a       305     1     1     2     5
  5.3912063431966162E-01 a       306     1     1     2     6
  3.7799046676367132E-01 a       307     1     1     2     7
  1.2061761456220915E-01 a       308     1     1     2     8
 -3.2870187858830731E-03 a       309     1     1     2     9
 -2.8210203831116609E-01 a       310     1     1     2    10
 -9.6824420940274436E-02 a       311     1     1     2    11
 -3.4101049987853016E-02 a       312     1     1     2    12
  7.6347569755052136E-02 a       313     1     1     2    13
 -3.7105275927210113E-01 a       314     1     1     2    14
  3.1251487121527088E-01 a       315     1     1     2    15
 -3.0947784081866847E-01 a       316     1     1     2    16
  3.1661185110952839E-01 a       317     1     1     2    17
  3.6719799049087093E-01 a       318     1     1     2    18
 -1.0918243908035097E-01 a       319     1     1     2    19
  5.6316021301326979E-01 a       320     1     1     2    20
  5.8205373791012627E-01 a       321     1     2     2     1
 -1.7432145952879882E-01 a       322     1     2     2     2
  1.4449099120001133E-01 a       323     1     2     2     3
 -7.0487041974270429E-02 a       324     1     2     2     4
  6.4719269920109415E-02 a       325     1     2     2     5
  1.5147706002936182E-01 a       326     1     2     2     6
 -1.7068626719435975E-01 a       327     1     2     2     7
 -8.3059192845776356E-02 a       328     1     2     2     8
  4.2476208202753707E-01 a       329     1     2     2     9
  5.9906086154739857E-01 a       330     1     2     2    10
  3.9333736303626327E-01 a       331     1     2     2    11
  4.1831413889316171E-01 a       332     1     2     2    12
  4.2967811819312229E-01 a       333     1     2     2    13
 -5.0495570277335700E-01 a       334     1     2     2    14
 -3.0446153720338442E-01 a       335     1     2     2    15
 -1.5050994065376377E-01 a       336     1     2     2    16
  5.1737345980433606E-02 a       337     1     2     2    17
  4.9102546173766803E-01 a       338     1     2     2    18
 -3.6872908099545626E-01 a       339     1     2     2    19
  2.0523851983976055E-01 a       340     1     2     2    20
  3.3606063228800442E-01 a       341     1     3     2     1
  3.8065482065406347E-01 a       342     1     3     2     2
  3.1386827949918183E-01 a       343     1     3     2     3
 -1.4727213775545264E-01 a       344     1     3     2     4
 -3.8374164516971809E-01 a       345     1     3     2     5
  9.1965307138419401E-03 a       346     1     3     2     6
 -6.5164634589818041E-02 a       347     1     3     2     7
  3.1161236784284246E-01 a       348     1     3     2     8
 -3.5885149502625863E-01 a       349     1     3     2     9
 -5.9310028943872682E-02 a       350     1     3     2    10
  1.8434358901541387E-01 a       351     1     3     2    11
 -2.1382199823836157E-01 a       352     1     3     2    12
  1.7484323439734772E-01 a       353     1     3     2    13
  5.9297655014997752E-01 a       354     1     3     2    14
 -3.0826086620313908E-01 a       355     1     3     2    15
 -3.8696195055985250E-01 a       356     1     3     2    16
  7.3615318651863645E-02 a       357     1     3     2    17
  1.8965306935445947E-01 a       358     1     3     2    18
 -5.4820466058687223E-01 a       359     1     3     2    19
  1.7777235096918786E-01 a       360     1     3     2    20
 -4.7926409283239879E-01 a       361     1     4     2     1
 -3.3812173535547352E-01 a       362     1     4     2     2
 -3.9489731937970762E-01 a       363     1     4     2     3
  6.0899650455577092E-01 a       364     1     4     2     4
 -2.8236161518524577E-01 a       365     1     4     2     5
  4.4279244953223090E-01 a       366     1     4     2     6
 -3.8483839242248030E-01 a       367     1     4     2     7
  4.3407232230298531E-01 a       368     1     4     2     8
  1.3447291135756481E-01 a       369     1     4     2     9
  5.2489537071340686E-01 a       370     1     4     2    10
 -1.0057535299467145E-01 a       371     1     4     2    11
  3.1626319702295891E-01 a       372     1     4     2    12
  1.5423216722290634E-01 a       373     1     4     2    13
  1.6005984456244438E-01 a       374     1     4     2    14
  1.3380516665550240E-02 a       375     1     4     2    15
  3.3405067169742092E-01 a       376     1     4     2    16
 -5.0957406322351351E-02 a       377     1     4     2    17
  4.4060162270767250E-01 a       378     1     4     2    18
 -2.7801006355094121E-01 a       379     1     4     2    19
  4.6710428932587339E-01 a       380     1     4     2    20
 -5.8799290673081928E-01 a       381     1     5     2     1
 -5.1307075296164217E-01 a       382     1     5     2     2
  2.3326600924741273E-01 a       383     1     5     2     3
 -1.9626372860352764E-01 a       384     1     5     2     4
 -3.0438907648896468E-01 a       385     1     5     2     5
  6.2265278111385125E-01 a       386     1     5     2     6
  1.3757858688103428E-01 a       387     1     5     2     7
  5.9019490941520114E-01 a       388     1     5     2     8
 -2.7879591538357279E-01 a       389     1     5     2     9
  5.5981415272765211E-01 a       390     1     5     2    10
 -1.2589288681578256E-01 a       391     1     5     2    11
  4.1224555995231166E-01 a       392     1     5     2    12
 -1.3532705588100521E-01 a       393     1     5     2    13
 -1.3052707185297610E-01 a       394     1     5     2    14
  1.9482641909840961E-01 a       395     1     5     2    15
 -1.3383846880681111E-01 a       396     1     5     2    16
 -3.6968489584419822E-01 a       397     1     5     2    17
 -4.1591140983922387E-02 a       398     1     5     2    18
  2.2647151175704436E-01 a       399     1     5     2    19
 -9.3396405231761653E-02 a       400     1     5     2    20
 -3.0860942196263857E-01 a       401     1     6     2     1
  4.5047019981227265E-01 a       402     1     6     2     2
 -2.9635613203721761E-01 a       403     1     6     2     3
 -5.5309765093821173E-01 a       404     1     6     2     4
  2.5992994746440301E-01 a       405     1     6     2     5
 -5.8034025727907235E-01 a       406     1     6     2     6
 -1.5959591939001033E-01 a       407     1     6     2     7
 -3.0929778139684178E-01 a       408     1     6     2     8
  3.4268598790403748E-01 a       409     1     6     2     9
 -4.3703814288660420E-01 a       410     1     6     2    10
  2.8988909286029185E-01 a       411     1     6     2    11
 -2.9707726304260135E-01 a       412     1     6     2    12
  3.8416731730533743E-01 a       413     1     6     2    13
  1.2487313325086226E-01 a       414     1     6     2    14
 -4.7301163400093876E-01 a       415     1     6     2    15
  1.3409392791874455E-01 a       416     1     6     2    16
  3.7524985929335380E-01 a       417     1     6     2    17
 -2.2982120843833234E-01 a       418     1     6     2    18
  1.0668725990344483E-01 a       419     1     6     2    19
 -2.3578955707155091E-01 a       420     1     6     2    20
  9.7641344523163275E-03 a       421     1     7     2     1
 -3.9381429186592304E-01 a       422     1     7     2     2
  1.9912042715275902E-01 a       423     1     7     2     3
  1.9411553600775602E-01 a       424     1     7     2     4
 -5.7387202176353824E-01 a       425     1     7     2     5
  6.4282037161303193E-02 a       426     1     7     2     6
  3.6024050443798777E-01 a       427     1     7     2     7
 -3.3636730775539636E-02 a       428     1     7     2     8
  3.1621902568215177E-01 a       429     1     7     2     9
  2.5280229531489357E-01 a       430     1     7     2    10
 -2.8234072528534354E-01 a       431     1     7     2    11
 -2.8196616293449306E-01 a       432     1     7     2    12
 -2.4383244527769413E-01 a       433     1     7     2    13
 -1.2565544018858338E-01 a       434     1     7     2    14
 -1.7590452149930511E-01 a       435     1     7     2    15
  1.1110257187696065E-01 a       436     1     7     2    16
 -3.4315454021263186E-01 a       437     1     7     2    17
 -3.5758736430045990E-01 a       438     1     7     2    18
 -1.1959055519343482E-01 a       439     1     7     2    19
  5.2832308492201352E-01 a       440     1     7     2    20
  1.4918887237439446E-01 a       441     1     8     2     1
 -1.3467186414232113E-01 a       442     1     8     2     2
  3.9666852440230815E-01 a       443     1     8     2     3
  1.2006843626456196E-02 a       444     1     8     2     4
  4.7576143731053006E-01 a       445     1     8     2     5
 -3.8096900364036590E-01 a       446     1     8     2     6
  2.1848575571258588E-01 a       447     1     8     2     7
  7.0560979680209912E-02 a       448     1     8     2     8
  3.0707661861132884E-01 a       449     1     8     2     9
  8.8944141909104088E-02 a       450     1     8     2    10
  2.2231131682548128E-01 a       451     1     8     2    11
 -3.1991553623303892E-01 a       452     1     8     2    12
  2.1381804541443930E-01 a       453     1     8     2    13
  4.1724276345176947E-01 a       454     1     8     2    14
 -1.1566608823562821E-01 a       455     1     8     2    15
  1.6141421610330717E-01 a       456     1     8     2    16
 -2.3704230983775201E-01 a       457     1     8     2    17
  3.9260239176230194E-01 a       458     1     8     2    18
 -4.9952838075235728E-01 a       459     1     8     2    19
 -4.0637214966430657E-01 a       460     1     8     2    20
  4.1839115176639174E-01 a       461     1     9     2     1
 -3.6094433059907077E-01 a       462     1     9     2     2
  4.8382590408926801E-01 a       463     1     9     2     3
 -4.3746468183650972E-01 a       464     1     9     2     4
  2.5644121777481838E-01 a       465     1     9     2     5
 -2.6992480910527189E-01 a       466     1     9     2     6
 -3.1663153687115314E-01 a       467     1     9     2     7
  5.0841034274954910E-01 a       468     1     9     2     8
 -3.2045471509003082E-01 a       469     1     9     2     9
 -5.1890048844708847E-01 a       470     1     9     2    10
  2.3369859333861986E-01 a       471     1     9     2    11
  3.0915761748179893E-01 a       472     1     9     2    12
  1.4846842376558778E-01 a       473     1     9     2    13
 -3.1954440784789701E-01 a       474     1     9     2    14
  3.5634816703838712E-01 a       475     1     9     2    15
  4.5793484869601092E-01 a       476     1     9     2    16
 -1.2703398643543667E-01 a       477     1     9     2    17
  2.3334412303373153E-01 a       478     1     9     2    18
 -2.1819709478246147E-02 a       479     1     9     2    19
 -2.5214145430583704E-02 a       480     1     9     2    20
  2.2379628118535175E-01 a       481     1    10     2     1
  4.8760282911566050E-01 a       482     1    10     2     2
  7.9426548878482762E-03 a       483     1    10     2     3
  6.7265454560794558E-01 a       484     1    10     2     4
 -2.5939368895031795E-01 a       485     1    10     2     5
  1.8813018906527285E-01 a       486     1    10     2     6
 -4.2593677859234941E-01 a       487     1    10     2     7
  5.3149333903806983E-01 a       488     1    10     2     8
  3.1669230251613179E-01 a       489     1    10     2     9
  1.8761987633261482E-01 a       490     1    10     2    10
  3.9068581214948245E-02 a       491     1    10     2    11
 -4.0212404166472598E-01 a       492     1    10     2    12
 -6.5225911232972389E-02 a       493     1    10     2    13
  3.4162693245460907E-01 a       494     1    10     2    14
 -3.5850412971612605E-01 a       495     1    10     2    15
 -3.4381583238340191E-01 a       496     1    10     2    16
 -2.0217845916076294E-01 a       497     1    10     2    17
  2.1289121401369995E-01 a       498     1    10     2    18
  1.1150055282290440E-01 a       499     1    10     2    19
 -5.0619469155833374E-01 a       500     1    10     2    20
 -4.7472204825039321E-01 a       501     1    11     2     1
  6.0815201321855206E-01 a       502     1    11     2     2
 -4.6128465421396087E-01 a       503     1    11     2     3
  2.9788000693287481E-01 a       504     1    11     2     4
  5.6490950395706219E-01 a       505     1    11     2     5
 -4.3399147334769250E-01 a       506     1    11     2     6
  3.6636611360926952E-01 a       507     1    11     2     7
  2.6583787827698813E-01 a       508     1    11     2     8
 -5.3086454762655211E-01 a       509     1    11     2     9
  5.2280078950087805E-01 a       510     1    11     2    10
  3.4333479650686571E-01 a       511     1    11     2    11
  1.0307225626906791E-01 a       512     1    11     2    12
 -5.7340677715772359E-01 a       513     1    11     2    13
 -7.3304667855900985E-01 a       514     1    11     2    14
  3.1665550232698703E-01 a       515     1    11     2    15
 -1.9051812003293245E-01 a       516     1    11     2    16
 -4.3009156402886078E-01 a       517     1    11     2    17
  1.7192734680735300E-01 a       518     1    11     2    18
 -2.9622353021709663E-01 a       519     1    11     2    19
  3.4937490271082750E-01 a       520     1    11     2    20
 -5.8707495498728313E-01 a       521     1    12     2     1
 -8.6023927967048400E-02 a       522     1    12     2     2
  4.4263400403766723E-01 a       523     1    12     2     3
  5.3808696870907247E-01 a       524     1    12     2     4
 -2.4273523241636083E-01 a       525     1    12     2     5
  1.0649351284808958E-01 a       526     1    12     2     6
 -4.7860171950185409E-01 a       527     1    12     2     7
  6.6658337602658668E-01 a       528     1    12     2     8
  4.4849367995411632E-01 a       529     1    12     2     9
 -6.2445635896490492E-01 a       530     1    12     2    10
  4.6765949511900762E-01 a       531     1    12     2    11
  4.3103630657279624E-01 a       532     1    12     2    12
 -1.5189715827376665E-01 a       533     1    12     2    13
 -1.6271565880887348E-01 a       534     1    12     2    14
  4.5032064771568997E-01 a       535     1    12     2    15
  1.3825576545726004E-01 a       536     1    12     2    16
 -4.2040739009503653E-01 a       537     1    12     2    17
 -4.9516708653947544E-01 a       538     1    12     2    18
 -5.5322071657314098E-01 a       539     1    12     2    19
 -1.0462275231972575E-01 a       540     1    12     2    20
  1.0367205258449047E-01 a       541     1    13     2     1
 -2.2813011614600345E-01 a       542     1    13     2     2
 -2.4351188346517810E-01 a       543     1    13     2     3
  5.1143013564308482E-01 a       544     1    13     2     4
 -2.9776755998477211E-01 a       545     1    13     2     5
 -9.1882933378654288E-02 a       546     1    13     2     6
 -3.2603258483900921E-01 a       547     1    13     2     7
 -2.0824757135932442E-01 a       548     1    13     2     8
 -2.8004808238098899E-01 a       549     1    13     2     9
  1.7309349266716037E-01 a       550     1    13     2    10
 -1.5862018647954454E-01 a       551     1    13     2    11
  4.1238944495744340E-01 a       552     1    13     2    12
 -5.5366345442042808E-01 a       553     1    13     2    13
 -5.2494058739542986E-02 a       554     1    13     2    14
 -4.8959422516477447E-01 a       555     1    13     2    15
  3.2225917200398357E-01 a       556     1    13     2    16
 -3.2993048915012146E-02 a       557     1    13     2    17
  3.1653971404212983E-01 a       558     1    13     2    18
 -4.5192766351158103E-01 a       559     1    13     2    19
 -5.5166405754886239E-01 a       560     1    13     2    20
 -1.3761289303824301E-01 a       561     1    14     2     1
  1.7671499052132941E-01 a       562     1    14     2     2
  2.0422571700617059E-01 a       563     1    14     2     3
  6.0481572788462702E-02 a       564     1    14     2     4
 -4.6738180413699831E-01 a       565     1    14     2     5
  4.0037454983230536E-01 a       566     1    14     2     6
  3.5213270446595174E-01 a       567     1    14     2     7
 -1.8095725942260876E-01 a       568     1    14     2     8
 -2.9636751971271474E-01 a       569     1    14     2     9
  2.2435955717572359E-01 a       570     1    14     2    10
 -5.8656523712727759E-01 a       571     1    14     2    11
  4.9967787368863864E-01 a       572     1    14     2    12
 -3.5424585289007793E-01 a       573     1    14     2    13
 -6.1482544155526131E-01 a       574     1    14     2    14
 -3.1005873076213541E-01 a       575     1    14     2    15
 -2.0188576365015623E-01 a       576     1    14     2    16
  1.0727126866386481E-01 a       577     1    14     2    17
  3.1474633648954359E-01 a       578     1    14     2    18
 -4.6837545703779015E-01 a       579     1    14     2    19
 -3.6079608666760049E-01 a       580     1    14     2    20
  3.0671954906252341E-01 a       581     1    15     2     1
 -4.0503267441217763E-03 a       582     1    15     2     2
  1.6145851798246885E-02 a       583     1    15     2     3
 -4.2433157323837278E-01 a       584     1    15     2     4
 -5.2004077449066495E-02 a       585     1    15     2     5
  4.2513223936153710E-01 a       586     1    15     2     6
  7.5696927216776802E-02 a       587     1    15     2     7
 -5.5951982133790726E-02 a       588     1    15     2     8
 -3.2098616153888820E-01 a       589     1    15     2     9
 -2.4912338365640821E-01 a       590     1    15     2    10
  3.8421502571916127E-01 a       591     1    15     2    11
 -1.9688440742858951E-03 a       592     1    15     2    12
  2.5076441727203863E-01 a       593     1    15     2    13
  4.1178022935117670E-01 a       594     1    15     2    14
  1.5417579618881788E-01 a       595     1    15     2    15
  3.1822663307009308E-01 a       596     1    15     2    16
 -5.0772183704356200E-01 a       597     1    15     2    17
  3.7661466201104299E-01 a       598     1    15     2    18
 -1.6481768304952338E-01 a       599     1    15     2    19
  2.0539764834928745E-01 a       600     1    15     2    20
 -1.2788771794763806E-01 a       601     1    16     2     1
  9.0439499579990937E-02 a       602     1    16     2     2
 -2.8526991978039207E-01 a       603     1    16     2     3
 -5.5268237477280435E-02 a       604     1    16     2     4
 -4.2844075809716514E-01 a       605     1    16     2     5
 -1.5111898033139973E-01 a       606     1    16     2     6
 -8.4093151882079137E-02 a       607     1    16     2     7
 -6.4827544719493951E-02 a       608     1    16     2     8
 -5.1689615683077694E-01 a       609     1    16     2     9
 -5.8533501432843249E-01 a       610     1    16     2    10
  4.2863836491504809E-01 a       611     1    16     2    11
  1.0742396424472667E-01 a       612     1    16     2    12
  9.0222125906966752E-02 a       613     1    16     2    13
  4.1707598503235588E-01 a       614     1    16     2    14
 -1.2587044096126768E-02 a       615     1    16     2    15
 -3.0930216155688584E-01 a       616     1    16     2    16
  1.0309985980594276E-01 a       617     1    16     2    17
 -9.0170225467358894E-02 a       618     1    16     2    18
  4.5545661875359028E-01 a       619     1    16     2    19
 -1.3071907140252262E-01 a       620     1    16     2    20
  5.0482513213446201E-01 a       621     1    17     2     1
 -4.0535307432720824E-02 a       622     1    17     2     2
  1.0966130879961168E-01 a       623     1    17     2     3
  6.8766072777336290E-02 a       624     1    17     2     4
 -3.1898880338519547E-01 a       625     1    17     2     5
 -2.4171538696525791E-01 a       626     1    17     2     6
  2.9405680323313965E-01 a       627     1    17     2     7
 -2.1387377302163754E-01 a       628     1    17     2     8
 -3.9235526521268055E-01 a       629     1    17     2     9
 -2.2009807556430649E-01 a       630     1    17     2    10
 -6.4757257235680565E-01 a       631     1    17     2    11
 -2.3918825082116246E-01 a       632     1    17     2    12
  4.1918220441269494E-01 a       633     1    17     2    13
  1.7616524772188127E-01 a       634     1    17     2    14
 -4.4700639370245315E-01 a       635     1    17     2    15
 -4.4069293353018352E-01 a       636     1    17     2    16
  2.9072189519784847E-01 a       637     1    17     2    17
  6.3204289419745119E-01 a       638     1    17     2    18
 -3.2055539111203785E-01 a       639     1    17     2    19
  5.5289334859790196E-01 a       640     1    17     2    20
 -1.6475062449847717E-02 a       641     1    18     2     1
 -2.7956438510790466E-01 a       642     1    18     2     2
  4.1421766346445114E-02 a       643     1    18     2     3
  3.8041364976044922E-01 a       644     1    18     2     4
  5.4211111755655073E-01 a       645     1    18     2     5
 -5.1077446641029989E-01 a       646     1    18     2     6
 -2.2332663531290677E-02 a       647     1    18     2     7
  3.3722444588002037E-01 a       648     1    18     2     8
 -2.2570217213821167E-01 a       649     1    18     2     9
  6.1201899966682655E-02 a       650     1    18     2    10
 -7.2879512987347528E-01 a       651     1    18     2    11
 -3.0835219632459832E-02 a       652     1    18     2    12
 -1.2302726327862847E-01 a       653     1    18     2    13
 -1.5642045038429972E-01 a       654     1    18     2    14
  1.0922812414794561E-01 a       655     1    18     2    15
  4.5089763648137743E-01 a       656     1    18     2    16
  3.5793659401344347E-01 a       657     1    18     2    17
  5.2186827103113176E-01 a       658     1    18     2    18
  2.3171657191535407E-02 a       659     1    18     2    19
  3.8316955543223069E-01 a       660     1    18     2    20
 -5.6246133972162116E-01 a       661     1    19     2     1
 -5.5060330687665016E-01 a       662     1    19     2     2
 -2.4849598420905128E-01 a       663     1    19     2     3
 -1.5832974869022234E-01 a       664     1    19     2     4
 -5.1651304572605317E-01 a       665     1    19     2     5
  3.4896431591150606E-01 a       666     1    19     2     6
  5.3722807667289296E-01 a       667     1    19     2     7
  3.9890177785648728E-01 a       668     1    19     2     8
  4.1749052025902250E-01 a       669     1    19     2     9
  3.6047503578687724E-02 a       670     1    19     2    10
  3.8444554367475120E-01 a       671     1    19     2    11
  2.8834196601042600E-01 a       672     1    19     2    12
  4.2455647010999875E-01 a       673     1    19     2    13
 -2.2677479241859472E-01 a       674     1    19     2    14
  3.3415181196859284E-01 a       675     1    19     2    15
  6.2649973927628966E-01 a       676     1    19     2    16
 -3.7404978215372520E-01 a       677     1    19     2    17
  3.4638814731845108E-01 a       678     1    19     2    18
 -1.0746652247634279E-01 a       679     1    19     2    19
  5.0448686567917667E-01 a       680     1    19     2    20
  2.4665114118788325E-01 a       681     1    20     2     1
 -7.2342276517792137E-01 a       682     1    20     2     2
 -6.4327035094377941E-02 a       683     1    20     2     3
 -1.0339249494172156E-01 a       684     1    20     2     4
 -7.2720425127148630E-02 a       685     1    20     2     5
 -2.9078172567390187E-01 a       686     1    20     2     6
  5.8139503763563460E-01 a       687     1    20     2     7
 -1.6269859348083951E-01 a       688     1    20     2     8
  3.2239828555592337E-01 a       689     1    20     2     9
  2.0714938230673266E-01 a       690     1    20     2    10
 -1.9407844765314840E-02 a       691     1    20     2    11
 -2.4977524180723956E-01 a       692     1    20     2    12
  2.3246180058180649E-01 a       693     1    20     2    13
  4.5615998446186068E-01 a       694     1    20     2    14
 -1.0177239042188255E-01 a       695     1    20     2    15
  3.7032926137487843E-01 a       696     1    20     2    16
  3.8240021809213937E-01 a       697     1    20     2    17
  4.1926796191730908E-01 a       698     1    20     2    18
  2.5868278061251226E-01 a       699     1    20     2    19
 -9.4955263594106304E-02 a       700     1    20     2    20
 -9.8568226315963658E-01 b       701     2     1
  1.0795049462753135E+00 b       702     2     2
  1.8285922104572430E-01 b       703     2     3
 -1.1481281266035499E+00 b       704     2     4
 -3.3572115224637750E-01 b       705     2     5
 -1.1190845742179818E+00 b       706     2     6
 -1.3225556880578340E+00 b       707     2     7
  1.1243390342991493E+00 b       708     2     8
 -5.7985636098075566E-01 b       709     2     9
  8.7763303646725688E-01 b       710     2    10
  6.2779620573163259E-03 b       711     2    11
 -1.1440718946981716E+00 b       712     2    12
 -2.4816069776286337E-01 b       713     2    13
 -1.5748007555014263E+00 b       714     2    14
 -1.2688332168229866E+00 b       715     2    15
  6.2123822628434422E-01 b       716     2    16
  7.3563689384662811E-01 b       717     2    17
  4.8051926612407647E-02 b       718     2    18
  5.1186710001238622E-01 b       719     2    19
 -1.4412148309057887E-01 b       720     2    20
  2.9168870407389891E-01 a       721     2     1     3     1
  2.6195465263496492E-01 a       722     2     2     3     1
  6.8699048159640552E-01 a       723     2     3     3     1
 -4.3798398030703384E-01 a       724     2     4     3     1
  6.2171674328105005E-02 a       725     2     5     3     1
  5.6580193640093257E-01 a       726     2     6     3     1
 -4.7917666343675130E-01 a       727     2     7     3     1
 -9.6505144869963488E-01 a       728     2     8     3     1
  7.3726593025342213E-01 a       729     2     9     3     1
 -6.7085728113953455E-02 a       730     2    10     3     1
  6.8570558352304267E-01 a       731     2    11     3     1
 -4.1831532738268656E-01 a       732     2    12     3     1
 -5.2855272187015434E-01 a       733     2    13     3     1
 -3.4889058860870636E-01 a       734     2    14     3     1
 -4.3616054550405281E-01 a       735     2    15     3     1
 -1.0178631352666014E+00 a       736     2    16     3     1
 -4.1230279065746966E-01 a       737     2    17     3     1
  5.8517933396414523E-01 a       738     2    18     3     1
  7.8787634443020638E-01 a       739     2    19     3     1
  1.1590679860704142E-01 a       740     2    20     3     1
  4.4084253734777401E-01 b       741     3     1
