################################################################################
# Neural network connection values (weights and biases).
################################################################################
# Col  Name       Description
################################################################################
# 1    connection Neural network connection value.
# 2    t          Connection type (a = weight, b = bias).
# 3    index      Index enumerating weights.
# 4    l_s        Starting point layer (end point layer for biases).
# 5    n_s        Starting point neuron in starting layer (end point neuron for biases).
# 6    l_e        End point layer.
# 7    n_e        End point neuron in end layer.
################################################################################
#                      1 2         3     4     5     6     7
#             connection t     index   l_s   n_s   l_e   n_e
############################################################
 -7.6925032139038188E-02 a         1     0     1     1     1
  4.2673805552641758E-01 a         2     0     1     1     2
  8.3835202397761677E-01 a         3     0     1     1     3
 -6.9091897337644348E-01 a         4     0     1     1     4
  2.7073815285225955E-01 a         5     0     1     1     5
 -3.6453438824521950E-01 a         6     0     1     1     6
  3.9913000148763206E-01 a         7     0     1     1     7
 -1.6723824910600654E-01 a         8     0     1     1     8
 -2.3135392821869133E-01 a         9     0     1     1     9
  4.7121063680987102E-01 a        10     0     1     1    10
  5.0242842667172671E-01 a        11     0     1     1    11
 -3.2514041303876484E-01 a        12     0     1     1    12
 -6.8019167963312865E-01 a        13     0     1     1    13
 -6.3515638458828283E-01 a        14     0     1     1    14
  1.2782951473787088E-01 a        15     0     1     1    15
  5.1553587663618838E-01 a        16     0     1     1    16
  4.2125601862054340E-01 a        17     0     1     1    17
 -6.8895406288937949E-02 a        18     0     1     1    18
 -5.0455633305226943E-01 a        19     0     1     1    19
  6.0667593491131128E-02 a        20     0     1     1    20
  3.2833588103205613E-01 a        21     0     2     1     1
 -4.1758457076693350E-01 a        22     0     2     1     2
  2.2787100809264191E-01 a        23     0     2     1     3
  2.7242811272837614E-01 a        24     0     2     1     4
 -7.9404131350583509E-02 a        25     0     2     1     5
  1.5053455119572845E-01 a        26     0     2     1     6
  3.0008834326954942E-01 a        27     0     2     1     7
  4.6351328042723511E-01 a        28     0     2     1     8
 -7.4927127681147299E-01 a        29     0     2     1     9
  6.8502758426012977E-01 a        30     0     2     1    10
  3.1833024083444900E-01 a        31     0     2     1    11
 -2.4422499031754999E-01 a        32     0     2     1    12
 -2.2615609696275324E-01 a        33     0     2     1    13
 -2.8668999587799421E-01 a        34     0     2     1    14
  8.7770468445431982E-01 a        35     0     2     1    15
  1.7732825645693578E-01 a        36     0     2     1    16
 -1.4648326874834150E-01 a        37     0     2     1    17
  2.3696935283410214E-01 a        38     0     2     1    18
 -4.9325818976599339E-01 a        39     0     2     1    19
 -1.8832044540429055E-01 a        40     0     2     1    20
 -6.1132530441425070E-01 a        41     0     3     1     1
  3.4566311022064827E-01 a        42     0     3     1     2
 -1.2561688100587556E-01 a        43     0     3     1     3
 -3.7877300955608351E-01 a        44     0     3     1     4
 -3.2266922923114610E-01 a        45     0     3     1     5
  3.0121459996920941E-01 a        46     0     3     1     6
 -4.2242859497644458E-01 a        47     0     3     1     7
 -3.6251943714231882E-01 a        48     0     3     1     8
  3.4670234030485476E-02 a        49     0     3     1     9
 -2.6463972952353054E-01 a        50     0     3     1    10
  2.8507477623986893E-01 a        51     0     3     1    11
 -6.1707950443105630E-01 a        52     0     3     1    12
  2.8390983766272654E-01 a        53     0     3     1    13
 -1.4068529345661826E-01 a        54     0     3     1    14
 -6.8474937892039411E-01 a        55     0     3     1    15
 -1.1597199348846232E-01 a        56     0     3     1    16
  4.1041035406107435E-01 a        57     0     3     1    17
  2.4587945038220235E-01 a        58     0     3     1    18
 -4.6292727129820688E-01 a        59     0     3     1    19
  1.6113293100425716E-01 a        60     0     3     1    20
  4.9951403201798933E-01 a        61     0     4     1     1
 -4.4011317294681684E-01 a        62     0     4     1     2
  1.6282078859748722E-01 a        63     0     4     1     3
  9.5135215196928816E-02 a        64     0     4     1     4
  4.1940650649010658E-01 a        65     0     4     1     5
 -7.0372640549692986E-02 a        66     0     4     1     6
 -2.4627431042605663E-01 a        67     0     4     1     7
 -1.1504149465806819E-01 a        68     0     4     1     8
  4.3861886403515260E-01 a        69     0     4     1     9
 -5.5322985350318898E-01 a        70     0     4     1    10
  3.4847831375303590E-01 a        71     0     4     1    11
  3.2614418513421706E-01 a        72     0     4     1    12
 -1.2934473909779320E-01 a        73     0     4     1    13
  3.8681026154200182E-01 a        74     0     4     1    14
  9.5491349642917639E-02 a        75     0     4     1    15
 -8.8987907916433329E-01 a        76     0     4     1    16
 -4.2558273202279989E-01 a        77     0     4     1    17
 -2.6883221713571698E-01 a        78     0     4     1    18
 -2.2278464285403526E-01 a        79     0     4     1    19
  1.5298095287003458E-01 a        80     0     4     1    20
  1.9080612423712704E-02 a        81     0     5     1     1
  3.0644013628338396E-01 a        82     0     5     1     2
 -2.5787930415898003E-01 a        83     0     5     1     3
  6.3802800814451865E-01 a        84     0     5     1     4
 -4.3964671645665560E-01 a        85     0     5     1     5
  8.4617133857338900E-01 a        86     0     5     1     6
  2.2544222632655880E-01 a        87     0     5     1     7
 -1.4973961704753297E-01 a        88     0     5     1     8
  5.9396051276811057E-01 a        89     0     5     1     9
  1.3067334371105122E-01 a        90     0     5     1    10
 -7.7876380082398522E-01 a        91     0     5     1    11
  5.1994207169176898E-01 a        92     0     5     1    12
 -4.2556720497452571E-01 a        93     0     5     1    13
 -4.8564172427733932E-01 a        94     0     5     1    14
 -2.8949094173519491E-01 a        95     0     5     1    15
 -3.5487356517027463E-01 a        96     0     5     1    16
 -6.1312414519755970E-02 a        97     0     5     1    17
 -2.5812740211541348E-02 a        98     0     5     1    18
  4.6317391701684335E-01 a        99     0     5     1    19
  6.2719864087474031E-01 a       100     0     5     1    20
 -7.6469496432220299E-02 a       101     0     6     1     1
 -4.4546312388243053E-01 a       102     0     6     1     2
 -8.5210299692886493E-01 a       103     0     6     1     3
  1.1088221486517388E-01 a       104     0     6     1     4
 -3.4833171363571769E-03 a       105     0     6     1     5
 -3.0875898328551299E-01 a       106     0     6     1     6
  1.8678984061741322E-01 a       107     0     6     1     7
 -5.7577591916371496E-01 a       108     0     6     1     8
  1.0266877097860093E-01 a       109     0     6     1     9
  2.0876737938562845E-01 a       110     0     6     1    10
  4.1853517708588200E-01 a       111     0     6     1    11
 -2.6256586455018971E-01 a       112     0     6     1    12
 -4.0210615511714498E-01 a       113     0     6     1    13
 -6.3914820383870641E-02 a       114     0     6     1    14
  4.2552489033290055E-04 a       115     0     6     1    15
 -3.6767770245533410E-01 a       116     0     6     1    16
 -3.1932818896488407E-01 a       117     0     6     1    17
  5.1919250622476032E-01 a       118     0     6     1    18
 -1.0219015206528254E-02 a       119     0     6     1    19
 -5.5562269349942439E-01 a       120     0     6     1    20
 -2.7533916167328981E-01 a       121     0     7     1     1
 -7.0917360873823998E-01 a       122     0     7     1     2
  5.6983449971802791E-01 a       123     0     7     1     3
  3.6937056375730021E-01 a       124     0     7     1     4
  4.2710522369678712E-02 a       125     0     7     1     5
 -1.3460977072916966E-01 a       126     0     7     1     6
 -1.9377732395249095E-01 a       127     0     7     1     7
  4.8385385402578157E-01 a       128     0     7     1     8
  2.2418229932383310E-01 a       129     0     7     1     9
  1.6846988348555272E-01 a       130     0     7     1    10
 -4.1281313762728100E-01 a       131     0     7     1    11
  2.7327357313309569E-01 a       132     0     7     1    12
  5.4617743209726122E-01 a       133     0     7     1    13
  3.9665362078770272E-01 a       134     0     7     1    14
 -1.4277891795767045E-01 a       135     0     7     1    15
 -3.2629393773095661E-01 a       136     0     7     1    16
 -4.8137100544967776E-01 a       137     0     7     1    17
 -3.3733716902836264E-01 a       138     0     7     1    18
  4.9940844382680433E-01 a       139     0     7     1    19
 -3.9595586476834299E-01 a       140     0     7     1    20
  4.3908665642485301E-01 a       141     0     8     1     1
  9.0329468462696891E-02 a       142     0     8     1     2
 -5.0279277226564412E-01 a       143     0     8     1     3
 -1.9020443942281112E-01 a       144     0     8     1     4
  1.1452866240319162E-01 a       145     0     8     1     5
 -4.9671631596083271E-01 a       146     0     8     1     6
  4.9415117476837073E-01 a       147     0     8     1     7
 -5.5114364775013625E-01 a       148     0     8     1     8
  5.8859251967571324E-01 a       149     0     8     1     9
  2.6251812257510665E-01 a       150     0     8     1    10
  6.4534025909570836E-01 a       151     0     8     1    11
 -3.0701756140799080E-01 a       152     0     8     1    12
  2.1593822626410722E-01 a       153     0     8     1    13
 -9.2912768724775809E-03 a       154     0     8     1    14
 -2.9915324136387519E-02 a       155     0     8     1    15
 -2.4452860179228061E-01 a       156     0     8     1    16
 -4.9358480488660134E-01 a       157     0     8     1    17
  8.3618716351576527E-02 a       158     0     8     1    18
  4.4258932822974190E-01 a       159     0     8     1    19
  5.0412651770975592E-01 a       160     0     8     1    20
  1.7017600375016215E-01 a       161     0     9     1     1
 -3.6029653224421720E-01 a       162     0     9     1     2
  6.1994741462846592E-01 a       163     0     9     1     3
 -2.5219042174058237E-01 a       164     0     9     1     4
  6.7131394421090529E-01 a       165     0     9     1     5
 -4.4038122285004960E-01 a       166     0     9     1     6
 -2.1841568867372319E-01 a       167     0     9     1     7
 -4.6175259815319231E-01 a       168     0     9     1     8
  1.2820337806940302E-01 a       169     0     9     1     9
  5.0362060066846480E-02 a       170     0     9     1    10
 -6.7633050111854010E-01 a       171     0     9     1    11
 -5.4481875109578781E-01 a       172     0     9     1    12
  4.7053729971580699E-01 a       173     0     9     1    13
  6.0001660481360675E-01 a       174     0     9     1    14
  3.6427349399369319E-01 a       175     0     9     1    15
 -2.5466084299636216E-01 a       176     0     9     1    16
 -2.6645957043913049E-01 a       177     0     9     1    17
 -2.3605511909914836E-01 a       178     0     9     1    18
 -4.4430248943477041E-01 a       179     0     9     1    19
 -3.2719688316994827E-01 a       180     0     9     1    20
  3.4533875653247054E-01 a       181     0    10     1     1
  3.0784717988210375E-01 a       182     0    10     1     2
 -5.8983903599074010E-02 a       183     0    10     1     3
 -3.9626071254718464E-03 a       184     0    10     1     4
  1.3417263167904625E-01 a       185     0    10     1     5
 -4.4003956995232085E-01 a       186     0    10     1     6
  4.0269376581439698E-01 a       187     0    10     1     7
  6.1799790418879486E-01 a       188     0    10     1     8
 -4.9946171474985834E-01 a       189     0    10     1     9
  1.7354405011846594E-01 a       190     0    10     1    10
 -2.2463507342507916E-01 a       191     0    10     1    11
  3.4679636381211593E-01 a       192     0    10     1    12
 -4.3649225693213073E-01 a       193     0    10     1    13
 -3.3435405393461026E-01 a       194     0    10     1    14
  4.9544228809323826E-01 a       195     0    10     1    15
  6.4931096608616656E-01 a       196     0    10     1    16
  4.1788831579267979E-02 a       197     0    10     1    17
 -2.6498393807082626E-01 a       198     0    10     1    18
 -3.2959945919899947E-01 a       199     0    10     1    19
 -3.6792323358989437E-01 a       200     0    10     1    20
  4.5891403641658290E-01 a       201     0    11     1     1
 -6.6411742275883312E-02 a       202     0    11     1     2
 -4.2229333754889775E-01 a       203     0    11     1     3
  4.7406813360544137E-01 a       204     0    11     1     4
 -6.8591171668723383E-01 a       205     0    11     1     5
 -5.5338730555581073E-01 a       206     0    11     1     6
  8.4561052757808161E-02 a       207     0    11     1     7
 -3.6173299918214119E-01 a       208     0    11     1     8
  2.4504530582942968E-01 a       209     0    11     1     9
 -1.8569412262378265E-01 a       210     0    11     1    10
  2.0163019397781240E-01 a       211     0    11     1    11
  7.0307965026347827E-02 a       212     0    11     1    12
 -7.3903980588581039E-02 a       213     0    11     1    13
  3.1695389415932557E-01 a       214     0    11     1    14
 -5.7997290495001552E-01 a       215     0    11     1    15
 -6.2144662872366385E-01 a       216     0    11     1    16
 -5.3138132979414759E-03 a       217     0    11     1    17
  8.3972134092166195E-01 a       218     0    11     1    18
  3.1622809588892228E-02 a       219     0    11     1    19
  5.8557852710804048E-01 a       220     0    11     1    20
  5.4578954584891626E-01 a       221     0    12     1     1
  5.4119401091618990E-01 a       222     0    12     1     2
  2.9559698591857975E-01 a       223     0    12     1     3
  2.0276002869323795E-01 a       224     0    12     1     4
  5.0245935732327995E-01 a       225     0    12     1     5
 -4.0305802174720096E-01 a       226     0    12     1     6
  2.2869120029680983E-02 a       227     0    12     1     7
  2.7307985193665579E-01 a       228     0    12     1     8
  1.0095175763468001E-01 a       229     0    12     1     9
  4.2332184591886778E-02 a       230     0    12     1    10
 -7.0549747209882907E-01 a       231     0    12     1    11
 -4.2553459851697278E-01 a       232     0    12     1    12
  4.4443377275615797E-01 a       233     0    12     1    13
  4.7882191955913667E-01 a       234     0    12     1    14
 -5.7436819722089513E-02 a       235     0    12     1    15
  2.5793249731531609E-01 a       236     0    12     1    16
 -2.7824163580497559E-02 a       237     0    12     1    17
 -6.9569846079682218E-01 a       238     0    12     1    18
 -2.5018659352427991E-01 a       239     0    12     1    19
  3.3087882772570104E-01 a       240     0    12     1    20
 -6.3312045083965240E-01 a       241     0    13     1     1
  4.7701044228980027E-01 a       242     0    13     1     2
  1.8442809597951934E-01 a       243     0    13     1     3
  2.7590063235667622E-01 a       244     0    13     1     4
  6.7651417014413018E-01 a       245     0    13     1     5
  5.4426970410357445E-01 a       246     0    13     1     6
 -5.0807916893755511E-01 a       247     0    13     1     7
  4.3893367828679292E-01 a       248     0    13     1     8
 -3.3669920061621300E-01 a       249     0    13     1     9
  7.8887544518298297E-02 a       250     0    13     1    10
 -2.9203530373218894E-01 a       251     0    13     1    11
 -6.1100384266386853E-01 a       252     0    13     1    12
 -3.3094038906972773E-01 a       253     0    13     1    13
  5.7572395289629141E-01 a       254     0    13     1    14
 -4.0366539335859464E-01 a       255     0    13     1    15
  4.0075456651291752E-01 a       256     0    13     1    16
  2.0076009579939519E-01 a       257     0    13     1    17
 -5.1787620794892464E-01 a       258     0    13     1    18
  1.7404147709599679E-01 a       259     0    13     1    19
  1.9883737500413900E-02 a       260     0    13     1    20
  3.2896451505866363E-02 a       261     0    14     1     1
  2.4016630881775697E-01 a       262     0    14     1     2
 -3.1083452042355464E-01 a       263     0    14     1     3
 -2.9706929655061576E-01 a       264     0    14     1     4
  7.7626817068273846E-01 a       265     0    14     1     5
 -4.9982849040629374E-01 a       266     0    14     1     6
 -1.9646683234998497E-01 a       267     0    14     1     7
  1.0425125984559404E-01 a       268     0    14     1     8
  5.7495319936409772E-01 a       269     0    14     1     9
 -3.7060145816250656E-01 a       270     0    14     1    10
  3.4192643522441457E-01 a       271     0    14     1    11
 -4.5969420424524099E-01 a       272     0    14     1    12
 -2.9461034403149428E-01 a       273     0    14     1    13
  5.3619940061974591E-01 a       274     0    14     1    14
  3.0290302744303976E-01 a       275     0    14     1    15
 -5.4859261173822019E-02 a       276     0    14     1    16
 -6.2300150308488400E-01 a       277     0    14     1    17
 -2.6544921710614128E-01 a       278     0    14     1    18
  4.8589047301563704E-01 a       279     0    14     1    19
 -3.5971846772863658E-01 a       280     0    14     1    20
  4.8658025559546680E-01 b       281     1     1
  1.9872416969716006E-02 b       282     1     2
  1.0849878973496181E+00 b       283     1     3
 -5.5047147120090512E-01 b       284     1     4
 -6.7507255789071186E-01 b       285     1     5
 -1.8206427681866872E+00 b       286     1     6
 -3.2778428093214218E-01 b       287     1     7
 -1.1209226986276914E+00 b       288     1     8
 -1.1257585551250910E+00 b       289     1     9
 -4.3009871894919732E-01 b       290     1    10
  1.5440794193280822E+00 b       291     1    11
  6.2997334460767451E-01 b       292     1    12
  6.1505592731338810E-01 b       293     1    13
  1.5658338014371376E+00 b       294     1    14
  1.4119871016630354E+00 b       295     1    15
  9.9143956006604839E-01 b       296     1    16
 -1.7185397264945221E-01 b       297     1    17
  1.5319416914242410E+00 b       298     1    18
  3.8574338458864649E-01 b       299     1    19
  1.2075233141010890E+00 b       300     1    20
  1.1405299764826533E-01 a       301     1     1     2     1
  3.5346060814100722E-01 a       302     1     1     2     2
  3.6764390505127142E-01 a       303     1     1     2     3
  4.6547510511470569E-01 a       304     1     1     2     4
  2.9154332832781149E-01 a       305     1     1     2     5
 -4.0348872639493910E-01 a       306     1     1     2     6
 -3.0289082710736914E-01 a       307     1     1     2     7
 -1.1106534252621675E-01 a       308     1     1     2     8
  1.1740980072106105E-01 a       309     1     1     2     9
 -1.1198766574082741E-01 a       310     1     1     2    10
 -7.9434190917481648E-02 a       311     1     1     2    11
 -2.5451401030323972E-01 a       312     1     1     2    12
 -4.2843504075705191E-01 a       313     1     1     2    13
 -3.7566304071984236E-01 a       314     1     1     2    14
 -7.0236510085408252E-02 a       315     1     1     2    15
  5.5908249538347032E-01 a       316     1     1     2    16
 -2.0986108468919082E-01 a       317     1     1     2    17
  3.4807792457890407E-01 a       318     1     1     2    18
 -3.5423029265480127E-01 a       319     1     1     2    19
  1.4946236178625621E-01 a       320     1     1     2    20
  2.6720820285782754E-01 a       321     1     2     2     1
 -2.0992768513882321E-01 a       322     1     2     2     2
 -6.5501708747781529E-01 a       323     1     2     2     3
  1.8517061795139664E-01 a       324     1     2     2     4
 -4.6724880410252917E-01 a       325     1     2     2     5
 -5.6918689498382602E-01 a       326     1     2     2     6
  2.5418905089811039E-01 a       327     1     2     2     7
 -9.3268588591572013E-02 a       328     1     2     2     8
 -4.3886079162647540E-01 a       329     1     2     2     9
 -7.6275340894535260E-01 a       330     1     2     2    10
  3.6240311542294812E-01 a       331     1     2     2    11
  5.1832572557133960E-01 a       332     1     2     2    12
  8.4171096644332768E-02 a       333     1     2     2    13
  1.4328117047023387E-01 a       334     1     2     2    14
  2.1099993443812770E-01 a       335     1     2     2    15
  1.8931287425783974E-01 a       336     1     2     2    16
 -1.7851646287510639E-01 a       337     1     2     2    17
  2.0152677767688104E-01 a       338     1     2     2    18
 -1.5082860864329070E-01 a       339     1     2     2    19
  1.0781352807036805E-01 a       340     1     2     2    20
 -2.7999433482725999E-01 a       341     1     3     2     1
 -3.0850330819285765E-01 a       342     1     3     2     2
  5.0269965609774703E-01 a       343     1     3     2     3
 -4.4709711286620629E-01 a       344     1     3     2     4
 -7.3579377080949726E-01 a       345     1     3     2     5
 -2.7669517535079485E-01 a       346     1     3     2     6
 -4.6888672085939953E-01 a       347     1     3     2     7
 -3.9992542692982203E-01 a       348     1     3     2     8
  5.2801239203913763E-01 a       349     1     3     2     9
 -1.6325794206676070E-01 a       350     1     3     2    10
 -8.0240998773802247E-04 a       351     1     3     2    11
  2.4400860282517067E-01 a       352     1     3     2    12
 -3.0563670999638753E-01 a       353     1     3     2    13
  2.6614524995503295E-02 a       354     1     3     2    14
 -4.9251030065448786E-02 a       355     1     3     2    15
  2.9201973032953665E-01 a       356     1     3     2    16
  6.3229728812270545E-03 a       357     1     3     2    17
 -5.2389089749158635E-01 a       358     1     3     2    18
  2.4179197239001152E-01 a       359     1     3     2    19
  2.5811509395890814E-01 a       360     1     3     2    20
  3.8642796572944349E-01 a       361     1     4     2     1
 -4.6934523320063221E-01 a       362     1     4     2     2
  4.3573897700889641E-01 a       363     1     4     2     3
 -5.0654496114485759E-01 a       364     1     4     2     4
  3.7407732649084226E-03 a       365     1     4     2     5
  1.3850341025464372E-01 a       366     1     4     2     6
  3.3636370129921900E-01 a       367     1     4     2     7
  3.0878228196454649E-01 a       368     1     4     2     8
 -1.2608501240972084E-01 a       369     1     4     2     9
  1.0164736022461329E-01 a       370     1     4     2    10
  2.1217675654518708E-01 a       371     1     4     2    11
  4.5053168214116718E-01 a       372     1     4     2    12
  1.3894191749875695E-01 a       373     1     4     2    13
  1.5185921599447072E-01 a       374     1     4     2    14
 -4.0385759474858490E-01 a       375     1     4     2    15
  1.5132929371256656E-01 a       376     1     4     2    16
 -2.2711325245485275E-01 a       377     1     4     2    17
  1.8513964829379825E-01 a       378     1     4     2    18
  6.4918871258102340E-01 a       379     1     4     2    19
  2.8689712021960700E-01 a       380     1     4     2    20
 -3.5781194568639230E-01 a       381     1     5     2     1
  4.3721817896276033E-01 a       382     1     5     2     2
 -3.5739595289886145E-01 a       383     1     5     2     3
  3.6731197736522453E-01 a       384     1     5     2     4
 -1.9364199587769193E-01 a       385     1     5     2     5
 -3.6967773731283189E-02 a       386     1     5     2     6
  4.7405322681624668E-01 a       387     1     5     2     7
  1.3600074890699371E-01 a       388     1     5     2     8
  7.6852717657311873E-02 a       389     1     5     2     9
 -1.2475234353489632E-01 a       390     1     5     2    10
  2.5771881758617821E-01 a       391     1     5     2    11
  3.1828951936389888E-01 a       392     1     5     2    12
  1.6239080294429067E-01 a       393     1     5     2    13
  2.2293308333951653E-01 a       394     1     5     2    14
 -1.1232126242796101E-01 a       395     1     5     2    15
  3.4165259174965812E-01 a       396     1     5     2    16
 -3.0065430495963685E-01 a       397     1     5     2    17
  3.0342105881175319E-01 a       398     1     5     2    18
 -6.1868118379527126E-01 a       399     1     5     2    19
 -5.1524120717623723E-01 a       400     1     5     2    20
  6.7028715317403079E-02 a       401     1     6     2     1
 -2.2202762403221422E-02 a       402     1     6     2     2
 -4.5105004324507536E-01 a       403     1     6     2     3
 -6.6731189971253949E-02 a       404     1     6     2     4
  3.9314614640131718E-01 a       405     1     6     2     5
 -4.0959383373546504E-01 a       406     1     6     2     6
  4.3990820592727214E-01 a       407     1     6     2     7
  6.2608364070366762E-01 a       408     1     6     2     8
  3.8779556435167789E-01 a       409     1     6     2     9
  5.1238860323821056E-01 a       410     1     6     2    10
 -4.7455394988339183E-01 a       411     1     6     2    11
 -3.8715834639983482E-01 a       412     1     6     2    12
 -1.8955672884923677E-01 a       413     1     6     2    13
 -3.1561302799011937E-01 a       414     1     6     2    14
 -1.4747112602425644E-01 a       415     1     6     2    15
 -3.2808390460174877E-02 a       416     1     6     2    16
  5.9501075019265792E-01 a       417     1     6     2    17
  4.7982070331441157E-01 a       418     1     6     2    18
 -4.5687636648953761E-01 a       419     1     6     2    19
  5.7814496930500767E-02 a       420     1     6     2    20
 -4.4916340684264677E-01 a       421     1     7     2     1
 -3.2436378707079611E-01 a       422     1     7     2     2
  5.3289313496139445E-01 a       423     1     7     2     3
  4.6319128696761980E-01 a       424     1     7     2     4
  2.0837523420027351E-01 a       425     1     7     2     5
 -5.0004375309015703E-01 a       426     1     7     2     6
  1.3162287890423230E-01 a       427     1     7     2     7
  7.0855688102137127E-01 a       428     1     7     2     8
 -3.6805606399815960E-01 a       429     1     7     2     9
 -1.7180016387478933E-01 a       430     1     7     2    10
  3.3121871401837463E-02 a       431     1     7     2    11
 -9.6047249639641452E-02 a       432     1     7     2    12
 -1.3260721771260106E-01 a       433     1     7     2    13
 -6.6548977247322072E-01 a       434     1     7     2    14
 -3.7422913448088252E-01 a       435     1     7     2    15
 -5.8637327347987100E-01 a       436     1     7     2    16
  5.1752998032735011E-02 a       437     1     7     2    17
 -6.9253209539308103E-01 a       438     1     7     2    18
 -3.8335264989224627E-01 a       439     1     7     2    19
  3.9473174786676374E-01 a       440     1     7     2    20
  3.3579763278721963E-03 a       441     1     8     2     1
 -3.0090834045092740E-01 a       442     1     8     2     2
 -1.1567811711649412E-01 a       443     1     8     2     3
  1.7694436391182869E-01 a       444     1     8     2     4
 -6.6286511268923576E-01 a       445     1     8     2     5
 -1.0551785085822746E-01 a       446     1     8     2     6
 -4.0266697124079703E-01 a       447     1     8     2     7
  5.5894263537651390E-01 a       448     1     8     2     8
  5.4992468515857373E-02 a       449     1     8     2     9
  4.2431803475591129E-01 a       450     1     8     2    10
  4.6620161887166689E-01 a       451     1     8     2    11
 -1.9777402703831318E-01 a       452     1     8     2    12
  2.6320211994815712E-01 a       453     1     8     2    13
  2.7179442756330974E-01 a       454     1     8     2    14
 -5.1885515123039398E-02 a       455     1     8     2    15
 -7.9685698948123371E-02 a       456     1     8     2    16
  2.5936860806278739E-01 a       457     1     8     2    17
 -3.7624862579152168E-01 a       458     1     8     2    18
  1.4034057010528403E-01 a       459     1     8     2    19
 -3.0992997234981806E-01 a       460     1     8     2    20
 -4.6464157132075012E-01 a       461     1     9     2     1
 -5.0756328071710100E-01 a       462     1     9     2     2
 -1.6429550916452029E-01 a       463     1     9     2     3
  4.1140774634874105E-01 a       464     1     9     2     4
  2.8992453406159624E-01 a       465     1     9     2     5
  3.2790864585523832E-01 a       466     1     9     2     6
  3.9393151696996576E-01 a       467     1     9     2     7
  2.5131563622136688E-01 a       468     1     9     2     8
  3.1969888090571541E-01 a       469     1     9     2     9
  6.6660439656024617E-01 a       470     1     9     2    10
 -4.2282622427736671E-01 a       471     1     9     2    11
 -2.4525106026624838E-01 a       472     1     9     2    12
  6.8380681993730796E-01 a       473     1     9     2    13
  3.8711991957142489E-01 a       474     1     9     2    14
 -7.0391448210216556E-01 a       475     1     9     2    15
  2.2330735635373061E-01 a       476     1     9     2    16
  1.3684712619081846E-01 a       477     1     9     2    17
 -3.4149684342418407E-01 a       478     1     9     2    18
 -3.3433523735857873E-01 a       479     1     9     2    19
 -9.0642108748747993E-02 a       480     1     9     2    20
  4.3838835820320304E-01 a       481     1    10     2     1
  2.7636456053081371E-01 a       482     1    10     2     2
 -5.8842632615360602E-01 a       483     1    10     2     3
  3.4114701749957604E-01 a       484     1    10     2     4
 -1.1991772424441469E-01 a       485     1    10     2     5
  7.9348287875866313E-02 a       486     1    10     2     6
  3.9670396066419822E-01 a       487     1    10     2     7
 -5.5130328070706613E-01 a       488     1    10     2     8
 -9.0764256954723038E-02 a       489     1    10     2     9
 -1.4524863334588947E-01 a       490     1    10     2    10
 -1.4198641940537929E-01 a       491     1    10     2    11
 -4.8099312348504002E-02 a       492     1    10     2    12
 -5.0086531647714642E-02 a       493     1    10     2    13
 -5.0505741434082929E-01 a       494     1    10     2    14
  1.4890330390216722E-01 a       495     1    10     2    15
  2.2327077146381533E-02 a       496     1    10     2    16
  3.5231195870859755E-01 a       497     1    10     2    17
  5.2473092542477706E-01 a       498     1    10     2    18
 -5.4346390289838298E-01 a       499     1    10     2    19
  1.5272161792731270E-01 a       500     1    10     2    20
  5.0160211269370425E-01 a       501     1    11     2     1
  3.6321539983400225E-01 a       502     1    11     2     2
 -3.3907803668181408E-01 a       503     1    11     2     3
  5.3649203592989425E-01 a       504     1    11     2     4
  5.0381695866084319E-02 a       505     1    11     2     5
 -4.5093925980294147E-01 a       506     1    11     2     6
 -1.1019285848461256E-01 a       507     1    11     2     7
  6.1987641430270868E-01 a       508     1    11     2     8
 -3.2572423513720261E-01 a       509     1    11     2     9
  5.8961003324151973E-01 a       510     1    11     2    10
  3.4756582034153549E-01 a       511     1    11     2    11
 -6.8077127861872511E-01 a       512     1    11     2    12
 -4.5524406674150164E-01 a       513     1    11     2    13
  4.2676989931077547E-01 a       514     1    11     2    14
  2.0548157046014306E-01 a       515     1    11     2    15
  2.8689090235682096E-01 a       516     1    11     2    16
 -2.3064622833712220E-01 a       517     1    11     2    17
  1.7240893717210687E-01 a       518     1    11     2    18
  6.6418697213052935E-01 a       519     1    11     2    19
  6.5280115152191298E-01 a       520     1    11     2    20
 -1.5915468359975912E-01 a       521     1    12     2     1
  3.6762311864917718E-01 a       522     1    12     2     2
  1.5237911722511183E-01 a       523     1    12     2     3
  3.2842020857290621E-01 a       524     1    12     2     4
  6.7934707475073838E-02 a       525     1    12     2     5
 -4.0659997648019236E-01 a       526     1    12     2     6
  6.5810258146849265E-01 a       527     1    12     2     7
  3.7766303973260856E-01 a       528     1    12     2     8
  2.1787499793378188E-02 a       529     1    12     2     9
  1.6379184390978058E-01 a       530     1    12     2    10
 -1.6612879467217556E-01 a       531     1    12     2    11
  5.8127221536221851E-01 a       532     1    12     2    12
 -6.0195475768564322E-01 a       533     1    12     2    13
 -5.3354405415236240E-03 a       534     1    12     2    14
 -5.6511502175786721E-01 a       535     1    12     2    15
  2.7767964567973585E-01 a       536     1    12     2    16
 -6.4597205565221016E-01 a       537     1    12     2    17
  3.3133135645656281E-01 a       538     1    12     2    18
 -1.3520965524122527E-01 a       539     1    12     2    19
  4.5943684534144136E-01 a       540     1    12     2    20
 -3.5882204696089770E-01 a       541     1    13     2     1
  5.3734088292342407E-02 a       542     1    13     2     2
 -2.7707216883471558E-01 a       543     1    13     2     3
  2.3446997181170756E-01 a       544     1    13     2     4
  3.7449112448118349E-01 a       545     1    13     2     5
 -3.8096388696831396E-01 a       546     1    13     2     6
  8.3675569605531616E-02 a       547     1    13     2     7
 -4.7067590373828555E-01 a       548     1    13     2     8
 -1.1317380924606940E-01 a       549     1    13     2     9
  2.9025502956720201E-01 a       550     1    13     2    10
 -1.0565653996332394E-01 a       551     1    13     2    11
  1.9040287083340331E-02 a       552     1    13     2    12
 -3.4635548937558963E-02 a       553     1    13     2    13
 -3.3810158058268386E-01 a       554     1    13     2    14
  6.3405683163086468E-01 a       555     1    13     2    15
  1.5571139186490138E-01 a       556     1    13     2    16
 -1.6334978499261973E-01 a       557     1    13     2    17
  1.3913663748636146E-01 a       558     1    13     2    18
  2.1244651161978803E-01 a       559     1    13     2    19
  5.8245634107142263E-01 a       560     1    13     2    20
 -5.2494009460906188E-01 a       561     1    14     2     1
  4.3921516528929344E-01 a       562     1    14     2     2
  3.3281352916480877E-02 a       563     1    14     2     3
  1.3380932053628519E-01 a       564     1    14     2     4
  4.3287560991452056E-01 a       565     1    14     2     5
 -2.3481680526744853E-01 a       566     1    14     2     6
 -4.8595005536162578E-01 a       567     1    14     2     7
 -1.6250532973396983E-01 a       568     1    14     2     8
 -1.0692032322145814E-01 a       569     1    14     2     9
  4.7630741549155847E-01 a       570     1    14     2    10
  4.0645465266183406E-01 a       571     1    14     2    11
 -2.0731142870136846E-01 a       572     1    14     2    12
  2.6286951253178636E-01 a       573     1    14     2    13
 -6.7264218600578962E-01 a       574     1    14     2    14
  5.2411973157862590E-01 a       575     1    14     2    15
 -5.2845506451823243E-01 a       576     1    14     2    16
  1.7532776132031636E-01 a       577     1    14     2    17
  5.6921687086889727E-01 a       578     1    14     2    18
  6.6167573961953760E-02 a       579     1    14     2    19
 -2.4261416949493356E-01 a       580     1    14     2    20
 -3.3708307738870252E-01 a       581     1    15     2     1
  1.2825491683097678E-01 a       582     1    15     2     2
  2.8455993528274376E-01 a       583     1    15     2     3
  7.9582512878040551E-02 a       584     1    15     2     4
 -3.7257754501753032E-01 a       585     1    15     2     5
 -4.4048037568484127E-01 a       586     1    15     2     6
 -9.5159616824940077E-02 a       587     1    15     2     7
  2.3342788273997261E-01 a       588     1    15     2     8
  9.8318714125320936E-02 a       589     1    15     2     9
 -4.4712611445459088E-01 a       590     1    15     2    10
  2.7358837421076326E-01 a       591     1    15     2    11
  5.9572670377314241E-01 a       592     1    15     2    12
  4.9539186347455091E-02 a       593     1    15     2    13
  5.6932263413782402E-01 a       594     1    15     2    14
 -2.6604397462583368E-01 a       595     1    15     2    15
  5.0479104884724646E-01 a       596     1    15     2    16
 -1.0754040575854737E-01 a       597     1    15     2    17
 -3.6975561216907266E-01 a       598     1    15     2    18
 -7.4128757704417601E-03 a       599     1    15     2    19
  5.7180906940425980E-01 a       600     1    15     2    20
  1.1097684021013132E-01 a       601     1    16     2     1
 -2.9139055116783247E-02 a       602     1    16     2     2
 -3.6224930545448014E-01 a       603     1    16     2     3
  4.6533658358905333E-01 a       604     1    16     2     4
 -1.4690452573309951E-01 a       605     1    16     2     5
  4.1366496825440124E-01 a       606     1    16     2     6
 -5.2616583623386144E-04 a       607     1    16     2     7
 -3.6776392078639070E-01 a       608     1    16     2     8
  3.8375904017866952E-01 a       609     1    16     2     9
 -3.5837234392783746E-01 a       610     1    16     2    10
  1.5742274819641941E-01 a       611     1    16     2    11
 -2.1429103725761589E-01 a       612     1    16     2    12
  4.8735321014715022E-01 a       613     1    16     2    13
  2.3427819005952671E-01 a       614     1    16     2    14
  3.9831284330694600E-01 a       615     1    16     2    15
 -4.7053643017517910E-01 a       616     1    16     2    16
 -2.4650036820588789E-01 a       617     1    16     2    17
  5.4775927745712982E-01 a       618     1    16     2    18
  2.8713249728957502E-01 a       619     1    16     2    19
 -2.7356347597085684E-01 a       620     1    16     2    20
 -3.6139384288456577E-01 a       621     1    17     2     1
 -2.0255113511614568E-02 a       622     1    17     2     2
  1.6765985916641432E-01 a       623     1    17     2     3
  2.3433395270022539E-01 a       624     1    17     2     4
  1.5480224521360239E-01 a       625     1    17     2     5
  5.2802565705393656E-01 a       626     1    17     2     6
 -1.9622301405184248E-01 a       627     1    17     2     7
 -2.2958253584790914E-01 a       628     1    17     2     8
 -5.0686203579136746E-01 a       629     1    17     2     9
 -4.3975345697979246E-01 a       630     1    17     2    10
  3.5542815401192979E-01 a       631     1    17     2    11
 -8.7674586241903232E-02 a       632     1    17     2    12
  2.5353027430470682E-01 a       633     1    17     2    13
  3.2347043613764687E-01 a       634     1    17     2    14
  3.8025711015119168E-01 a       635     1    17     2    15
  3.0510643247673036E-01 a       636     1    17     2    16
  3.0586724640580792E-01 a       637     1    17     2    17
 -4.4987582465116742E-03 a       638     1    17     2    18
  1.2261701695058468E-01 a       639     1    17     2    19
  1.3313780749225113E-01 a       640     1    17     2    20
  4.3131037314763682E-01 a       641     1    18     2     1
  3.9058225512030154E-01 a       642     1    18     2     2
  1.8987574760052328E-01 a       643     1    18     2     3
  6.0940712773761874E-01 a       644     1    18     2     4
 -2.2919359855473620E-01 a       645     1    18     2     5
  1.7053267637120899E-03 a       646     1    18     2     6
 -4.6579586268987694E-01 a       647     1    18     2     7
 -3.0713071907953321E-01 a       648     1    18     2     8
 -2.6850908793593858E-01 a       649     1    18     2     9
 -1.0981374688822711E-01 a       650     1    18     2    10
 -4.3611019053607364E-01 a       651     1    18     2    11
 -5.8056860062580873E-01 a       652     1    18     2    12
 -2.3267814707375886E-01 a       653     1    18     2    13
 -3.5930224627097335E-01 a       654     1    18     2    14
  1.5216751288069877E-01 a       655     1    18     2    15
  3.6462199074988488E-01 a       656     1    18     2    16
  1.2851986807405524E-01 a       657     1    18     2    17
 -2.3759760010237627E-01 a       658     1    18     2    18
 -2.7440667578002975E-01 a       659     1    18     2    19
 -5.2587898605785843E-01 a       660     1    18     2    20
  3.5207023198721882E-01 a       661     1    19     2     1
  3.5968567263608037E-01 a       662     1    19     2     2
 -5.9848378798134272E-01 a       663     1    19     2     3
  1.2507181149797403E-01 a       664     1    19     2     4
  1.0739250921325921E-01 a       665     1    19     2     5
  2.0846073730914277E-01 a       666     1    19     2     6
 -4.5732727608487772E-01 a       667     1    19     2     7
 -6.8402771689545760E-01 a       668     1    19     2     8
 -3.5776848985217385E-01 a       669     1    19     2     9
  5.0868902459183762E-01 a       670     1    19     2    10
  2.0871429376230546E-01 a       671     1    19     2    11
 -3.4855920621912440E-01 a       672     1    19     2    12
  4.4138972865856635E-01 a       673     1    19     2    13
  1.4873027259992247E-01 a       674     1    19     2    14
  7.7900403149632635E-01 a       675     1    19     2    15
  3.0806682761903476E-01 a       676     1    19     2    16
  4.2833689603939296E-01 a       677     1    19     2    17
  5.5314911724807139E-02 a       678     1    19     2    18
  3.8177018352727643E-01 a       679     1    19     2    19
 -4.3332762955060028E-01 a       680     1    19     2    20
  4.3093581278981835E-01 a       681     1    20     2     1
  3.9043165357231563E-01 a       682     1    20     2     2
 -4.5203724912466592E-01 a       683     1    20     2     3
  2.0970593986382891E-01 a       684     1    20     2     4
 -2.0413931566353946E-01 a       685     1    20     2     5
 -2.5378281082581228E-01 a       686     1    20     2     6
  4.7955678393062910E-02 a       687     1    20     2     7
 -1.9377155231906838E-02 a       688     1    20     2     8
  5.3624157483666024E-01 a       689     1    20     2     9
 -2.7843747885189024E-01 a       690     1    20     2    10
  3.0292350497366383E-01 a       691     1    20     2    11
  2.4640014699489671E-01 a       692     1    20     2    12
 -2.3016832105029547E-01 a       693     1    20     2    13
  1.9953414580698225E-01 a       694     1    20     2    14
  7.7036363762427798E-02 a       695     1    20     2    15
  3.0944485543718314E-01 a       696     1    20     2    16
 -1.3868429248231637E-01 a       697     1    20     2    17
  1.3185665850621445E-01 a       698     1    20     2    18
 -3.3527820489764554E-01 a       699     1    20     2    19
  2.7454555027351962E-01 a       700     1    20     2    20
  1.6691798125722530E+00 b       701     2     1
 -6.9028560707866826E-01 b       702     2     2
 -1.0372434259628547E+00 b       703     2     3
  3.7842118477533837E-01 b       704     2     4
  9.8682278939816193E-01 b       705     2     5
 -2.4849867565135328E-01 b       706     2     6
 -1.0036183885630861E+00 b       707     2     7
  1.1683055892894451E-01 b       708     2     8
  1.1728191174310580E+00 b       709     2     9
 -3.9603954431006438E-01 b       710     2    10
 -1.2374170506228144E+00 b       711     2    11
  6.1860481781968379E-01 b       712     2    12
  1.4929587969661362E+00 b       713     2    13
 -1.4067825111938934E+00 b       714     2    14
 -1.2949039864406424E+00 b       715     2    15
  4.6781872845326505E-01 b       716     2    16
  1.3873324584733573E+00 b       717     2    17
  9.2578323122154371E-01 b       718     2    18
  1.4533675803466424E+00 b       719     2    19
 -1.1424206087560258E+00 b       720     2    20
 -5.1019926350270428E-01 a       721     2     1     3     1
 -1.3179564374872585E+00 a       722     2     2     3     1
 -1.2546622030428883E-01 a       723     2     3     3     1
  8.2702187073503808E-01 a       724     2     4     3     1
  5.6601869790316295E-01 a       725     2     5     3     1
  7.1647323775457544E-02 a       726     2     6     3     1
 -3.1600442417721925E-01 a       727     2     7     3     1
  5.7838614778680619E-01 a       728     2     8     3     1
  8.5414911700652663E-01 a       729     2     9     3     1
  1.1813471052600197E-01 a       730     2    10     3     1
  5.8229173709293991E-01 a       731     2    11     3     1
  3.8379598431634981E-01 a       732     2    12     3     1
 -4.2133010592844172E-01 a       733     2    13     3     1
 -7.1557304123421400E-02 a       734     2    14     3     1
  9.4679486095137821E-02 a       735     2    15     3     1
 -1.0076730428747418E+00 a       736     2    16     3     1
  3.5572180194347242E-01 a       737     2    17     3     1
 -9.2288833832866468E-01 a       738     2    18     3     1
  6.7784145459807366E-01 a       739     2    19     3     1
 -2.3452082756954770E-01 a       740     2    20     3     1
  4.8756526139181855E-01 b       741     3     1
